%YAML:1.0
my_svm: !!opencv-ml-svm
   svm_type: C_SVC
   kernel: { type:RBF, gamma:1. }
   C: 1.
   term_criteria: { epsilon:1.1920928955078125e-007, iterations:10000 }
   var_all: 100
   var_count: 100
   class_count: 2
   class_labels: !!opencv-matrix
      rows: 1
      cols: 2
      dt: i
      data: [ 0, 1 ]
   sv_total: 369
   support_vectors:
      - [ 1.07393637e-002, 1.90004129e-002, 9.50020645e-003,
          5.78273414e-003, 7.43494416e-003, 1.61090456e-002,
          7.84799643e-003, 2.23048329e-002, 7.02189142e-003,
          9.08715371e-003, 6.19578687e-003, 2.14787275e-002,
          1.32176783e-002, 1.11524165e-002, 1.03263110e-002,
          1.15654683e-002, 6.60883915e-003, 1.11524165e-002,
          1.65220979e-003, 1.19785210e-002, 3.30441957e-003,
          1.77612547e-002, 1.03263110e-002, 1.28046256e-002,
          1.56959929e-002, 2.02395692e-002, 7.43494416e-003,
          1.07393637e-002, 3.71747208e-003, 6.60883915e-003,
          1.81743074e-002, 6.60883915e-003, 8.67410097e-003,
          6.60883915e-003, 3.71747208e-003, 5.78273414e-003,
          1.11524165e-002, 1.44568356e-002, 1.19785210e-002,
          9.08715371e-003, 7.84799643e-003, 5.78273414e-003,
          1.03263110e-002, 7.02189142e-003, 2.06526220e-002,
          1.11524165e-002, 1.36307310e-002, 1.32176783e-002,
          1.65220983e-002, 7.02189142e-003, 2.14787275e-002,
          3.71747208e-003, 8.67410097e-003, 8.67410097e-003,
          7.43494416e-003, 4.54357686e-003, 1.56959929e-002,
          1.32176783e-002, 1.19785210e-002, 4.95662913e-003,
          6.60883915e-003, 2.47831475e-002, 5.36968186e-003,
          5.36968186e-003, 9.50020645e-003, 6.19578687e-003,
          2.89136707e-003, 5.78273414e-003, 1.69351511e-002,
          7.43494416e-003, 4.54357686e-003, 9.50020645e-003,
          9.91325825e-003, 5.36968186e-003, 6.19578687e-003,
          5.78273414e-003, 5.78273414e-003, 6.60883915e-003,
          1.11524165e-002, 1.11524165e-002, 1.19785210e-002,
          7.84799643e-003, 1.40437828e-002, 8.26104917e-003,
          8.26104917e-003, 3.30441957e-003, 7.43494416e-003,
          5.78273414e-003, 1.48698883e-002, 7.02189142e-003,
          1.73482019e-002, 1.11524165e-002, 7.84799643e-003,
          1.77612547e-002, 5.78273414e-003, 1.40437828e-002,
          6.19578687e-003, 1.40437828e-002, 4.13052458e-003,
          7.43494416e-003 ]
      - [ 1.52439019e-002, 1.52439019e-002, 7.11382087e-003,
          7.11382087e-003, 9.14634112e-003, 1.11788614e-002,
          1.11788614e-002, 7.11382087e-003, 7.11382087e-003,
          6.09756075e-003, 9.14634112e-003, 1.01626012e-002,
          1.01626012e-002, 7.11382087e-003, 1.11788614e-002,
          1.11788614e-002, 3.04878037e-002, 9.14634112e-003,
          8.13008100e-003, 1.32113816e-002, 3.04878037e-003,
          3.04878037e-003, 1.01626012e-002, 4.06504050e-003,
          6.09756075e-003, 8.13008100e-003, 1.32113816e-002,
          1.32113816e-002, 7.11382087e-003, 1.52439019e-002,
          1.32113816e-002, 1.11788614e-002, 1.72764212e-002,
          9.14634112e-003, 6.09756075e-003, 8.13008100e-003,
          6.09756075e-003, 1.93089433e-002, 1.01626012e-002,
          1.72764212e-002, 1.01626012e-002, 4.06504050e-003,
          3.04878037e-003, 1.93089433e-002, 3.04878037e-003,
          4.06504050e-003, 3.15040648e-002, 1.11788614e-002,
          8.13008100e-003, 1.42276417e-002, 1.01626012e-002,
          1.21951215e-002, 1.42276417e-002, 8.13008100e-003,
          4.06504050e-003, 1.42276417e-002, 4.06504050e-003,
          2.03252025e-003, 8.13008100e-003, 7.11382087e-003,
          1.62601620e-002, 7.11382087e-003, 7.11382087e-003,
          3.04878037e-003, 1.32113816e-002, 5.08130062e-003,
          1.01626012e-002, 7.11382087e-003, 6.09756075e-003,
          1.52439019e-002, 6.09756075e-003, 8.13008100e-003,
          2.03252025e-002, 1.52439019e-002, 6.09756075e-003,
          1.01626012e-002, 5.08130062e-003, 9.14634112e-003,
          1.21951215e-002, 6.09756075e-003, 7.11382087e-003,
          1.21951215e-002, 4.06504050e-003, 1.72764212e-002,
          1.72764212e-002, 9.14634112e-003, 1.01626012e-002,
          6.09756075e-003, 1.11788614e-002, 4.06504050e-003,
          9.14634112e-003, 8.13008100e-003, 1.01626012e-002,
          8.13008100e-003, 1.72764212e-002, 1.32113816e-002,
          8.13008100e-003, 1.32113816e-002, 5.08130062e-003,
          9.14634112e-003 ]
      - [ 1.25733446e-002, 1.17351217e-002, 1.42497905e-002,
          2.51466897e-003, 5.02933795e-003, 2.17937976e-002,
          2.26320196e-002, 8.38223007e-003, 1.17351217e-002,
          1.17351217e-002, 9.22045298e-003, 5.02933795e-003,
          6.70578377e-003, 7.54400669e-003, 1.34115675e-002,
          1.59262363e-002, 3.43671404e-002, 6.70578377e-003,
          9.22045298e-003, 6.70578377e-003, 1.17351217e-002,
          7.54400669e-003, 8.38223007e-003, 8.38223007e-003,
          1.17351217e-002, 1.00586759e-002, 5.02933795e-003,
          1.00586759e-002, 8.38223007e-003, 1.08968988e-002,
          1.42497905e-002, 1.34115675e-002, 1.42497905e-002,
          1.25733446e-002, 2.51466897e-003, 1.34115675e-002,
          7.54400669e-003, 1.76026821e-002, 1.00586759e-002,
          1.50880134e-002, 5.02933795e-003, 5.86756086e-003,
          5.02933795e-003, 1.50880134e-002, 1.84409060e-002,
          9.22045298e-003, 2.09555738e-002, 3.35289189e-003,
          1.17351217e-002, 3.35289189e-003, 1.92791279e-002,
          5.86756086e-003, 1.67644601e-002, 6.70578377e-003,
          5.02933795e-003, 8.38223007e-003, 1.59262363e-002,
          1.08968988e-002, 8.38223007e-003, 1.08968988e-002,
          5.02933795e-003, 6.70578377e-003, 4.19111503e-003,
          7.54400669e-003, 3.35289189e-003, 3.35289189e-003,
          5.02933795e-003, 5.02933795e-003, 2.09555738e-002,
          6.70578377e-003, 4.19111503e-003, 5.86756086e-003,
          1.00586759e-002, 4.19111503e-003, 1.50880134e-002,
          8.38223007e-003, 1.25733446e-002, 4.19111503e-003,
          1.34115675e-002, 5.86756086e-003, 1.00586759e-002,
          4.19111503e-003, 9.22045298e-003, 2.09555738e-002,
          1.92791279e-002, 1.17351217e-002, 9.22045298e-003,
          5.86756086e-003, 8.38223007e-003, 7.54400669e-003,
          5.02933795e-003, 1.59262363e-002, 1.00586759e-002,
          6.70578377e-003, 7.54400669e-003, 1.00586759e-002,
          1.25733446e-002, 4.19111503e-003, 1.67644594e-003,
          1.17351217e-002 ]
      - [ 1.09409187e-002, 1.31291030e-002, 2.62582060e-002,
          6.56455150e-003, 6.56455150e-003, 6.56455150e-003,
          1.33479208e-001, 4.37636767e-003, 1.31291030e-002,
          8.75273533e-003, 0., 4.37636767e-003, 6.56455150e-003, 0.,
          6.56455150e-003, 1.31291030e-002, 5.90809621e-002, 0.,
          2.18818383e-003, 0., 8.75273533e-003, 8.75273533e-003,
          2.18818383e-003, 8.75273533e-003, 2.18818383e-003,
          2.18818383e-003, 2.18818383e-003, 0., 0., 1.09409187e-002,
          6.56455150e-003, 3.50109413e-002, 1.31291030e-002,
          6.56455150e-003, 8.75273533e-003, 1.09409187e-002,
          2.18818383e-003, 2.62582060e-002, 1.75054707e-002,
          1.31291030e-002, 0., 2.18818383e-003, 1.09409187e-002,
          4.37636767e-003, 6.56455150e-003, 2.18818383e-003,
          2.84463894e-002, 4.37636767e-003, 0., 8.75273533e-003,
          6.56455150e-003, 0., 4.37636767e-003, 6.56455150e-003,
          8.75273533e-003, 1.31291030e-002, 2.18818374e-002,
          2.18818383e-003, 2.18818383e-003, 4.37636767e-003,
          4.37636767e-003, 2.40700226e-002, 8.75273533e-003,
          4.37636767e-003, 4.37636767e-003, 2.18818383e-003,
          6.56455150e-003, 1.31291030e-002, 4.37636767e-003,
          2.18818383e-003, 4.37636767e-003, 2.18818383e-003, 0.,
          1.96936540e-002, 9.40919071e-002, 0., 4.37636767e-003,
          4.37636767e-003, 4.37636767e-003, 4.37636767e-003,
          6.56455150e-003, 2.18818383e-003, 2.18818383e-003,
          6.56455150e-003, 1.31291030e-002, 2.18818383e-003,
          8.75273533e-003, 0., 2.18818383e-003, 0., 4.37636767e-003, 0.,
          2.18818383e-003, 6.56455150e-003, 5.03282286e-002, 0.,
          1.53172873e-002, 0., 1.53172873e-002, 4.37636767e-003 ]
      - [ 1.06951874e-002, 1.40374331e-002, 6.01604301e-003,
          1.06951874e-002, 1.27005354e-002, 1.60427801e-002,
          1.00267380e-002, 1.27005354e-002, 1.40374331e-002,
          8.68983939e-003, 2.00534752e-003, 4.67914436e-003,
          1.33689847e-002, 1.67112295e-002, 1.27005354e-002,
          1.47058824e-002, 9.35828872e-003, 8.68983939e-003,
          6.01604301e-003, 1.87165774e-002, 6.68449234e-003,
          1.53743317e-002, 1.27005354e-002, 8.68983939e-003,
          1.53743317e-002, 1.40374331e-002, 8.68983939e-003,
          1.13636367e-002, 9.35828872e-003, 5.34759369e-003,
          1.60427801e-002, 6.01604301e-003, 8.02139007e-003,
          1.20320860e-002, 8.68983939e-003, 8.02139007e-003,
          2.67379684e-003, 5.34759369e-003, 1.47058824e-002,
          1.06951874e-002, 1.06951874e-002, 7.35294120e-003,
          8.68983939e-003, 2.00534761e-002, 4.01069503e-003,
          1.33689847e-002, 1.40374331e-002, 7.35294120e-003,
          1.53743317e-002, 4.01069503e-003, 1.67112295e-002,
          8.02139007e-003, 1.06951874e-002, 1.06951874e-002,
          1.53743317e-002, 5.34759369e-003, 1.06951874e-002,
          1.33689847e-002, 6.01604301e-003, 7.35294120e-003,
          8.68983939e-003, 1.40374331e-002, 4.67914436e-003,
          1.00267380e-002, 1.06951874e-002, 1.00267380e-002,
          6.01604301e-003, 1.47058824e-002, 1.20320860e-002,
          6.68449234e-003, 5.34759369e-003, 7.35294120e-003,
          1.13636367e-002, 2.67379684e-003, 8.02139007e-003,
          8.02139007e-003, 5.34759369e-003, 1.06951874e-002,
          9.35828872e-003, 1.20320860e-002, 8.02139007e-003,
          1.06951874e-002, 1.13636367e-002, 1.06951874e-002,
          1.00267380e-002, 7.35294120e-003, 6.68449234e-003,
          1.06951874e-002, 4.01069503e-003, 1.20320860e-002,
          8.68983939e-003, 1.40374331e-002, 1.13636367e-002,
          2.00534761e-002, 2.67379684e-003, 4.67914436e-003,
          8.02139007e-003, 1.20320860e-002, 4.67914436e-003,
          1.27005354e-002 ]
      - [ 6.46551698e-003, 1.50862066e-002, 1.43678160e-002,
          1.36494255e-002, 1.07758623e-002, 6.46551698e-003,
          1.07758623e-002, 1.29310340e-002, 7.90229905e-003,
          5.02873585e-003, 4.31034481e-003, 1.36494255e-002,
          1.43678160e-002, 1.29310340e-002, 6.46551698e-003,
          1.50862066e-002, 7.90229905e-003, 1.65229887e-002,
          1.22126434e-002, 7.90229905e-003, 1.50862066e-002,
          1.00574717e-002, 1.00574717e-002, 1.36494255e-002,
          1.00574717e-002, 1.22126434e-002, 9.33908019e-003,
          5.74712642e-003, 1.00574717e-002, 3.59195401e-003,
          1.58045981e-002, 6.46551698e-003, 7.18390802e-003,
          9.33908019e-003, 5.02873585e-003, 1.22126434e-002,
          2.87356321e-003, 1.29310340e-002, 1.00574717e-002,
          1.29310340e-002, 1.22126434e-002, 1.36494255e-002,
          9.33908019e-003, 1.07758623e-002, 4.31034481e-003,
          1.58045981e-002, 1.00574717e-002, 1.29310340e-002,
          1.22126434e-002, 1.72413792e-002, 1.36494255e-002,
          7.18390802e-003, 1.22126434e-002, 2.01149434e-002,
          9.33908019e-003, 1.22126434e-002, 9.33908019e-003,
          7.18390802e-003, 1.43678160e-002, 1.72413792e-002,
          1.00574717e-002, 3.59195401e-003, 4.31034481e-003,
          1.65229887e-002, 1.00574717e-002, 1.22126434e-002,
          5.02873585e-003, 5.74712642e-003, 9.33908019e-003,
          1.50862066e-002, 5.74712642e-003, 1.14942528e-002,
          1.07758623e-002, 5.02873585e-003, 8.62068962e-003,
          9.33908019e-003, 7.90229905e-003, 1.14942528e-002,
          5.74712642e-003, 1.00574717e-002, 1.50862066e-002,
          1.29310340e-002, 1.00574717e-002, 1.36494255e-002,
          1.22126434e-002, 7.90229905e-003, 5.02873585e-003,
          5.74712642e-003, 1.14942528e-002, 7.18390802e-003,
          6.46551698e-003, 7.18390802e-003, 5.74712642e-003,
          6.46551698e-003, 3.59195401e-003, 9.33908019e-003,
          4.31034481e-003, 5.02873585e-003, 9.33908019e-003,
          1.22126434e-002 ]
      - [ 7.30638113e-003, 1.60740390e-002, 7.30638113e-003,
          8.76765698e-003, 1.07160257e-002, 1.36385784e-002,
          1.07160257e-002, 4.87092044e-003, 8.76765698e-003,
          4.38382849e-003, 8.76765698e-003, 1.07160257e-002,
          1.36385784e-002, 9.74184088e-003, 9.25474893e-003,
          9.74184088e-003, 2.09449586e-002, 5.35801286e-003,
          2.92255240e-003, 1.50998542e-002, 8.76765698e-003,
          8.28056503e-003, 1.94836818e-002, 1.94836827e-003,
          3.36093530e-002, 1.85094979e-002, 8.76765698e-003,
          2.04578675e-002, 6.81928918e-003, 5.84510481e-003,
          1.21773016e-002, 3.89673654e-003, 1.80224068e-002,
          6.33219676e-003, 2.92255240e-003, 9.74184088e-003,
          3.21480781e-002, 3.40964459e-003, 6.81928918e-003,
          6.81928918e-003, 1.02289338e-002, 4.38382849e-003,
          6.33219676e-003, 3.01997084e-002, 1.94836818e-002,
          1.21773016e-002, 1.89965907e-002, 4.38382849e-003,
          1.36385784e-002, 1.07160257e-002, 7.30638113e-003,
          3.40964459e-003, 1.12031177e-002, 7.30638113e-003,
          1.02289338e-002, 6.81928918e-003, 9.25474893e-003,
          9.74184088e-003, 1.02289338e-002, 6.33219676e-003,
          1.26643935e-002, 8.28056503e-003, 1.46127620e-003,
          4.38382849e-003, 7.30638113e-003, 1.21773016e-002,
          2.43546022e-003, 9.74184088e-003, 1.12031177e-002,
          1.21773016e-002, 4.38382849e-003, 1.07160257e-002,
          1.07160257e-002, 3.40964459e-003, 2.43546022e-003,
          4.87092044e-003, 2.43546022e-003, 1.31514855e-002,
          1.16902096e-002, 1.75353140e-002, 4.87092044e-003,
          1.60740390e-002, 1.50998542e-002, 1.41256703e-002,
          9.25474893e-003, 3.40964459e-003, 7.79347308e-003,
          8.76765698e-003, 1.21773016e-002, 1.41256703e-002,
          2.43546022e-003, 1.41256703e-002, 1.12031177e-002,
          1.02289338e-002, 8.28056503e-003, 7.30638113e-003,
          1.02289338e-002, 5.35801286e-003, 3.40964459e-003,
          1.26643935e-002 ]
      - [ 8.80162511e-003, 1.55721055e-002, 1.21868653e-002,
          6.77048042e-003, 1.01557206e-002, 1.69262011e-002,
          5.41638443e-003, 3.38524021e-003, 1.48950573e-002,
          5.41638443e-003, 1.42180091e-002, 8.80162511e-003,
          1.28639126e-002, 9.47867241e-003, 7.44752865e-003,
          4.73933620e-003, 4.73933620e-003, 3.38524021e-003,
          1.35409611e-003, 1.76032502e-002, 8.80162511e-003,
          9.47867241e-003, 1.69262011e-002, 0., 1.15098171e-002,
          1.55721055e-002, 1.48950573e-002, 2.30196342e-002,
          4.06228844e-003, 2.03114422e-003, 1.28639126e-002,
          6.09343266e-003, 4.73933620e-003, 1.15098171e-002,
          4.06228844e-003, 1.08327689e-002, 1.48950573e-002,
          2.70819222e-003, 8.80162511e-003, 1.28639126e-002,
          9.47867241e-003, 6.09343266e-003, 9.47867241e-003,
          2.70819222e-003, 2.23425850e-002, 1.82802975e-002,
          5.41638443e-003, 1.01557206e-002, 6.77048042e-003,
          1.48950573e-002, 7.44752865e-003, 3.38524021e-003,
          8.80162511e-003, 1.08327689e-002, 1.28639126e-002,
          7.44752865e-003, 5.41638443e-003, 1.42180091e-002,
          1.08327689e-002, 3.38524021e-003, 1.42180091e-002,
          2.77589709e-002, 6.77048042e-003, 1.42180091e-002,
          6.77048042e-003, 1.76032502e-002, 4.73933620e-003,
          9.47867241e-003, 3.38524021e-003, 1.01557206e-002,
          4.06228844e-003, 9.47867241e-003, 6.09343266e-003,
          4.73933620e-003, 1.48950573e-002, 1.01557206e-002,
          5.41638443e-003, 2.23425850e-002, 1.28639126e-002,
          1.69262011e-002, 6.77048042e-003, 1.89573448e-002,
          9.47867241e-003, 1.69262011e-002, 5.41638443e-003,
          4.06228844e-003, 9.47867241e-003, 8.12457688e-003,
          7.44752865e-003, 1.35409608e-002, 2.70819222e-003,
          1.08327689e-002, 9.47867241e-003, 2.23425850e-002,
          1.28639126e-002, 6.77048042e-003, 1.55721055e-002,
          5.41638443e-003, 2.70819222e-003, 1.89573448e-002 ]
      - [ 2.18023248e-002, 1.09011624e-002, 1.74418613e-002,
          5.08720940e-003, 8.72093067e-003, 1.30813951e-002, 0.,
          3.63372080e-003, 8.72093067e-003, 1.23546515e-002,
          1.23546515e-002, 1.38081396e-002, 1.81686040e-002,
          1.67151168e-002, 1.52616277e-002, 2.18023267e-003,
          6.54069753e-003, 5.81395347e-003, 3.63372080e-003,
          1.67151168e-002, 1.01744188e-002, 6.54069753e-003,
          7.99418613e-003, 3.63372080e-003, 2.03488376e-002,
          1.01744188e-002, 1.23546515e-002, 1.30813951e-002,
          3.63372080e-003, 1.45348837e-003, 1.16279069e-002,
          2.90697673e-003, 1.01744188e-002, 7.26744160e-003,
          1.45348837e-003, 1.88953485e-002, 8.72093067e-003,
          2.90697673e-003, 6.54069753e-003, 1.01744188e-002,
          5.81395347e-003, 5.81395347e-003, 2.90697673e-003,
          2.18023267e-003, 1.38081396e-002, 2.54360456e-002,
          1.52616277e-002, 5.81395347e-003, 1.45348832e-002,
          1.23546515e-002, 3.63372080e-003, 5.81395347e-003,
          1.23546515e-002, 1.23546515e-002, 8.72093067e-003,
          5.81395347e-003, 3.63372080e-003, 2.54360456e-002,
          7.99418613e-003, 9.44767427e-003, 1.52616277e-002,
          1.38081396e-002, 7.26744183e-004, 8.72093067e-003,
          1.01744188e-002, 7.99418613e-003, 5.81395347e-003,
          7.26744160e-003, 7.26744183e-004, 1.45348832e-002,
          2.18023267e-003, 1.16279069e-002, 1.30813951e-002,
          7.26744183e-004, 0., 1.59883723e-002, 1.01744188e-002,
          2.83430237e-002, 1.01744188e-002, 5.81395347e-003,
          3.63372080e-003, 1.67151168e-002, 1.30813951e-002,
          1.38081396e-002, 1.88953485e-002, 1.16279069e-002,
          1.16279069e-002, 5.08720940e-003, 5.81395347e-003,
          1.16279069e-002, 1.45348837e-003, 2.18023248e-002,
          2.10755821e-002, 7.26744160e-003, 3.63372080e-003,
          1.16279069e-002, 1.59883723e-002, 8.72093067e-003,
          2.18023267e-003, 2.90697664e-002 ]
      - [ 7.48055009e-003, 1.31657682e-002, 1.49611011e-003,
          1.04727708e-002, 6.58288412e-003, 5.68521814e-003,
          2.09455402e-003, 1.37642128e-002, 8.07899423e-003,
          6.88210642e-003, 2.09455402e-003, 3.20167542e-002,
          1.73548758e-002, 1.25673246e-002, 6.58288412e-003,
          4.78755217e-003, 7.77977239e-003, 7.77977239e-003,
          2.99222022e-003, 2.69299801e-002, 2.09455402e-003,
          1.19688809e-002, 2.24416517e-002, 3.29144206e-003,
          2.75284257e-002, 2.30400953e-002, 6.88210642e-003,
          3.62058617e-002, 8.07899423e-003, 1.19688804e-003,
          2.45362055e-002, 2.99222011e-004, 4.18910803e-003,
          6.28366228e-003, 2.09455402e-003, 9.27588250e-003,
          2.48354264e-002, 4.48833033e-003, 9.87432618e-003,
          4.48833033e-003, 1.04727708e-002, 8.37821607e-003,
          1.04727708e-002, 1.49611011e-003, 1.43626565e-002,
          2.30400953e-002, 5.68521814e-003, 1.40634347e-002,
          1.01735480e-002, 1.01735480e-002, 8.37821607e-003,
          8.37821607e-003, 3.29144206e-003, 1.76540986e-002,
          1.31657682e-002, 4.18910803e-003, 1.79533206e-003,
          1.67564321e-002, 1.82525422e-002, 6.88210642e-003,
          8.67743790e-003, 4.15918604e-002, 2.09455402e-003,
          4.18910803e-003, 5.68521814e-003, 1.28665464e-002,
          1.49611011e-003, 8.07899423e-003, 5.38599631e-003,
          8.67743790e-003, 2.39377609e-003, 5.08677401e-003,
          1.49611002e-002, 5.08677401e-003, 2.69299815e-003,
          3.29144206e-003, 8.97666032e-004, 1.61579885e-002,
          1.10712145e-002, 5.98444045e-003, 3.88988620e-003,
          2.15439852e-002, 1.43626565e-002, 3.29144206e-003,
          9.57510434e-003, 8.97666032e-004, 3.29144206e-003,
          6.58288412e-003, 7.77977239e-003, 8.67743790e-003,
          4.18910803e-003, 1.70556549e-002, 1.28665464e-002,
          3.08198668e-002, 8.97666032e-004, 1.46618783e-002,
          5.98444045e-003, 2.36385390e-002, 2.09455402e-003,
          4.78755217e-003 ]
      - [ 1.35350320e-002, 1.03503186e-002, 1.51273888e-002,
          1.11464970e-002, 4.77707013e-003, 1.67197455e-002,
          1.27388537e-002, 8.75796191e-003, 6.36942685e-003,
          1.03503186e-002, 1.03503186e-002, 6.36942685e-003,
          1.03503186e-002, 6.36942685e-003, 1.27388537e-002,
          1.03503186e-002, 1.43312104e-002, 7.16560520e-003,
          6.36942685e-003, 6.36942685e-003, 1.27388537e-002,
          8.75796191e-003, 9.55414027e-003, 9.55414027e-003,
          6.36942685e-003, 7.96178356e-003, 7.96178356e-003,
          8.75796191e-003, 7.16560520e-003, 1.27388537e-002,
          5.57324849e-003, 1.11464970e-002, 7.16560520e-003,
          5.57324849e-003, 3.98089178e-003, 8.75796191e-003,
          8.75796191e-003, 1.99044589e-002, 1.91082805e-002,
          1.43312104e-002, 1.51273888e-002, 7.96178356e-003,
          1.35350320e-002, 5.57324849e-003, 8.75796191e-003,
          4.77707013e-003, 2.22929940e-002, 1.27388537e-002,
          7.96178356e-003, 1.03503186e-002, 1.51273888e-002,
          6.36942685e-003, 5.57324849e-003, 1.27388537e-002,
          1.03503186e-002, 9.55414027e-003, 1.35350320e-002,
          7.16560520e-003, 3.98089178e-003, 4.77707013e-003,
          1.03503186e-002, 8.75796191e-003, 8.75796191e-003,
          4.77707013e-003, 1.11464970e-002, 7.96178356e-003,
          3.98089178e-003, 5.57324849e-003, 1.75159238e-002,
          1.59235671e-002, 7.16560520e-003, 7.96178356e-003,
          1.27388537e-002, 8.75796191e-003, 3.26433107e-002,
          7.16560520e-003, 7.16560520e-003, 7.16560520e-003,
          5.57324849e-003, 4.77707013e-003, 1.27388537e-002,
          1.11464970e-002, 8.75796191e-003, 1.51273888e-002,
          1.27388537e-002, 1.59235671e-002, 1.11464970e-002,
          8.75796191e-003, 8.75796191e-003, 4.77707013e-003,
          1.91082805e-002, 9.55414027e-003, 6.36942685e-003,
          8.75796191e-003, 1.27388537e-002, 1.59235671e-002,
          4.77707013e-003, 7.16560520e-003, 7.96178356e-003,
          7.16560520e-003 ]
      - [ 4.87012975e-003, 8.11688323e-003, 4.87012975e-003, 0., 0.,
          3.24675324e-003, 6.65584430e-002, 1.62337662e-003,
          9.74025950e-003, 9.74025950e-003, 3.24675324e-003,
          8.11688323e-003, 3.24675324e-003, 8.11688323e-003,
          8.11688323e-003, 1.13636367e-002, 3.40909101e-002,
          6.49350649e-003, 4.87012975e-003, 8.11688323e-003,
          1.62337662e-003, 4.87012975e-003, 3.24675324e-003,
          1.94805190e-002, 4.87012975e-003, 4.87012975e-003,
          4.87012975e-003, 1.62337662e-003, 4.87012975e-003,
          9.74025950e-003, 1.62337662e-003, 2.43506487e-002,
          2.43506487e-002, 3.24675324e-003, 4.87012975e-003, 0., 0.,
          4.05844152e-002, 6.49350649e-003, 6.49350649e-003, 0.,
          8.11688323e-003, 3.24675324e-003, 8.11688323e-003,
          6.49350649e-003, 0., 5.68181835e-002, 1.78571437e-002,
          8.11688323e-003, 4.87012975e-003, 1.62337665e-002, 0.,
          4.87012975e-003, 4.87012975e-003, 0., 8.11688323e-003,
          2.11038962e-002, 4.87012975e-003, 6.49350649e-003,
          6.49350649e-003, 1.46103892e-002, 1.62337662e-003,
          6.49350649e-003, 3.24675324e-003, 0., 6.49350649e-003,
          9.74025950e-003, 1.29870130e-002, 3.73376608e-002,
          1.46103892e-002, 2.59740259e-002, 0., 1.62337662e-003,
          1.46103892e-002, 5.35714291e-002, 3.24675324e-003,
          6.49350649e-003, 9.74025950e-003, 1.62337662e-003,
          6.49350649e-003, 2.27272734e-002, 8.11688323e-003,
          3.24675324e-003, 6.49350649e-003, 6.49350649e-003,
          4.87012975e-003, 8.11688323e-003, 4.87012975e-003,
          4.87012975e-003, 3.24675324e-003, 4.70779203e-002,
          1.62337662e-003, 1.62337662e-003, 8.11688323e-003,
          1.78571437e-002, 1.29870130e-002, 3.24675324e-003,
          8.11688323e-003, 2.92207785e-002, 3.24675324e-003 ]
      - [ 2.50836113e-003, 1.75585281e-002, 1.00334445e-002,
          1.00334445e-002, 1.00334445e-002, 1.75585281e-002,
          6.68896316e-003, 1.50501672e-002, 7.52508361e-003,
          4.18060180e-003, 8.36120360e-003, 2.00668890e-002,
          1.33779263e-002, 5.01672225e-003, 1.42140463e-002,
          3.34448158e-003, 1.08695654e-002, 1.42140463e-002,
          5.85284270e-003, 1.08695654e-002, 5.85284270e-003,
          1.25418063e-002, 1.00334445e-002, 1.58862881e-002,
          1.25418063e-002, 1.42140463e-002, 8.36120360e-003,
          1.08695654e-002, 6.68896316e-003, 8.36120360e-003,
          1.83946490e-002, 1.08695654e-002, 3.76254171e-002,
          8.36120360e-003, 8.36120395e-004, 8.36120360e-003,
          1.58862881e-002, 1.75585281e-002, 5.01672225e-003,
          5.01672225e-003, 7.52508361e-003, 1.67224079e-003,
          5.01672225e-003, 2.25752499e-002, 1.75585281e-002,
          8.36120360e-003, 9.19732451e-003, 1.50501672e-002,
          1.42140463e-002, 1.00334445e-002, 3.01003344e-002,
          5.01672225e-003, 1.08695654e-002, 1.17056854e-002,
          1.00334445e-002, 3.34448158e-003, 6.68896316e-003,
          1.17056854e-002, 7.52508361e-003, 1.17056854e-002,
          1.25418063e-002, 2.84280926e-002, 5.01672225e-003,
          6.68896316e-003, 3.34448158e-003, 9.19732451e-003,
          2.50836113e-003, 1.00334445e-002, 6.68896316e-003,
          1.08695654e-002, 5.01672225e-003, 6.68896316e-003,
          8.36120360e-003, 3.34448158e-003, 6.68896316e-003,
          4.18060180e-003, 1.67224079e-003, 2.50836113e-003,
          5.01672225e-003, 1.25418063e-002, 1.25418063e-002,
          9.19732451e-003, 1.50501672e-002, 1.67224072e-002,
          1.42140463e-002, 3.34448158e-003, 5.01672225e-003,
          4.18060180e-003, 9.19732451e-003, 4.18060180e-003,
          8.36120360e-003, 1.25418063e-002, 2.09030099e-002,
          1.42140463e-002, 5.01672225e-003, 8.36120360e-003,
          6.68896316e-003, 6.68896316e-003, 3.34448158e-003,
          8.36120360e-003 ]
      - [ 4.47966903e-003, 2.37767063e-002, 7.23638851e-003,
          6.54720888e-003, 9.30392835e-003, 1.03376983e-002,
          1.99862160e-002, 1.37835974e-002, 1.13714682e-002,
          8.27015843e-003, 7.58097880e-003, 1.44727770e-002,
          7.23638851e-003, 1.03376983e-002, 1.37835974e-002,
          1.37835974e-002, 9.99310799e-003, 1.41281877e-002,
          2.41212966e-003, 2.13645753e-002, 6.89179869e-003,
          7.92556815e-003, 8.95933807e-003, 5.16884914e-003,
          1.72294974e-002, 1.61957275e-002, 5.16884914e-003,
          1.51619576e-002, 5.51343895e-003, 7.58097880e-003,
          1.24052372e-002, 7.92556815e-003, 6.89179869e-003,
          9.30392835e-003, 6.54720888e-003, 9.99310799e-003,
          8.27015843e-003, 7.23638851e-003, 1.03376983e-002,
          5.85802877e-003, 5.85802877e-003, 4.13507922e-003,
          9.30392835e-003, 8.27015843e-003, 1.03376983e-002,
          1.03376983e-002, 1.34390071e-002, 1.03376983e-002,
          1.27498275e-002, 1.20606478e-002, 2.17091665e-002,
          3.79048940e-003, 7.92556815e-003, 1.30944178e-002,
          8.27015843e-003, 3.79048940e-003, 8.27015843e-003,
          9.99310799e-003, 1.37835974e-002, 2.75671948e-003,
          1.03376983e-002, 1.99862160e-002, 2.41212966e-003,
          5.85802877e-003, 1.06822876e-002, 1.55065469e-002,
          6.89179869e-003, 9.64851864e-003, 8.61474872e-003,
          7.58097880e-003, 1.24052372e-002, 9.64851864e-003,
          9.64851864e-003, 3.79048940e-003, 3.20468657e-002,
          7.92556815e-003, 4.47966903e-003, 9.99310799e-003,
          1.17160575e-002, 5.51343895e-003, 1.30944178e-002,
          1.10268779e-002, 9.99310799e-003, 1.30944178e-002,
          8.61474872e-003, 3.79048940e-003, 5.16884914e-003,
          9.64851864e-003, 7.92556815e-003, 1.06822876e-002,
          7.23638851e-003, 1.06822876e-002, 9.64851864e-003,
          1.72294974e-002, 6.54720888e-003, 1.24052372e-002,
          8.95933807e-003, 9.99310799e-003, 9.30392835e-003,
          9.30392835e-003 ]
      - [ 2.07468891e-003, 8.29875562e-003, 6.22406695e-003,
          7.26141129e-003, 5.18672215e-003, 4.14937781e-003,
          9.33609977e-002, 5.18672215e-003, 6.22406695e-003,
          5.18672215e-003, 7.26141129e-003, 1.14107886e-002,
          3.11203348e-003, 1.03734445e-003, 4.14937781e-003,
          1.14107886e-002, 2.69709565e-002, 1.55601669e-002,
          1.76348556e-002, 5.18672215e-003, 6.22406695e-003,
          7.26141129e-003, 1.03734445e-003, 1.03734443e-002,
          2.07468891e-003, 1.03734445e-003, 1.03734445e-003,
          3.11203348e-003, 1.55601669e-002, 5.18672215e-003,
          2.07468891e-003, 1.34854782e-002, 1.45228226e-002, 0.,
          4.14937781e-003, 3.11203348e-003, 0., 1.34854782e-002,
          1.55601669e-002, 1.14107886e-002, 2.07468891e-003,
          8.29875562e-003, 2.07468891e-003, 1.45228226e-002, 0.,
          8.29875562e-003, 3.42323668e-002, 3.42323668e-002,
          4.14937781e-003, 4.14937781e-003, 1.24481339e-002,
          6.22406695e-003, 5.18672215e-003, 4.14937781e-003,
          1.03734443e-002, 2.80083008e-002, 1.14107886e-002,
          4.14937781e-003, 1.45228226e-002, 6.22406695e-003,
          3.11203348e-003, 2.07468886e-002, 8.29875562e-003,
          1.03734445e-003, 1.03734445e-003, 5.18672215e-003,
          1.14107886e-002, 9.33609996e-003, 2.17842329e-002,
          1.03734445e-003, 2.48962678e-002, 2.07468891e-003,
          1.55601669e-002, 1.34854782e-002, 7.88381770e-002,
          6.22406695e-003, 9.33609996e-003, 0., 4.14937781e-003,
          1.03734445e-003, 1.24481339e-002, 2.07468891e-003,
          2.07468891e-003, 3.11203348e-003, 7.26141129e-003,
          5.18672215e-003, 4.14937781e-003, 2.07468891e-003,
          3.11203348e-003, 4.14937781e-003, 2.48962678e-002, 0.,
          8.29875562e-003, 6.22406695e-003, 7.26141129e-003,
          4.14937772e-002, 4.14937781e-003, 5.18672215e-003,
          2.28215773e-002, 3.11203348e-003 ]
      - [ 4.94559808e-003, 1.43422345e-002, 3.46191879e-003,
          1.33531149e-002, 1.33531149e-002, 5.93471806e-003,
          8.90207663e-003, 1.33531149e-002, 1.28585557e-002,
          4.45103832e-003, 2.47279904e-003, 2.42334306e-002,
          1.73095930e-002, 1.03857564e-002, 7.41839735e-003,
          5.44015784e-003, 4.94559808e-003, 9.89119615e-003,
          3.95647855e-003, 2.27497518e-002, 3.95647855e-003,
          1.08803157e-002, 1.43422345e-002, 4.94559808e-003,
          1.13748759e-002, 1.63204744e-002, 6.92383759e-003,
          3.65974270e-002, 8.90207663e-003, 1.48367952e-003,
          2.02769525e-002, 1.97823928e-003, 1.92878321e-002,
          6.42927783e-003, 1.48367952e-003, 6.92383759e-003,
          1.48367947e-002, 7.41839735e-003, 6.92383759e-003,
          5.93471806e-003, 9.39663686e-003, 4.94559808e-003,
          1.03857564e-002, 1.63204744e-002, 5.93471806e-003,
          1.38476752e-002, 4.94559808e-003, 7.41839735e-003,
          8.40751734e-003, 1.08803157e-002, 1.03857564e-002,
          5.44015784e-003, 4.94559808e-003, 1.33531149e-002,
          1.87932737e-002, 9.89119615e-003, 3.95647855e-003,
          1.13748759e-002, 1.78041533e-002, 6.42927783e-003,
          9.89119615e-003, 3.41246277e-002, 4.94559808e-003,
          3.95647855e-003, 5.44015784e-003, 1.23639954e-002,
          2.47279904e-003, 6.92383759e-003, 1.13748759e-002,
          1.28585557e-002, 1.48367952e-003, 6.42927783e-003,
          1.38476752e-002, 3.46191879e-003, 9.89119615e-003,
          3.46191879e-003, 2.96735903e-003, 1.03857564e-002,
          1.08803157e-002, 4.94559808e-003, 1.28585557e-002,
          1.58259142e-002, 1.43422345e-002, 8.40751734e-003,
          9.89119615e-003, 3.95647855e-003, 4.45103832e-003,
          9.89119615e-003, 5.93471806e-003, 9.39663686e-003,
          1.28585557e-002, 9.89119615e-003, 1.13748759e-002,
          2.02769525e-002, 1.38476752e-002, 1.68150347e-002,
          1.28585557e-002, 1.53313540e-002, 2.96735903e-003,
          1.08803157e-002 ]
      - [ 1.95599031e-002, 9.77995154e-003, 1.95599031e-002,
          9.77995154e-003, 4.88997577e-003, 2.07823962e-002,
          8.55745748e-003, 6.11246983e-003, 1.22249397e-002,
          1.22249394e-003, 1.71149150e-002, 2.44498788e-003,
          8.55745748e-003, 2.44498788e-003, 2.44498788e-003,
          4.88997577e-003, 2.07823962e-002, 3.66748171e-003,
          1.34474337e-002, 7.33496342e-003, 2.32273843e-002,
          4.88997577e-003, 4.88997577e-003, 4.15647924e-002,
          4.88997577e-003, 7.33496342e-003, 2.44498788e-003,
          8.55745748e-003, 1.22249394e-003, 7.33496342e-003,
          9.77995154e-003, 6.11246983e-003, 2.56723724e-002,
          7.33496342e-003, 3.66748171e-003, 1.22249397e-002,
          6.11246983e-003, 2.68948674e-002, 9.77995154e-003,
          1.83374099e-002, 6.11246983e-003, 1.22249394e-003,
          2.44498788e-003, 1.58924218e-002, 8.55745748e-003,
          2.44498788e-003, 2.56723724e-002, 4.88997577e-003,
          7.33496342e-003, 1.22249397e-002, 9.77995154e-003,
          6.11246983e-003, 2.07823962e-002, 2.44498788e-003,
          2.44498788e-003, 1.95599031e-002, 9.77995154e-003,
          6.11246983e-003, 7.33496342e-003, 1.22249397e-002,
          8.55745748e-003, 9.77995154e-003, 1.10024456e-002,
          1.46699268e-002, 4.88997577e-003, 8.55745748e-003,
          6.11246983e-003, 9.77995154e-003, 2.07823962e-002,
          1.34474337e-002, 3.66748171e-003, 6.11246983e-003,
          4.88997577e-003, 6.11246983e-003, 1.83374099e-002,
          1.58924218e-002, 1.83374099e-002, 1.46699268e-002,
          4.88997577e-003, 7.33496342e-003, 1.22249394e-003,
          1.46699268e-002, 7.33496342e-003, 1.22249397e-002,
          1.46699268e-002, 1.95599031e-002, 6.11246983e-003,
          2.44498788e-003, 8.55745748e-003, 1.10024456e-002,
          6.11246983e-003, 4.88997577e-003, 3.66748171e-003,
          6.11246983e-003, 6.11246983e-003, 1.34474337e-002,
          2.07823962e-002, 3.66748171e-003, 6.11246983e-003,
          1.22249397e-002 ]
      - [ 1.06589142e-002, 1.84108522e-002, 1.25968996e-002,
          7.75193796e-003, 2.90697673e-003, 1.25968996e-002,
          2.22868212e-002, 1.16279069e-002, 3.87596898e-003,
          1.16279069e-002, 6.78294571e-003, 3.87596898e-003,
          7.75193796e-003, 8.72093067e-003, 1.25968996e-002,
          1.06589142e-002, 2.71317828e-002, 1.84108522e-002,
          7.75193796e-003, 6.78294571e-003, 5.81395347e-003,
          1.55038759e-002, 8.72093067e-003, 1.16279069e-002,
          1.25968996e-002, 9.68992244e-003, 1.06589142e-002,
          2.90697673e-003, 6.78294571e-003, 9.68992244e-003,
          1.55038759e-002, 7.75193796e-003, 6.78294571e-003,
          1.06589142e-002, 8.72093067e-003, 9.68992244e-003,
          7.75193796e-003, 1.06589142e-002, 2.32558139e-002,
          7.75193796e-003, 1.93798449e-003, 3.87596898e-003,
          1.45348832e-002, 3.87596898e-003, 2.90697664e-002,
          9.68992244e-003, 2.81007756e-002, 8.72093067e-003,
          1.45348832e-002, 8.72093067e-003, 1.84108522e-002,
          6.78294571e-003, 7.75193796e-003, 2.90697673e-003,
          3.87596898e-003, 3.87596898e-003, 1.35658914e-002,
          5.81395347e-003, 9.68992244e-003, 5.81395347e-003,
          1.55038759e-002, 1.35658914e-002, 2.90697673e-003,
          2.90697673e-003, 1.35658914e-002, 4.84496122e-003,
          6.78294571e-003, 7.75193796e-003, 6.78294571e-003,
          8.72093067e-003, 3.87596898e-003, 6.78294571e-003,
          6.78294571e-003, 1.93798449e-003, 3.77906971e-002,
          4.84496122e-003, 8.72093067e-003, 7.75193796e-003,
          9.68992244e-003, 4.84496122e-003, 1.25968996e-002,
          2.90697673e-003, 1.06589142e-002, 1.16279069e-002,
          1.35658914e-002, 8.72093067e-003, 1.16279069e-002,
          5.81395347e-003, 5.81395347e-003, 5.81395347e-003,
          4.84496122e-003, 1.35658914e-002, 1.25968996e-002,
          7.75193796e-003, 2.42248066e-002, 1.35658914e-002,
          6.78294571e-003, 9.68992244e-003, 6.78294571e-003,
          5.81395347e-003 ]
      - [ 1.40056023e-002, 1.12044821e-002, 7.00280117e-003,
          2.80112051e-003, 1.12044821e-002, 8.40336177e-003,
          3.08123250e-002, 7.00280117e-003, 8.40336177e-003,
          7.00280117e-003, 1.26050422e-002, 1.82072837e-002,
          9.80392192e-003, 2.80112051e-003, 5.60224103e-003,
          1.12044821e-002, 3.08123250e-002, 8.40336177e-003,
          1.26050422e-002, 1.40056026e-003, 7.00280117e-003,
          4.20168089e-003, 2.80112051e-003, 1.12044821e-002,
          9.80392192e-003, 4.20168089e-003, 9.80392192e-003,
          8.40336177e-003, 1.12044821e-002, 4.20168089e-003,
          5.60224103e-003, 2.10084040e-002, 1.26050422e-002,
          2.80112051e-003, 7.00280117e-003, 8.40336177e-003,
          7.00280117e-003, 1.96078438e-002, 2.10084040e-002,
          1.40056023e-002, 7.00280117e-003, 1.40056023e-002,
          2.80112051e-003, 4.20168089e-003, 8.40336177e-003,
          1.26050422e-002, 2.94117648e-002, 1.40056023e-002,
          7.00280117e-003, 7.00280117e-003, 9.80392192e-003,
          7.00280117e-003, 9.80392192e-003, 1.40056023e-002,
          7.00280117e-003, 2.24089641e-002, 7.00280117e-003,
          4.20168089e-003, 8.40336177e-003, 8.40336177e-003,
          9.80392192e-003, 9.80392192e-003, 5.60224103e-003,
          1.26050422e-002, 9.80392192e-003, 1.12044821e-002,
          1.40056026e-003, 8.40336177e-003, 4.20168089e-003,
          4.20168089e-003, 9.80392192e-003, 8.40336177e-003,
          1.40056023e-002, 1.40056023e-002, 3.64145674e-002,
          5.60224103e-003, 2.10084040e-002, 4.20168089e-003,
          1.26050422e-002, 9.80392192e-003, 8.40336177e-003,
          1.26050422e-002, 2.80112051e-003, 7.00280117e-003,
          1.26050422e-002, 1.96078438e-002, 5.60224103e-003,
          2.80112051e-003, 5.60224103e-003, 4.20168089e-003,
          2.66106445e-002, 7.00280117e-003, 2.80112051e-003,
          4.20168089e-003, 7.00280117e-003, 1.40056023e-002, 0.,
          1.12044821e-002, 9.80392192e-003, 5.60224103e-003 ]
      - [ 0., 2.38907840e-002, 1.36518767e-002, 0., 1.36518767e-002,
          3.41296918e-003, 1.70648452e-002, 6.82593836e-003,
          1.36518767e-002, 6.82593836e-003, 1.36518767e-002,
          6.82593836e-003, 3.41296918e-003, 0., 6.82593836e-003, 0.,
          2.04778146e-002, 2.04778146e-002, 1.36518767e-002,
          6.82593836e-003, 3.41296918e-003, 1.02389073e-002,
          6.82593836e-003, 6.82593836e-003, 3.41296918e-003,
          6.82593836e-003, 1.02389073e-002, 1.36518767e-002,
          2.38907840e-002, 3.41296918e-003, 3.41296918e-003,
          1.70648452e-002, 0., 2.73037534e-002, 1.02389073e-002,
          6.82593836e-003, 6.82593836e-003, 2.04778146e-002,
          6.82593836e-003, 6.82593836e-003, 3.41296918e-003,
          3.41296918e-003, 2.73037534e-002, 2.04778146e-002, 0.,
          3.41296918e-003, 2.73037534e-002, 0., 6.82593836e-003,
          1.36518767e-002, 2.38907840e-002, 2.04778146e-002,
          2.38907840e-002, 1.36518767e-002, 6.82593836e-003,
          6.82593836e-003, 1.02389073e-002, 3.41296918e-003,
          6.82593836e-003, 6.82593836e-003, 1.36518767e-002,
          6.82593836e-003, 1.36518767e-002, 3.41296918e-003,
          1.70648452e-002, 1.02389073e-002, 1.36518767e-002,
          1.36518767e-002, 1.36518767e-002, 1.02389073e-002,
          1.36518767e-002, 6.82593836e-003, 1.02389073e-002,
          2.04778146e-002, 1.36518767e-002, 1.36518767e-002,
          6.82593836e-003, 6.82593836e-003, 1.02389073e-002,
          3.41296918e-003, 1.02389073e-002, 1.36518767e-002,
          6.82593836e-003, 3.41296918e-003, 3.41296918e-003,
          6.82593836e-003, 1.36518767e-002, 3.41296918e-003,
          6.82593836e-003, 3.41296918e-003, 1.02389073e-002, 0.,
          3.41296918e-003, 1.36518767e-002, 6.82593836e-003, 0.,
          1.02389073e-002, 1.36518767e-002, 1.02389073e-002,
          2.38907840e-002 ]
      - [ 2.02177297e-002, 3.11041996e-003, 7.77604990e-003,
          3.11041996e-003, 4.66562994e-003, 6.22083992e-003,
          2.64385697e-002, 3.11041996e-003, 1.08864699e-002,
          6.22083992e-003, 1.39968898e-002, 7.77604990e-003,
          6.22083992e-003, 3.11041996e-003, 7.77604990e-003,
          3.11041996e-003, 3.26594114e-002, 9.33125988e-003,
          1.39968898e-002, 4.66562994e-003, 1.24416798e-002,
          6.22083992e-003, 3.11041996e-003, 1.71073098e-002,
          9.33125988e-003, 4.66562994e-003, 7.77604990e-003, 0.,
          9.33125988e-003, 1.39968898e-002, 6.22083992e-003,
          3.73250395e-002, 4.35458794e-002, 1.55520998e-003,
          7.77604990e-003, 4.66562994e-003, 4.66562994e-003,
          6.06531873e-002, 1.24416798e-002, 4.66562994e-003, 0.,
          9.33125988e-003, 4.66562994e-003, 4.51010913e-002,
          3.11041996e-003, 0., 4.35458794e-002, 1.08864699e-002,
          7.77604990e-003, 1.55520998e-003, 7.77604990e-003,
          1.55520998e-003, 3.11041996e-003, 3.11041996e-003, 0.,
          1.24416798e-002, 2.33281497e-002, 1.08864699e-002,
          3.11041996e-003, 1.08864699e-002, 9.33125988e-003,
          3.11041996e-003, 4.66562994e-003, 6.22083992e-003,
          1.55520998e-003, 1.55520998e-003, 1.86625198e-002,
          1.55520998e-002, 2.33281497e-002, 4.66562994e-003,
          1.55520998e-003, 1.24416798e-002, 7.77604990e-003,
          1.08864699e-002, 9.33125988e-003, 1.55520998e-003,
          1.24416798e-002, 7.77604990e-003, 7.77604990e-003,
          3.11041996e-003, 9.33125988e-003, 0., 9.33125988e-003,
          1.55520998e-003, 9.33125988e-003, 1.86625198e-002,
          1.08864699e-002, 6.22083992e-003, 1.39968898e-002,
          1.08864699e-002, 2.33281497e-002, 7.77604990e-003,
          7.77604990e-003, 1.55520998e-003, 6.22083992e-003,
          1.86625198e-002, 4.66562994e-003, 1.55520998e-003,
          4.66562994e-003, 6.22083992e-003 ]
      - [ 6.39658887e-003, 1.77683011e-002, 4.26439242e-003,
          1.35039091e-002, 1.63468383e-002, 9.95024852e-003,
          1.70575697e-002, 1.06609808e-002, 9.95024852e-003,
          7.10732071e-003, 3.55366035e-003, 9.23951715e-003,
          1.42146414e-002, 9.23951715e-003, 1.06609808e-002,
          9.95024852e-003, 1.35039091e-002, 1.42146414e-002,
          2.84292828e-003, 1.84790343e-002, 4.26439242e-003,
          1.13717131e-002, 1.27931777e-002, 7.81805255e-003,
          9.23951715e-003, 1.20824454e-002, 7.81805255e-003,
          9.95024852e-003, 1.06609808e-002, 1.42146414e-002,
          1.06609808e-002, 2.84292828e-003, 2.84292828e-002,
          8.52878485e-003, 2.13219621e-003, 4.26439242e-003,
          7.10732071e-003, 5.68585657e-003, 1.63468383e-002,
          1.13717131e-002, 5.68585657e-003, 5.68585657e-003,
          7.81805255e-003, 2.34541576e-002, 7.81805255e-003,
          7.10732071e-003, 2.84292828e-003, 1.63468383e-002,
          7.10732071e-003, 1.35039091e-002, 1.63468383e-002,
          8.52878485e-003, 6.39658887e-003, 1.56361051e-002,
          1.42146414e-002, 9.23951715e-003, 8.52878485e-003,
          7.10732071e-003, 9.23951715e-003, 6.39658887e-003,
          1.35039091e-002, 2.20326949e-002, 2.13219621e-003,
          5.68585657e-003, 7.10732071e-003, 1.20824454e-002,
          4.26439242e-003, 5.68585657e-003, 6.39658887e-003,
          1.06609808e-002, 1.70575697e-002, 7.10732071e-003,
          1.13717131e-002, 4.26439242e-003, 1.84790343e-002,
          7.81805255e-003, 2.13219621e-003, 9.95024852e-003,
          9.95024852e-003, 6.39658887e-003, 9.95024852e-003,
          1.13717131e-002, 9.95024852e-003, 9.95024852e-003,
          1.06609808e-002, 2.84292828e-003, 1.06609808e-002,
          7.81805255e-003, 9.23951715e-003, 1.13717131e-002,
          5.68585657e-003, 8.52878485e-003, 1.20824454e-002,
          1.77683011e-002, 9.95024852e-003, 9.23951715e-003,
          1.06609808e-002, 1.06609808e-002, 1.27931777e-002,
          9.23951715e-003 ]
      - [ 1.65114310e-002, 1.90516505e-002, 1.35478405e-002,
          8.89077038e-003, 5.50381001e-003, 9.31414030e-003,
          9.73751023e-003, 1.60880610e-002, 6.35055033e-003,
          1.39712105e-002, 6.35055033e-003, 1.18543608e-002,
          7.19729019e-003, 8.04403052e-003, 1.22777307e-002,
          1.14309909e-002, 1.48179503e-002, 1.01608802e-002,
          1.69348007e-003, 1.52413202e-002, 8.89077038e-003,
          1.77815408e-002, 6.35055033e-003, 1.65114310e-002,
          2.03217603e-002, 1.90516505e-002, 1.22777307e-002,
          1.05842501e-002, 4.23370022e-003, 8.46740045e-003,
          2.07451303e-002, 1.14309909e-002, 1.27011007e-002,
          7.62066012e-003, 2.11685011e-003, 4.23370022e-003,
          1.14309909e-002, 2.15918701e-002, 1.31244706e-002,
          4.23370022e-003, 1.22777307e-002, 5.92718041e-003,
          1.18543608e-002, 1.31244706e-002, 1.10076200e-002,
          8.89077038e-003, 1.18543608e-002, 6.77392026e-003,
          1.60880610e-002, 1.10076200e-002, 2.41320916e-002,
          1.69348007e-003, 8.46740045e-003, 1.35478405e-002,
          7.62066012e-003, 2.96359020e-003, 1.18543608e-002,
          1.18543608e-002, 1.10076200e-002, 3.38696013e-003,
          6.35055033e-003, 1.48179503e-002, 2.54022004e-003,
          7.19729019e-003, 8.89077038e-003, 1.39712105e-002,
          2.11685011e-003, 3.81033006e-003, 1.65114310e-002,
          7.19729019e-003, 2.54022004e-003, 1.18543608e-002,
          8.89077038e-003, 2.96359020e-003, 1.77815408e-002,
          8.89077038e-003, 1.69348007e-003, 1.01608802e-002,
          6.77392026e-003, 5.08044008e-003, 1.01608802e-002,
          7.19729019e-003, 1.05842501e-002, 8.46740045e-003,
          1.48179503e-002, 4.65707015e-003, 1.01608802e-002,
          5.08044008e-003, 1.14309909e-002, 5.92718041e-003,
          1.01608802e-002, 8.89077038e-003, 1.39712105e-002,
          1.35478405e-002, 4.65707015e-003, 8.46740045e-003,
          9.73751023e-003, 1.05842501e-002, 4.23370022e-003,
          1.01608802e-002 ]
      - [ 6.29722886e-003, 1.51133500e-002, 1.19647346e-002,
          8.18639807e-003, 5.03778318e-003, 2.01511327e-002,
          1.51133500e-002, 8.18639807e-003, 4.40806011e-003,
          8.18639807e-003, 1.51133500e-002, 1.32241808e-002,
          9.44584329e-003, 6.92695193e-003, 8.18639807e-003,
          1.25944577e-002, 1.76322404e-002, 1.00755664e-002,
          6.29722886e-003, 5.03778318e-003, 6.29722886e-003,
          6.92695193e-003, 5.03778318e-003, 1.63727961e-002,
          8.18639807e-003, 6.92695193e-003, 6.92695193e-003,
          8.18639807e-003, 1.44836269e-002, 1.07052894e-002,
          1.00755664e-002, 1.63727961e-002, 2.07808558e-002,
          6.29722886e-003, 5.03778318e-003, 7.55667500e-003,
          5.03778318e-003, 1.76322404e-002, 1.57430731e-002,
          1.82619635e-002, 5.03778318e-003, 1.13350125e-002,
          8.18639807e-003, 2.14105789e-002, 5.66750625e-003,
          6.92695193e-003, 1.63727961e-002, 1.00755664e-002,
          5.66750625e-003, 8.81612021e-003, 9.44584329e-003,
          8.18639807e-003, 1.19647346e-002, 1.19647346e-002,
          5.66750625e-003, 1.51133500e-002, 1.63727961e-002,
          5.03778318e-003, 7.55667500e-003, 1.13350125e-002,
          1.19647346e-002, 8.18639807e-003, 1.19647346e-002,
          1.13350125e-002, 8.18639807e-003, 8.81612021e-003,
          7.55667500e-003, 7.55667500e-003, 1.07052894e-002,
          1.00755664e-002, 1.32241808e-002, 8.18639807e-003,
          1.19647346e-002, 2.26700250e-002, 2.26700250e-002,
          1.00755664e-002, 1.25944577e-002, 2.51889159e-003,
          5.03778318e-003, 6.29722897e-004, 9.44584329e-003,
          1.13350125e-002, 6.29722886e-003, 1.44836269e-002,
          6.92695193e-003, 1.25944577e-002, 8.81612021e-003,
          4.40806011e-003, 6.29722886e-003, 5.03778318e-003,
          7.55667500e-003, 8.81612021e-003, 9.44584329e-003,
          6.29722886e-003, 1.19647346e-002, 1.38539039e-002,
          6.92695193e-003, 8.18639807e-003, 6.29722886e-003,
          6.92695193e-003 ]
      - [ 7.85854645e-003, 1.96463661e-003, 3.92927323e-003,
          1.57170929e-002, 1.76817290e-002, 1.17878197e-002,
          4.51866426e-002, 1.96463661e-003, 7.85854645e-003,
          1.96463661e-003, 3.92927323e-003, 5.89390984e-003,
          1.96463661e-003, 5.89390984e-003, 3.92927323e-003,
          1.96463652e-002, 9.82318260e-003, 3.92927323e-003,
          4.71512787e-002, 0., 3.92927323e-003, 1.96463661e-003,
          1.96463661e-003, 9.82318260e-003, 7.85854645e-003,
          7.85854645e-003, 9.82318260e-003, 0., 5.89390984e-003,
          5.89390984e-003, 7.85854645e-003, 9.82318260e-003,
          3.73280942e-002, 5.89390984e-003, 5.89390984e-003,
          7.85854645e-003, 0., 2.16110032e-002, 1.37524568e-002,
          1.17878197e-002, 7.85854645e-003, 5.89390984e-003,
          7.85854645e-003, 3.33988219e-002, 1.37524568e-002,
          1.57170929e-002, 1.57170929e-002, 1.17878197e-002, 0.,
          5.89390984e-003, 7.85854645e-003, 1.37524568e-002,
          7.85854645e-003, 2.94695497e-002, 7.85854645e-003,
          1.76817290e-002, 9.82318260e-003, 7.85854645e-003,
          1.37524568e-002, 5.50098270e-002, 5.89390984e-003,
          9.82318260e-003, 1.57170929e-002, 1.96463661e-003,
          7.85854645e-003, 0., 1.37524568e-002, 1.57170929e-002,
          1.17878197e-002, 1.17878197e-002, 3.92927323e-003,
          3.92927323e-003, 1.37524568e-002, 1.57170929e-002,
          2.94695497e-002, 0., 9.82318260e-003, 9.82318260e-003,
          1.96463661e-003, 1.96463661e-003, 0., 1.96463661e-003,
          3.92927323e-003, 3.92927323e-003, 1.57170929e-002,
          1.17878197e-002, 5.89390984e-003, 1.96463661e-003,
          3.92927323e-003, 9.82318260e-003, 1.96463661e-003,
          1.96463652e-002, 1.17878197e-002, 0., 9.82318260e-003,
          9.82318260e-003, 1.96463661e-003, 1.17878197e-002,
          5.89390984e-003, 0. ]
      - [ 1.08303251e-002, 1.08303251e-002, 7.22021703e-003,
          7.22021703e-003, 7.22021703e-003, 9.62695573e-003,
          1.92539115e-002, 1.20336944e-002, 6.01684721e-003,
          1.20336944e-002, 1.56438034e-002, 9.62695573e-003,
          4.81347786e-003, 1.08303251e-002, 1.20336944e-002,
          1.44404341e-002, 2.16606501e-002, 1.08303251e-002,
          1.20336947e-003, 3.61010851e-003, 1.44404341e-002,
          1.20336944e-002, 6.01684721e-003, 1.68471728e-002,
          4.81347786e-003, 8.42358638e-003, 1.08303251e-002,
          4.81347786e-003, 1.20336944e-002, 6.01684721e-003,
          4.81347786e-003, 1.44404341e-002, 8.42358638e-003,
          7.22021703e-003, 3.61010851e-003, 1.20336944e-002,
          4.81347786e-003, 1.80505421e-002, 2.28640195e-002,
          8.42358638e-003, 1.32370638e-002, 1.32370638e-002,
          9.62695573e-003, 2.64741275e-002, 1.08303251e-002,
          1.80505421e-002, 4.45246696e-002, 1.20336947e-003,
          7.22021703e-003, 1.92539115e-002, 1.44404341e-002,
          1.32370638e-002, 8.42358638e-003, 2.40673893e-003,
          3.61010851e-003, 6.01684721e-003, 2.88808681e-002,
          2.40673893e-003, 9.62695573e-003, 4.81347786e-003,
          6.01684721e-003, 9.62695573e-003, 3.61010851e-003,
          3.61010851e-003, 1.32370638e-002, 4.81347786e-003,
          4.81347786e-003, 3.61010851e-003, 1.56438034e-002,
          8.42358638e-003, 6.01684721e-003, 8.42358638e-003,
          7.22021703e-003, 2.40673893e-003, 2.28640195e-002,
          6.01684721e-003, 1.32370638e-002, 4.81347786e-003,
          4.81347786e-003, 6.01684721e-003, 6.01684721e-003,
          6.01684721e-003, 9.62695573e-003, 8.42358638e-003,
          9.62695573e-003, 1.44404341e-002, 8.42358638e-003,
          9.62695573e-003, 7.22021703e-003, 1.08303251e-002,
          2.52707582e-002, 1.08303251e-002, 8.42358638e-003,
          6.01684721e-003, 6.01684721e-003, 1.20336947e-003,
          1.20336944e-002, 8.42358638e-003, 6.01684721e-003,
          4.81347786e-003 ]
      - [ 1.54584227e-002, 7.46268686e-003, 6.92963786e-003,
          1.22601278e-002, 1.01279318e-002, 7.46268686e-003,
          6.39658887e-003, 6.92963786e-003, 9.06183384e-003,
          6.92963786e-003, 7.99573585e-003, 6.39658887e-003,
          1.54584227e-002, 1.11940298e-002, 9.59488284e-003,
          8.52878485e-003, 1.01279318e-002, 3.73134343e-003,
          7.46268686e-003, 8.52878485e-003, 9.59488284e-003,
          9.59488284e-003, 1.43923247e-002, 7.99573585e-003,
          1.17270788e-002, 1.49253737e-002, 5.33049041e-003,
          1.17270788e-002, 9.06183384e-003, 1.17270788e-002,
          1.59914717e-002, 9.06183384e-003, 8.52878485e-003,
          8.52878485e-003, 6.92963786e-003, 1.38592757e-002,
          1.86567176e-002, 9.59488284e-003, 1.54584227e-002,
          9.59488284e-003, 2.02558637e-002, 6.92963786e-003,
          6.92963786e-003, 1.65245198e-002, 1.70575697e-002,
          9.59488284e-003, 1.38592757e-002, 7.99573585e-003,
          1.11940298e-002, 1.38592757e-002, 7.46268686e-003,
          1.06609808e-002, 3.73134343e-003, 1.38592757e-002,
          1.38592757e-002, 1.11940298e-002, 9.59488284e-003,
          1.06609808e-002, 6.92963786e-003, 1.22601278e-002,
          6.92963786e-003, 5.33049041e-003, 6.92963786e-003,
          5.33049041e-003, 4.79744142e-003, 1.49253737e-002,
          2.66524521e-003, 7.46268686e-003, 2.07889136e-002,
          8.52878485e-003, 3.73134343e-003, 1.17270788e-002,
          9.06183384e-003, 2.66524521e-003, 4.26439242e-003,
          8.52878485e-003, 8.52878485e-003, 1.27931777e-002,
          7.46268686e-003, 3.09168454e-002, 6.39658887e-003,
          1.43923247e-002, 7.99573585e-003, 8.52878485e-003,
          1.11940298e-002, 1.06609808e-002, 1.06609808e-002,
          6.39658887e-003, 1.38592757e-002, 1.54584227e-002,
          2.13219621e-003, 1.43923247e-002, 4.79744142e-003,
          9.06183384e-003, 1.01279318e-002, 6.92963786e-003,
          1.43923247e-002, 4.79744142e-003, 6.39658887e-003,
          1.33262267e-002 ]
      - [ 3.40136047e-003, 3.40136047e-003, 1.02040814e-002, 0.,
          6.80272095e-003, 1.02040814e-002, 1.70068033e-002, 0.,
          6.80272095e-003, 1.70068033e-002, 2.38095224e-002,
          3.40136047e-003, 3.40136047e-003, 3.40136047e-003,
          1.02040814e-002, 6.80272095e-003, 1.70068033e-002,
          3.40136047e-003, 1.02040814e-002, 6.80272095e-003,
          2.38095224e-002, 6.80272095e-003, 3.40136047e-003,
          3.40136047e-003, 2.72108838e-002, 3.40136047e-003,
          1.70068033e-002, 3.40136047e-003, 3.06122452e-002, 0.,
          6.80272095e-003, 2.38095224e-002, 6.80272095e-003,
          6.80272095e-003, 6.80272095e-003, 1.02040814e-002, 0.,
          1.70068033e-002, 1.70068033e-002, 6.80272095e-003, 0.,
          3.40136047e-003, 3.40136047e-003, 3.74149643e-002,
          1.70068033e-002, 0., 2.04081628e-002, 1.70068033e-002,
          1.70068033e-002, 2.04081628e-002, 2.72108838e-002,
          2.04081628e-002, 1.02040814e-002, 3.40136047e-003,
          3.40136047e-003, 0., 3.40136066e-002, 3.40136047e-003,
          1.36054419e-002, 3.40136047e-003, 3.40136047e-003,
          1.36054419e-002, 6.80272095e-003, 3.40136047e-003,
          1.36054419e-002, 3.40136047e-003, 1.70068033e-002,
          1.36054419e-002, 1.02040814e-002, 6.80272095e-003,
          1.02040814e-002, 1.02040814e-002, 6.80272095e-003,
          1.36054419e-002, 1.36054419e-002, 6.80272095e-003,
          1.70068033e-002, 6.80272095e-003, 1.70068033e-002,
          6.80272095e-003, 1.36054419e-002, 3.40136047e-003,
          6.80272095e-003, 1.36054419e-002, 3.40136047e-003,
          1.02040814e-002, 1.02040814e-002, 3.40136047e-003,
          6.80272095e-003, 1.36054419e-002, 0., 0., 1.02040814e-002,
          1.02040814e-002, 1.02040814e-002, 1.02040814e-002,
          6.80272095e-003, 1.70068033e-002, 0., 1.02040814e-002 ]
      - [ 7.87401572e-003, 2.09973752e-002, 1.22484695e-002,
          5.24934381e-003, 5.24934381e-003, 1.66229233e-002,
          2.62467191e-003, 5.24934381e-003, 1.04986876e-002,
          4.37445333e-003, 1.39982505e-002, 1.83727033e-002,
          1.04986876e-002, 8.74890666e-003, 9.62379761e-003,
          7.87401572e-003, 2.44969390e-002, 5.24934381e-003,
          3.49956262e-003, 1.31233595e-002, 1.31233595e-002,
          7.87401572e-003, 1.22484695e-002, 8.74890666e-003,
          1.22484695e-002, 1.92475952e-002, 6.12423476e-003,
          2.27471571e-002, 2.62467191e-003, 1.74978131e-003,
          1.92475952e-002, 1.74978131e-003, 5.24934381e-003,
          5.24934381e-003, 1.74978131e-003, 6.99912524e-003,
          1.31233595e-002, 2.62467191e-003, 1.04986876e-002,
          1.48731414e-002, 1.04986876e-002, 3.49956262e-003,
          2.62467191e-003, 8.74890666e-003, 8.74890666e-003,
          1.13735786e-002, 2.97462828e-002, 2.09973752e-002,
          6.99912524e-003, 9.62379761e-003, 2.27471571e-002,
          8.74890655e-004, 1.39982505e-002, 1.66229233e-002,
          8.74890666e-003, 1.04986876e-002, 6.99912524e-003,
          1.31233595e-002, 9.62379761e-003, 5.24934381e-003,
          7.87401572e-003, 4.28696424e-002, 3.49956262e-003,
          1.04986876e-002, 4.37445333e-003, 9.62379761e-003,
          2.62467191e-003, 6.12423476e-003, 1.22484695e-002,
          1.31233595e-002, 5.24934381e-003, 5.24934381e-003,
          9.62379761e-003, 6.12423476e-003, 9.62379761e-003,
          6.99912524e-003, 8.74890666e-003, 9.62379761e-003,
          2.09973752e-002, 3.49956262e-003, 5.24934381e-003,
          8.74890666e-003, 1.04986876e-002, 1.31233595e-002,
          6.12423476e-003, 4.37445333e-003, 4.37445333e-003,
          6.12423476e-003, 3.49956262e-003, 6.99912524e-003,
          2.62467191e-003, 1.74978133e-002, 1.13735786e-002,
          2.01224852e-002, 5.24934381e-003, 3.14960629e-002,
          9.62379761e-003, 5.24934381e-003, 4.37445333e-003,
          8.74890666e-003 ]
      - [ 3.89221571e-002, 4.49101813e-003, 1.04790423e-002,
          7.48503022e-003, 2.99401209e-003, 2.99401209e-003,
          2.54491027e-002, 4.49101813e-003, 4.49101813e-003,
          2.99401209e-003, 7.48503022e-003, 1.49700604e-003,
          4.49101813e-003, 1.49700604e-003, 8.98203626e-003,
          4.49101813e-003, 1.64670665e-002, 5.98802418e-003,
          4.49101813e-003, 2.99401209e-003, 0., 1.49700604e-003, 0.,
          1.19760484e-002, 2.99401209e-003, 1.49700604e-003,
          5.98802418e-003, 0., 1.34730544e-002, 2.99401209e-003,
          2.99401209e-003, 2.99401209e-003, 1.79640725e-001,
          2.99401209e-003, 1.19760484e-002, 2.99401209e-003,
          2.99401209e-003, 7.48503022e-003, 1.19760484e-002,
          1.49700604e-002, 0., 7.48503022e-003, 5.98802418e-003,
          5.68862297e-002, 1.04790423e-002, 0., 6.73652738e-002,
          1.19760484e-002, 2.99401209e-003, 4.49101813e-003,
          1.34730544e-002, 4.49101813e-003, 0., 0., 5.98802418e-003,
          1.94610786e-002, 1.04790423e-002, 2.99401209e-003,
          5.98802418e-003, 5.98802418e-003, 2.99401209e-003,
          1.49700604e-002, 5.98802418e-003, 4.49101813e-003,
          4.49101813e-003, 4.49101813e-003, 8.98203626e-003,
          8.98203626e-003, 8.98203626e-003, 0., 1.64670665e-002,
          4.49101813e-003, 2.99401209e-003, 8.98203626e-003,
          1.19760484e-002, 1.49700604e-003, 1.64670665e-002,
          1.19760484e-002, 2.99401209e-003, 1.19760484e-002,
          2.99401209e-003, 4.49101813e-003, 0., 2.99401209e-003,
          3.89221571e-002, 1.34730544e-002, 2.99401209e-003,
          2.99401209e-003, 1.79640725e-002, 5.98802418e-003,
          1.34730544e-002, 4.49101813e-003, 2.99401209e-003,
          5.98802418e-003, 5.98802418e-003, 1.04790423e-002,
          8.98203626e-003, 0., 1.94610786e-002, 0. ]
      - [ 1.07642626e-002, 1.21994978e-002, 1.00466451e-002,
          1.21994978e-002, 1.21994978e-002, 1.00466451e-002,
          1.00466451e-002, 1.11230714e-002, 1.04054539e-002,
          8.97021871e-003, 1.04054539e-002, 1.68640111e-002,
          1.25583066e-002, 1.04054539e-002, 1.18406890e-002,
          3.94689618e-003, 6.81736646e-003, 6.45855768e-003,
          4.66451375e-003, 1.36347329e-002, 9.32902750e-003,
          1.07642626e-002, 1.32759241e-002, 6.45855768e-003,
          1.32759241e-002, 1.68640111e-002, 5.74094011e-003,
          1.14818802e-002, 8.61140992e-003, 4.30570496e-003,
          1.61463935e-002, 6.45855768e-003, 8.25260114e-003,
          8.97021871e-003, 6.45855768e-003, 1.04054539e-002,
          1.43523505e-002, 5.02332253e-003, 1.18406890e-002,
          6.81736646e-003, 1.21994978e-002, 7.53498403e-003,
          1.00466451e-002, 8.97021871e-003, 8.61140992e-003,
          1.47111593e-002, 1.47111593e-002, 8.97021871e-003,
          1.14818802e-002, 1.14818802e-002, 1.43523505e-002,
          7.89379235e-003, 6.09974889e-003, 1.00466451e-002,
          1.11230714e-002, 8.97021871e-003, 5.02332253e-003,
          1.39935417e-002, 1.00466451e-002, 5.74094011e-003,
          1.11230714e-002, 1.54287769e-002, 3.58808762e-003,
          6.45855768e-003, 7.89379235e-003, 1.93756726e-002,
          6.81736646e-003, 1.07642626e-002, 9.32902750e-003,
          1.25583066e-002, 3.58808762e-003, 1.07642626e-002,
          1.32759241e-002, 5.38213132e-003, 1.43523505e-002,
          6.09974889e-003, 6.81736646e-003, 1.50699681e-002,
          1.18406890e-002, 1.04054539e-002, 8.97021871e-003,
          1.47111593e-002, 1.18406890e-002, 1.25583066e-002,
          8.25260114e-003, 4.30570496e-003, 9.32902750e-003,
          8.25260114e-003, 8.25260114e-003, 1.21994978e-002,
          7.17617513e-004, 1.21994978e-002, 1.14818802e-002,
          1.54287769e-002, 5.74094011e-003, 1.04054539e-002,
          1.50699681e-002, 9.32902750e-003, 5.02332253e-003,
          1.25583066e-002 ]
      - [ 4.43704939e-003, 1.10926237e-002, 8.87409877e-003,
          3.88241815e-003, 3.88241815e-003, 7.76483631e-003,
          2.38491409e-002, 1.22018857e-002, 6.10094285e-003,
          6.65557384e-003, 6.65557384e-003, 7.76483631e-003,
          6.10094285e-003, 2.77315592e-003, 9.42873023e-003,
          1.16472542e-002, 1.60843041e-002, 9.98336077e-003,
          1.94120910e-002, 1.05379922e-002, 7.76483631e-003,
          1.16472542e-002, 2.77315592e-003, 8.87409877e-003,
          3.88241815e-003, 3.88241815e-003, 6.65557384e-003, 0.,
          8.87409877e-003, 7.76483631e-003, 7.21020531e-003,
          1.55296726e-002, 3.82695496e-002, 2.77315592e-003,
          3.88241815e-003, 3.32778692e-003, 1.10926235e-003,
          1.22018857e-002, 9.98336077e-003, 1.44204106e-002,
          4.99168038e-003, 5.54631185e-003, 6.10094285e-003,
          8.54132026e-002, 0., 7.76483631e-003, 1.71935670e-002,
          6.65557384e-003, 4.99168038e-003, 5.54631185e-003,
          1.33111477e-002, 6.65557384e-003, 5.54631185e-003,
          2.99500842e-002, 6.10094285e-003, 6.10094285e-003,
          1.16472542e-002, 5.54631185e-003, 9.42873023e-003,
          4.04880755e-002, 1.60843041e-002, 1.55296726e-002,
          5.54631185e-003, 1.05379922e-002, 7.21020531e-003,
          4.43704939e-003, 3.88241815e-003, 6.65557384e-003,
          1.38657792e-002, 1.77481975e-002, 9.98336077e-003,
          6.65557384e-003, 8.87409877e-003, 2.21852469e-003,
          2.27398779e-002, 7.21020531e-003, 5.54631185e-003,
          6.10094285e-003, 1.27565172e-002, 2.21852469e-003,
          1.44204106e-002, 6.10094285e-003, 9.98336077e-003,
          1.27565172e-002, 8.87409877e-003, 6.10094285e-003,
          4.99168038e-003, 2.77315592e-003, 6.65557384e-003,
          2.77315592e-003, 1.27565172e-002, 5.54631185e-003,
          4.43704939e-003, 5.54631185e-003, 2.05213539e-002,
          6.65557384e-003, 6.10094285e-003, 1.44204106e-002,
          1.83028281e-002, 5.54631185e-003 ]
      - [ 1.26315784e-002, 5.26315765e-003, 1.57894734e-002,
          7.36842072e-003, 4.21052612e-003, 1.99999996e-002,
          1.68421045e-002, 8.42105225e-003, 8.42105225e-003,
          1.26315784e-002, 1.15789473e-002, 8.42105225e-003,
          6.31578919e-003, 8.42105225e-003, 2.10526306e-003,
          2.10526306e-003, 2.10526306e-002, 4.21052612e-003,
          1.05263153e-002, 4.21052612e-003, 9.47368331e-003,
          6.31578919e-003, 5.26315765e-003, 1.05263153e-003,
          4.21052612e-003, 7.36842072e-003, 1.05263153e-002,
          5.26315765e-003, 6.31578919e-003, 4.21052612e-003,
          6.31578919e-003, 1.15789473e-002, 1.15789473e-002,
          1.36842094e-002, 3.15789459e-003, 1.47368414e-002,
          5.26315765e-003, 6.31578919e-003, 1.15789473e-002,
          1.36842094e-002, 1.36842094e-002, 4.21052612e-003,
          8.42105225e-003, 3.89473662e-002, 1.78947356e-002,
          6.31578919e-003, 3.15789469e-002, 6.31578919e-003,
          3.15789459e-003, 1.05263153e-002, 1.05263153e-002,
          8.42105225e-003, 6.31578919e-003, 1.15789473e-002,
          7.36842072e-003, 1.57894734e-002, 1.78947356e-002,
          6.31578919e-003, 3.15789459e-003, 1.57894734e-002,
          1.78947356e-002, 3.15789459e-003, 1.47368414e-002,
          1.05263153e-002, 7.36842072e-003, 6.31578919e-003,
          9.47368331e-003, 9.47368331e-003, 1.26315784e-002,
          2.31578946e-002, 8.42105225e-003, 1.47368414e-002,
          3.15789459e-003, 9.47368331e-003, 3.15789459e-003,
          1.47368414e-002, 1.15789473e-002, 9.47368331e-003,
          8.42105225e-003, 1.68421045e-002, 9.47368331e-003,
          1.26315784e-002, 9.47368331e-003, 1.57894734e-002,
          1.05263153e-002, 1.05263153e-002, 1.99999996e-002,
          3.15789459e-003, 1.99999996e-002, 7.36842072e-003,
          4.21052612e-003, 3.15789459e-003, 4.21052612e-003,
          7.36842072e-003, 5.26315765e-003, 9.47368331e-003,
          1.36842094e-002, 4.21052612e-003, 1.26315784e-002,
          9.47368331e-003 ]
      - [ 7.47663574e-003, 2.71028038e-002, 6.54205633e-003,
          5.14018722e-003, 1.07476637e-002, 5.14018722e-003,
          1.35514019e-002, 9.81308427e-003, 1.40186921e-002,
          8.87850486e-003, 4.20560781e-003, 1.26168225e-002,
          1.12149538e-002, 1.02803744e-002, 1.26168225e-002,
          1.30841127e-002, 9.34579503e-003, 1.82242990e-002,
          4.20560781e-003, 1.91588793e-002, 4.20560781e-003,
          9.34579503e-003, 1.16822431e-002, 7.94392545e-003,
          1.72897205e-002, 1.58878509e-002, 7.00934604e-003,
          1.68224312e-002, 7.94392545e-003, 3.73831787e-003,
          1.44859813e-002, 5.60747692e-003, 2.80373846e-003,
          4.20560781e-003, 7.00934604e-003, 6.54205633e-003,
          1.35514019e-002, 8.87850486e-003, 1.30841127e-002,
          3.73831787e-003, 4.67289751e-003, 4.67289751e-003,
          5.60747692e-003, 1.07476637e-002, 2.00934578e-002,
          1.21495333e-002, 2.99065430e-002, 1.58878509e-002,
          1.12149538e-002, 8.87850486e-003, 2.47663558e-002,
          5.14018722e-003, 5.14018722e-003, 1.54205617e-002,
          7.94392545e-003, 5.60747692e-003, 1.30841127e-002,
          1.44859813e-002, 7.00934604e-003, 6.07476663e-003,
          5.60747692e-003, 2.61682253e-002, 1.86915894e-003,
          1.86915894e-003, 4.20560781e-003, 1.21495333e-002,
          4.67289751e-003, 1.12149538e-002, 1.21495333e-002,
          6.54205633e-003, 9.81308427e-003, 7.94392545e-003,
          1.21495333e-002, 2.33644876e-003, 1.44859813e-002,
          8.41121562e-003, 6.07476663e-003, 9.81308427e-003,
          8.87850486e-003, 6.54205633e-003, 1.44859813e-002,
          7.47663574e-003, 8.41121562e-003, 5.14018722e-003,
          9.81308427e-003, 1.26168225e-002, 4.20560781e-003,
          6.54205633e-003, 5.60747692e-003, 1.49532715e-002,
          1.49532715e-002, 1.35514019e-002, 6.54205633e-003,
          1.72897205e-002, 3.27102817e-003, 1.49532715e-002,
          6.54205633e-003, 1.21495333e-002, 7.00934604e-003,
          7.94392545e-003 ]
      - [ 9.14634112e-003, 1.72764212e-002, 1.27032511e-002,
          1.16869919e-002, 6.60569081e-003, 1.72764212e-002,
          8.63821059e-003, 1.62601620e-002, 1.01626012e-002,
          1.06707308e-002, 1.27032511e-002, 6.60569081e-003,
          8.13008100e-003, 8.13008100e-003, 1.11788614e-002,
          5.08130062e-003, 1.82926822e-002, 1.06707308e-002,
          4.06504050e-003, 6.60569081e-003, 1.01626012e-002,
          2.03252025e-002, 4.57317056e-003, 7.11382087e-003,
          1.42276417e-002, 8.63821059e-003, 1.32113816e-002,
          1.06707308e-002, 1.37195121e-002, 8.63821059e-003,
          1.42276417e-002, 7.11382087e-003, 1.11788614e-002,
          8.13008100e-003, 6.60569081e-003, 8.63821059e-003,
          6.60569081e-003, 1.01626012e-002, 1.27032511e-002,
          1.27032511e-002, 7.11382087e-003, 1.06707308e-002,
          9.14634112e-003, 1.16869919e-002, 2.54065031e-003,
          6.09756075e-003, 1.62601620e-002, 9.14634112e-003,
          1.47357713e-002, 1.21951215e-002, 2.13414617e-002,
          6.09756075e-003, 7.11382087e-003, 6.09756075e-003,
          8.13008100e-003, 1.06707308e-002, 6.60569081e-003,
          9.14634112e-003, 1.32113816e-002, 4.57317056e-003,
          7.11382087e-003, 8.13008100e-003, 8.13008100e-003,
          1.27032511e-002, 1.32113816e-002, 1.42276417e-002,
          9.65447165e-003, 8.13008100e-003, 6.60569081e-003,
          8.13008100e-003, 1.62601620e-002, 1.06707308e-002,
          1.16869919e-002, 1.21951215e-002, 2.18495931e-002,
          7.11382087e-003, 8.13008100e-003, 7.11382087e-003,
          8.63821059e-003, 8.13008100e-003, 1.11788614e-002,
          9.65447165e-003, 6.60569081e-003, 1.37195121e-002,
          7.11382087e-003, 5.08130062e-003, 8.63821059e-003,
          8.13008100e-003, 3.55691044e-003, 1.01626012e-002,
          9.14634112e-003, 8.13008100e-003, 6.60569081e-003,
          1.37195121e-002, 9.65447165e-003, 9.14634112e-003,
          1.01626012e-002, 1.21951215e-002, 9.14634112e-003,
          6.60569081e-003 ]
      - [ 1.85507238e-002, 1.33333327e-002, 1.44927530e-002,
          9.27536190e-003, 6.37681130e-003, 1.15942024e-002,
          4.63768095e-003, 7.53623154e-003, 1.15942024e-002,
          1.68115944e-002, 1.39130428e-002, 1.33333327e-002,
          5.21739107e-003, 1.21739125e-002, 1.79710127e-002,
          9.27536190e-003, 8.11594166e-003, 1.21739125e-002,
          2.31884047e-003, 1.10144923e-002, 1.85507238e-002,
          1.50724631e-002, 9.27536190e-003, 4.63768095e-003,
          1.27536226e-002, 1.33333327e-002, 1.15942024e-002,
          8.69565178e-003, 9.27536190e-003, 1.10144923e-002,
          1.21739125e-002, 6.37681130e-003, 6.95652142e-003,
          1.50724631e-002, 5.79710118e-003, 1.39130428e-002,
          5.79710118e-003, 8.11594166e-003, 8.69565178e-003,
          1.04347821e-002, 1.27536226e-002, 6.95652142e-003,
          1.15942024e-002, 2.89855059e-003, 7.53623154e-003,
          6.95652142e-003, 1.62318833e-002, 2.89855059e-003,
          1.33333327e-002, 1.04347821e-002, 1.21739125e-002,
          4.63768095e-003, 1.33333327e-002, 6.37681130e-003,
          8.11594166e-003, 4.63768095e-003, 8.69565178e-003,
          9.27536190e-003, 1.15942024e-002, 4.05797083e-003,
          1.10144923e-002, 8.69565178e-003, 1.15942024e-003,
          5.21739107e-003, 6.95652142e-003, 1.39130428e-002,
          4.63768095e-003, 1.10144923e-002, 8.69565178e-003,
          1.10144923e-002, 4.63768095e-003, 1.15942024e-002,
          4.63768095e-003, 1.73913036e-003, 8.69565178e-003,
          1.21739125e-002, 1.10144923e-002, 1.10144923e-002,
          8.69565178e-003, 1.04347821e-002, 1.50724631e-002,
          8.11594166e-003, 1.27536226e-002, 1.33333327e-002,
          1.44927530e-002, 1.33333327e-002, 2.37681158e-002,
          8.11594166e-003, 1.62318833e-002, 1.33333327e-002,
          3.47826071e-003, 1.10144923e-002, 1.04347821e-002,
          1.50724631e-002, 5.79710118e-003, 4.63768095e-003,
          1.50724631e-002, 8.11594166e-003, 4.63768095e-003,
          1.44927530e-002 ]
      - [ 1.00591714e-002, 1.86390523e-002, 9.17159766e-003,
          8.57988186e-003, 1.33136092e-002, 1.21301776e-002,
          3.55029572e-003, 9.17159766e-003, 1.06508872e-002,
          1.03550293e-002, 4.43786988e-003, 1.24260355e-002,
          1.00591714e-002, 1.09467451e-002, 2.01183427e-002,
          8.87573976e-003, 7.39644980e-003, 9.76331346e-003,
          3.84615385e-003, 1.71597637e-002, 8.87573976e-003,
          1.00591714e-002, 9.76331346e-003, 4.43786988e-003,
          1.09467451e-002, 1.65680479e-002, 8.57988186e-003,
          1.27218934e-002, 8.57988186e-003, 6.80473354e-003,
          1.47928996e-002, 6.50887564e-003, 6.21301774e-003,
          9.76331346e-003, 5.91715984e-003, 1.15384618e-002,
          7.10059144e-003, 6.80473354e-003, 9.17159766e-003,
          6.50887564e-003, 1.00591714e-002, 5.02958568e-003,
          9.46745556e-003, 3.84615385e-003, 1.12426039e-002,
          1.42011829e-002, 9.17159766e-003, 9.76331346e-003,
          1.39053250e-002, 1.65680479e-002, 1.71597637e-002,
          5.32544358e-003, 9.46745556e-003, 9.76331346e-003,
          1.09467451e-002, 5.91715984e-003, 8.87573976e-003,
          1.21301776e-002, 1.09467451e-002, 4.43786988e-003,
          1.21301776e-002, 2.07100585e-002, 5.62130194e-003,
          9.76331346e-003, 7.10059144e-003, 1.09467451e-002,
          5.62130194e-003, 9.17159766e-003, 7.69230770e-003,
          1.21301776e-002, 4.43786988e-003, 1.03550293e-002,
          1.59763321e-002, 5.62130194e-003, 2.95857992e-003,
          1.24260355e-002, 5.91715984e-003, 1.12426039e-002,
          1.39053250e-002, 8.57988186e-003, 1.03550293e-002,
          1.03550293e-002, 1.09467451e-002, 1.00591714e-002,
          1.24260355e-002, 7.69230770e-003, 7.98816606e-003,
          8.87573976e-003, 8.57988186e-003, 1.62721891e-002,
          9.76331346e-003, 1.47928996e-002, 1.24260355e-002,
          1.47928996e-002, 7.69230770e-003, 1.03550293e-002,
          1.65680479e-002, 1.27218934e-002, 3.84615385e-003,
          1.06508872e-002 ]
      - [ 7.62631092e-003, 4.76644421e-003, 1.33460443e-002,
          6.67302217e-003, 7.62631092e-003, 1.71591993e-002,
          9.53288842e-003, 6.67302217e-003, 1.62059106e-002,
          9.53288842e-003, 1.81124881e-002, 7.62631092e-003,
          4.76644421e-003, 6.67302217e-003, 8.57959967e-003,
          5.71973342e-003, 1.23927556e-002, 8.57959967e-003,
          8.57959967e-003, 4.76644421e-003, 1.33460443e-002,
          7.62631092e-003, 9.53288842e-003, 2.85986671e-003,
          4.76644421e-003, 3.81315546e-003, 1.04861772e-002,
          3.81315546e-003, 1.81124881e-002, 9.53288842e-003,
          7.62631092e-003, 1.04861772e-002, 6.67302217e-003,
          1.04861772e-002, 1.14394668e-002, 1.52526218e-002,
          4.76644421e-003, 5.71973342e-003, 6.67302217e-003,
          1.52526218e-002, 8.57959967e-003, 8.57959967e-003,
          7.62631092e-003, 3.52716893e-002, 8.57959967e-003,
          1.90657773e-003, 1.62059106e-002, 2.57387999e-002,
          2.85986671e-003, 1.04861772e-002, 1.04861772e-002,
          9.53288842e-003, 1.52526218e-002, 1.23927556e-002,
          6.67302217e-003, 2.00190656e-002, 1.23927556e-002,
          3.81315546e-003, 4.76644421e-003, 1.23927556e-002,
          5.71973342e-003, 1.14394668e-002, 1.14394668e-002,
          8.57959967e-003, 2.85986671e-003, 1.04861772e-002,
          1.14394668e-002, 9.53288842e-003, 1.52526218e-002,
          7.62631092e-003, 1.23927556e-002, 1.04861772e-002,
          7.62631092e-003, 1.23927556e-002, 1.04861772e-002,
          1.04861772e-002, 1.33460443e-002, 6.67302217e-003,
          1.33460443e-002, 1.14394668e-002, 5.71973342e-003,
          7.62631092e-003, 5.71973342e-003, 1.33460443e-002,
          2.85986671e-003, 1.90657768e-002, 1.52526218e-002,
          6.67302217e-003, 1.23927556e-002, 6.67302217e-003,
          1.33460443e-002, 4.76644421e-003, 3.81315546e-003,
          4.76644421e-003, 4.76644421e-003, 2.38322224e-002,
          2.00190656e-002, 6.67302217e-003, 9.53288842e-003,
          1.33460443e-002 ]
      - [ 7.23140454e-003, 2.06611566e-002, 1.03305783e-002,
          9.29751992e-003, 1.75619833e-002, 9.29751992e-003,
          1.03305783e-002, 0., 1.23966932e-002, 8.26446246e-003,
          1.03305783e-002, 1.13636358e-002, 7.23140454e-003,
          4.13223123e-003, 5.16528916e-003, 1.34297516e-002,
          1.65289249e-002, 1.44628091e-002, 5.16528916e-003,
          1.96280982e-002, 1.03305783e-002, 8.26446246e-003,
          8.26446246e-003, 1.23966932e-002, 9.29751992e-003,
          1.03305783e-002, 2.06611562e-003, 1.23966932e-002,
          1.03305783e-002, 3.09917331e-003, 1.13636358e-002,
          1.44628091e-002, 2.06611562e-003, 9.29751992e-003,
          7.23140454e-003, 1.23966932e-002, 2.16942132e-002,
          6.19834661e-003, 1.96280982e-002, 1.13636358e-002,
          7.23140454e-003, 8.26446246e-003, 1.34297516e-002,
          2.89256182e-002, 1.75619833e-002, 8.26446246e-003,
          9.29751992e-003, 1.13636358e-002, 8.26446246e-003,
          1.65289249e-002, 1.23966932e-002, 5.16528916e-003,
          1.13636358e-002, 3.09917331e-003, 1.34297516e-002,
          8.26446246e-003, 1.96280982e-002, 6.19834661e-003,
          9.29751992e-003, 9.29751992e-003, 1.44628091e-002,
          1.65289249e-002, 7.23140454e-003, 9.29751992e-003,
          1.13636358e-002, 1.34297516e-002, 9.29751992e-003,
          7.23140454e-003, 1.13636358e-002, 1.34297516e-002,
          3.09917331e-003, 6.19834661e-003, 7.23140454e-003,
          6.19834661e-003, 1.13636358e-002, 1.34297516e-002,
          7.23140454e-003, 1.34297516e-002, 4.13223123e-003,
          1.65289249e-002, 4.13223123e-003, 9.29751992e-003,
          7.23140454e-003, 8.26446246e-003, 5.16528916e-003,
          6.19834661e-003, 7.23140454e-003, 5.16528916e-003,
          5.16528916e-003, 3.09917331e-003, 6.19834661e-003,
          3.09917331e-003, 4.13223123e-003, 1.65289249e-002,
          5.16528916e-003, 9.29751992e-003, 1.85950398e-002,
          1.65289249e-002, 3.09917331e-003, 1.13636358e-002 ]
      - [ 9.68992244e-003, 7.75193796e-003, 9.68992244e-003,
          1.93798449e-003, 1.93798449e-003, 1.35658914e-002,
          5.32945730e-002, 1.45348832e-002, 6.78294571e-003,
          7.75193796e-003, 8.72093067e-003, 9.68992244e-003,
          3.87596898e-003, 5.81395347e-003, 1.06589142e-002,
          3.87596898e-003, 3.77906971e-002, 7.75193796e-003,
          1.55038759e-002, 4.84496122e-003, 8.72093067e-003,
          6.78294571e-003, 2.90697673e-003, 1.55038759e-002,
          6.78294571e-003, 9.68992244e-004, 8.72093067e-003,
          2.90697673e-003, 1.25968996e-002, 2.51937993e-002,
          1.16279069e-002, 1.16279069e-002, 1.93798449e-002,
          3.87596898e-003, 2.90697673e-003, 6.78294571e-003,
          4.84496122e-003, 3.97286825e-002, 1.93798449e-002,
          7.75193796e-003, 0., 6.78294571e-003, 6.78294571e-003,
          8.72093067e-003, 3.87596898e-003, 6.78294571e-003,
          4.36046496e-002, 1.45348832e-002, 4.84496122e-003,
          3.87596898e-003, 6.78294571e-003, 1.06589142e-002,
          5.81395347e-003, 6.78294571e-003, 7.75193796e-003,
          9.68992244e-003, 1.93798449e-002, 3.87596898e-003,
          2.90697673e-003, 7.75193796e-003, 9.68992244e-003,
          3.87596898e-003, 8.72093067e-003, 5.81395347e-003,
          4.84496122e-003, 6.78294571e-003, 9.68992244e-003,
          6.78294571e-003, 2.03488376e-002, 5.81395347e-003,
          6.78294571e-003, 1.93798449e-003, 1.06589142e-002,
          5.81395347e-003, 4.65116277e-002, 3.87596898e-003,
          1.16279069e-002, 3.87596898e-003, 6.78294571e-003,
          1.93798449e-003, 1.16279069e-002, 3.87596898e-003,
          8.72093067e-003, 1.16279069e-002, 1.45348832e-002,
          7.75193796e-003, 2.90697673e-003, 0., 4.84496122e-003,
          1.93798449e-003, 3.39147300e-002, 8.72093067e-003,
          9.68992244e-003, 9.68992244e-004, 1.74418613e-002,
          1.93798449e-002, 4.84496122e-003, 5.81395347e-003,
          7.75193796e-003, 5.81395347e-003 ]
      - [ 1.19712688e-002, 1.91540308e-002, 7.18276156e-003,
          4.78850771e-003, 7.98084587e-003, 1.03751002e-002,
          1.03751002e-002, 7.98084587e-003, 9.57701541e-003,
          1.43655231e-002, 1.03751002e-002, 6.38467679e-003,
          1.03751002e-002, 1.11731840e-002, 1.35674383e-002,
          7.98084587e-003, 1.03751002e-002, 1.35674383e-002,
          6.38467679e-003, 1.03751002e-002, 9.57701541e-003,
          1.03751002e-002, 8.77893064e-003, 2.39425385e-003,
          1.59616917e-002, 1.59616917e-002, 1.43655231e-002,
          2.39425385e-003, 5.58659201e-003, 2.39425385e-003,
          6.38467679e-003, 4.78850771e-003, 2.79329605e-002,
          7.18276156e-003, 8.77893064e-003, 1.19712688e-002,
          9.57701541e-003, 8.77893064e-003, 2.07502004e-002,
          7.98084587e-003, 1.51636070e-002, 3.19233839e-003,
          1.11731840e-002, 1.27693536e-002, 1.19712688e-002,
          4.78850771e-003, 2.15482842e-002, 7.98084587e-003,
          1.75578613e-002, 2.07502004e-002, 2.63367910e-002,
          6.38467679e-003, 1.11731840e-002, 7.18276156e-003,
          7.18276156e-003, 4.78850771e-003, 9.57701541e-003,
          8.77893064e-003, 7.98084587e-003, 8.77893064e-003,
          7.18276156e-003, 1.03751002e-002, 4.78850771e-003,
          2.39425385e-003, 1.51636070e-002, 1.75578613e-002,
          7.18276156e-003, 7.98084587e-003, 1.03751002e-002,
          8.77893064e-003, 7.98084587e-003, 9.57701541e-003,
          7.98084587e-003, 6.38467679e-003, 6.38467679e-003,
          8.77893064e-003, 4.78850771e-003, 1.51636070e-002,
          6.38467679e-003, 7.98084587e-003, 7.98084587e-003,
          9.57701541e-003, 8.77893064e-003, 8.77893064e-003,
          1.19712688e-002, 9.57701541e-003, 8.77893064e-003,
          7.18276156e-003, 9.57701541e-003, 1.91540308e-002,
          5.58659201e-003, 1.35674383e-002, 1.11731840e-002,
          1.19712688e-002, 3.99042293e-003, 1.03751002e-002,
          7.18276156e-003, 1.19712688e-002, 7.18276156e-003,
          1.11731840e-002 ]
      - [ 1.36778113e-002, 6.07902743e-003, 1.67173259e-002,
          3.03951371e-003, 3.03951371e-003, 1.21580549e-002,
          2.27963533e-002, 3.03951371e-003, 2.43161097e-002,
          4.55927057e-003, 9.11854114e-003, 1.36778113e-002,
          3.03951371e-003, 7.59878429e-003, 1.21580549e-002,
          7.59878429e-003, 2.73556225e-002, 1.51975686e-002,
          9.11854114e-003, 6.07902743e-003, 1.21580549e-002,
          6.07902743e-003, 6.07902743e-003, 1.51975686e-002,
          6.07902743e-003, 4.55927057e-003, 7.59878429e-003,
          1.51975686e-003, 1.06382985e-002, 1.51975686e-002,
          1.06382985e-002, 9.11854114e-003, 2.12765969e-002,
          4.55927057e-003, 1.51975686e-003, 1.36778113e-002,
          1.06382985e-002, 9.11854114e-003, 9.11854114e-003,
          1.67173259e-002, 1.06382985e-002, 9.11854114e-003,
          1.97568387e-002, 4.55927057e-003, 7.59878429e-003,
          1.51975686e-003, 6.07902743e-003, 1.06382985e-002,
          1.06382985e-002, 3.03951371e-003, 1.36778113e-002,
          3.03951371e-003, 1.21580549e-002, 7.59878429e-003,
          1.06382985e-002, 1.06382985e-002, 1.21580549e-002,
          7.59878429e-003, 1.51975686e-003, 9.11854114e-003,
          1.36778113e-002, 3.03951371e-003, 7.59878429e-003,
          1.06382985e-002, 9.11854114e-003, 1.36778113e-002,
          4.55927057e-003, 1.67173259e-002, 6.07902743e-003,
          7.59878429e-003, 3.03951371e-003, 1.36778113e-002,
          7.59878429e-003, 1.51975686e-002, 1.82370823e-002,
          1.36778113e-002, 6.07902743e-003, 7.59878429e-003,
          7.59878429e-003, 7.59878429e-003, 7.59878429e-003,
          7.59878429e-003, 7.59878429e-003, 1.82370823e-002,
          2.12765969e-002, 1.82370823e-002, 1.36778113e-002,
          4.55927057e-003, 2.27963533e-002, 1.51975686e-003,
          1.36778113e-002, 9.11854114e-003, 3.03951371e-003,
          4.55927057e-003, 2.27963533e-002, 1.21580549e-002,
          1.06382985e-002, 1.06382985e-002, 7.59878429e-003,
          6.07902743e-003 ]
      - [ 1.43430866e-002, 8.60585179e-003, 8.60585179e-003,
          4.58978768e-003, 1.31956395e-002, 1.77854281e-002,
          5.73723461e-004, 3.44234076e-003, 6.31095795e-003,
          9.75329895e-003, 1.03270225e-002, 1.20481923e-002,
          2.29489394e-002, 1.77854281e-002, 1.09007461e-002,
          5.16351126e-003, 4.01606411e-003, 4.58978768e-003,
          4.58978768e-003, 1.26219159e-002, 1.26219159e-002,
          1.20481923e-002, 1.26219159e-002, 8.60585179e-003,
          1.26219159e-002, 2.06540450e-002, 8.03212821e-003,
          1.37693631e-002, 4.01606411e-003, 4.58978768e-003,
          2.06540450e-002, 4.58978768e-003, 1.26219159e-002,
          9.75329895e-003, 4.01606411e-003, 6.31095795e-003,
          2.00803205e-002, 4.58978768e-003, 5.16351126e-003,
          1.49168102e-002, 1.66379809e-002, 8.03212821e-003,
          9.17957537e-003, 4.58978768e-003, 1.66379809e-002,
          1.14744697e-002, 4.58978768e-003, 1.03270225e-002,
          8.03212821e-003, 2.23752148e-002, 6.31095795e-003,
          6.31095795e-003, 1.49168102e-002, 1.49168102e-002,
          1.43430866e-002, 5.73723484e-003, 4.58978768e-003,
          1.14744697e-002, 7.45840510e-003, 9.17957537e-003,
          1.72117036e-002, 1.20481923e-002, 5.16351126e-003,
          6.88468153e-003, 8.60585179e-003, 1.26219159e-002,
          6.88468153e-003, 6.31095795e-003, 8.03212821e-003,
          1.26219159e-002, 5.73723461e-004, 1.26219159e-002,
          1.54905338e-002, 4.01606411e-003, 1.14744692e-003,
          9.75329895e-003, 5.16351126e-003, 1.37693631e-002,
          1.31956395e-002, 1.54905338e-002, 4.01606411e-003,
          1.77854281e-002, 1.60642564e-002, 1.43430866e-002,
          1.09007461e-002, 6.88468153e-003, 1.31956395e-002,
          6.31095795e-003, 9.75329895e-003, 1.37693631e-002,
          2.29489384e-003, 1.14744697e-002, 1.14744697e-002,
          1.43430866e-002, 2.29489384e-003, 1.03270225e-002,
          1.37693631e-002, 5.73723484e-003, 2.29489384e-003,
          1.37693631e-002 ]
      - [ 4.68854653e-003, 1.80843938e-002, 1.00468853e-002,
          6.69792341e-003, 8.03750847e-003, 1.40656391e-002,
          6.56396523e-002, 7.36771571e-003, 8.03750847e-003,
          6.02813112e-003, 7.36771571e-003, 1.20562622e-002,
          8.70730076e-003, 6.02813112e-003, 1.00468853e-002,
          9.37709305e-003, 2.41125245e-002, 1.13864699e-002,
          6.69792353e-004, 8.70730076e-003, 6.02813112e-003,
          1.07166776e-002, 5.35833882e-003, 1.13864699e-002,
          9.37709305e-003, 6.69792341e-003, 8.03750847e-003,
          1.20562622e-002, 5.35833882e-003, 3.34896171e-003,
          6.02813112e-003, 2.14333553e-002, 2.61219013e-002,
          7.36771571e-003, 6.69792341e-003, 5.35833882e-003,
          5.35833882e-003, 1.87541861e-002, 1.13864699e-002,
          6.02813112e-003, 2.67916941e-003, 4.01875423e-003,
          9.37709305e-003, 1.00468853e-002, 2.00937712e-003,
          4.01875423e-003, 1.60750169e-002, 6.69792341e-003,
          1.40656391e-002, 6.02813112e-003, 3.01406551e-002,
          3.34896171e-003, 8.03750847e-003, 1.13864699e-002,
          6.69792341e-003, 9.37709305e-003, 2.74614859e-002,
          1.20562622e-002, 1.40656391e-002, 6.02813112e-003,
          1.27260545e-002, 7.36771571e-003, 5.35833882e-003,
          6.69792341e-003, 6.02813112e-003, 6.02813112e-003,
          4.68854653e-003, 1.33958468e-002, 1.00468853e-002,
          1.20562622e-002, 7.36771571e-003, 5.35833882e-003,
          8.70730076e-003, 5.35833882e-003, 2.94708628e-002,
          6.69792341e-003, 6.02813112e-003, 5.35833882e-003,
          4.01875423e-003, 6.69792341e-003, 1.20562622e-002,
          1.40656391e-002, 8.03750847e-003, 1.20562622e-002,
          9.37709305e-003, 1.20562622e-002, 2.67916941e-003,
          2.67916941e-003, 4.68854653e-003, 6.02813112e-003,
          1.60750169e-002, 6.69792341e-003, 1.00468853e-002,
          9.37709305e-003, 7.36771571e-003, 7.36771571e-003,
          1.33958468e-002, 1.13864699e-002, 9.37709305e-003,
          1.20562622e-002 ]
      - [ 1.08173080e-002, 2.04326939e-002, 9.61538497e-003,
          8.41346197e-003, 1.08173080e-002, 7.21153896e-003,
          3.00480779e-002, 1.08173080e-002, 6.00961549e-003,
          8.41346197e-003, 1.08173080e-002, 6.00961549e-003,
          3.60576948e-003, 4.80769249e-003, 8.41346197e-003,
          1.80288460e-002, 3.96634638e-002, 3.60576948e-003,
          2.40384624e-003, 4.80769249e-003, 1.44230779e-002,
          7.21153896e-003, 6.00961549e-003, 1.44230779e-002,
          6.00961549e-003, 8.41346197e-003, 6.00961549e-003,
          1.20192312e-003, 1.20192310e-002, 4.80769249e-003,
          9.61538497e-003, 1.44230779e-002, 1.44230779e-002,
          4.80769249e-003, 1.56250000e-002, 7.21153896e-003,
          1.44230779e-002, 1.20192310e-002, 2.40384620e-002,
          1.08173080e-002, 6.00961549e-003, 6.00961549e-003,
          3.60576948e-003, 1.80288460e-002, 7.21153896e-003,
          1.20192312e-003, 3.12500000e-002, 1.32211540e-002,
          6.00961549e-003, 2.04326939e-002, 1.56250000e-002,
          1.32211540e-002, 8.41346197e-003, 1.44230779e-002,
          1.08173080e-002, 8.41346197e-003, 1.92307699e-002, 0.,
          7.21153896e-003, 3.60576948e-003, 7.21153896e-003,
          1.56250000e-002, 1.44230779e-002, 1.68269239e-002,
          6.00961549e-003, 8.41346197e-003, 7.21153896e-003,
          1.20192312e-003, 1.68269239e-002, 1.08173080e-002,
          1.20192310e-002, 8.41346197e-003, 3.60576948e-003,
          3.60576948e-003, 2.40384620e-002, 4.80769249e-003,
          8.41346197e-003, 7.21153896e-003, 6.00961549e-003,
          1.08173080e-002, 2.40384624e-003, 6.00961549e-003,
          7.21153896e-003, 9.61538497e-003, 7.21153896e-003,
          1.32211540e-002, 6.00961549e-003, 7.21153896e-003,
          8.41346197e-003, 2.40384624e-003, 6.00961549e-003,
          9.61538497e-003, 1.08173080e-002, 7.21153896e-003,
          1.56250000e-002, 1.56250000e-002, 9.61538497e-003,
          2.40384624e-003, 4.80769249e-003, 8.41346197e-003 ]
      - [ 9.53029282e-003, 2.11027917e-002, 8.84955749e-003,
          5.44588175e-003, 6.12661708e-003, 6.80735242e-003,
          1.36147044e-003, 1.63376443e-002, 8.16882215e-003,
          1.15724988e-002, 8.84955749e-003, 9.53029282e-003,
          8.16882215e-003, 1.29339695e-002, 1.22532342e-002,
          1.22532342e-002, 1.29339695e-002, 1.63376443e-002,
          2.04220554e-003, 1.15724988e-002, 7.48808729e-003,
          1.70183796e-002, 7.48808729e-003, 9.53029282e-003,
          2.17835270e-002, 1.70183796e-002, 1.15724988e-002,
          1.08917635e-002, 1.02110282e-002, 1.49761746e-002,
          1.36147048e-002, 6.80735242e-003, 1.63376443e-002,
          4.76514641e-003, 4.08441108e-003, 1.02110282e-002,
          8.84955749e-003, 8.84955749e-003, 2.38257330e-002,
          6.80735242e-003, 9.53029282e-003, 6.80735242e-003,
          9.53029282e-003, 2.17835270e-002, 1.02110282e-002,
          9.53029282e-003, 2.65486743e-002, 7.48808729e-003,
          2.04220563e-002, 1.70183796e-002, 2.11027917e-002,
          4.76514641e-003, 1.29339695e-002, 9.53029282e-003,
          6.80735242e-003, 4.76514641e-003, 1.42954392e-002,
          1.29339695e-002, 6.12661708e-003, 8.16882215e-003,
          8.84955749e-003, 3.40367621e-003, 2.72294087e-003,
          3.40367621e-003, 8.16882215e-003, 1.42954392e-002,
          2.04220554e-003, 6.12661708e-003, 1.36147048e-002,
          6.80735242e-003, 4.76514641e-003, 4.76514641e-003,
          1.08917635e-002, 0., 8.84955749e-003, 8.16882215e-003,
          4.76514641e-003, 1.15724988e-002, 6.80735242e-003,
          8.16882215e-003, 1.15724988e-002, 1.36147048e-002,
          1.22532342e-002, 4.76514641e-003, 8.84955749e-003,
          4.08441108e-003, 9.53029282e-003, 1.42954392e-002,
          8.16882215e-003, 1.49761746e-002, 1.08917635e-002,
          1.02110282e-002, 8.84955749e-003, 1.42954392e-002,
          5.44588175e-003, 2.72294087e-003, 8.84955749e-003,
          1.02110282e-002, 6.12661708e-003, 7.48808729e-003 ]
      - [ 6.62251655e-003, 1.60044152e-002, 6.07063994e-003,
          7.17439316e-003, 4.41501103e-003, 9.93377529e-003,
          2.26269308e-002, 6.62251655e-003, 1.26931565e-002,
          8.83002207e-003, 3.31125828e-003, 6.62251655e-003,
          5.51876379e-003, 6.62251655e-003, 7.17439316e-003,
          1.93156730e-002, 6.62251655e-003, 8.27814545e-003,
          1.32450331e-002, 1.15894042e-002, 4.96688765e-003,
          5.51876379e-003, 2.20750552e-003, 1.54525386e-002,
          6.62251655e-003, 2.75938190e-003, 9.38189868e-003,
          8.83002207e-003, 1.54525386e-002, 6.62251655e-003,
          4.41501103e-003, 2.26269308e-002, 7.72626931e-003,
          9.93377529e-003, 2.15231795e-002, 3.31125828e-003,
          2.75938190e-003, 2.31788084e-002, 1.43487863e-002,
          7.72626931e-003, 2.75938190e-003, 1.65562909e-002,
          7.17439316e-003, 6.07063994e-003, 5.51876379e-004,
          9.93377529e-003, 9.93377529e-003, 1.71081685e-002,
          6.62251655e-003, 1.15894042e-002, 1.26931565e-002,
          3.86313465e-003, 5.51876379e-003, 1.49006620e-002,
          6.62251655e-003, 7.17439316e-003, 2.59381905e-002,
          7.17439316e-003, 1.82119198e-002, 1.60044152e-002,
          9.38189868e-003, 7.17439316e-003, 8.27814545e-003,
          6.62251655e-003, 4.96688765e-003, 1.82119198e-002,
          1.43487863e-002, 1.98675506e-002, 2.26269308e-002,
          8.83002207e-003, 2.70419419e-002, 1.10375276e-003,
          1.60044152e-002, 7.72626931e-003, 1.98675506e-002,
          9.93377529e-003, 5.51876379e-003, 4.41501103e-003,
          8.83002207e-003, 1.10375276e-003, 7.17439316e-003,
          3.31125828e-003, 6.62251655e-003, 5.51876379e-003,
          5.51876379e-003, 6.62251655e-003, 3.86313465e-003,
          1.21412799e-002, 2.20750552e-003, 6.62251655e-003,
          3.58719639e-002, 4.41501103e-003, 3.86313465e-003,
          6.62251655e-003, 1.10375276e-002, 1.54525386e-002,
          6.07063994e-003, 2.04194263e-002, 2.15231795e-002,
          2.20750552e-003 ]
      - [ 1.36494255e-002, 1.50862066e-002, 1.07758623e-002,
          6.46551698e-003, 5.74712642e-003, 1.22126434e-002,
          2.37068962e-002, 8.62068962e-003, 1.36494255e-002,
          8.62068962e-003, 6.46551698e-003, 1.50862066e-002,
          7.90229905e-003, 1.07758623e-002, 6.46551698e-003,
          1.36494255e-002, 1.00574717e-002, 1.22126434e-002,
          5.02873585e-003, 7.18390802e-003, 1.07758623e-002,
          9.33908019e-003, 6.46551698e-003, 1.14942528e-002,
          7.18390802e-003, 8.62068962e-003, 5.02873585e-003,
          5.02873585e-003, 7.90229905e-003, 3.59195401e-003,
          1.29310340e-002, 7.90229905e-003, 2.87356321e-003,
          1.50862066e-002, 6.46551698e-003, 7.90229905e-003,
          1.22126434e-002, 1.07758623e-002, 1.07758623e-002,
          1.00574717e-002, 5.74712642e-003, 1.43678160e-002,
          1.07758623e-002, 1.00574717e-002, 5.74712642e-003,
          5.74712642e-003, 7.18390802e-003, 2.37068962e-002,
          9.33908019e-003, 1.58045981e-002, 1.50862066e-002,
          8.62068962e-003, 1.43678160e-002, 7.18390802e-003,
          1.07758623e-002, 7.90229905e-003, 1.14942528e-002,
          7.18390802e-003, 6.46551698e-003, 9.33908019e-003,
          9.33908019e-003, 5.74712642e-003, 1.43678160e-002,
          6.46551698e-003, 4.31034481e-003, 9.33908019e-003,
          7.18390802e-003, 1.07758623e-002, 7.18390802e-003,
          1.07758623e-002, 1.72413792e-002, 2.87356321e-003,
          1.00574717e-002, 1.14942528e-002, 3.87931019e-002,
          1.36494255e-002, 1.29310340e-002, 6.46551698e-003,
          7.18390802e-003, 7.18390802e-003, 1.14942528e-002,
          7.90229905e-003, 1.00574717e-002, 5.02873585e-003,
          7.18390802e-003, 1.50862066e-002, 7.90229905e-003,
          7.18390802e-003, 1.43678160e-003, 8.62068962e-003,
          2.01149434e-002, 3.59195401e-003, 4.31034481e-003,
          7.18390802e-003, 3.59195401e-003, 2.08333340e-002,
          1.50862066e-002, 1.00574717e-002, 1.79597698e-002,
          9.33908019e-003 ]
      - [ 3.14960629e-003, 2.04724409e-002, 2.04724409e-002,
          4.72440943e-003, 6.29921257e-003, 1.88976377e-002, 0.,
          4.72440943e-003, 1.10236220e-002, 1.25984251e-002,
          1.41732283e-002, 3.14960629e-003, 4.72440943e-003,
          1.57480314e-002, 1.41732283e-002, 9.44881886e-003,
          2.51968503e-002, 1.57480314e-003, 1.57480314e-003,
          1.88976377e-002, 4.72440943e-003, 7.87401572e-003,
          3.14960629e-003, 4.72440943e-003, 4.72440943e-003,
          2.04724409e-002, 1.73228346e-002, 7.87401572e-003,
          1.57480314e-003, 4.72440943e-003, 3.14960629e-003,
          9.44881886e-003, 1.57480314e-003, 2.36220472e-002,
          1.25984251e-002, 2.04724409e-002, 3.14960629e-003,
          6.29921257e-003, 1.88976377e-002, 1.41732283e-002,
          7.87401572e-003, 4.72440943e-003, 9.44881886e-003,
          2.04724409e-002, 6.29921257e-003, 9.44881886e-003,
          1.41732283e-002, 6.29921257e-003, 7.87401572e-003,
          1.41732283e-002, 9.44881886e-003, 1.25984251e-002,
          1.57480314e-002, 7.87401572e-003, 1.25984251e-002,
          9.44881886e-003, 2.20472440e-002, 1.25984251e-002,
          6.29921257e-003, 3.14960629e-003, 2.20472440e-002,
          2.36220472e-002, 3.14960629e-003, 1.25984251e-002,
          6.29921257e-003, 1.41732283e-002, 9.44881886e-003,
          7.87401572e-003, 4.72440943e-003, 2.36220472e-002,
          3.14960629e-003, 0., 3.14960629e-003, 7.87401572e-003,
          1.57480314e-002, 2.51968503e-002, 2.36220472e-002,
          4.72440943e-003, 9.44881886e-003, 1.57480314e-003,
          3.14960629e-003, 4.72440943e-003, 6.29921257e-003,
          1.25984251e-002, 2.04724409e-002, 1.25984251e-002,
          9.44881886e-003, 1.57480314e-003, 7.87401572e-003,
          6.29921257e-003, 7.87401572e-003, 1.10236220e-002,
          4.72440943e-003, 7.87401572e-003, 4.72440943e-003,
          3.14960629e-003, 1.88976377e-002, 1.10236220e-002, 0.,
          9.44881886e-003 ]
      - [ 1.14739630e-002, 2.47131512e-002, 7.94351287e-003,
          7.94351287e-003, 1.23565756e-002, 1.32391881e-002,
          5.29567525e-003, 1.58870257e-002, 5.29567525e-003,
          1.23565756e-002, 5.29567525e-003, 2.11827010e-002,
          5.29567525e-003, 8.82612541e-003, 1.14739630e-002,
          5.29567525e-003, 1.76522508e-003, 1.14739630e-002, 0.,
          1.05913505e-002, 5.29567525e-003, 1.76522508e-002,
          4.41306271e-003, 9.70873795e-003, 2.11827010e-002,
          1.94174759e-002, 1.05913505e-002, 7.06090033e-003,
          7.94351287e-003, 1.05913505e-002, 1.67696383e-002,
          8.82612541e-004, 2.64783762e-003, 1.67696383e-002,
          4.41306271e-003, 1.76522508e-002, 6.17828779e-003,
          1.23565756e-002, 1.05913505e-002, 8.82612541e-003,
          7.06090033e-003, 4.41306271e-003, 7.94351287e-003,
          5.38393632e-002, 1.41218007e-002, 9.70873795e-003,
          3.44218910e-002, 7.06090033e-003, 1.05913505e-002,
          9.70873795e-003, 1.85348634e-002, 7.94351287e-003,
          1.85348634e-002, 8.82612541e-003, 7.06090033e-003,
          1.76522508e-003, 1.05913505e-002, 1.41218007e-002,
