<?xml version="1.0"?>
<opencv_storage>
<my_svm type_id="opencv-ml-svm">
  <svm_type>C_SVC</svm_type>
  <kernel><type>RBF</type>
    <gamma>1.</gamma></kernel>
  <C>1.</C>
  <term_criteria><epsilon>1.1920928955078125e-007</epsilon>
    <iterations>10000</iterations></term_criteria>
  <var_all>100</var_all>
  <var_count>100</var_count>
  <class_count>2</class_count>
  <class_labels type_id="opencv-matrix">
    <rows>1</rows>
    <cols>2</cols>
    <dt>i</dt>
    <data>
      0 1</data></class_labels>
  <sv_total>352</sv_total>
  <support_vectors>
    <_>
      2.77888053e-003 6.35172706e-003 7.14569306e-003 7.93965906e-003
      1.98491476e-002 8.73362459e-003 7.54267583e-003 5.95474429e-003
      4.76379506e-003 1.78642329e-002 1.19094886e-002 7.14569306e-003
      6.74870983e-003 1.38944034e-002 1.50853517e-002 1.07185394e-002
      7.14569306e-003 9.52759013e-003 9.92457382e-003 7.54267583e-003
      1.34974197e-002 1.03215566e-002 3.96982953e-003 1.50853517e-002
      5.95474429e-003 1.11155221e-002 9.52759013e-003 9.13060736e-003
      5.16077830e-003 9.13060736e-003 1.58793181e-002 2.77888053e-003
      5.95474429e-003 1.34974197e-002 2.14370787e-002 1.90551803e-002
      1.34974197e-002 3.17586353e-003 1.19094886e-002 9.13060736e-003
      1.66732837e-002 2.38189753e-003 2.30250098e-002 1.15125049e-002
      1.66732837e-002 7.93965906e-003 1.11155221e-002 8.33664183e-003
      7.14569306e-003 5.55776106e-003 1.27034541e-002 7.93965906e-003
      3.57284653e-003 1.38944034e-002 1.50853517e-002 2.42159590e-002
      1.38944034e-002 2.30250098e-002 9.52759013e-003 1.50853517e-002
      8.33664183e-003 1.07185394e-002 1.15125049e-002 7.93965906e-003
      7.14569306e-003 8.73362459e-003 1.19094886e-002 1.07185394e-002
      4.36681230e-003 6.74870983e-003 5.55776106e-003 5.55776106e-003
      8.73362459e-003 6.74870983e-003 1.42913861e-002 1.31004369e-002
      1.50853517e-002 9.13060736e-003 5.55776106e-003 9.52759013e-003
      1.03215566e-002 6.74870983e-003 5.95474429e-003 5.16077830e-003
      7.14569306e-003 1.15125049e-002 1.11155221e-002 1.03215566e-002
      1.46883689e-002 6.35172706e-003 5.55776106e-003 5.16077830e-003
      3.96982953e-003 5.55776106e-003 9.13060736e-003 1.11155221e-002
      1.38944034e-002 1.19094886e-002 1.07185394e-002 5.16077830e-003</_>
    <_>
      5.95238153e-003 1.68650802e-002 1.19047631e-002 1.78571437e-002
      1.09126987e-002 8.92857183e-003 5.95238153e-003 6.94444496e-003
      1.09126987e-002 1.09126987e-002 1.38888899e-002 9.92063526e-003
      9.92063526e-003 7.93650839e-003 7.93650839e-003 1.19047631e-002
      1.19047631e-002 7.93650839e-003 4.96031763e-003 7.93650839e-003
      4.96031763e-003 5.95238153e-003 8.92857183e-003 1.19047631e-002
      8.92857183e-003 1.68650802e-002 4.96031763e-003 1.09126987e-002
      1.58730168e-002 1.19047631e-002 1.09126987e-002 1.09126987e-002
      9.92063526e-003 9.92063526e-003 5.95238153e-003 8.92857183e-003
      1.09126987e-002 1.19047631e-002 7.93650839e-003 1.68650802e-002
      6.94444496e-003 9.92063549e-004 6.94444496e-003 3.17460336e-002
      5.95238153e-003 5.95238153e-003 7.93650839e-003 4.96031763e-003
      1.28968265e-002 3.96825420e-003 1.19047631e-002 4.96031763e-003
      1.19047631e-002 1.28968265e-002 5.95238153e-003 2.97619076e-003
      2.48015895e-002 6.94444496e-003 6.94444496e-003 3.96825420e-003
      1.09126987e-002 4.96031763e-003 1.09126987e-002 5.95238153e-003
      3.37301604e-002 8.92857183e-003 7.93650839e-003 2.08333340e-002
      7.93650839e-003 5.95238153e-003 1.28968265e-002 5.95238153e-003
      5.95238153e-003 1.19047631e-002 1.58730168e-002 9.92063526e-003
      9.92063526e-003 1.09126987e-002 1.19047631e-002 8.92857183e-003
      9.92063526e-003 6.94444496e-003 8.92857183e-003 8.92857183e-003
      9.92063526e-003 1.09126987e-002 1.28968265e-002 5.95238153e-003
      1.28968265e-002 8.92857183e-003 4.96031763e-003 4.96031763e-003
      1.68650802e-002 5.95238153e-003 1.38888899e-002 9.92063526e-003
      1.09126987e-002 4.96031763e-003 8.92857183e-003 1.19047631e-002</_>
    <_>
      4.19111503e-003 1.34115675e-002 1.17351217e-002 1.34115675e-002
      4.19111503e-003 1.50880134e-002 3.35289189e-003 4.19111503e-003
      3.35289189e-003 1.92791279e-002 8.38223007e-003 1.08968988e-002
      5.02933795e-003 1.25733446e-002 6.70578377e-003 6.70578377e-003
      8.38223007e-003 5.86756086e-003 4.19111503e-003 1.67644594e-003
      1.00586759e-002 3.35289189e-003 7.54400669e-003 1.25733446e-002
      1.34115675e-002 1.00586759e-002 2.51466897e-003 1.00586759e-002
      7.54400669e-003 1.34115675e-002 8.38223007e-003 1.17351217e-002
      3.35289189e-003 7.54400669e-003 1.08968988e-002 1.00586759e-002
      1.76026821e-002 1.50880134e-002 8.38223007e-003 1.59262363e-002
      9.22045298e-003 0. 1.50880134e-002 1.84409060e-002 2.09555738e-002
      1.34115675e-002 9.22045298e-003 7.54400669e-003 5.02933795e-003
      1.34115675e-002 1.25733446e-002 7.54400669e-003 2.51466897e-003
      9.22045298e-003 5.02933795e-003 2.17937976e-002 1.84409060e-002
      5.86756086e-003 1.50880134e-002 1.08968988e-002 4.19111503e-003
      1.50880134e-002 1.17351217e-002 1.67644594e-003 3.52053642e-002
      1.34115675e-002 3.35289189e-003 7.54400669e-003 9.22045298e-003
      9.22045298e-003 1.25733446e-002 4.19111503e-003 6.70578377e-003
      1.25733446e-002 1.34115675e-002 1.00586759e-002 5.86756086e-003
      2.17937976e-002 7.54400669e-003 8.38223007e-003 5.02933795e-003
      2.26320196e-002 1.00586759e-002 5.86756086e-003 8.38223007e-003
      1.42497905e-002 7.54400669e-003 1.08968988e-002 1.34115675e-002
      1.59262363e-002 1.34115675e-002 1.25733446e-002 9.22045298e-003
      3.35289189e-003 2.51466897e-003 1.17351217e-002 1.34115675e-002
      7.54400669e-003 1.00586759e-002 5.02933795e-003</_>
    <_>
      1.31291030e-002 1.53172873e-002 3.50109413e-002 4.37636767e-003
      4.37636767e-003 0. 4.37636767e-003 4.37636767e-003 8.75273533e-003
      6.56455150e-003 0. 2.84463894e-002 6.56455150e-003 8.75273533e-003
      6.56455150e-003 4.37636767e-003 2.18818383e-003 8.75273533e-003
      1.09409187e-002 4.37636767e-003 2.18818383e-003 4.37636767e-003 0.
      1.53172873e-002 2.18818383e-003 2.18818383e-003 0. 4.37636767e-003
      2.18818374e-002 1.09409187e-002 0. 4.37636767e-003 8.75273533e-003
      0. 4.37636767e-003 2.18818383e-003 4.37636767e-003 6.56455150e-003
      2.18818383e-003 1.31291030e-002 0. 0. 6.56455150e-003
      2.18818374e-002 4.37636767e-003 2.18818383e-003 4.37636767e-003
      1.09409187e-002 4.37636767e-003 8.75273533e-003 6.56455150e-003 0.
      8.75273533e-003 4.37636767e-003 6.56455150e-003 4.37636767e-003
      1.31291030e-002 1.31291030e-002 1.53172873e-002 1.96936540e-002
      4.37636767e-003 6.56455150e-003 8.75273533e-003 8.75273533e-003
      8.09627995e-002 2.18818383e-003 8.75273533e-003 2.18818383e-003
      8.75273533e-003 2.18818383e-003 1.31291030e-002 8.75273533e-003
      4.37636767e-003 8.75273533e-003 2.84463894e-002 4.37636767e-003
      4.37636767e-003 6.56455150e-003 4.37636767e-003 0. 4.37636767e-003
      1.31291032e-001 8.75273533e-003 2.18818383e-003 2.18818383e-003
      2.40700226e-002 2.18818383e-003 4.37636767e-003 4.37636767e-003
      6.56455150e-003 8.97155404e-002 2.18818383e-003 1.31291030e-002
      4.37636767e-003 2.18818383e-003 0. 8.75273533e-003 4.37636767e-003
      2.18818374e-002 4.37636767e-003</_>
    <_>
      4.67914436e-003 7.35294120e-003 6.01604301e-003 2.00534761e-002
      1.33689847e-002 9.35828872e-003 1.00267380e-002 8.02139007e-003
      1.06951874e-002 2.00534761e-002 1.73796788e-002 8.68983939e-003
      8.02139007e-003 1.20320860e-002 9.35828872e-003 4.01069503e-003
      1.60427801e-002 8.68983939e-003 7.35294120e-003 6.01604301e-003
      1.53743317e-002 1.20320860e-002 6.68449234e-003 1.47058824e-002
      8.68983939e-003 7.35294120e-003 9.35828872e-003 1.27005354e-002
      5.34759369e-003 1.00267380e-002 5.34759369e-003 6.01604301e-003
      1.20320860e-002 1.53743317e-002 1.33689847e-002 1.60427801e-002
      1.27005354e-002 6.68449234e-003 8.68983939e-003 6.01604301e-003
      1.00267380e-002 0. 1.73796788e-002 1.27005354e-002 1.06951874e-002
      1.33689847e-002 1.06951874e-002 1.67112295e-002 6.68449234e-003
      8.02139007e-003 9.35828872e-003 9.35828872e-003 4.67914436e-003
      1.27005354e-002 1.33689847e-002 8.02139007e-003 1.20320860e-002
      1.20320860e-002 1.27005354e-002 1.06951874e-002 1.27005354e-002
      7.35294120e-003 5.34759369e-003 8.68983939e-003 7.35294120e-003
      1.06951874e-002 6.68449234e-003 1.00267380e-002 9.35828872e-003
      2.00534752e-003 6.68449234e-003 7.35294120e-003 8.02139007e-003
      1.33689847e-002 5.34759369e-003 9.35828872e-003 1.87165774e-002
      6.01604301e-003 8.68983939e-003 1.73796788e-002 1.00267380e-002
      8.68983939e-003 8.02139007e-003 8.68983939e-003 1.00267380e-002
      1.27005354e-002 1.27005354e-002 9.35828872e-003 1.27005354e-002
      1.06951874e-002 7.35294120e-003 6.68449234e-003 8.02139007e-003
      4.01069503e-003 4.67914436e-003 1.47058824e-002 1.80481281e-002
      6.01604301e-003 1.53743317e-002 7.35294120e-003</_>
    <_>
      5.02873585e-003 1.43678160e-002 7.18390802e-003 1.00574717e-002
      5.74712642e-003 9.33908019e-003 9.33908019e-003 8.62068962e-003
      1.22126434e-002 1.43678160e-002 8.62068962e-003 5.74712642e-003
      1.00574717e-002 7.18390802e-003 1.00574717e-002 1.07758623e-002
      7.90229905e-003 7.90229905e-003 1.00574717e-002 8.62068962e-003
      6.46551698e-003 1.00574717e-002 1.22126434e-002 1.22126434e-002
      1.65229887e-002 1.36494255e-002 6.46551698e-003 9.33908019e-003
      1.22126434e-002 1.36494255e-002 1.22126434e-002 1.93965510e-002
      6.46551698e-003 7.90229905e-003 1.00574717e-002 1.65229887e-002
      5.74712642e-003 1.58045981e-002 1.14942528e-002 7.18390802e-003
      1.14942528e-002 7.18390802e-004 1.50862066e-002 1.00574717e-002
      1.07758623e-002 1.00574717e-002 9.33908019e-003 7.90229905e-003
      1.22126434e-002 1.72413792e-002 7.18390802e-003 8.62068962e-003
      9.33908019e-003 1.07758623e-002 1.22126434e-002 1.00574717e-002
      1.36494255e-002 2.15517241e-003 1.00574717e-002 7.18390802e-003
      1.22126434e-002 8.62068962e-003 1.36494255e-002 1.22126434e-002
      7.18390802e-003 8.62068962e-003 9.33908019e-003 1.07758623e-002
      7.18390802e-003 5.02873585e-003 6.46551698e-003 6.46551698e-003
      1.14942528e-002 1.07758623e-002 1.50862066e-002 9.33908019e-003
      1.14942528e-002 1.00574717e-002 1.22126434e-002 1.07758623e-002
      5.74712642e-003 1.14942528e-002 8.62068962e-003 1.00574717e-002
      7.90229905e-003 1.43678160e-002 1.43678160e-002 1.00574717e-002
      1.43678160e-002 5.02873585e-003 6.46551698e-003 8.62068962e-003
      3.59195401e-003 3.59195401e-003 6.46551698e-003 1.65229887e-002
      1.22126434e-002 1.50862066e-002 1.07758623e-002 1.07758623e-002</_>
    <_>
      2.43546022e-003 6.81928918e-003 2.92255240e-003 2.97126155e-002
      3.89673654e-003 1.41256703e-002 1.31514855e-002 9.74184088e-003
      1.16902096e-002 7.30638113e-003 1.41256703e-002 7.30638113e-003
      3.89673654e-003 1.50998542e-002 1.55869462e-002 5.35801286e-003
      8.76765698e-003 1.55869462e-002 5.35801286e-003 8.76765698e-003
      1.02289338e-002 4.87092044e-003 3.40964459e-003 1.26643935e-002
      6.81928918e-003 8.28056503e-003 1.36385784e-002 1.26643935e-002
      3.89673654e-003 1.36385784e-002 1.31514855e-002 1.46127620e-003
      9.25474893e-003 1.55869462e-002 8.76765698e-003 2.33804192e-002
      1.07160257e-002 7.30638113e-003 1.26643935e-002 1.55869462e-002
      3.06867994e-002 4.38382849e-003 1.31514855e-002 1.89965907e-002
      1.07160257e-002 5.84510481e-003 1.36385784e-002 1.16902096e-002
      8.76765698e-003 1.02289338e-002 1.31514855e-002 8.28056503e-003
      6.81928918e-003 2.53287870e-002 1.16902096e-002 2.24062353e-002
      1.46127623e-002 7.30638113e-003 6.81928918e-003 5.84510481e-003
      1.65611301e-002 1.02289338e-002 5.84510481e-003 6.81928918e-003
      2.24062353e-002 7.30638113e-003 2.92255240e-003 1.07160257e-002
      6.81928918e-003 5.84510481e-003 5.84510481e-003 2.43546022e-003
      1.16902096e-002 9.74184088e-003 3.40964459e-003 8.76765698e-003
      1.26643935e-002 1.36385784e-002 1.02289338e-002 1.16902096e-002
      7.30638113e-003 1.16902096e-002 7.79347308e-003 5.84510481e-003
      1.21773016e-002 1.07160257e-002 1.55869462e-002 9.74184088e-003
      1.41256703e-002 9.74184088e-003 1.94836827e-003 1.94836827e-003
      6.33219676e-003 6.33219676e-003 3.40964459e-003 7.30638113e-003
      1.36385784e-002 1.46127620e-003 5.35801286e-003 1.94836827e-003</_>
    <_>
      3.38524021e-003 4.06228844e-003 6.77048042e-003 2.70819222e-003
      2.70819222e-003 9.47867241e-003 2.09884904e-002 1.48950573e-002
      1.62491538e-002 5.41638443e-003 1.69262011e-002 1.28639126e-002
      6.09343266e-003 1.48950573e-002 6.09343266e-003 7.44752865e-003
      1.55721055e-002 8.12457688e-003 1.01557206e-002 8.80162511e-003
      1.48950573e-002 6.77048042e-003 4.73933620e-003 9.47867241e-003
      3.38524021e-003 7.44752865e-003 1.01557206e-002 1.15098171e-002
      8.12457688e-003 1.69262011e-002 9.47867241e-003 6.09343266e-003
      6.09343266e-003 2.03114413e-002 4.73933620e-003 9.47867241e-003
      1.35409608e-002 1.01557206e-002 1.82802975e-002 2.70819222e-003
      1.35409608e-002 6.77048042e-003 9.47867241e-003 4.73933620e-003
      2.70819222e-003 6.09343266e-003 1.08327689e-002 1.28639126e-002
      7.44752865e-003 1.08327689e-002 7.44752865e-003 1.48950573e-002
      8.12457688e-003 1.35409608e-002 1.08327689e-002 2.43737306e-002
      9.47867241e-003 2.77589709e-002 4.73933620e-003 4.06228844e-003
      1.69262011e-002 8.12457688e-003 2.03114422e-003 1.21868653e-002
      6.09343266e-003 1.82802975e-002 7.44752865e-003 1.35409608e-002
      6.09343266e-003 1.15098171e-002 1.21868653e-002 9.47867241e-003
      1.62491538e-002 1.08327689e-002 1.35409611e-003 1.28639126e-002
      1.01557206e-002 1.48950573e-002 1.28639126e-002 1.21868653e-002
      1.89573448e-002 7.44752865e-003 9.47867241e-003 3.38524021e-003
      1.01557206e-002 1.35409608e-002 2.09884904e-002 1.35409608e-002
      1.08327689e-002 1.62491538e-002 1.42180091e-002 5.41638443e-003
      2.70819222e-003 6.77048042e-003 4.73933620e-003 5.41638443e-003
      8.12457688e-003 0. 6.77048042e-003 7.44752865e-003</_>
    <_>
      1.44404336e-003 5.77617344e-003 2.88808672e-003 2.16606492e-003
      7.22021679e-004 1.58844776e-002 2.45487373e-002 9.38628148e-003
      5.77617344e-003 4.33212984e-003 1.58844776e-002 8.66425969e-003
      1.44404336e-003 1.15523469e-002 1.22743687e-002 7.94223882e-003
      8.66425969e-003 9.38628148e-003 5.05415164e-003 5.05415164e-003
      1.73285194e-002 1.29963905e-002 8.66425969e-003 9.38628148e-003
      5.77617344e-003 1.37184123e-002 8.66425969e-003 1.37184123e-002
      2.88808672e-003 2.67148018e-002 7.22021703e-003 5.77617344e-003
      7.22021703e-003 2.67148018e-002 9.38628148e-003 1.37184123e-002
      1.37184123e-002 2.23826729e-002 1.01083033e-002 1.01083033e-002
      1.22743687e-002 0. 1.01083033e-002 1.22743687e-002 1.44404336e-003
      1.58844776e-002 9.38628148e-003 1.01083033e-002 1.44404341e-002
      1.29963905e-002 1.29963905e-002 1.15523469e-002 5.77617344e-003
      8.66425969e-003 1.01083033e-002 1.94945857e-002 2.16606501e-002
      1.15523469e-002 1.44404336e-003 2.88808672e-003 1.51624549e-002
      1.22743687e-002 1.44404336e-003 9.38628148e-003 4.33212984e-003
      1.58844776e-002 7.94223882e-003 1.22743687e-002 1.80505421e-002
      8.66425969e-003 7.22021703e-003 7.22021679e-004 7.94223882e-003
      1.58844776e-002 2.88808672e-003 1.94945857e-002 5.77617344e-003
      1.73285194e-002 1.29963905e-002 1.51624549e-002 5.77617344e-003 0.
      1.15523469e-002 1.44404336e-003 1.29963905e-002 1.66064985e-002
      2.02166066e-002 6.49819523e-003 1.01083033e-002 1.73285194e-002 0.
      6.49819523e-003 2.16606492e-003 6.49819523e-003 3.61010851e-003
      1.15523469e-002 3.32129970e-002 2.88808672e-003 4.33212984e-003
      5.77617344e-003</_>
    <_>
      3.97561630e-003 5.03578037e-003 5.56586264e-003 1.85528747e-003
      6.36098580e-003 1.32520534e-002 1.40471766e-002 8.21627304e-003
      6.36098580e-003 9.01139621e-003 2.30585728e-002 1.85528747e-003
      4.50569810e-003 1.59024652e-002 6.62602670e-003 9.80651937e-003
      1.16618071e-002 5.03578037e-003 1.13967666e-002 1.27219716e-002
      1.96130387e-002 9.01139621e-003 8.74635577e-003 9.27643757e-003
      8.48131441e-003 1.48422997e-002 7.42114987e-003 2.33236142e-002
      6.36098580e-003 4.50569810e-003 7.15610897e-003 7.42114987e-003
      5.83090354e-003 2.94195600e-002 1.59024652e-002 2.51789019e-002
      5.30082174e-003 1.85528747e-003 1.48422997e-002 4.24065720e-003
      2.35886555e-002 4.24065720e-003 1.69626288e-002 6.36098580e-003
      7.68619124e-003 4.24065720e-003 1.08666839e-002 1.21918898e-002
      9.54147894e-003 3.44553404e-003 9.27643757e-003 1.21918898e-002
      4.77073947e-003 2.59740259e-002 1.16618071e-002 1.56374238e-002
      1.24569302e-002 3.20699699e-002 6.09594490e-003 3.18049290e-003
      2.27935333e-002 1.03366021e-002 6.62602670e-003 8.21627304e-003
      8.21627304e-003 6.36098580e-003 1.43122179e-002 1.03366021e-002
      5.03578037e-003 3.44553404e-003 5.03578037e-003 3.97561630e-003
      6.89106807e-003 3.71057494e-003 4.77073947e-003 1.00715607e-002
      1.77577529e-002 2.38536973e-003 1.27219716e-002 9.80651937e-003
      1.90829579e-002 4.77073947e-003 7.68619124e-003 4.50569810e-003
      6.09594490e-003 2.91545177e-003 2.86244359e-002 9.80651937e-003
      2.35886555e-002 5.83090354e-003 4.24065720e-003 2.38536973e-003
      2.38536973e-003 1.06016435e-002 1.27219716e-002 1.16618071e-002
      1.53723825e-002 2.65041087e-003 1.08666839e-002 3.97561630e-003</_>
    <_>
      6.82852790e-003 1.36570558e-002 1.13808801e-002 5.31107746e-003
      2.04855837e-002 6.06980268e-003 8.34597833e-003 7.58725312e-003
      1.28983306e-002 9.86342970e-003 6.82852790e-003 1.13808801e-002
      6.06980268e-003 9.10470448e-003 1.06221549e-002 1.51745062e-002
      1.06221549e-002 5.31107746e-003 1.59332324e-002 3.79362656e-003
      6.82852790e-003 7.58725312e-003 8.34597833e-003 7.58725312e-003
      6.06980268e-003 6.06980268e-003 8.34597833e-003 9.10470448e-003
      8.34597833e-003 7.58725312e-003 1.21396054e-002 6.82852790e-003
      6.06980268e-003 5.31107746e-003 9.10470448e-003 9.86342970e-003
      1.13808801e-002 1.89681333e-002 7.58725312e-003 6.82852790e-003
      1.51745062e-002 1.51745067e-003 7.58725312e-003 1.89681333e-002
      2.04855837e-002 1.21396054e-002 7.58725312e-003 9.10470448e-003
      1.13808801e-002 1.66919567e-002 1.59332324e-002 5.31107746e-003
      6.82852790e-003 4.55235224e-003 7.58725312e-003 1.06221549e-002
      1.13808801e-002 6.06980268e-003 9.86342970e-003 1.21396054e-002
      1.13808801e-002 9.10470448e-003 7.58725312e-003 9.86342970e-003
      1.66919567e-002 4.55235224e-003 1.21396054e-002 9.86342970e-003
      8.34597833e-003 9.86342970e-003 1.51745062e-002 9.86342970e-003
      7.58725312e-003 3.79362656e-003 1.89681333e-002 1.36570558e-002
      7.58725312e-003 2.12443098e-002 8.34597833e-003 6.06980268e-003
      2.27617612e-003 1.06221549e-002 9.10470448e-003 8.34597833e-003
      8.34597833e-003 1.66919567e-002 9.86342970e-003 9.86342970e-003
      6.06980268e-003 4.55235224e-003 2.73141116e-002 5.31107746e-003
      1.89681333e-002 7.58725312e-003 1.06221549e-002 1.21396054e-002
      1.06221549e-002 9.10470448e-003 1.66919567e-002 6.06980268e-003</_>
    <_>
      1.76848881e-002 8.03858507e-003 2.41157562e-002 8.03858507e-003
      4.98392284e-002 3.21543403e-003 9.64630209e-003 6.43086806e-003 0.
      1.44694531e-002 9.64630209e-003 1.76848881e-002 2.73311883e-002
      6.43086806e-003 1.60771701e-003 8.03858507e-003 6.43086806e-003 0.
      1.60771701e-003 8.03858507e-003 6.43086806e-003 4.82315104e-003
      4.82315104e-003 1.44694531e-002 1.12540191e-002 4.82315104e-003
      1.60771701e-003 3.21543403e-003 9.64630209e-003 4.82315104e-003
      3.21543403e-003 8.03858507e-003 8.03858507e-003 0. 6.43086806e-003
      4.82315104e-003 6.43086806e-003 3.21543403e-003 0. 2.09003203e-002
      3.21543403e-003 0. 6.43086806e-003 5.30546606e-002 3.37620564e-002
      0. 4.82315104e-003 1.60771701e-003 1.76848881e-002 3.21543403e-003
      4.82315104e-003 4.82315104e-003 6.43086806e-003 3.21543403e-003
      1.60771701e-003 3.21543403e-003 4.82315104e-003 0. 1.12540191e-002
      1.76848881e-002 6.43086806e-003 1.28617361e-002 9.64630209e-003 0.
      4.01929244e-002 4.82315104e-003 1.76848881e-002 3.21543403e-003
      1.60771701e-003 3.21543403e-003 6.43086806e-003 6.43086806e-003
      6.43086806e-003 4.82315104e-003 4.18006405e-002 4.82315104e-003
      4.82315104e-003 8.03858507e-003 1.44694531e-002 6.43086806e-003
      9.64630209e-003 6.59163967e-002 1.60771701e-003 0. 4.82315104e-003
      6.43086806e-003 3.21543403e-003 3.21543403e-003 3.21543403e-003
      3.21543403e-003 4.98392284e-002 8.03858507e-003 9.64630209e-003
      1.12540191e-002 1.92926042e-002 1.60771701e-003 8.03858507e-003
      1.76848881e-002 6.43086806e-003 2.57234722e-002</_>
    <_>
      0. 4.18060180e-003 1.08695654e-002 2.00668890e-002 1.00334445e-002
      1.17056854e-002 5.85284270e-003 5.01672225e-003 9.19732451e-003
      2.92642135e-002 1.00334445e-002 1.08695654e-002 5.85284270e-003
      1.42140463e-002 6.68896316e-003 1.00334445e-002 1.00334445e-002
      1.25418063e-002 4.18060180e-003 4.18060180e-003 1.00334445e-002
      8.36120395e-004 1.67224079e-003 1.67224072e-002 9.19732451e-003
      7.52508361e-003 1.58862881e-002 1.67224072e-002 7.52508361e-003
      1.42140463e-002 1.00334445e-002 1.42140463e-002 5.85284270e-003
      5.01672225e-003 1.58862881e-002 1.33779263e-002 1.42140463e-002
      4.18060180e-003 1.08695654e-002 3.67892981e-002 1.17056854e-002
      1.67224079e-003 1.75585281e-002 8.36120360e-003 7.52508361e-003
      5.85284270e-003 1.08695654e-002 1.17056854e-002 7.52508361e-003
      6.68896316e-003 7.52508361e-003 5.01672225e-003 2.50836113e-003
      1.42140463e-002 8.36120360e-003 2.09030099e-002 2.17391308e-002
      2.09030099e-002 2.50836113e-003 5.85284270e-003 8.36120360e-003
      6.68896316e-003 1.75585281e-002 5.85284270e-003 1.00334445e-002
      1.42140463e-002 1.42140463e-002 1.17056854e-002 7.52508361e-003
      5.85284270e-003 4.18060180e-003 7.52508361e-003 4.18060180e-003
      8.36120360e-003 1.67224072e-002 5.85284270e-003 1.33779263e-002
      1.50501672e-002 1.00334445e-002 5.85284270e-003 1.25418063e-002
      5.85284270e-003 5.01672225e-003 5.01672225e-003 5.85284270e-003
      1.42140463e-002 1.75585281e-002 1.25418063e-002 1.42140463e-002
      8.36120360e-003 5.85284270e-003 8.36120395e-004 9.19732451e-003
      1.67224079e-003 8.36120360e-003 1.08695654e-002 2.25752499e-002
      1.17056854e-002 5.85284270e-003 4.18060180e-003</_>
    <_>
      1.06888358e-002 3.16706253e-003 7.12589081e-003 7.12589081e-003
      1.02929529e-002 1.02929529e-002 8.70942231e-003 8.31353944e-003
      9.10530519e-003 2.01900229e-002 1.46476645e-002 1.90023743e-002
      1.90023743e-002 1.58353131e-002 5.54235931e-003 1.10847186e-002
      5.54235931e-003 7.12589081e-003 8.70942231e-003 1.62311960e-002
      1.06888358e-002 5.14647644e-003 4.75059357e-003 2.33570859e-002
      2.37529678e-003 8.70942231e-003 3.95882828e-003 1.18764844e-002
      5.54235931e-003 6.33412506e-003 7.12589081e-003 1.97941414e-003
      1.34600159e-002 1.54394303e-002 1.58353131e-002 1.26682501e-002
      9.10530519e-003 5.14647644e-003 9.10530519e-003 5.14647644e-003
      1.38558988e-002 3.95882817e-004 1.34600159e-002 1.38558988e-002
      9.89707001e-003 6.73000794e-003 9.50118713e-003 5.54235931e-003
      5.93824219e-003 6.33412506e-003 6.33412506e-003 7.52177369e-003
      3.95882828e-003 7.52177369e-003 9.89707001e-003 1.34600159e-002
      1.18764844e-002 1.58353131e-002 1.34600159e-002 6.73000794e-003
      7.12589081e-003 1.06888358e-002 2.45447345e-002 5.93824219e-003
      1.06888358e-002 1.34600159e-002 9.89707001e-003 9.89707001e-003
      6.33412506e-003 5.14647644e-003 5.54235931e-003 3.95882828e-003
      4.75059357e-003 8.31353944e-003 8.70942231e-003 7.12589081e-003
      1.62311960e-002 7.91765656e-003 1.02929529e-002 1.02929529e-002
      1.54394303e-002 3.08788605e-002 6.33412506e-003 5.93824219e-003
      1.14806015e-002 1.38558988e-002 1.46476645e-002 9.89707001e-003
      1.22723673e-002 7.52177369e-003 3.24623920e-002 7.12589081e-003
      6.73000794e-003 4.35471116e-003 1.42517816e-002 8.70942231e-003
      1.06888358e-002 4.75059357e-003 5.93824219e-003 1.22723673e-002</_>
    <_>
      2.80083008e-002 2.17842329e-002 1.45228226e-002 1.34854782e-002
      2.59336121e-002 1.03734445e-003 1.03734445e-003 7.26141129e-003
      6.22406695e-003 1.65975112e-002 6.22406695e-003 1.03734443e-002
      2.59336121e-002 5.18672215e-003 1.03734445e-003 3.83817442e-002
      4.14937781e-003 2.07468891e-003 3.11203348e-003 1.14107886e-002
      1.03734445e-003 4.14937781e-003 3.11203348e-003 1.45228226e-002
      6.22406695e-003 1.45228226e-002 2.07468891e-003 6.22406695e-003
      3.11203348e-003 1.03734445e-003 1.03734445e-003 9.33609996e-003
      9.33609996e-003 9.33609996e-003 9.33609996e-003 3.11203348e-003
      6.22406695e-003 8.29875562e-003 2.07468891e-003 1.34854782e-002
      1.03734445e-003 0. 7.26141129e-003 3.21576782e-002 2.17842329e-002
      0. 2.07468891e-003 8.29875562e-003 2.07468891e-003 6.22406695e-003
      6.22406695e-003 3.11203348e-003 2.69709565e-002 0. 4.14937781e-003
      0. 6.22406695e-003 1.14107886e-002 9.33609996e-003 1.24481339e-002
      3.11203348e-003 4.14937781e-003 1.55601669e-002 9.33609996e-003
      2.69709565e-002 3.11203348e-003 3.52697112e-002 2.07468891e-003
      3.11203348e-003 6.22406695e-003 1.14107886e-002 7.26141129e-003
      1.03734445e-003 1.03734445e-003 1.24481339e-002 3.11203348e-003
      3.11203348e-003 3.11203348e-003 3.11203348e-003 2.07468891e-003
      1.34854782e-002 8.92116204e-002 3.11203348e-003 1.24481339e-002
      3.11203348e-003 9.33609996e-003 1.03734445e-003 1.03734445e-003
      3.11203348e-003 3.11203348e-003 7.15767667e-002 1.03734443e-002
      5.18672215e-003 2.59336121e-002 7.26141129e-003 7.26141129e-003
      9.33609996e-003 8.29875562e-003 1.34854782e-002 1.34854782e-002</_>
    <_>
      1.97823928e-003 3.46191879e-003 2.96735903e-003 1.53313540e-002
      1.73095930e-002 9.89119615e-003 1.23639954e-002 1.43422345e-002
      1.13748759e-002 8.40751734e-003 2.32443120e-002 6.92383759e-003
      3.46191879e-003 2.32443120e-002 1.18694361e-002 1.48367947e-002
      1.43422345e-002 1.18694361e-002 1.03857564e-002 1.28585557e-002
      1.03857564e-002 3.46191879e-003 4.45103832e-003 8.90207663e-003
      6.42927783e-003 1.23639954e-002 5.44015784e-003 2.76953503e-002
      4.94559808e-003 8.40751734e-003 6.92383759e-003 6.42927783e-003
      5.93471806e-003 1.82987135e-002 1.68150347e-002 1.08803157e-002
      3.95647855e-003 3.46191879e-003 1.48367947e-002 1.78041533e-002
      1.73095930e-002 1.97823928e-003 1.68150347e-002 4.45103832e-003
      1.33531149e-002 4.94559808e-003 1.03857564e-002 1.63204744e-002
      8.40751734e-003 3.95647855e-003 4.94559808e-003 1.33531149e-002
      5.93471806e-003 1.58259142e-002 7.41839735e-003 7.41839735e-003
      1.33531149e-002 2.81899106e-002 6.92383759e-003 4.45103832e-003
      1.58259142e-002 6.92383759e-003 1.13748759e-002 1.28585557e-002
      1.18694361e-002 3.46191879e-003 8.90207663e-003 8.90207663e-003
      6.42927783e-003 2.47279904e-003 4.45103832e-003 4.94559808e-003
      5.44015784e-003 4.94559808e-003 7.41839735e-003 8.40751734e-003
      1.38476752e-002 8.40751734e-003 7.41839735e-003 1.13748759e-002
      2.17606314e-002 8.90207663e-003 7.41839735e-003 6.42927783e-003
      1.03857564e-002 2.96735903e-003 2.72007901e-002 7.41839735e-003
      1.87932737e-002 1.28585557e-002 9.89119615e-003 2.96735903e-003
      9.89119639e-004 1.08803157e-002 1.28585557e-002 1.23639954e-002
      1.53313540e-002 1.97823928e-003 6.92383759e-003 1.97823928e-003</_>
    <_>
      3.44827585e-003 1.72413792e-002 6.89655170e-003 1.49425287e-002
      6.89655170e-003 6.89655170e-003 1.03448275e-002 5.74712642e-003
      1.03448275e-002 8.04597698e-003 5.74712642e-003 1.03448275e-002
      2.29885057e-003 3.44827585e-003 6.89655170e-003 1.26436781e-002
      1.03448275e-002 9.19540226e-003 2.29885057e-003 3.44827585e-003
      5.74712642e-003 9.19540226e-003 5.74712642e-003 1.37931034e-002
      1.03448275e-002 3.44827585e-003 5.74712642e-003 6.89655170e-003
      6.89655170e-003 1.95402298e-002 6.89655170e-003 8.04597698e-003
      6.89655170e-003 4.59770113e-003 9.19540226e-003 4.59770113e-003
      1.83908045e-002 2.52873562e-002 2.29885057e-003 1.83908045e-002
      5.74712642e-003 2.29885057e-003 3.44827585e-003 2.64367815e-002
      1.72413792e-002 1.03448275e-002 6.89655170e-003 4.59770113e-003
      9.19540226e-003 2.64367815e-002 1.03448275e-002 2.29885057e-003
      1.49425287e-002 5.74712642e-003 4.59770113e-003 5.74712642e-003
      1.26436781e-002 6.89655170e-003 8.04597698e-003 1.03448275e-002
      1.37931034e-002 4.59770113e-003 5.74712642e-003 1.14942528e-002
      1.83908045e-002 3.44827585e-003 9.19540226e-003 5.74712642e-003
      1.60919540e-002 1.49425287e-002 1.14942528e-002 1.83908045e-002
      6.89655170e-003 1.83908045e-002 2.64367815e-002 2.06896551e-002
      1.14942528e-003 1.26436781e-002 5.74712642e-003 1.14942528e-002
      4.59770113e-003 8.04597698e-003 4.59770113e-003 2.29885057e-003
      1.37931034e-002 1.95402298e-002 1.03448275e-002 6.89655170e-003
      5.74712642e-003 2.52873562e-002 1.83908045e-002 1.37931034e-002
      1.03448275e-002 1.14942528e-003 1.14942528e-003 6.89655170e-003
      5.74712642e-003 4.13793102e-002 1.26436781e-002 6.89655170e-003</_>
    <_>
      4.84496122e-003 7.75193796e-003 1.06589142e-002 1.93798449e-003
      3.87596898e-003 1.25968996e-002 1.06589142e-002 5.81395347e-003
      1.06589142e-002 2.22868212e-002 6.78294571e-003 2.13178284e-002
      6.78294571e-003 7.75193796e-003 4.84496122e-003 1.16279069e-002
      2.90697673e-003 3.87596898e-003 1.45348832e-002 6.78294571e-003
      7.75193796e-003 8.72093067e-003 4.84496122e-003 2.03488376e-002
      7.75193796e-003 4.84496122e-003 1.93798449e-003 4.84496122e-003
      3.87596898e-003 6.78294571e-003 5.81395347e-003 6.78294571e-003
      6.78294571e-003 1.06589142e-002 1.25968996e-002 1.74418613e-002
      1.35658914e-002 9.68992244e-003 4.84496122e-003 3.87596898e-003
      1.06589142e-002 0. 7.75193796e-003 2.71317828e-002 5.81395347e-003
      1.06589142e-002 1.45348832e-002 5.81395347e-003 6.78294571e-003
      2.90697673e-003 1.55038759e-002 8.72093067e-003 9.68992244e-004
      1.16279069e-002 9.68992244e-003 3.10077518e-002 1.74418613e-002
      7.75193796e-003 1.35658914e-002 8.72093067e-003 2.90697673e-003
      6.78294571e-003 1.84108522e-002 9.68992244e-003 2.42248066e-002
      9.68992244e-003 4.84496122e-003 1.45348832e-002 8.72093067e-003
      8.72093067e-003 1.35658914e-002 1.93798449e-003 7.75193796e-003
      6.78294571e-003 1.25968996e-002 1.16279069e-002 6.78294571e-003
      1.16279069e-002 1.25968996e-002 1.16279069e-002 6.78294571e-003
      2.22868212e-002 1.06589142e-002 7.75193796e-003 5.81395347e-003
      1.74418613e-002 7.75193796e-003 7.75193796e-003 1.06589142e-002
      7.75193796e-003 3.58527116e-002 1.25968996e-002 7.75193796e-003
      9.68992244e-004 1.16279069e-002 9.68992244e-003 1.74418613e-002
      7.75193796e-003 2.32558139e-002 3.87596898e-003</_>
    <_>
      2.35294108e-003 1.25490194e-002 2.11764704e-002 1.25490194e-002
      1.80392154e-002 3.13725485e-003 8.62745102e-003 9.41176433e-003
      8.62745102e-003 8.62745102e-003 5.49019594e-003 7.05882348e-003
      8.62745102e-003 5.49019594e-003 1.41176470e-002 1.33333327e-002
      9.41176433e-003 9.41176433e-003 7.84313679e-003 5.49019594e-003
      6.27450971e-003 7.84313679e-003 1.41176470e-002 7.05882348e-003
      1.09803919e-002 9.41176433e-003 1.64705887e-002 7.05882348e-003
      1.25490194e-002 6.27450971e-003 9.41176433e-003 1.25490194e-002
      7.05882348e-003 8.62745102e-003 8.62745102e-003 1.64705887e-002
      8.62745102e-003 1.64705887e-002 7.05882348e-003 1.49019603e-002
      4.70588217e-003 3.13725485e-003 9.41176433e-003 1.96078420e-002
      7.84313679e-003 1.17647061e-002 4.70588217e-003 4.70588217e-003
      5.49019594e-003 6.27450971e-003 7.05882348e-003 5.49019594e-003
      1.56862736e-002 9.41176433e-003 7.84313679e-003 1.01960786e-002
      1.41176470e-002 7.84313679e-003 1.01960786e-002 3.92156839e-003
      1.09803919e-002 9.41176433e-003 7.05882348e-003 5.49019594e-003
      2.27450971e-002 1.33333327e-002 1.33333327e-002 1.01960786e-002
      1.41176470e-002 1.88235287e-002 1.25490194e-002 7.84313679e-003
      1.01960786e-002 1.17647061e-002 1.56862736e-002 1.49019603e-002
      3.92156839e-003 9.41176433e-003 1.09803919e-002 1.09803919e-002
      4.70588217e-003 1.64705887e-002 9.41176433e-003 8.62745102e-003
      6.27450971e-003 9.41176433e-003 9.41176433e-003 3.13725485e-003
      3.13725485e-003 6.27450971e-003 2.19607837e-002 1.72549020e-002
      3.92156839e-003 1.41176470e-002 1.09803919e-002 8.62745102e-003
      4.70588217e-003 9.41176433e-003 1.41176470e-002 1.56862736e-002</_>
    <_>
      3.15457419e-003 9.46372282e-003 1.57728717e-002 1.26182968e-002
      1.26182968e-002 6.30914839e-003 1.26182968e-002 0. 3.15457419e-003
      1.89274456e-002 6.30914839e-003 1.26182968e-002 1.57728717e-002
      9.46372282e-003 6.30914839e-003 3.15457419e-003 9.46372282e-003
      1.89274456e-002 2.52365936e-002 1.26182968e-002 6.30914839e-003
      1.26182968e-002 9.46372282e-003 1.57728717e-002 6.30914839e-003
      1.26182968e-002 6.30914839e-003 1.26182968e-002 1.57728717e-002
      9.46372282e-003 1.26182968e-002 2.20820196e-002 1.89274456e-002
      3.15457419e-003 3.15457419e-003 9.46372282e-003 3.15457419e-003
      6.30914839e-003 3.15457419e-003 3.15457419e-003 6.30914839e-003 0.
      0. 2.20820196e-002 1.26182968e-002 6.30914839e-003 9.46372282e-003
      3.15457419e-003 1.26182968e-002 1.26182968e-002 1.89274456e-002
      1.57728717e-002 1.26182968e-002 6.30914839e-003 1.26182968e-002 0.
      3.15457419e-003 6.30914839e-003 3.15457419e-003 6.30914839e-003
      1.26182968e-002 6.30914839e-003 1.57728717e-002 9.46372282e-003
      1.89274456e-002 0. 3.15457419e-003 1.89274456e-002 1.26182968e-002
      6.30914839e-003 0. 1.57728717e-002 0. 3.15457433e-002
      1.89274456e-002 0. 1.26182968e-002 3.15457419e-003 9.46372282e-003
      6.30914839e-003 6.30914839e-003 1.26182968e-002 9.46372282e-003
      1.26182968e-002 2.52365936e-002 1.89274456e-002 6.30914839e-003
      1.57728717e-002 6.30914839e-003 9.46372282e-003 6.30914839e-003
      6.30914839e-003 1.26182968e-002 2.83911675e-002 9.46372282e-003
      9.46372282e-003 3.15457419e-003 6.30914839e-003 6.30914839e-003
      9.46372282e-003</_>
    <_>
      1.70542635e-002 1.08527131e-002 3.72093022e-002 3.72093022e-002
      2.32558139e-002 1.55038759e-003 7.75193796e-003 0. 6.20155036e-003
      6.20155036e-003 3.10077518e-003 1.70542635e-002 4.65116277e-003
      4.65116277e-003 1.55038759e-002 1.86046511e-002 7.75193796e-003
      1.55038759e-003 3.10077518e-003 4.65116277e-003 1.55038759e-002 0.
      1.08527131e-002 0. 1.24031007e-002 1.08527131e-002 4.65116277e-003
      0. 6.20155036e-003 3.10077518e-003 1.39534883e-002 1.08527131e-002
      1.39534883e-002 4.65116277e-003 4.65116277e-003 4.65116277e-003
      4.65116277e-003 1.39534883e-002 3.10077518e-003 3.72093022e-002
      6.20155036e-003 1.55038759e-003 6.20155036e-003 4.18604650e-002
      2.32558139e-002 2.17054263e-002 3.10077518e-003 4.65116277e-003
      6.20155036e-003 1.24031007e-002 1.24031007e-002 1.55038759e-003
      1.24031007e-002 6.20155036e-003 3.10077518e-003 4.65116277e-003
      2.01550387e-002 4.65116277e-003 1.55038759e-003 2.01550387e-002
      3.10077518e-003 6.20155036e-003 1.70542635e-002 6.20155036e-003
      3.25581394e-002 3.10077518e-003 1.08527131e-002 1.08527131e-002
      3.10077518e-003 1.08527131e-002 1.24031007e-002 3.10077518e-003
      1.55038759e-003 1.55038759e-003 6.20155036e-002 1.08527131e-002
      3.10077518e-003 3.10077518e-003 4.65116277e-003 6.20155036e-003
      1.55038759e-003 2.79069766e-002 0. 7.75193796e-003 3.10077518e-003
      1.39534883e-002 6.20155036e-003 6.20155036e-003 1.08527131e-002
      6.20155036e-003 9.30232555e-003 1.39534883e-002 1.08527131e-002
      3.10077518e-003 4.65116277e-003 6.20155036e-003 9.30232555e-003
      1.24031007e-002 1.39534883e-002 3.10077518e-003</_>
    <_>
      1.15008634e-002 8.05060379e-003 4.60034516e-003 2.35767681e-002
      6.32547447e-003 1.03507768e-002 1.15008634e-002 8.05060379e-003
      1.32259922e-002 2.01265104e-002 1.15008634e-002 1.72512941e-002
      1.89764239e-002 9.77573358e-003 9.20069031e-003 8.62564705e-003
      9.77573358e-003 1.20759057e-002 6.32547447e-003 1.03507768e-002
      9.77573358e-003 9.20069031e-003 7.47556100e-003 1.49511220e-002
      7.47556100e-003 6.32547447e-003 8.62564705e-003 1.43760787e-002
      2.87521584e-003 1.03507768e-002 9.77573358e-003 8.05060379e-003
      9.20069031e-003 9.20069031e-003 1.20759057e-002 6.90051774e-003
      8.05060379e-003 5.75043168e-003 1.15008634e-002 2.18516402e-002
      1.55261653e-002 5.75043145e-004 1.61012076e-002 3.45025887e-003
      9.77573358e-003 6.90051774e-003 9.77573358e-003 1.38010355e-002
      8.62564705e-003 5.17538842e-003 8.62564705e-003 1.15008634e-002
      5.17538842e-003 8.05060379e-003 6.90051774e-003 8.05060379e-003
      1.55261653e-002 9.20069031e-003 1.32259922e-002 6.32547447e-003
      1.09258201e-002 6.90051774e-003 1.15008634e-002 1.20759057e-002
      1.43760787e-002 1.09258201e-002 1.49511220e-002 1.15008634e-002
      4.02530190e-003 4.60034516e-003 8.62564705e-003 5.75043168e-003
      9.20069031e-003 4.60034516e-003 6.90051774e-003 6.32547447e-003
      1.20759057e-002 1.03507768e-002 1.15008634e-002 1.38010355e-002
      1.26509489e-002 2.12765969e-002 7.47556100e-003 5.75043168e-003
      9.20069031e-003 8.05060379e-003 1.49511220e-002 6.32547447e-003
      7.47556100e-003 9.77573358e-003 1.49511220e-002 4.60034516e-003
      1.43760787e-002 6.32547447e-003 6.90051774e-003 8.62564705e-003
      1.49511220e-002 5.75043168e-003 1.32259922e-002 9.20069031e-003</_>
    <_>
      2.54022004e-003 2.54022004e-003 1.31244706e-002 1.22777307e-002
      1.27011007e-002 1.01608802e-002 1.10076200e-002 1.01608802e-002
      1.39712105e-002 2.37087216e-002 1.31244706e-002 8.89077038e-003
      4.23370022e-003 1.27011007e-002 1.43945804e-002 8.46740045e-003
      4.23370022e-003 1.05842501e-002 1.01608802e-002 9.73751023e-003
      1.05842501e-002 9.31414030e-003 5.08044008e-003 1.39712105e-002
      3.81033006e-003 8.89077038e-003 7.62066012e-003 1.10076200e-002
      4.65707015e-003 8.46740045e-003 1.10076200e-002 6.35055033e-003
      3.81033006e-003 8.04403052e-003 1.90516505e-002 1.60880610e-002
      7.19729019e-003 8.89077038e-003 6.35055033e-003 1.27011007e-002
      1.56646911e-002 2.54022004e-003 1.73581708e-002 1.05842501e-002
      1.43945804e-002 7.62066012e-003 1.01608802e-002 7.62066012e-003
      5.92718041e-003 8.89077038e-003 1.90516505e-002 1.05842501e-002
      2.11685011e-003 1.56646911e-002 1.52413202e-002 1.22777307e-002
      1.65114310e-002 1.10076200e-002 8.89077038e-003 1.22777307e-002
      6.77392026e-003 1.48179503e-002 1.01608802e-002 9.31414030e-003
      1.27011007e-002 8.46740045e-003 5.08044008e-003 1.69348009e-002
      5.50381001e-003 5.08044008e-003 6.77392026e-003 4.65707015e-003
      5.92718041e-003 6.35055033e-003 1.98983904e-002 1.31244706e-002
      1.48179503e-002 8.89077038e-003 7.19729019e-003 7.19729019e-003
      8.89077038e-003 9.31414030e-003 4.23370022e-003 2.54022004e-003
      8.04403052e-003 1.65114310e-002 7.62066012e-003 1.35478405e-002
      1.69348009e-002 9.31414030e-003 1.48179503e-002 1.69348007e-003
      9.73751023e-003 4.23370022e-003 1.10076200e-002 6.77392026e-003
      1.69348009e-002 1.56646911e-002 1.22777307e-002 4.23370022e-003</_>
    <_>
      8.18124600e-003 1.69918183e-002 1.51038393e-002 2.07677782e-002
      9.43989959e-003 5.66393975e-003 1.88797992e-003 6.29326608e-003
      9.43989959e-003 9.43989959e-003 5.66393975e-003 1.06985522e-002
      1.38451857e-002 5.66393975e-003 1.13278795e-002 1.00692259e-002
      6.92259287e-003 6.29326608e-003 6.29326608e-003 8.18124600e-003
      6.29326608e-003 6.29326608e-003 1.06985522e-002 1.38451857e-002
      9.43989959e-003 1.06985522e-002 4.40528616e-003 7.55191967e-003
      2.70610452e-002 3.14663304e-003 6.92259287e-003 5.03461296e-003
      8.18124600e-003 7.55191967e-003 1.25865322e-002 8.81057233e-003
      1.95091255e-002 1.95091255e-002 6.92259287e-003 2.01384518e-002
      5.03461296e-003 3.14663304e-003 1.13278795e-002 1.51038393e-002
      1.32158594e-002 9.43989959e-003 6.29326608e-003 6.92259287e-003
      8.18124600e-003 6.92259287e-003 1.00692259e-002 6.29326608e-003
      1.51038393e-002 5.66393975e-003 5.03461296e-003 7.55191967e-003
      6.92259287e-003 7.55191967e-003 1.19572058e-002 1.44745121e-002
      8.81057233e-003 1.06985522e-002 1.13278795e-002 9.43989959e-003
      1.63624920e-002 4.40528616e-003 6.92259287e-003 8.18124600e-003
      8.81057233e-003 1.44745121e-002 1.00692259e-002 1.38451857e-002
      5.03461296e-003 7.55191967e-003 1.63624920e-002 7.55191967e-003
      7.55191967e-003 1.32158594e-002 9.43989959e-003 6.92259287e-003
      5.03461296e-003 1.38451857e-002 6.29326608e-003 1.19572058e-002
      6.92259287e-003 1.19572058e-002 8.81057233e-003 9.43989959e-003
      8.81057233e-003 9.43989959e-003 2.20264308e-002 1.51038393e-002
      1.19572058e-002 1.06985522e-002 1.32158594e-002 9.43989959e-003
      1.38451857e-002 1.63624920e-002 1.38451857e-002 5.03461296e-003</_>
    <_>
      7.81250000e-003 2.14843750e-002 9.76562500e-003 3.32031250e-002
      1.95312500e-003 9.76562500e-003 7.81250000e-003 0. 7.81250000e-003
      5.85937500e-003 1.95312500e-003 1.95312500e-002 5.85937500e-003
      1.95312500e-003 3.90625000e-003 9.76562500e-003 9.76562500e-003
      5.85937500e-003 1.36718750e-002 5.85937500e-003 3.90625000e-003
      7.81250000e-003 1.17187500e-002 0. 6.05468750e-002 7.81250000e-003
      1.95312500e-003 1.75781250e-002 9.76562500e-003 0. 5.85937500e-003
      6.05468750e-002 7.81250000e-003 1.17187500e-002 1.95312500e-003
      1.95312500e-003 9.76562500e-003 7.81250000e-003 7.81250000e-003
      3.71093750e-002 1.95312500e-003 0. 3.90625000e-003 1.56250000e-002
      1.36718750e-002 7.81250000e-003 1.95312500e-003 9.76562500e-003
      1.17187500e-002 7.81250000e-003 7.81250000e-003 1.36718750e-002
      1.75781250e-002 9.76562500e-003 5.85937500e-003 1.56250000e-002
      2.14843750e-002 5.85937500e-003 2.14843750e-002 3.90625000e-003
      1.95312500e-003 1.95312500e-003 3.90625000e-003 1.36718750e-002
      1.17187500e-002 3.90625000e-003 1.36718750e-002 7.81250000e-003
      5.85937500e-003 1.95312500e-003 9.76562500e-003 1.56250000e-002
      1.95312500e-003 5.85937500e-003 1.95312500e-002 9.76562500e-003 0.
      1.95312500e-003 7.81250000e-003 9.76562500e-003 1.95312500e-003
      4.29687500e-002 1.75781250e-002 5.85937500e-003 0. 1.95312500e-003
      1.95312500e-003 1.95312500e-003 3.90625000e-003 0. 3.12500000e-002
      1.36718750e-002 7.81250000e-003 7.81250000e-003 1.95312500e-003
      1.36718750e-002 1.75781250e-002 5.85937500e-003 1.17187500e-002
      7.81250000e-003</_>
    <_>
      4.81347786e-003 4.81347786e-003 1.56438034e-002 2.40673888e-002
      2.64741275e-002 1.08303251e-002 3.61010851e-003 2.40673893e-003
      6.01684721e-003 9.62695573e-003 1.20336947e-003 8.42358638e-003
      7.22021703e-003 8.42358638e-003 7.22021703e-003 0. 7.22021703e-003
      1.08303251e-002 9.62695573e-003 8.42358638e-003 9.62695573e-003
      1.08303251e-002 2.04572808e-002 6.01684721e-003 7.22021703e-003
      7.22021703e-003 1.08303251e-002 6.01684721e-003 3.61010851e-003
      9.62695573e-003 8.42358638e-003 3.61010851e-003 4.81347786e-003
      9.62695573e-003 8.42358638e-003 8.42358638e-003 9.62695573e-003
      1.32370638e-002 1.20336947e-003 8.42358638e-003 6.01684721e-003 0.
      9.62695573e-003 4.21179309e-002 1.68471728e-002 8.42358638e-003
      8.42358638e-003 6.01684721e-003 4.81347786e-003 1.56438034e-002
      8.42358638e-003 1.20336944e-002 4.81347786e-003 3.61010851e-003
      1.20336944e-002 1.20336944e-002 1.32370638e-002 7.22021703e-003
      1.68471728e-002 1.92539115e-002 4.81347786e-003 9.62695573e-003
      7.22021703e-003 8.42358638e-003 2.40673888e-002 9.62695573e-003
      1.20336947e-003 1.92539115e-002 9.62695573e-003 1.32370638e-002
      1.08303251e-002 0. 9.62695573e-003 1.08303251e-002 1.92539115e-002
      1.44404341e-002 8.42358638e-003 7.22021703e-003 6.01684721e-003
      1.44404341e-002 9.62695573e-003 1.68471728e-002 1.20336944e-002
      7.22021703e-003 1.20336944e-002 1.08303251e-002 7.22021703e-003
      9.62695573e-003 4.81347786e-003 9.62695573e-003 2.16606501e-002
      1.08303251e-002 6.01684721e-003 7.22021703e-003 1.08303251e-002
      9.62695573e-003 1.08303251e-002 1.56438034e-002 2.16606501e-002
      6.01684721e-003</_>
    <_>
      6.92963786e-003 1.06609808e-002 1.01279318e-002 1.59914717e-002
      3.73134343e-003 1.22601278e-002 1.27931777e-002 1.43923247e-002
      7.99573585e-003 7.99573585e-003 1.11940298e-002 1.33262267e-002
      5.33049041e-003 9.06183384e-003 1.22601278e-002 6.92963786e-003
      1.11940298e-002 1.33262267e-002 4.79744142e-003 7.46268686e-003
      1.59914717e-002 4.26439242e-003 1.01279318e-002 5.33049041e-003
      1.27931777e-002 8.52878485e-003 2.66524535e-002 4.79744142e-003
      2.66524521e-003 1.75906196e-002 1.38592757e-002 7.46268686e-003
      6.39658887e-003 7.46268686e-003 1.01279318e-002 4.79744142e-003
      1.01279318e-002 1.01279318e-002 7.99573585e-003 7.99573585e-003
      1.59914717e-002 4.26439242e-003 1.06609808e-002 1.22601278e-002
      2.07889136e-002 1.01279318e-002 9.59488284e-003 1.43923247e-002
      6.92963786e-003 1.06609808e-002 1.17270788e-002 9.59488284e-003
      1.17270788e-002 1.70575697e-002 6.92963786e-003 1.86567176e-002
      1.11940298e-002 3.73134343e-003 6.92963786e-003 1.06609808e-002
      1.38592757e-002 6.92963786e-003 4.79744142e-003 1.54584227e-002
      1.17270788e-002 1.11940298e-002 6.39658887e-003 9.06183384e-003
      1.17270788e-002 8.52878485e-003 3.19829443e-003 7.46268686e-003
      2.07889136e-002 6.39658887e-003 9.06183384e-003 1.65245198e-002
      1.06609808e-002 7.46268686e-003 9.06183384e-003 1.33262267e-002
      6.39658887e-003 5.86353941e-003 6.92963786e-003 8.52878485e-003
      1.38592757e-002 7.99573585e-003 1.49253737e-002 9.59488284e-003
      1.38592757e-002 1.11940298e-002 3.19829443e-003 1.01279318e-002
      1.22601278e-002 5.33049041e-003 2.66524521e-003 8.52878485e-003
      9.59488284e-003 6.39658887e-003 1.33262267e-002 9.06183384e-003</_>
    <_>
      6.80272095e-003 6.80272095e-003 2.72108838e-002 3.40136066e-002 0.
      0. 1.36054419e-002 6.80272095e-003 1.02040814e-002 1.02040814e-002
      3.40136047e-003 6.80272095e-003 1.36054419e-002 0. 1.02040814e-002
      1.02040814e-002 1.02040814e-002 1.02040814e-002 6.80272095e-003
      2.04081628e-002 1.02040814e-002 6.80272095e-003 3.40136047e-003
      3.40136047e-003 6.80272095e-003 6.80272095e-003 6.80272095e-003
      3.40136047e-003 1.36054419e-002 1.02040814e-002 3.40136047e-003
      3.40136047e-003 2.04081628e-002 1.02040814e-002 3.40136047e-003
      1.02040814e-002 1.02040814e-002 1.02040814e-002 3.40136047e-003
      6.80272095e-003 3.40136047e-003 0. 1.02040814e-002 1.70068033e-002
      1.36054419e-002 1.36054419e-002 3.40136047e-003 3.40136047e-003
      1.02040814e-002 2.04081628e-002 6.80272095e-003 1.36054419e-002
      3.40136047e-003 0. 6.80272095e-003 1.70068033e-002 6.80272095e-003
      1.70068033e-002 6.80272095e-003 2.72108838e-002 3.40136047e-003
      1.70068033e-002 1.70068033e-002 0. 2.04081628e-002 0.
      1.36054419e-002 2.04081628e-002 1.70068033e-002 2.04081628e-002
      3.40136066e-002 3.40136047e-003 0. 1.02040814e-002 2.04081628e-002
      3.40136047e-003 3.40136047e-003 1.70068033e-002 1.02040814e-002
      6.80272095e-003 6.80272095e-003 1.36054419e-002 1.36054419e-002
      2.04081628e-002 1.70068033e-002 1.70068033e-002 6.80272095e-003
      1.02040814e-002 3.40136047e-003 6.80272095e-003 1.36054419e-002
      1.36054419e-002 0. 1.70068033e-002 6.80272095e-003 0.
      6.80272095e-003 3.40136047e-003 2.04081628e-002 3.40136047e-003</_>
    <_>
      8.74890655e-004 1.22484695e-002 1.74978131e-003 8.74890666e-003
      6.12423476e-003 1.22484695e-002 8.74890666e-003 7.87401572e-003
      1.04986876e-002 2.09973752e-002 1.31233595e-002 6.99912524e-003
      6.12423476e-003 2.79965010e-002 8.74890666e-003 2.71216109e-002
      1.04986876e-002 7.87401572e-003 2.62467191e-003 6.12423476e-003
      1.66229233e-002 6.12423476e-003 3.49956262e-003 1.48731414e-002
      4.37445333e-003 5.24934381e-003 1.74978131e-003 1.39982505e-002
      1.04986876e-002 9.62379761e-003 4.37445333e-003 8.74890666e-003
      7.87401572e-003 1.31233595e-002 1.13735786e-002 6.99912524e-003
      1.48731414e-002 7.87401572e-003 1.83727033e-002 5.24934381e-003
      1.66229233e-002 3.49956262e-003 9.62379761e-003 2.79965010e-002
      1.22484695e-002 5.24934381e-003 1.31233595e-002 7.87401572e-003
      1.39982505e-002 1.48731414e-002 6.99912524e-003 7.87401572e-003
      6.99912524e-003 1.92475952e-002 1.13735786e-002 9.62379761e-003
      9.62379761e-003 3.41207348e-002 7.87401572e-003 3.49956262e-003
      1.31233595e-002 6.99912524e-003 3.49956262e-003 6.12423476e-003
      2.62467191e-002 5.24934381e-003 1.92475952e-002 9.62379761e-003
      5.24934381e-003 1.39982505e-002 6.99912524e-003 7.87401572e-003
      6.12423476e-003 1.48731414e-002 2.62467191e-003 8.74890666e-003
      1.66229233e-002 1.31233595e-002 9.62379761e-003 8.74890666e-003
      9.62379761e-003 8.74890655e-004 3.49956262e-003 1.74978131e-003
      6.12423476e-003 1.74978133e-002 1.74978133e-002 1.13735786e-002
      9.62379761e-003 7.87401572e-003 9.62379761e-003 6.12423476e-003
      2.62467191e-003 1.74978131e-003 3.49956262e-003 1.39982505e-002
      1.39982505e-002 6.12423476e-003 7.87401572e-003 8.74890666e-003</_>
    <_>
      1.50150154e-002 1.05105108e-002 3.00300308e-003 5.70570603e-002
      1.20120123e-002 3.00300308e-003 1.35135138e-002 9.00900923e-003
      1.50150154e-003 1.35135138e-002 4.50450461e-003 6.00600615e-003
      1.50150154e-002 0. 7.50750769e-003 1.05105108e-002 9.00900923e-003
      4.50450461e-003 9.00900923e-003 4.50450461e-003 1.50150154e-003 0.
      9.00900923e-003 1.50150154e-003 6.00600615e-003 1.50150154e-003
      7.50750769e-003 3.00300308e-003 7.50750769e-003 3.00300308e-003
      1.65165178e-002 0. 6.00600615e-003 1.50150154e-003 7.50750769e-003
      4.50450461e-003 4.50450461e-003 1.95195191e-002 1.50150154e-003
      1.78678676e-001 0. 0. 0. 6.90690726e-002 9.00900923e-003
      1.50150154e-003 1.50150154e-003 6.00600615e-003 0. 1.50150154e-003
      4.50450461e-003 1.50150154e-003 1.35135138e-002 4.50450461e-003
      9.00900923e-003 9.00900923e-003 4.05405425e-002 1.05105108e-002
      4.50450461e-003 7.50750769e-003 3.00300308e-003 3.00300308e-003
      3.00300308e-003 6.00600615e-003 1.80180185e-002 1.50150154e-003
      1.20120123e-002 9.00900923e-003 4.50450461e-003 1.50150154e-003
      6.00600615e-003 1.20120123e-002 6.00600615e-003 1.50150154e-003
      9.00900923e-003 4.05405425e-002 1.50150154e-003 1.50150154e-003
      4.50450461e-003 6.00600615e-003 3.00300308e-003 2.70270277e-002
      3.00300308e-003 1.95195191e-002 3.00300308e-003 6.00600615e-003
      1.50150154e-003 3.00300308e-003 3.00300308e-003 9.00900923e-003
      1.20120123e-002 1.65165178e-002 0. 1.50150154e-003 0.
      4.50450461e-003 9.00900923e-003 1.20120123e-002 1.50150154e-002
      1.80180185e-002</_>
    <_>
      5.74506260e-003 7.54039455e-003 6.10412890e-003 9.33572650e-003
      7.18132826e-004 1.04129259e-002 1.18491920e-002 1.25673246e-002
      1.04129259e-002 1.29263904e-002 1.65170543e-002 8.61759391e-003
      5.38599631e-003 1.29263904e-002 1.43626565e-002 7.89946131e-003
      1.14901252e-002 5.74506260e-003 9.33572650e-003 8.97666067e-003
      1.36445239e-002 8.61759391e-003 7.89946131e-003 1.11310584e-002
      6.46319520e-003 1.00538600e-002 1.25673246e-002 1.54398559e-002
      7.18132826e-003 1.47217233e-002 6.10412890e-003 4.30879695e-003
      1.00538600e-002 1.25673246e-002 1.07719926e-002 1.50807891e-002
      9.69479326e-003 7.18132826e-003 1.11310584e-002 8.61759391e-003
      1.72351878e-002 3.59066413e-004 1.36445239e-002 1.36445239e-002
      6.46319520e-003 1.04129259e-002 1.29263904e-002 9.69479326e-003
      8.97666067e-003 1.22082578e-002 1.40035897e-002 1.18491920e-002
      6.10412890e-003 1.54398559e-002 8.97666067e-003 1.11310584e-002
      8.61759391e-003 1.18491920e-002 3.94973066e-003 3.59066413e-003
      1.50807891e-002 1.18491920e-002 7.89946131e-003 1.11310584e-002
      5.38599631e-003 1.18491920e-002 7.89946131e-003 1.07719926e-002
      7.54039455e-003 8.61759391e-003 6.10412890e-003 6.10412890e-003
      1.04129259e-002 9.33572650e-003 4.66786325e-003 1.00538600e-002
      1.47217233e-002 1.14901252e-002 1.18491920e-002 1.40035897e-002
      1.18491920e-002 9.33572650e-003 9.33572650e-003 7.18132826e-003
      1.36445239e-002 7.18132826e-003 1.57989226e-002 1.29263904e-002
      1.50807891e-002 1.22082578e-002 1.29263904e-002 6.82226196e-003
      5.02693001e-003 6.82226196e-003 1.14901252e-002 1.57989226e-002
      1.40035897e-002 5.74506260e-003 1.07719926e-002 6.10412890e-003</_>
    <_>
      1.16995070e-002 1.16995070e-002 1.84729062e-002 7.88177326e-002
      1.10837435e-002 1.84729067e-003 3.07881762e-003 4.31034481e-003
      8.00492615e-003 1.29310340e-002 6.77339872e-003 8.62068962e-003
      1.60098523e-002 8.62068962e-003 6.15763525e-003 7.38916267e-003
      4.31034481e-003 3.69458133e-003 5.54187177e-003 1.53940888e-002
      4.92610829e-003 8.00492615e-003 6.77339872e-003 1.60098523e-002
      3.69458124e-002 1.16995070e-002 3.69458133e-003 7.38916267e-003
      5.54187177e-003 2.46305414e-003 6.15763525e-003 2.83251218e-002
      4.92610829e-003 6.15763525e-003 1.41625609e-002 8.00492615e-003
      8.62068962e-003 9.23645310e-003 1.35467974e-002 3.32512297e-002
      4.31034481e-003 0. 9.85221658e-003 1.41625609e-002 1.66256148e-002
      9.85221658e-003 1.10837435e-002 5.54187177e-003 1.23152705e-002
      8.00492615e-003 7.38916267e-003 2.46305414e-003 4.31034481e-003
      2.46305414e-003 2.46305414e-003 1.23152707e-003 1.04679801e-002
      1.60098523e-002 1.04679801e-002 1.04679801e-002 3.69458133e-003
      5.54187177e-003 1.78571418e-002 5.54187177e-003 2.21674871e-002
      9.85221658e-003 8.00492615e-003 5.54187177e-003 3.69458133e-003
      5.54187177e-003 2.27832515e-002 1.23152705e-002 1.84729067e-003
      5.54187177e-003 1.10837435e-002 3.69458133e-003 3.07881762e-003
      1.23152705e-002 1.72413792e-002 3.07881762e-003 8.00492615e-003
      2.27832515e-002 4.31034481e-003 8.62068962e-003 8.62068962e-003
      9.23645310e-003 2.46305414e-003 3.69458133e-003 8.62068962e-003
      8.00492615e-003 2.27832515e-002 6.15763525e-003 5.54187177e-003
      4.31034481e-003 1.35467974e-002 1.16995070e-002 5.54187177e-003
      7.38916267e-003 7.38916267e-003 1.10837435e-002</_>
    <_>
      5.26315765e-003 1.05263153e-002 1.15789473e-002 3.68421040e-002
      4.21052612e-003 3.15789459e-003 8.42105225e-003 4.21052612e-003
      5.26315765e-003 1.15789473e-002 1.05263153e-003 8.42105225e-003
      8.42105225e-003 1.26315784e-002 1.57894734e-002 7.36842072e-003
      1.05263153e-002 5.26315765e-003 1.05263153e-002 1.05263153e-003
      5.26315765e-003 1.26315784e-002 5.26315765e-003 5.26315765e-003
      1.68421045e-002 7.36842072e-003 1.57894734e-002 6.31578919e-003
      1.36842094e-002 1.05263153e-002 1.78947356e-002 9.47368331e-003
      8.42105225e-003 7.36842072e-003 9.47368331e-003 5.26315765e-003
      1.99999996e-002 1.68421045e-002 7.36842072e-003 1.15789473e-002
      5.26315765e-003 0. 3.15789459e-003 2.63157878e-002 1.78947356e-002
      1.99999996e-002 6.31578919e-003 1.15789473e-002 2.21052617e-002
      1.05263153e-002 1.78947356e-002 1.05263153e-002 1.15789473e-002
      8.42105225e-003 4.21052612e-003 1.89473666e-002 1.15789473e-002
      1.05263153e-003 3.15789459e-003 1.47368414e-002 7.36842072e-003
      1.15789473e-002 6.31578919e-003 9.47368331e-003 1.89473666e-002
      2.10526306e-003 6.31578919e-003 1.05263153e-002 1.36842094e-002
      8.42105225e-003 1.15789473e-002 1.47368414e-002 1.36842094e-002
      1.36842094e-002 4.21052612e-003 1.05263153e-002 5.26315765e-003
      1.47368414e-002 1.68421045e-002 9.47368331e-003 3.15789459e-003
      1.78947356e-002 1.57894734e-002 4.21052612e-003 1.15789473e-002
      1.89473666e-002 1.26315784e-002 6.31578919e-003 3.15789459e-003
      2.10526306e-002 1.05263153e-003 1.05263153e-002 5.26315765e-003
      3.15789459e-003 1.05263153e-003 5.26315765e-003 5.26315765e-003
      2.10526306e-003 1.26315784e-002 9.47368331e-003</_>
    <_>
      3.73831787e-003 2.80373846e-003 5.14018722e-003 1.02803744e-002
      1.86915901e-002 1.44859813e-002 9.81308427e-003 9.81308427e-003
      6.54205633e-003 2.24299077e-002 1.72897205e-002 4.67289751e-003
      1.26168225e-002 1.02803744e-002 8.41121562e-003 1.26168225e-002
      1.54205617e-002 7.00934604e-003 7.94392545e-003 8.41121562e-003
      1.07476637e-002 4.67289751e-003 6.07476663e-003 2.47663558e-002
      5.60747692e-003 1.35514019e-002 5.60747692e-003 1.40186921e-002
      2.80373846e-003 6.07476663e-003 5.60747692e-003 8.87850486e-003
      1.07476637e-002 1.63551401e-002 1.26168225e-002 1.35514019e-002
      6.07476663e-003 7.94392545e-003 1.07476637e-002 3.27102817e-003
      1.40186921e-002 9.34579468e-004 1.16822431e-002 2.80373842e-002
      1.26168225e-002 1.02803744e-002 9.81308427e-003 1.02803744e-002
      4.20560781e-003 4.20560781e-003 7.47663574e-003 8.41121562e-003
      5.14018722e-003 1.86915901e-002 1.21495333e-002 2.19626166e-002
      1.16822431e-002 2.38317773e-002 1.02803744e-002 1.21495333e-002
      7.00934604e-003 1.26168225e-002 1.44859813e-002 5.14018722e-003
      8.87850486e-003 1.30841127e-002 1.44859813e-002 7.47663574e-003
      8.87850486e-003 3.27102817e-003 5.60747692e-003 9.34579468e-004
      7.00934604e-003 7.47663574e-003 9.34579503e-003 9.34579503e-003
      1.54205617e-002 2.80373846e-003 7.47663574e-003 1.49532715e-002
      1.40186921e-002 1.26168225e-002 5.14018722e-003 5.14018722e-003
      9.81308427e-003 5.60747692e-003 1.35514019e-002 1.12149538e-002
      1.54205617e-002 6.07476663e-003 1.30841127e-002 8.41121562e-003
      1.86915894e-003 3.73831787e-003 1.44859813e-002 8.41121562e-003
      1.21495333e-002 7.00934604e-003 1.02803744e-002 1.02803744e-002</_>
    <_>
      8.23892932e-003 7.20906304e-003 7.72399642e-003 1.18434606e-002
      8.75386223e-003 8.23892932e-003 8.75386223e-003 1.33882603e-002
      6.17919676e-003 1.95674580e-002 8.75386223e-003 1.49330590e-002
      2.21421234e-002 1.02986619e-002 8.75386223e-003 4.11946466e-003
      5.14933094e-003 9.78372898e-003 8.75386223e-003 1.33882603e-002
      1.49330590e-002 1.28733274e-002 1.08135948e-002 1.64778586e-002
      6.17919676e-003 8.75386223e-003 9.26879514e-003 7.72399642e-003
      1.18434606e-002 1.33882603e-002 4.63439757e-003 4.63439757e-003
      7.72399642e-003 6.17919676e-003 1.90525241e-002 1.23583935e-002
      1.23583935e-002 4.63439757e-003 3.60453152e-003 9.78372898e-003
      5.66426385e-003 2.05973233e-003 1.64778586e-002 1.54479928e-002
      6.69413013e-003 1.18434606e-002 7.20906304e-003 6.17919676e-003
      7.20906304e-003 9.78372898e-003 9.78372898e-003 5.66426385e-003
      7.20906304e-003 1.33882603e-002 6.69413013e-003 4.11946466e-003
      9.78372898e-003 6.17919676e-003 5.66426385e-003 4.63439757e-003
      1.08135948e-002 1.08135948e-002 9.78372898e-003 1.28733274e-002
      1.85375903e-002 1.23583935e-002 8.75386223e-003 1.95674580e-002
      1.02986619e-002 1.23583935e-002 4.63439757e-003 8.23892932e-003
      5.14933094e-003 7.20906304e-003 8.23892932e-003 8.23892932e-003
      1.33882603e-002 1.39031932e-002 6.69413013e-003 1.33882603e-002
      1.28733274e-002 7.72399642e-003 4.11946466e-003 1.08135948e-002
      9.78372898e-003 1.80226583e-002 9.78372898e-003 1.54479928e-002
      9.78372898e-003 1.08135948e-002 1.90525241e-002 9.78372898e-003
      7.72399642e-003 8.23892932e-003 1.28733274e-002 1.02986619e-002
      8.75386223e-003 7.72399642e-003 1.13285277e-002 1.49330590e-002</_>
    <_>
      3.47826071e-003 5.21739107e-003 7.53623154e-003 2.31884047e-003
      4.63768095e-003 1.27536226e-002 1.79710127e-002 1.21739125e-002
      9.27536190e-003 1.15942024e-002 6.95652142e-003 6.95652142e-003
      9.27536190e-003 9.27536190e-003 1.04347821e-002 2.89855059e-003
      8.69565178e-003 1.21739125e-002 1.15942024e-002 9.27536190e-003
      1.21739125e-002 6.37681130e-003 7.53623154e-003 1.04347821e-002
      4.63768095e-003 6.95652142e-003 1.15942024e-002 7.53623154e-003
      5.79710118e-003 1.33333327e-002 1.56521723e-002 2.89855059e-003
      9.85507201e-003 8.11594166e-003 6.95652142e-003 1.50724631e-002
      1.21739125e-002 1.39130428e-002 6.37681130e-003 5.21739107e-003
      1.10144923e-002 0. 1.56521723e-002 1.50724631e-002 7.53623154e-003
      1.97101440e-002 1.10144923e-002 7.53623154e-003 1.27536226e-002
      1.73913036e-002 2.26086937e-002 7.53623154e-003 3.47826071e-003
      1.04347821e-002 9.27536190e-003 1.10144923e-002 1.50724631e-002
      6.37681130e-003 6.95652142e-003 5.21739107e-003 8.69565178e-003
      1.44927530e-002 1.15942024e-002 9.27536190e-003 7.53623154e-003
      1.62318833e-002 4.05797083e-003 1.39130428e-002 9.27536190e-003
      1.04347821e-002 8.69565178e-003 4.63768095e-003 9.85507201e-003
      1.91304348e-002 8.11594166e-003 1.27536226e-002 1.62318833e-002
      1.44927530e-002 9.27536190e-003 1.44927530e-002 1.04347821e-002
      2.89855059e-003 1.56521723e-002 8.11594166e-003 1.44927530e-002
      1.73913036e-002 8.69565178e-003 1.39130428e-002 8.11594166e-003
      1.73913036e-002 8.11594166e-003 1.04347821e-002 1.15942024e-002
      1.73913036e-003 1.10144923e-002 7.53623154e-003 1.44927530e-002
      5.79710118e-003 6.95652142e-003 9.27536190e-003</_>
    <_>
      4.64540068e-003 4.95509431e-003 8.05202872e-003 4.02601436e-003
      1.14586558e-002 1.61040574e-002 1.05295759e-002 6.81325467e-003
      1.39362030e-002 1.73428301e-002 1.64137501e-002 1.57943629e-002
      6.81325467e-003 1.57943629e-002 1.33168157e-002 7.74233509e-003
      1.08392686e-002 1.39362030e-002 8.05202872e-003 9.91018862e-003
      1.23877358e-002 4.64540068e-003 6.81325467e-003 1.26974294e-002
      4.95509431e-003 1.11489622e-002 8.05202872e-003 1.64137501e-002
      5.88417426e-003 1.11489622e-002 8.98110867e-003 3.40662734e-003
      1.05295759e-002 1.33168157e-002 8.36172141e-003 1.39362030e-002
      8.67141504e-003 8.67141504e-003 1.30071230e-002 5.88417426e-003
      1.64137501e-002 2.16785376e-003 1.42458957e-002 9.29080136e-003
      8.05202872e-003 1.14586558e-002 1.02198822e-002 9.60049499e-003
      1.23877358e-002 9.29080136e-003 8.67141504e-003 9.91018862e-003
      4.02601436e-003 8.36172141e-003 9.29080136e-003 1.36265093e-002
      1.23877358e-002 1.45555893e-002 8.36172141e-003 7.43264146e-003
      1.11489622e-002 8.98110867e-003 8.05202872e-003 8.05202872e-003
      7.12294783e-003 1.70331374e-002 1.05295759e-002 1.42458957e-002
      1.17683485e-002 4.64540068e-003 6.50356151e-003 4.95509431e-003
      8.98110867e-003 1.14586558e-002 6.50356151e-003 1.14586558e-002
      1.33168157e-002 9.29080136e-003 1.17683485e-002 1.88912973e-002
      1.39362030e-002 2.78724055e-003 8.36172141e-003 5.57448110e-003
      9.91018862e-003 1.02198822e-002 1.14586558e-002 8.67141504e-003
      1.61040574e-002 1.42458957e-002 3.09693394e-003 4.64540068e-003
      6.81325467e-003 8.98110867e-003 1.05295759e-002 1.70331374e-002
      2.10591517e-002 4.02601436e-003 7.43264146e-003 5.26478793e-003</_>
    <_>
      9.53288842e-003 1.81124881e-002 9.53288842e-003 3.52716893e-002
      1.42993331e-002 5.71973342e-003 9.53288842e-003 6.67302217e-003
      8.57959967e-003 7.62631092e-003 3.81315546e-003 9.53288842e-003
      1.62059106e-002 8.57959967e-003 9.53288842e-003 2.57387999e-002
      9.53288842e-003 3.81315546e-003 5.71973342e-003 5.71973342e-003
      8.57959967e-003 6.67302217e-003 1.33460443e-002 2.85986671e-003
      1.23927556e-002 8.57959967e-003 8.57959967e-003 5.71973342e-003
      2.00190656e-002 1.52526218e-002 1.04861772e-002 1.33460443e-002
      1.23927556e-002 4.76644421e-003 7.62631092e-003 6.67302217e-003
      1.62059106e-002 2.19256431e-002 7.62631092e-003 7.62631092e-003
      8.57959967e-003 0. 5.71973342e-003 1.52526218e-002 1.52526218e-002
      1.42993331e-002 6.67302217e-003 4.76644421e-003 9.53288842e-003
      1.42993331e-002 9.53288842e-003 1.04861772e-002 1.42993331e-002
      7.62631092e-003 8.57959967e-003 6.67302217e-003 3.81315546e-003
      1.14394668e-002 4.76644421e-003 1.04861772e-002 3.81315546e-003
      8.57959967e-003 7.62631092e-003 7.62631092e-003 1.62059106e-002
      5.71973342e-003 2.09723543e-002 9.53288842e-003 1.04861772e-002
      2.28789337e-002 7.62631092e-003 9.53288842e-003 1.52526218e-002
      1.04861772e-002 5.71973342e-003 7.62631092e-003 4.76644421e-003
      1.14394668e-002 5.71973342e-003 4.76644421e-003 6.67302217e-003
      9.53288842e-003 6.67302217e-003 1.42993331e-002 1.04861772e-002
      1.52526218e-002 5.71973342e-003 8.57959967e-003 4.76644421e-003
      2.00190656e-002 9.53288842e-003 1.81124881e-002 1.04861772e-002
      1.04861772e-002 1.04861772e-002 6.67302217e-003 1.90657773e-003
      2.85986671e-003 7.62631092e-003 7.62631092e-003</_>
    <_>
      6.19834661e-003 5.16528916e-003 1.65289249e-002 2.78925616e-002
      1.13636358e-002 4.13223123e-003 1.13636358e-002 1.44628091e-002
      1.54958675e-002 1.23966932e-002 1.34297516e-002 5.16528916e-003
      5.16528916e-003 1.03305783e-002 5.16528916e-003 8.26446246e-003
      3.09917331e-003 1.34297516e-002 1.44628091e-002 8.26446246e-003
      8.26446246e-003 1.03305783e-002 1.13636358e-002 1.44628091e-002
      8.26446246e-003 6.19834661e-003 1.65289249e-002 1.65289249e-002
      8.26446246e-003 1.54958675e-002 6.19834661e-003 6.19834661e-003
      6.19834661e-003 1.03305783e-002 2.06611562e-003 1.13636358e-002
      7.23140454e-003 1.03305783e-002 5.16528916e-003 2.06611562e-003
      6.19834661e-003 4.13223123e-003 7.23140454e-003 7.23140454e-003
      1.13636358e-002 6.19834661e-003 1.44628091e-002 1.65289249e-002
      1.23966932e-002 1.03305783e-002 1.03305783e-002 9.29751992e-003
      6.19834661e-003 1.13636358e-002 9.29751992e-003 1.75619833e-002
      6.19834661e-003 1.23966932e-002 1.44628091e-002 1.44628091e-002
      9.29751992e-003 8.26446246e-003 1.34297516e-002 1.23966932e-002
      1.75619833e-002 6.19834661e-003 8.26446246e-003 8.26446246e-003
      1.44628091e-002 9.29751992e-003 7.23140454e-003 1.03305783e-002
      1.54958675e-002 1.23966932e-002 6.19834661e-003 5.16528916e-003
      1.44628091e-002 1.34297516e-002 1.54958675e-002 4.13223123e-003
      1.03305783e-002 9.29751992e-003 7.23140454e-003 5.16528916e-003
      1.34297516e-002 9.29751992e-003 9.29751992e-003 9.29751992e-003
      9.29751992e-003 1.85950398e-002 1.03305783e-002 1.03305783e-002
      3.09917331e-003 9.29751992e-003 6.19834661e-003 8.26446246e-003
      7.23140454e-003 1.03305783e-002 1.75619833e-002 2.06611562e-003</_>
    <_>
      9.68992244e-003 1.16279069e-002 1.25968996e-002 8.72093067e-003
      3.48837227e-002 5.81395347e-003 4.84496122e-003 9.68992244e-003
      4.84496122e-003 4.84496122e-003 4.84496122e-003 1.45348832e-002
      7.75193796e-003 6.78294571e-003 1.93798449e-003 1.74418613e-002
      8.72093067e-003 3.87596898e-003 4.84496122e-003 2.90697673e-003
      4.84496122e-003 3.87596898e-003 1.16279069e-002 8.72093067e-003
      7.75193796e-003 8.72093067e-003 1.93798449e-003 2.90697673e-003
      9.68992244e-003 3.87596898e-003 3.87596898e-003 1.25968996e-002
      4.84496122e-003 4.84496122e-003 1.74418613e-002 8.72093067e-003
      1.35658914e-002 1.16279069e-002 5.81395347e-003 2.03488376e-002
      9.68992244e-004 0. 1.35658914e-002 4.26356569e-002 2.03488376e-002
      8.72093067e-003 1.06589142e-002 7.75193796e-003 5.81395347e-003
      1.06589142e-002 3.87596898e-003 3.87596898e-003 9.68992244e-003
      2.90697673e-003 4.84496122e-003 2.90697673e-003 1.64728686e-002
      2.90697673e-003 4.84496122e-003 1.84108522e-002 2.90697673e-003
      7.75193796e-003 8.72093067e-003 5.81395347e-003 3.77906971e-002
      2.90697673e-003 1.35658914e-002 1.06589142e-002 5.81395347e-003
      7.75193796e-003 7.75193796e-003 9.68992244e-003 9.68992244e-004
      5.81395347e-003 3.58527116e-002 1.16279069e-002 1.93798449e-003
      1.06589142e-002 7.75193796e-003 3.87596898e-003 2.90697673e-003
      5.32945730e-002 4.84496122e-003 9.68992244e-003 5.81395347e-003
      1.25968996e-002 1.93798449e-003 4.84496122e-003 8.72093067e-003
      2.90697673e-003 4.65116277e-002 1.25968996e-002 2.42248066e-002
      1.93798449e-003 4.84496122e-003 7.75193796e-003 1.25968996e-002
      1.45348832e-002 1.74418613e-002 9.68992244e-003</_>
    <_>
      7.18276156e-003 7.18276156e-003 3.19233839e-003 1.27693536e-002
      7.18276156e-003 8.77893064e-003 1.43655231e-002 1.59616917e-002
      1.51636070e-002 2.71348767e-002 1.43655231e-002 4.78850771e-003
      1.11731840e-002 3.99042293e-003 1.11731840e-002 8.77893064e-003
      3.19233839e-003 8.77893064e-003 1.03751002e-002 1.11731840e-002
      1.35674383e-002 7.98084587e-003 7.18276156e-003 1.83559451e-002
      8.77893064e-003 3.99042293e-003 7.98084587e-003 1.03751002e-002
      2.39425385e-003 1.11731840e-002 1.03751002e-002 9.57701541e-003
      1.03751002e-002 4.78850771e-003 1.03751002e-002 1.51636070e-002
      7.98084587e-003 1.19712688e-002 7.98084587e-003 2.95291301e-002
      9.57701541e-003 0. 1.43655231e-002 1.99521147e-002 7.98084587e-003
      1.35674383e-002 7.18276156e-003 8.77893064e-003 7.98084587e-003
      1.27693536e-002 8.77893064e-003 7.18276156e-003 2.39425385e-003
      9.57701541e-003 1.19712688e-002 1.35674383e-002 1.59616917e-002
      7.98084587e-003 5.58659201e-003 7.98084587e-003 7.98084587e-003
      1.19712688e-002 9.57701541e-003 4.78850771e-003 1.03751002e-002
      7.18276156e-003 7.18276156e-003 1.91540308e-002 8.77893064e-003
      1.11731840e-002 1.11731840e-002 4.78850771e-003 8.77893064e-003
      1.43655231e-002 8.77893064e-003 1.67597774e-002 1.51636070e-002
      7.98084587e-003 4.78850771e-003 1.75578613e-002 1.27693536e-002
      9.57701541e-003 6.38467679e-003 8.77893064e-003 1.35674383e-002
      1.19712688e-002 7.18276156e-003 1.19712688e-002 5.58659201e-003
      5.58659201e-003 6.38467679e-003 7.98084587e-003 2.39425385e-003
      5.58659201e-003 8.77893064e-003 1.03751002e-002 1.03751002e-002
      3.99042293e-003 2.07502004e-002 1.19712688e-002</_>
    <_>
      9.11854114e-003 1.36778113e-002 9.11854114e-003 6.07902743e-003
      1.82370823e-002 6.07902743e-003 7.59878429e-003 6.07902743e-003
      1.51975686e-003 7.59878429e-003 4.55927057e-003 2.58358661e-002
      1.51975686e-003 7.59878429e-003 1.51975686e-002 1.51975686e-002
      2.27963533e-002 1.51975686e-003 2.12765969e-002 7.59878429e-003
      6.07902743e-003 1.06382985e-002 7.59878429e-003 9.11854114e-003
      9.11854114e-003 9.11854114e-003 7.59878429e-003 6.07902743e-003
      1.21580549e-002 1.51975686e-003 1.97568387e-002 1.06382985e-002
      1.36778113e-002 3.03951371e-003 9.11854114e-003 1.51975686e-003
      1.21580549e-002 1.67173259e-002 9.11854114e-003 1.97568387e-002
      1.21580549e-002 0. 1.21580549e-002 7.59878429e-003 9.11854114e-003
      1.67173259e-002 1.06382985e-002 7.59878429e-003 6.07902743e-003
      1.06382985e-002 1.21580549e-002 1.51975686e-003 1.21580549e-002
      7.59878429e-003 3.03951371e-003 9.11854114e-003 2.43161097e-002 0.
      7.59878429e-003 1.36778113e-002 1.51975686e-003 3.03951371e-003
      3.64741646e-002 9.11854114e-003 2.12765969e-002 3.03951371e-003
      1.06382985e-002 7.59878429e-003 9.11854114e-003 9.11854114e-003
      1.51975686e-002 9.11854114e-003 6.07902743e-003 3.03951371e-003
      4.55927057e-003 1.36778113e-002 6.07902743e-003 1.51975686e-002
      9.11854114e-003 6.07902743e-003 1.51975686e-003 2.27963533e-002
      3.03951371e-003 1.21580549e-002 1.51975686e-002 2.43161097e-002
      6.07902743e-003 1.06382985e-002 7.59878429e-003 1.51975686e-002
      1.67173259e-002 6.07902743e-003 1.36778113e-002 9.11854114e-003
      7.59878429e-003 6.07902743e-003 6.07902743e-003 1.21580549e-002
      1.06382985e-002 7.59878429e-003</_>
    <_>
      2.86368863e-003 1.03092790e-002 6.30011503e-003 5.15463948e-003
      4.00916394e-003 1.31729674e-002 1.43184429e-002 1.31729674e-002
      1.43184429e-002 5.15463948e-003 1.08820163e-002 6.30011503e-003
      1.71821308e-003 1.20274918e-002 1.77548695e-002 9.16380342e-003
      1.03092790e-002 2.06185579e-002 8.59106611e-003 3.43642617e-003
      1.31729674e-002 6.30011503e-003 9.73654073e-003 7.44559010e-003
      9.73654073e-003 1.20274918e-002 1.31729674e-002 1.77548695e-002
      5.15463948e-003 1.48911802e-002 9.73654073e-003 1.03092790e-002
      8.01832788e-003 1.43184429e-002 5.15463948e-003 1.54639184e-002
      1.43184429e-002 1.14547545e-002 9.73654073e-003 1.14547545e-002
      1.77548695e-002 5.15463948e-003 1.03092790e-002 4.58190171e-003
      6.30011503e-003 1.43184429e-002 1.37457047e-002 1.14547545e-002
      1.20274918e-002 1.31729674e-002 1.54639184e-002 9.73654073e-003
      3.43642617e-003 2.06185579e-002 5.15463948e-003 1.83276068e-002
      1.26002301e-002 1.08820163e-002 2.86368863e-003 3.43642617e-003
      1.83276068e-002 1.08820163e-002 3.43642617e-003 7.44559010e-003
      2.29095086e-003 6.87285233e-003 9.73654073e-003 8.01832788e-003
      8.59106611e-003 8.01832788e-003 7.44559010e-003 7.44559010e-003
      1.43184429e-002 1.37457047e-002 4.00916394e-003 1.37457047e-002
      1.83276068e-002 1.43184429e-002 1.26002301e-002 1.43184429e-002
      1.08820163e-002 5.72737714e-004 5.72737725e-003 4.00916394e-003
      9.73654073e-003 1.08820163e-002 1.77548695e-002 1.83276068e-002
      1.48911802e-002 1.43184429e-002 1.71821308e-003 5.72737725e-003
      4.00916394e-003 3.43642617e-003 5.15463948e-003 1.66093931e-002
      1.77548695e-002 8.01832788e-003 2.86368863e-003 3.43642617e-003</_>
    <_>
      7.36771571e-003 5.35833882e-003 2.21031476e-002 1.00468853e-002
      2.00937707e-002 4.68854653e-003 6.69792341e-003 5.35833882e-003
      1.07166776e-002 2.88010705e-002 7.36771571e-003 8.03750847e-003
      1.07166776e-002 7.36771571e-003 6.69792341e-003 6.02813112e-003
      3.34896171e-003 8.03750847e-003 1.00468853e-002 1.27260545e-002
      1.27260545e-002 4.01875423e-003 4.01875423e-003 2.54521091e-002
      7.36771571e-003 4.01875423e-003 5.35833882e-003 1.13864699e-002
      6.02813112e-003 1.13864699e-002 4.01875423e-003 2.67916941e-003
      1.27260545e-002 6.02813112e-003 1.27260545e-002 4.68854653e-003
      9.37709305e-003 8.70730076e-003 1.13864699e-002 2.61219013e-002
      8.03750847e-003 1.33958471e-003 1.40656391e-002 1.60750169e-002
      9.37709305e-003 6.02813112e-003 5.35833882e-003 6.69792341e-003
      9.37709305e-003 5.35833882e-003 5.35833882e-003 4.68854653e-003
      1.00468853e-002 5.35833882e-003 1.00468853e-002 6.69792353e-004
      1.07166776e-002 8.03750847e-003 6.02813112e-003 2.21031476e-002
      1.54052237e-002 8.70730076e-003 1.54052237e-002 7.36771571e-003
      2.14333553e-002 1.07166776e-002 5.35833882e-003 8.70730076e-003
      1.00468853e-002 8.03750847e-003 1.00468853e-002 6.02813112e-003
      4.68854653e-003 7.36771571e-003 1.54052237e-002 6.69792341e-003
      7.36771571e-003 1.13864699e-002 1.20562622e-002 8.03750847e-003
      3.34896171e-003 6.22906871e-002 3.34896171e-003 4.68854653e-003
      8.70730076e-003 1.33958468e-002 6.69792341e-003 1.47354314e-002
      4.01875423e-003 1.20562622e-002 2.27729399e-002 1.13864699e-002
      2.00937712e-003 6.02813112e-003 1.27260545e-002 8.03750847e-003
      1.13864699e-002 1.13864699e-002 1.20562622e-002 1.20562622e-002</_>
    <_>
      1.08173080e-002 1.32211540e-002 1.56250000e-002 1.68269239e-002
      9.61538497e-003 7.21153896e-003 8.41346197e-003 4.80769249e-003
      1.68269239e-002 1.56250000e-002 4.80769249e-003 1.08173080e-002
      1.44230779e-002 7.21153896e-003 7.21153896e-003 1.56250000e-002
      4.80769249e-003 1.56250000e-002 6.00961549e-003 3.60576948e-003 0.
      2.40384624e-003 8.41346197e-003 1.80288460e-002 6.00961549e-003
      2.40384624e-003 9.61538497e-003 9.61538497e-003 1.20192310e-002
      1.08173080e-002 8.41346197e-003 7.21153896e-003 8.41346197e-003
      1.20192312e-003 1.20192310e-002 3.60576948e-003 8.41346197e-003
      1.20192310e-002 6.00961549e-003 1.32211540e-002 9.61538497e-003
      2.40384624e-003 6.00961549e-003 3.00480779e-002 1.44230779e-002
      2.40384624e-003 2.40384624e-003 1.08173080e-002 8.41346197e-003
      1.20192310e-002 8.41346197e-003 8.41346197e-003 7.21153896e-003
      7.21153896e-003 9.61538497e-003 6.00961549e-003 7.21153896e-003
      9.61538497e-003 1.56250000e-002 1.08173080e-002 3.60576948e-003
      4.80769249e-003 9.61538497e-003 1.56250000e-002 5.28846160e-002
      3.60576948e-003 9.61538497e-003 8.41346197e-003 8.41346197e-003
      9.61538497e-003 6.00961549e-003 1.08173080e-002 8.41346197e-003
      6.00961549e-003 1.20192310e-002 1.32211540e-002 6.00961549e-003
      1.20192310e-002 6.00961549e-003 1.20192310e-002 4.80769249e-003
      2.64423080e-002 7.21153896e-003 1.68269239e-002 3.60576948e-003
      1.20192310e-002 6.00961549e-003 1.08173080e-002 1.08173080e-002
      1.20192310e-002 2.04326939e-002 1.56250000e-002 2.40384624e-003
      6.00961549e-003 4.80769249e-003 8.41346197e-003 1.20192310e-002
      1.56250000e-002 2.28365399e-002 4.80769249e-003</_>
    <_>
      2.04220554e-003 3.40367621e-003 8.16882215e-003 2.11027917e-002
      1.08917635e-002 1.22532342e-002 1.02110282e-002 8.84955749e-003
      1.22532342e-002 1.97413210e-002 8.84955749e-003 8.84955749e-003
      7.48808729e-003 1.02110282e-002 4.76514641e-003 2.04220554e-003
      8.16882215e-003 1.15724988e-002 9.53029282e-003 1.02110282e-002
      1.15724988e-002 6.80735242e-003 6.12661708e-003 2.85908785e-002
      1.08917635e-002 7.48808729e-003 1.22532342e-002 7.48808729e-003
      1.36147044e-003 1.02110282e-002 6.80735242e-003 4.76514641e-003
      1.02110282e-002 8.16882215e-003 2.17835270e-002 1.63376443e-002
      4.76514641e-003 4.08441108e-003 2.72294087e-003 1.63376443e-002
      8.84955749e-003 0. 1.97413210e-002 2.38257330e-002 1.08917635e-002
      1.22532342e-002 1.56569108e-002 8.16882215e-003 4.76514641e-003
      6.12661708e-003 1.49761746e-002 1.02110282e-002 4.08441108e-003
      1.42954392e-002 1.22532342e-002 1.29339695e-002 1.02110282e-002
      3.40367621e-003 8.84955749e-003 9.53029282e-003 1.15724988e-002
      1.08917635e-002 1.36147048e-002 4.08441108e-003 1.42954392e-002
      8.84955749e-003 6.12661708e-003 1.36147048e-002 1.08917635e-002
      8.16882215e-003 5.44588175e-003 3.40367621e-003 1.15724988e-002
      7.48808729e-003 9.53029282e-003 1.02110282e-002 1.90605856e-002
      4.76514641e-003 8.84955749e-003 1.97413210e-002 9.53029282e-003
      1.36147044e-003 9.53029282e-003 5.44588175e-003 9.53029282e-003
      1.15724988e-002 7.48808729e-003 1.76991150e-002 9.53029282e-003
      7.48808729e-003 8.16882215e-003 6.12661708e-003 1.49761746e-002
      1.36147044e-003 1.42954392e-002 1.15724988e-002 1.42954392e-002
      7.48808729e-003 2.31449977e-002 6.80735242e-003</_>
    <_>
      1.83486231e-002 1.18726389e-002 2.42849439e-002 6.47598505e-003
      3.66972461e-002 3.77765787e-003 4.85698879e-003 1.29519701e-002
      1.13329738e-002 1.67296268e-002 1.18726389e-002 1.34916352e-002
      2.69832704e-002 8.63464642e-003 3.23799253e-003 1.94279552e-002
      7.55531574e-003 4.85698879e-003 8.09498131e-003 1.61899626e-002
      9.71397758e-003 6.47598505e-003 9.71397758e-003 1.18726389e-002
      1.56502966e-002 1.56502966e-002 1.61899626e-003 5.39665390e-003
      1.07933078e-002 5.93631947e-003 2.69832695e-003 1.78089589e-002
      1.83486231e-002 1.29519701e-002 8.63464642e-003 8.09498131e-003
      7.01565016e-003 5.39665390e-003 4.85698879e-003 8.09498131e-003
      4.31732321e-003 3.23799253e-003 9.71397758e-003 9.71397758e-003
      2.26659477e-002 3.77765787e-003 7.01565016e-003 7.01565016e-003
      5.93631947e-003 5.39665390e-003 9.71397758e-003 8.09498131e-003
      7.01565016e-003 2.69832695e-003 5.39665390e-003 5.39665401e-004
      7.01565016e-003 5.93631947e-003 1.72692928e-002 2.37452779e-002
      2.15866161e-003 8.63464642e-003 1.07933078e-002 8.63464642e-003
      7.55531574e-003 9.71397758e-003 1.88882891e-002 1.18726389e-002
      5.93631947e-003 3.23799253e-003 9.17431153e-003 7.01565016e-003
      2.15866161e-003 5.93631947e-003 2.26659477e-002 6.47598505e-003
      3.77765787e-003 5.93631947e-003 7.01565016e-003 8.09498131e-003
      1.40313003e-002 2.05072854e-002 4.31732321e-003 1.13329738e-002
      9.71397758e-003 5.39665390e-003 7.01565016e-003 5.93631947e-003
      5.39665390e-003 7.01565016e-003 1.72692928e-002 1.45709654e-002
      8.09498131e-003 1.34916352e-002 1.83486231e-002 5.93631947e-003
      4.31732321e-003 1.51106315e-002 8.63464642e-003 1.72692928e-002</_>
    <_>
      1.48347951e-002 1.14632510e-002 1.07889418e-002 9.44032427e-003
      2.36008093e-002 5.39447088e-003 8.76601506e-003 1.61834136e-002
      7.41739757e-003 1.14632510e-002 4.04585339e-003 9.44032427e-003
      2.15778835e-002 7.41739757e-003 4.72016213e-003 1.88806485e-002
      8.76601506e-003 8.76601506e-003 9.44032427e-003 5.39447088e-003
      6.74308836e-003 6.74308836e-003 1.28118685e-002 1.61834136e-002
      1.01146325e-002 1.21375592e-002 8.76601506e-003 1.01146325e-002
      1.48347951e-002 8.09170678e-003 1.34861772e-003 6.06877962e-003
      1.28118685e-002 6.74308836e-003 1.14632510e-002 6.06877962e-003
      1.28118685e-002 2.02292651e-002 6.06877962e-003 2.69723544e-003
      6.06877962e-003 1.34861772e-003 1.07889418e-002 6.06877962e-003
      6.74308836e-003 1.28118685e-002 8.76601506e-003 8.09170678e-003
      1.01146325e-002 1.28118685e-002 6.06877962e-003 9.44032427e-003
      9.44032427e-003 8.09170678e-003 5.39447088e-003 8.09170678e-003
      8.09170678e-003 7.41739757e-003 1.28118685e-002 8.09170678e-003
      6.06877962e-003 6.74308836e-003 1.75320301e-002 7.41739757e-003
      9.44032427e-003 6.74308836e-003 2.15778835e-002 8.76601506e-003
      8.09170678e-003 6.74308836e-003 7.41739757e-003 1.48347951e-002
      8.09170678e-003 1.14632510e-002 1.14632510e-002 1.21375592e-002
      4.04585339e-003 4.72016213e-003 8.09170678e-003 8.76601506e-003
      4.04585339e-003 1.82063393e-002 1.14632510e-002 6.06877962e-003
      1.14632510e-002 1.61834136e-002 7.41739757e-003 1.07889418e-002
      1.01146325e-002 1.61834136e-002 3.84356044e-002 1.55091034e-002
      2.69723544e-003 8.09170678e-003 8.76601506e-003 8.09170678e-003
      7.41739757e-003 1.01146325e-002 8.09170678e-003 1.34861767e-002</_>
    <_>
      7.57575734e-003 1.36363637e-002 9.09090880e-003 1.81818176e-002
      1.36363637e-002 9.09090880e-003 9.09090880e-003 7.57575734e-003
      9.09090880e-003 1.21212117e-002 1.36363637e-002 1.06060598e-002
      1.51515147e-003 4.54545440e-003 1.51515147e-003 3.03030293e-003
      1.06060598e-002 1.51515147e-002 1.21212117e-002 1.21212117e-002
      1.36363637e-002 4.54545440e-003 7.57575734e-003 1.21212117e-002
      4.54545440e-003 6.06060587e-003 4.54545440e-003 1.51515147e-002
      9.09090880e-003 7.57575734e-003 9.09090880e-003 6.06060587e-003
      7.57575734e-003 1.96969695e-002 4.54545440e-003 3.03030293e-003
      1.66666657e-002 1.66666657e-002 9.09090880e-003 3.03030293e-003
      6.06060587e-003 0. 7.57575734e-003 1.06060598e-002 7.57575734e-003
      1.81818176e-002 6.06060587e-003 1.06060598e-002 2.57575754e-002
      3.03030293e-003 1.21212117e-002 7.57575734e-003 9.09090880e-003
      9.09090880e-003 1.66666657e-002 6.06060587e-003 1.66666657e-002
      1.96969695e-002 1.06060598e-002 1.66666657e-002 3.03030293e-003
      7.57575734e-003 3.03030293e-003 6.06060587e-003 2.87878774e-002
      1.51515147e-002 9.09090880e-003 1.21212117e-002 1.81818176e-002
      1.51515147e-002 9.09090880e-003 6.06060587e-003 1.51515147e-003
      2.27272715e-002 7.57575734e-003 4.54545440e-003 7.57575734e-003
      1.66666657e-002 1.96969695e-002 1.36363637e-002 9.09090880e-003 0.
      1.81818176e-002 0. 6.06060587e-003 1.81818176e-002 6.06060587e-003
      9.09090880e-003 4.54545440e-003 1.66666657e-002 1.51515147e-002
      1.96969695e-002 3.03030293e-003 4.54545440e-003 3.03030293e-003
      1.06060598e-002 3.03030293e-003 6.06060587e-003 2.27272715e-002
      3.03030293e-003</_>
    <_>
      2.64783762e-003 2.64783762e-003 1.76522508e-003 5.38393632e-002
      7.06090033e-003 1.67696383e-002 7.94351287e-003 4.41306271e-003
      1.05913505e-002 1.58870257e-002 8.82612541e-003 7.06090033e-003
      3.53045017e-003 1.50044132e-002 5.29567525e-003 7.06090033e-003
      4.41306271e-003 1.14739630e-002 1.14739630e-002 1.05913505e-002
      1.85348634e-002 5.29567525e-003 7.94351287e-003 2.47131512e-002
      3.53045017e-003 5.29567525e-003 8.82612541e-004 5.29567525e-003
      4.41306271e-003 1.85348634e-002 7.94351287e-003 1.76522508e-003
      7.94351287e-003 6.17828779e-003 1.94174759e-002 1.76522508e-002
      7.94351287e-003 4.41306271e-003 3.53045017e-003 2.64783762e-003
      1.58870257e-002 0. 2.11827010e-002 3.26566622e-002 1.32391881e-002
      8.82612541e-003 6.17828779e-003 1.23565756e-002 7.94351287e-003
      6.17828779e-003 1.05913505e-002 1.58870257e-002 0. 1.14739630e-002
      8.82612541e-003 1.85348634e-002 1.05913505e-002 1.14739630e-002
      4.41306271e-003 7.94351287e-003 5.29567525e-003 1.41218007e-002
      9.70873795e-003 7.94351287e-003 2.64783762e-003 1.23565756e-002
      7.06090033e-003 1.76522508e-002 1.94174759e-002 5.29567525e-003
      1.05913505e-002 4.41306271e-003 7.06090033e-003 1.32391881e-002
      1.05913505e-002 5.29567525e-003 1.85348634e-002 9.70873795e-003
      8.82612541e-003 9.70873795e-003 4.41306271e-003 5.29567525e-003
      1.32391881e-002 6.17828779e-003 1.41218007e-002 1.58870257e-002
      6.17828779e-003 9.70873795e-003 1.23565756e-002 2.03000885e-002
      7.94351287e-003 3.53045017e-003 7.06090033e-003 3.53045017e-003
      1.32391881e-002 7.94351287e-003 2.29479261e-002 7.06090033e-003
      8.82612541e-003 4.41306271e-003</_>
    <_>
      4.96277912e-003 2.15053763e-002 1.65425967e-002 3.55665833e-002
      9.09842830e-003 4.96277912e-003 7.44416891e-003 5.78990905e-003
      1.65425974e-003 9.09842830e-003 1.40612079e-002 9.09842830e-003
      8.27129837e-003 9.09842830e-003 9.09842830e-003 7.44416891e-003
      1.40612079e-002 4.13564919e-003 8.27129837e-003 6.61703898e-003
      1.32340780e-002 5.78990905e-003 9.09842830e-003 9.92555823e-003
      3.55665833e-002 2.39867661e-002 4.13564919e-003 9.92555823e-003
      9.09842830e-003 9.92555823e-003 1.24069480e-002 4.21836227e-002
      6.61703898e-003 7.44416891e-003 6.61703898e-003 9.09842830e-003
      5.78990905e-003 1.65425974e-003 1.15798181e-002 1.15798181e-002
      7.44416891e-003 0. 7.44416891e-003 9.09842830e-003 2.97766756e-002
      5.78990905e-003 8.27129837e-003 6.61703898e-003 1.40612079e-002
      4.96277912e-003 8.27129837e-003 1.65425974e-003 1.57154668e-002
      5.78990905e-003 4.96277912e-003 1.65425974e-003 4.96277912e-003
      7.44416891e-003 2.06782464e-002 8.27129837e-003 1.57154668e-002
      1.65425974e-003 1.15798181e-002 9.09842830e-003 1.73697267e-002
      4.96277912e-003 9.92555823e-003 8.27129837e-003 4.96277912e-003
      3.30851949e-003 1.15798181e-002 1.40612079e-002 5.78990905e-003
      5.78990905e-003 1.98511165e-002 4.96277912e-003 1.07526882e-002
      1.07526882e-002 1.32340780e-002 1.07526882e-002 9.92555823e-003
      1.40612079e-002 4.96277912e-003 1.15798181e-002 8.27129837e-003
      4.96277912e-003 9.09842830e-003 8.27129837e-003 9.09842830e-003
      5.78990905e-003 8.27129837e-003 6.61703898e-003 1.32340780e-002
      1.24069480e-002 9.92555823e-003 7.44416891e-003 1.24069480e-002
      9.09842830e-003 1.24069480e-002 2.48138956e-003</_>
    <_>
      0. 1.04166670e-002 9.37500037e-003 2.81250011e-002 3.12500028e-003
      9.37500037e-003 1.45833343e-002 3.12500028e-003 5.20833349e-003
      3.12500028e-003 5.20833349e-003 1.45833343e-002 2.08333344e-003
      7.29166716e-003 9.37500037e-003 3.12500028e-003 1.56250000e-002
      5.20833349e-003 1.04166670e-002 3.12500028e-003 1.66666675e-002
      4.16666688e-003 1.35416677e-002 7.29166716e-003 7.29166716e-003
      9.37500037e-003 1.35416677e-002 4.16666688e-003 1.04166670e-002
      2.08333340e-002 5.20833349e-003 8.33333377e-003 9.37500037e-003
      5.20833349e-003 4.16666688e-003 6.25000056e-003 2.39583347e-002
      1.45833343e-002 1.25000011e-002 4.89583351e-002 7.29166716e-003 0.
      5.20833349e-003 6.87500015e-002 8.33333377e-003 1.04166670e-002
      6.25000056e-003 1.04166672e-003 7.29166716e-003 1.45833343e-002
      8.33333377e-003 1.04166670e-002 1.14583336e-002 2.08333344e-003
      2.08333344e-003 2.50000022e-002 2.50000022e-002 3.12500028e-003
      6.25000056e-003 2.08333344e-003 9.37500037e-003 1.04166670e-002
      3.12500028e-003 4.16666688e-003 4.16666679e-002 9.37500037e-003
      5.20833349e-003 8.33333377e-003 1.14583336e-002 1.66666675e-002
      9.37500037e-003 1.25000011e-002 7.29166716e-003 7.29166716e-003
      9.37500037e-003 1.25000011e-002 4.16666688e-003 1.45833343e-002
      1.04166670e-002 7.29166716e-003 2.08333344e-003 3.12500028e-003
      1.45833343e-002 4.16666688e-003 8.33333377e-003 2.18750015e-002
      1.14583336e-002 7.29166716e-003 4.16666688e-003 8.33333377e-003
      1.04166672e-003 4.16666688e-003 1.04166670e-002 2.08333344e-003
      5.20833349e-003 1.25000011e-002 1.25000011e-002 6.25000056e-003
      9.37500037e-003 3.12500028e-003</_>
    <_>
      1.44230770e-002 1.12179490e-002 8.01282097e-003 8.01282097e-003
      4.16666679e-002 3.20512825e-003 4.80769249e-003 4.80769249e-003
      3.20512825e-003 8.01282097e-003 6.41025649e-003 2.40384620e-002
      9.61538497e-003 1.60256412e-003 1.60256412e-003 2.72435900e-002
      1.60256419e-002 1.60256412e-003 4.80769249e-003 6.41025649e-003
      1.60256412e-003 4.80769249e-003 3.20512825e-003 8.01282097e-003
      1.12179490e-002 1.76282059e-002 0. 8.01282097e-003 1.76282059e-002
      8.01282097e-003 3.20512825e-003 8.01282097e-003 1.76282059e-002
      6.41025649e-003 9.61538497e-003 1.12179490e-002 3.20512825e-003
      6.41025649e-003 0. 1.44230770e-002 1.60256412e-003 0.
      2.72435900e-002 6.08974360e-002 2.56410260e-002 9.61538497e-003
      6.41025649e-003 1.60256412e-003 9.61538497e-003 1.60256412e-003
      8.01282097e-003 1.60256412e-003 1.28205130e-002 1.60256412e-003
      6.41025649e-003 4.80769249e-003 6.41025649e-003 4.80769249e-003
      1.28205130e-002 2.24358980e-002 0. 1.60256412e-003 1.92307699e-002
      3.20512825e-003 3.36538479e-002 3.20512825e-003 2.24358980e-002
      8.01282097e-003 8.01282097e-003 3.20512825e-003 9.61538497e-003
      1.60256419e-002 1.60256412e-003 1.44230770e-002 1.92307699e-002
      9.61538497e-003 3.20512825e-003 8.01282097e-003 1.60256419e-002
      6.41025649e-003 0. 4.32692319e-002 1.60256412e-003 4.80769249e-003
      8.01282097e-003 8.01282097e-003 8.01282097e-003 1.60256412e-003
      4.80769249e-003 8.01282097e-003 9.61538497e-003 8.01282097e-003
      9.61538497e-003 2.56410260e-002 1.76282059e-002 6.41025649e-003
      9.61538497e-003 1.12179490e-002 4.80769249e-003 9.61538497e-003</_>
    <_>
      2.78164120e-003 2.08623102e-003 6.95410278e-003 2.08623093e-002
      1.32127954e-002 1.18219750e-002 1.39082056e-002 1.80806685e-002
      9.73574445e-003 2.29485407e-002 9.04033426e-003 4.86787222e-003
      9.73574445e-003 8.34492408e-003 8.34492408e-003 2.78164120e-003
      6.95410278e-003 1.18219750e-002 1.18219750e-002 8.34492408e-003
      1.04311546e-002 7.64951343e-003 1.04311546e-002 2.22531296e-002
      8.34492408e-003 6.25869259e-003 6.95410278e-003 6.95410278e-003
      3.47705139e-003 1.04311546e-002 7.64951343e-003 7.64951343e-003
      1.32127954e-002 1.04311546e-002 2.22531296e-002 2.29485407e-002
      8.34492408e-003 5.56328241e-003 6.95410278e-003 9.73574445e-003
      1.25173852e-002 6.95410301e-004 2.08623093e-002 1.46036167e-002
      1.39082056e-002 9.73574445e-003 1.18219750e-002 1.18219750e-002
      4.17246204e-003 8.34492408e-003 1.52990269e-002 8.34492408e-003
      5.56328241e-003 1.32127954e-002 1.46036167e-002 1.46036167e-002
      9.04033426e-003 4.17246204e-003 9.04033426e-003 8.34492408e-003
      8.34492408e-003 1.25173852e-002 1.66898482e-002 6.95410278e-003
      6.25869259e-003 1.32127954e-002 4.17246204e-003 1.18219750e-002
      5.56328241e-003 5.56328241e-003 5.56328241e-003 4.86787222e-003
      1.04311546e-002 1.04311546e-002 1.11265648e-002 1.32127954e-002
      1.04311546e-002 1.04311546e-002 6.95410278e-003 1.18219750e-002
      9.04033426e-003 4.86787222e-003 3.47705139e-003 5.56328241e-003
      1.46036167e-002 1.04311546e-002 1.52990269e-002 1.87760778e-002
      7.64951343e-003 1.04311546e-002 4.86787222e-003 6.25869259e-003
      1.32127954e-002 1.39082060e-003 1.25173852e-002 6.25869259e-003
      1.04311546e-002 7.64951343e-003 1.94714889e-002 8.34492408e-003</_>
    <_>
      8.58369097e-003 5.09656640e-003 3.48712457e-003 2.95064365e-003
      3.75536480e-003 1.63626615e-002 1.44849783e-002 1.28755365e-002
      9.12017189e-003 1.04613733e-002 2.41416302e-002 6.16952777e-003
      1.28755365e-002 1.74356215e-002 9.92489234e-003 9.65665281e-003
      1.04613733e-002 7.51072960e-003 6.70600869e-003 9.12017189e-003
      2.01180261e-002 6.97424915e-003 5.90128731e-003 1.23390555e-002
      9.92489234e-003 1.31437769e-002 2.11909879e-002 1.63626615e-002
      2.95064365e-003 6.43776823e-003 1.01931328e-002 7.51072960e-003
      5.36480686e-003 2.22639479e-002 7.51072960e-003 1.28755365e-002
      4.56008594e-003 4.82832640e-003 1.60944201e-002 3.21888411e-003
      2.17274670e-002 2.14592274e-003 1.47532187e-002 2.41416320e-003
      2.41416320e-003 1.04613733e-002 9.65665281e-003 1.01931328e-002
      1.12660946e-002 4.56008594e-003 1.12660946e-002 1.44849783e-002
      3.75536480e-003 1.98497847e-002 9.38841235e-003 3.29935625e-002
      8.58369097e-003 1.50214592e-002 5.09656640e-003 3.75536480e-003
      1.60944201e-002 8.31545051e-003 9.38841235e-003 1.20708151e-002
      3.21888411e-003 9.38841235e-003 6.70600869e-003 8.31545051e-003
      6.70600869e-003 3.21888411e-003 4.02360503e-003 8.04721029e-004
      1.79721024e-002 6.16952777e-003 5.90128731e-003 1.12660946e-002
      1.93133056e-002 6.97424915e-003 1.44849783e-002 1.63626615e-002
      1.95815451e-002 7.51072960e-003 7.51072960e-003 6.43776823e-003
      1.12660946e-002 3.21888411e-003 2.17274670e-002 9.38841235e-003
      1.42167378e-002 8.85193143e-003 5.90128731e-003 4.02360503e-003
      4.29184549e-003 8.04721005e-003 1.09978542e-002 1.39484983e-002
      1.60944201e-002 4.82832640e-003 2.41416320e-003 8.31545051e-003</_>
    <_>
      3.96563113e-003 1.22273630e-002 3.63516202e-003 1.45406481e-002
      2.97422358e-003 1.28883021e-002 8.26173183e-003 8.26173183e-003
      8.92267097e-003 7.27032404e-003 8.92267097e-003 1.05750170e-002
      4.29610070e-003 6.27891626e-003 1.38797099e-002 8.59220140e-003
      6.93985494e-003 1.22273630e-002 1.38797099e-002 1.12359552e-002
      1.68539342e-002 7.93126225e-003 1.15664247e-002 5.94844716e-003
      9.25313961e-003 1.28883021e-002 9.25313961e-003 1.12359552e-002
      1.32187717e-002 1.28883021e-002 9.25313961e-003 6.93985494e-003
      7.27032404e-003 1.68539342e-002 7.93126225e-003 1.65234637e-002
      1.61929950e-002 9.91407875e-003 8.92267097e-003 7.60079361e-003
      7.93126225e-003 1.65234646e-003 1.35492403e-002 3.70125584e-002
      4.95703937e-003 1.09054865e-002 7.60079361e-003 7.60079361e-003
      1.12359552e-002 1.15664247e-002 8.59220140e-003 1.18968943e-002
      7.60079361e-003 1.05750170e-002 8.92267097e-003 2.18109731e-002
      1.22273630e-002 9.58360918e-003 4.29610070e-003 3.30469292e-003
      1.09054865e-002 7.27032404e-003 6.93985494e-003 1.22273630e-002
      2.04890948e-002 1.09054865e-002 6.27891626e-003 1.38797099e-002
      1.12359552e-002 8.59220140e-003 4.29610070e-003 1.45406481e-002
      7.60079361e-003 1.22273630e-002 4.29610070e-003 6.60938583e-003
      1.12359552e-002 1.52015872e-002 9.25313961e-003 9.25313961e-003
      6.60938583e-003 7.93126225e-003 1.25578325e-002 8.59220140e-003
      5.94844716e-003 1.55320559e-002 1.15664247e-002 6.60938583e-003
      1.22273630e-002 1.38797099e-002 1.05750170e-002 4.62656980e-003
      9.58360918e-003 5.28750848e-003 7.60079361e-003 1.45406481e-002
      1.28883021e-002 4.62656980e-003 1.22273630e-002 2.31328490e-003</_>
    <_>
      6.30252156e-003 2.10084040e-002 2.31092442e-002 6.30252156e-003
      8.40336177e-003 2.10084044e-003 8.40336177e-003 8.40336177e-003
      1.05042020e-002 1.05042020e-002 6.30252156e-003 8.40336177e-003
      6.30252156e-003 0. 1.26050431e-002 2.10084044e-003 2.10084044e-003
      0. 8.40336177e-003 2.10084044e-003 6.30252156e-003 1.05042020e-002
      8.40336177e-003 1.26050431e-002 1.89075638e-002 4.20168089e-003
      1.68067235e-002 1.05042020e-002 1.89075638e-002 1.68067235e-002
      1.26050431e-002 1.47058833e-002 2.10084044e-003 0. 4.20168089e-003
      6.30252156e-003 1.89075638e-002 2.31092442e-002 2.10084044e-003
      2.31092442e-002 4.20168089e-003 0. 2.10084044e-003 5.67226931e-002
      8.40336177e-003 4.20168089e-003 6.30252156e-003 8.40336177e-003
      1.26050431e-002 2.10084040e-002 1.05042020e-002 4.20168089e-003
      1.05042020e-002 6.30252156e-003 6.30252156e-003 1.05042020e-002
      8.40336177e-003 6.30252156e-003 2.10084044e-003 0. 1.68067235e-002
      1.26050431e-002 0. 8.40336177e-003 4.20168079e-002 6.30252156e-003
      0. 1.05042020e-002 8.40336177e-003 2.52100863e-002 4.20168089e-003
      1.47058833e-002 2.31092442e-002 8.40336177e-003 6.30252156e-003
      1.26050431e-002 1.05042020e-002 3.78151275e-002 1.05042020e-002
      6.30252156e-003 1.26050431e-002 2.10084044e-003 8.40336177e-003
      6.30252156e-003 4.20168089e-003 1.68067235e-002 1.89075638e-002
      4.20168089e-003 4.20168089e-003 4.20168089e-003 1.05042020e-002
      8.40336177e-003 4.20168089e-003 4.20168089e-003 2.10084044e-003
      4.20168089e-003 1.26050431e-002 1.05042020e-002 1.89075638e-002
      4.20168089e-003</_>
    <_>
      4.20168089e-003 2.80112051e-003 1.54061625e-002 1.12044821e-002
      9.80392192e-003 7.00280117e-003 5.60224103e-003 5.60224103e-003
      8.40336177e-003 1.54061625e-002 2.80112051e-003 1.54061625e-002
      5.60224103e-003 1.26050422e-002 4.20168089e-003 8.40336177e-003
      8.40336177e-003 1.12044821e-002 1.26050422e-002 4.20168089e-003
      5.60224103e-003 8.40336177e-003 1.40056026e-003 2.10084040e-002
