<?xml version="1.0"?>
<opencv_storage>
<my_svm type_id="opencv-ml-svm">
  <svm_type>C_SVC</svm_type>
  <kernel><type>RBF</type>
    <gamma>5.0625000000000009e-001</gamma></kernel>
  <C>3.1250000000000000e+002</C>
  <term_criteria><epsilon>1.1920928955078125e-007</epsilon>
    <iterations>10000</iterations></term_criteria>
  <var_all>100</var_all>
  <var_count>100</var_count>
  <class_count>2</class_count>
  <class_labels type_id="opencv-matrix">
    <rows>1</rows>
    <cols>2</cols>
    <dt>i</dt>
    <data>
      0 1</data></class_labels>
  <sv_total>112</sv_total>
  <support_vectors>
    <_>
      2.06611585e-003 3.44352610e-003 8.26446339e-003 1.92837473e-002
      7.57575780e-003 2.82369144e-002 6.88705244e-004 4.13223170e-003
      2.47933883e-002 1.58402212e-002 4.82093683e-003 6.19834708e-003
      1.23966942e-002 1.30853998e-002 9.64187365e-003 4.13223170e-003
      4.13223170e-003 0. 2.27272734e-002 5.50964195e-003 1.99724529e-002
      2.20385678e-002 4.13223170e-003 8.26446339e-003 2.68595051e-002
      1.03305783e-002 8.26446339e-003 1.99724529e-002 4.82093683e-003
      8.26446339e-003 1.10192839e-002 7.57575780e-003 1.03305783e-002
      5.50964195e-003 1.17079895e-002 1.30853998e-002 8.26446339e-003
      1.03305783e-002 1.23966942e-002 6.88705221e-003 4.82093683e-003
      2.68595051e-002 0. 4.82093683e-003 8.95316806e-003 6.88705221e-003
      6.19834708e-003 8.26446339e-003 2.06611585e-003 6.88705244e-004
      4.82093683e-003 2.41046827e-002 1.37741049e-003 6.19834708e-003
      6.88705244e-004 1.79063361e-002 1.44628100e-002 2.75482098e-003
      2.34159790e-002 1.65289268e-002 1.85950417e-002 2.06611585e-003
      6.19834708e-003 1.03305783e-002 1.17079895e-002 1.37741049e-003
      6.88705221e-003 1.79063361e-002 1.10192839e-002 1.37741049e-003
      2.06611585e-003 1.72176305e-002 4.13223170e-003 7.57575780e-003
      1.30853998e-002 7.57575780e-003 7.57575780e-003 8.95316806e-003
      6.88705221e-003 7.57575780e-003 1.17079895e-002 1.37741044e-002
      2.41046827e-002 6.19834708e-003 1.30853998e-002 1.23966942e-002
      6.19834708e-003 0. 2.06611585e-003 2.06611585e-003 2.61707995e-002
      6.19834708e-003 6.88705244e-004 3.51239666e-002 1.03305783e-002
      1.17079895e-002 2.13498622e-002 8.95316806e-003 6.19834708e-003
      2.75482098e-003</_>
    <_>
      2.32704394e-002 1.32075474e-002 1.00628929e-002 0. 2.51572323e-003
      2.51572323e-003 7.54716992e-003 2.26415098e-002 4.40251548e-003
      2.13836469e-002 5.03144646e-003 5.03144646e-003 5.03144646e-003
      1.25786162e-003 6.28930796e-003 2.51572323e-003 2.95597482e-002
      1.94968544e-002 3.77358496e-003 2.51572323e-003 1.76100619e-002
      1.88679248e-003 4.15094346e-002 1.25786162e-003 1.88679248e-003
      1.88679248e-003 4.40251548e-003 1.25786162e-003 1.88679248e-003 0.
      1.88679248e-003 4.40251548e-003 5.66037744e-003 2.95597482e-002
      1.25786162e-003 1.19496854e-002 9.43396240e-003 1.00628929e-002
      2.51572323e-003 1.19496854e-002 1.13207549e-002 1.88679248e-003
      2.45283023e-002 3.77358496e-003 8.17610044e-003 5.66037744e-003
      9.43396240e-003 3.77358496e-003 5.66037744e-003 1.25786162e-003
      2.20125783e-002 1.25786162e-003 8.80503096e-003 9.05660391e-002
      2.57861633e-002 8.80503096e-003 2.70440243e-002 1.38364779e-002
      5.66037744e-003 3.14465398e-003 1.32075474e-002 3.77358496e-003
      2.51572323e-003 4.40251548e-003 6.85534552e-002 2.20125783e-002
      6.28930796e-003 5.03144646e-003 3.77358496e-003 5.66037744e-003
      3.14465389e-002 3.14465398e-003 3.77358496e-003 4.40251548e-003
      7.54716992e-003 7.54716992e-003 4.40251548e-003 3.14465398e-003
      5.03144646e-003 1.88679248e-003 8.80503096e-003 6.28930808e-004
      4.40251548e-003 5.03144646e-003 7.54716992e-003 5.03144646e-003
      1.13207549e-002 5.47169819e-002 1.25786159e-002 2.51572323e-003
      2.51572323e-003 6.91823894e-003 4.40251548e-003 7.54716992e-003
      5.66037744e-003 3.77358496e-003 6.28930796e-003 4.40251548e-003
      3.14465398e-003 2.51572323e-003</_>
    <_>
      9.90693457e-003 3.60252173e-003 8.40588380e-003 1.74121875e-002
      1.26088262e-002 9.30651464e-003 9.00630467e-003 1.29090361e-002
      1.11077754e-002 2.10147109e-002 1.02071445e-002 1.08075654e-002
      1.38096670e-002 1.08075654e-002 6.90483348e-003 5.10357227e-003
      9.90693457e-003 5.70399268e-003 1.80126093e-002 1.56109277e-002
      1.92134492e-002 1.80126093e-002 1.38096670e-002 8.70609377e-003
      1.29090361e-002 5.70399268e-003 5.10357227e-003 1.14079854e-002
      1.68117676e-002 1.50105068e-002 9.00630467e-003 1.56109277e-002
      9.00630467e-003 1.32092461e-002 5.40378271e-003 1.26088262e-002
      1.50105078e-003 2.70189135e-003 8.40588380e-003 5.40378271e-003
      4.20294190e-003 5.40378271e-003 3.60252173e-003 7.20504345e-003
      1.80126086e-003 1.56109277e-002 2.31161807e-002 1.29090361e-002
      1.50105078e-003 6.00420311e-003 1.35094561e-002 1.56109277e-002
      6.00420288e-004 8.40588380e-003 7.50525342e-003 1.95136592e-002
      1.32092461e-002 9.60672460e-003 2.73191240e-002 1.53107177e-002
      1.29090361e-002 2.40168115e-003 9.00630467e-003 1.50105078e-003
      2.31161807e-002 6.30441308e-003 4.20294190e-003 1.38096670e-002
      8.70609377e-003 1.02071445e-002 9.00630467e-003 3.60252173e-003
      4.80336230e-003 1.20084062e-002 6.90483348e-003 5.40378271e-003
      7.80546386e-003 5.10357227e-003 1.08075654e-002 8.70609377e-003
      4.80336230e-003 9.00630467e-003 9.30651464e-003 6.90483348e-003
      1.35094561e-002 7.80546386e-003 2.70189135e-003 4.80336230e-003
      6.00420311e-003 1.32092461e-002 9.30651464e-003 1.11077754e-002
      5.40378271e-003 1.65115576e-002 1.41098769e-002 8.10567383e-003
      1.29090361e-002 1.95136592e-002 1.02071445e-002 4.80336230e-003</_>
    <_>
      2.55305041e-002 1.22679044e-002 2.98408489e-003 9.94694885e-004
      6.63129985e-003 6.63129962e-004 1.22679044e-002 1.16047747e-002
      4.31034481e-003 3.31564993e-003 7.95755908e-003 8.62068962e-003
      4.64190962e-003 5.30503970e-003 2.98408489e-003 9.94694978e-003
      5.30503970e-003 1.09416442e-002 0. 7.62599474e-003 3.64721473e-003
      1.32625992e-003 1.69098135e-002 6.63129985e-003 1.25994692e-002
      6.29973458e-003 6.96286466e-003 2.65251985e-003 1.25994692e-002
      7.62599474e-003 5.30503970e-003 3.64721473e-003 4.97347489e-003
      2.91777179e-002 5.30503970e-003 2.02254634e-002 1.42572941e-002
      1.95623338e-002 5.30503970e-003 2.25464180e-002 1.55835543e-002
      8.95225443e-003 1.06100794e-002 7.95755908e-003 1.06100794e-002
      6.63129985e-003 7.95755908e-003 9.28381924e-003 2.32095495e-002
      1.25994692e-002 5.30503970e-003 6.63129962e-004 2.42042430e-002
      3.44827585e-002 2.25464180e-002 6.63129962e-004 5.96816977e-003
      1.06100794e-002 1.65782496e-003 1.32625992e-003 1.01458885e-001
      1.29310340e-002 1.32625992e-003 1.52519895e-002 5.96816977e-003
      1.19363395e-002 8.28912482e-003 3.31564981e-004 6.63129962e-004
      7.29442947e-003 5.30503970e-003 4.31034481e-003 6.96286466e-003
      1.22679044e-002 6.63129962e-004 1.19363395e-002 1.32625992e-003
      9.28381924e-003 5.63660450e-003 4.97347489e-003 2.45358087e-002
      3.31564981e-004 1.32625992e-003 5.63660450e-003 7.29442947e-003
      2.32095481e-003 1.22679044e-002 2.28779837e-002 2.91777179e-002
      3.31564993e-003 1.02785146e-002 4.97347489e-003 2.15517245e-002
      1.65782496e-002 5.63660450e-003 3.31564993e-003 9.28381924e-003
      3.64721473e-003 3.97877954e-003 1.12732090e-002</_>
    <_>
      3.08441557e-002 7.71103892e-003 7.71103892e-003 5.68181835e-003
      2.02922081e-003 1.21753244e-003 1.46103892e-002 1.05519481e-002
      1.33928573e-002 3.93668823e-002 4.46428591e-003 7.30519462e-003
      3.24675324e-003 2.43506487e-003 6.08766219e-003 6.49350649e-003
      1.58279222e-002 4.46428591e-003 4.05844155e-004 4.87012975e-003
      9.33441520e-003 2.84090918e-003 1.86688304e-002 6.08766219e-003
      1.58279222e-002 1.21753244e-003 4.46428591e-003 2.84090918e-003
      2.02922081e-003 2.02922081e-003 2.43506487e-003 2.84090918e-003
      7.30519462e-003 1.33928573e-002 4.46428591e-003 1.17694801e-002
      9.33441520e-003 7.71103892e-003 9.74025950e-003 1.66396108e-002
      8.92857183e-003 3.24675324e-003 1.01461038e-002 7.71103892e-003
      1.50162335e-002 2.02922081e-003 1.25811687e-002 4.05844155e-004
      5.88474013e-002 1.21753244e-003 2.11038962e-002 3.65259731e-003
      6.25000000e-002 2.67857146e-002 3.73376608e-002 1.98863633e-002
      3.93668823e-002 8.52272753e-003 4.05844155e-004 1.62337662e-003
      1.94805190e-002 4.87012975e-003 1.62337662e-003 7.30519462e-003
      6.89935079e-003 1.46103892e-002 1.54220778e-002 1.05519481e-002
      2.43506487e-003 4.05844161e-003 1.21753244e-002 6.08766219e-003
      6.08766219e-003 6.49350649e-003 1.17694801e-002 8.11688323e-003
      1.33928573e-002 5.68181835e-003 1.21753244e-003 3.24675324e-003
      8.92857183e-003 1.62337662e-003 2.84090918e-003 1.17694801e-002
      8.92857183e-003 1.13636367e-002 8.11688323e-003 1.62337665e-002
      8.52272753e-003 1.54220778e-002 2.27272734e-002 5.68181835e-003
      3.65259731e-003 9.33441520e-003 2.84090918e-003 4.05844161e-003
      6.08766219e-003 2.02922081e-003 2.02922081e-003 5.27597405e-003</_>
    <_>
      3.82043933e-003 5.73065877e-003 4.45717946e-003 1.91021967e-003
      1.91021967e-003 1.91021967e-003 8.27761833e-003 7.64087867e-003
      6.04902906e-003 4.36166823e-002 8.91435891e-003 2.86532938e-003
      7.64087867e-003 6.04902906e-003 5.41228894e-003 1.30531676e-002
      1.30531676e-002 7.95924850e-003 9.55109834e-004 1.05062081e-002
      1.46450177e-002 4.77554929e-003 9.55109857e-003 7.32250884e-003
      1.20980581e-002 1.08245779e-002 6.04902906e-003 4.77554929e-003
      6.36739889e-003 4.77554929e-003 4.45717946e-003 4.45717946e-003
      6.04902906e-003 1.01878382e-002 9.23272874e-003 1.78287178e-002
      1.20980581e-002 2.19675265e-002 6.68576872e-003 5.73065877e-003
      2.86532957e-002 4.45717946e-003 2.03756765e-002 1.27347978e-002
      1.27347978e-003 5.73065877e-003 1.97389368e-002 8.27761833e-003
      1.59184970e-002 9.23272874e-003 7.95924850e-003 4.13880916e-003
      1.33715374e-002 3.50206951e-003 5.73065877e-003 5.09391911e-003
      3.40655856e-002 1.27347978e-002 1.59184972e-003 2.22858973e-003
      1.08245779e-002 1.43266479e-002 4.13880916e-003 3.18369945e-003
      1.97389368e-002 1.17796883e-002 5.73065877e-003 7.95924850e-003
      6.36739889e-003 6.36739889e-003 8.27761833e-003 7.00413901e-003
      6.36739889e-003 1.17796883e-002 1.36899073e-002 6.36739889e-003
      1.33715374e-002 1.14613175e-002 5.73065877e-003 4.13880916e-003
      1.49633875e-002 5.09391911e-003 5.09391911e-003 1.30531676e-002
      2.16491558e-002 1.59184970e-002 1.05062081e-002 9.86946840e-003
      1.94205660e-002 4.13880916e-003 7.95924850e-003 1.05062081e-002
      5.09391911e-003 4.74371202e-002 3.50206951e-003 1.75103471e-002
      1.94205660e-002 4.13880916e-003 1.49633875e-002 1.27347978e-002</_>
    <_>
      6.59754947e-002 2.26201694e-002 5.65504236e-003 1.88501412e-003 0.
      0. 8.48256331e-003 1.97926480e-002 2.82752118e-003 1.31950993e-002
      7.54005648e-003 2.54476909e-002 1.88501412e-003 1.88501412e-003
      2.82752118e-003 4.71253507e-003 3.01602259e-002 1.60226207e-002 0.
      3.77002824e-003 8.48256331e-003 1.88501412e-003 2.45051831e-002
      9.42507060e-004 2.82752123e-002 0. 1.13100847e-002 1.88501412e-003
      2.82752118e-003 1.88501412e-003 9.42507060e-004 3.77002824e-003
      8.48256331e-003 1.50801130e-002 9.42507060e-004 2.82752118e-003
      1.69651266e-002 4.71253507e-003 2.82752118e-003 1.41376061e-002
      2.82752118e-003 4.05278020e-002 1.60226207e-002 1.88501412e-003
      1.22525916e-002 9.42507060e-004 6.59754965e-003 0. 9.42507060e-004
      9.42507060e-004 2.07351558e-002 3.77002824e-003 1.88501412e-003
      3.01602259e-002 3.11027337e-002 3.77002824e-003 4.61828448e-002
      1.50801130e-002 1.88501412e-003 0. 2.54476909e-002 3.77002824e-003
      1.88501412e-003 0. 4.42978330e-002 1.31950993e-002 4.71253507e-003
      2.82752118e-003 5.65504236e-003 3.77002824e-003 2.26201694e-002
      3.77002824e-003 3.77002824e-003 7.54005648e-003 9.42507014e-003
      3.58152688e-002 1.03675779e-002 4.71253507e-003 1.88501412e-003
      4.71253507e-003 1.31950993e-002 0. 1.88501412e-003 5.65504236e-003
      1.88501412e-003 1.13100847e-002 3.77002824e-003 2.73327045e-002
      1.22525916e-002 4.71253507e-003 3.29877473e-002 2.26201694e-002 0.
      6.59754965e-003 0. 5.65504236e-003 4.71253507e-003 3.77002824e-003
      2.82752118e-003 3.77002824e-003</_>
    <_>
      1.37857907e-002 1.16649000e-002 5.30222710e-003 7.42311822e-003
      1.06044544e-003 5.30222710e-003 5.30222710e-003 9.54400934e-003
      1.69671271e-002 4.87804897e-002 7.42311822e-003 1.48462364e-002
      7.42311822e-003 4.24178177e-003 5.30222710e-003 7.42311822e-003
      1.16649000e-002 2.12089089e-003 1.06044544e-003 0. 1.27253458e-002
      8.48356355e-003 1.48462364e-002 9.54400934e-003 3.28738093e-002
      1.06044544e-003 1.69671271e-002 5.30222710e-003 2.12089089e-003
      3.18133645e-003 7.42311822e-003 5.30222710e-003 1.06044542e-002
      1.06044542e-002 9.54400934e-003 1.37857907e-002 8.48356355e-003
      1.06044544e-003 3.18133645e-003 5.30222710e-003 8.48356355e-003
      1.37857907e-002 1.69671271e-002 6.36267290e-003 1.59066822e-002
      6.36267290e-003 1.37857907e-002 2.12089089e-003 4.24178177e-003
      6.36267290e-003 1.48462364e-002 1.06044542e-002 4.24178177e-003
      1.16649000e-002 2.43902449e-002 1.59066822e-002 3.60551439e-002
      2.12089089e-003 2.12089089e-003 9.54400934e-003 1.69671271e-002
      5.30222710e-003 5.30222710e-003 1.16649000e-002 1.37857907e-002
      5.30222710e-003 2.65111364e-002 1.37857907e-002 7.42311822e-003
      2.12089089e-003 6.36267290e-003 5.30222710e-003 2.43902449e-002
      7.42311822e-003 1.37857907e-002 1.16649000e-002 1.27253458e-002
      1.48462364e-002 3.18133645e-003 8.48356355e-003 2.01484635e-002
      2.12089089e-003 7.42311822e-003 4.24178177e-003 1.37857907e-002
      1.27253458e-002 9.54400934e-003 2.12089089e-003 2.22693551e-002
      5.30222710e-003 2.96924729e-002 1.59066822e-002 1.06044544e-003
      4.24178177e-003 3.18133645e-003 1.16649000e-002 5.30222710e-003
      1.16649000e-002 3.18133645e-003 3.18133645e-003</_>
    <_>
      1.68350171e-002 2.18855217e-002 1.68350171e-002 5.05050505e-003
      6.73400657e-003 1.68350164e-003 0. 5.05050505e-003 2.86195278e-002
      1.68350171e-002 1.01010101e-002 1.51515147e-002 1.17845116e-002
      1.34680131e-002 1.85185187e-002 3.36700329e-003 2.35690232e-002
      1.68350164e-003 0. 3.36700329e-003 1.68350164e-003 6.73400657e-003
      3.36700329e-003 3.36700329e-003 2.35690232e-002 1.68350171e-002
      6.73400657e-003 5.05050505e-003 5.05050505e-003 3.36700329e-003
      1.85185187e-002 1.68350164e-003 2.02020202e-002 1.01010101e-002
      2.02020202e-002 1.85185187e-002 6.73400657e-003 5.05050505e-003
      1.17845116e-002 2.18855217e-002 6.73400657e-003 5.05050505e-003
      1.51515147e-002 6.73400657e-003 8.41750856e-003 3.36700329e-003
      1.85185187e-002 5.05050505e-003 3.36700329e-003 6.73400657e-003
      4.54545431e-002 5.05050505e-003 1.68350164e-003 1.17845116e-002
      1.68350171e-002 3.36700329e-003 6.06060587e-002 1.68350164e-003
      1.68350164e-003 5.05050505e-003 0. 3.36700329e-003 5.05050505e-003
      1.85185187e-002 8.41750856e-003 5.05050505e-003 1.34680131e-002
      1.34680131e-002 1.68350164e-003 3.36700329e-003 5.05050505e-003
      5.05050505e-003 1.17845116e-002 1.01010101e-002 1.68350171e-002
      2.35690232e-002 1.85185187e-002 8.41750856e-003 3.36700329e-003
      8.41750856e-003 1.85185187e-002 1.68350164e-003 1.17845116e-002
      6.73400657e-003 6.73400657e-003 1.17845116e-002 1.01010101e-002
      1.68350164e-003 6.73400657e-003 1.68350164e-003 1.51515147e-002
      2.35690232e-002 0. 6.73400657e-003 0. 8.41750856e-003
      8.41750856e-003 1.01010101e-002 1.68350164e-003 1.68350164e-003</_>
    <_>
      1.21180182e-002 1.79135930e-002 1.00105368e-002 7.37618515e-003
      2.10748147e-003 6.84931502e-003 2.00210735e-002 6.84931502e-003
      1.15911476e-002 1.52792409e-002 6.32244442e-003 7.37618515e-003
      6.84931502e-003 4.74183355e-003 7.90305529e-003 8.95679649e-003
      1.89673342e-002 7.90305529e-003 3.68809258e-003 5.26870368e-003
      2.31822953e-002 5.26870368e-003 7.37618515e-003 5.79557382e-003
      1.84404626e-002 3.68809258e-003 2.21285559e-002 8.95679649e-003
      3.16122221e-003 5.26870368e-003 4.74183355e-003 7.90305529e-003
      1.21180182e-002 1.52792409e-002 7.90305529e-003 1.52792409e-002
      1.58061106e-002 1.15911476e-002 7.37618515e-003 9.48366709e-003
      1.58061106e-002 1.10642780e-002 1.10642780e-002 5.26870368e-003
      1.15911476e-002 1.58061110e-003 8.95679649e-003 4.21496294e-003
      1.05374074e-002 5.79557382e-003 1.42254997e-002 6.84931502e-003
      5.79557382e-003 1.10642780e-002 1.68598518e-002 1.42254997e-002
      1.36986300e-002 1.42254997e-002 5.26870368e-003 5.79557382e-003
      3.68809258e-003 8.95679649e-003 5.79557382e-003 1.10642780e-002
      1.26448888e-002 1.15911476e-002 1.52792409e-002 1.63329821e-002
      8.42992589e-003 1.05374074e-002 1.15911476e-002 1.05374074e-002
      1.26448888e-002 6.84931502e-003 1.42254997e-002 1.68598518e-002
      7.90305529e-003 9.48366709e-003 4.74183355e-003 3.68809258e-003
      1.52792409e-002 4.74183355e-003 1.05374074e-002 8.95679649e-003
      1.36986300e-002 1.36986300e-002 1.26448888e-002 1.26448888e-002
      4.21496294e-003 1.05374074e-002 2.95047406e-002 1.05374074e-002
      5.79557382e-003 1.47523703e-002 7.90305529e-003 2.63435184e-003
      6.84931502e-003 8.95679649e-003 5.26870368e-003 5.26870368e-003</_>
    <_>
      1.86583735e-002 9.32918675e-003 1.51043981e-002 5.77521091e-003
      6.21945830e-003 4.88671707e-003 6.21945830e-003 3.55397607e-003
      1.37716569e-002 1.82141270e-002 7.99644645e-003 4.44247015e-003
      1.24389166e-002 9.32918675e-003 4.44247015e-003 1.51043981e-002
      1.33274104e-002 1.11061754e-002 7.99644645e-003 1.33274104e-002
      1.02176815e-002 1.33274104e-002 1.19946692e-002 1.11061754e-002
      9.77343414e-003 1.28831631e-002 1.15504218e-002 1.15504218e-002
      1.19946692e-002 8.88494030e-003 1.19946692e-002 9.32918675e-003
      1.33274104e-002 4.44247015e-003 9.77343414e-003 2.31008437e-002
      5.33096399e-003 8.88494030e-003 1.06619280e-002 1.15504218e-002
      7.55219907e-003 2.66548200e-003 4.44247015e-003 5.77521091e-003
      6.21945830e-003 9.77343414e-003 3.02087963e-002 5.33096399e-003
      1.77698804e-003 9.77343414e-003 2.93203034e-002 6.66370522e-003
      5.33096399e-003 1.11061754e-002 1.51043981e-002 8.44069291e-003
      1.95468683e-002 1.73256341e-002 9.32918675e-003 1.15504218e-002
      5.33096399e-003 7.99644645e-003 8.88494030e-003 7.55219907e-003
      7.99644645e-003 5.33096399e-003 5.77521091e-003 1.15504218e-002
      1.55486455e-002 7.99644645e-003 1.55486455e-002 1.64371394e-002
      1.42159043e-002 1.06619280e-002 7.10795214e-003 7.55219907e-003
      2.13238560e-002 4.44247015e-003 5.33096399e-003 9.77343414e-003
      9.32918675e-003 1.77698804e-003 1.46601517e-002 1.19946692e-002
      3.10972915e-003 4.44247015e-003 1.77698804e-003 7.55219907e-003
      1.02176815e-002 2.08796095e-002 5.77521091e-003 1.59928929e-002
      5.33096399e-003 6.21945830e-003 9.32918675e-003 3.55397607e-003
      6.66370522e-003 1.06619280e-002 7.10795214e-003 7.10795214e-003</_>
    <_>
      9.10746807e-004 6.37522759e-003 1.27504552e-002 2.41347905e-002
      8.65209475e-003 2.00364292e-002 9.10746807e-004 1.32058291e-002
      9.10746772e-003 1.09289614e-002 7.74134789e-003 8.65209475e-003
      1.68488156e-002 1.36612020e-002 7.74134789e-003 8.19672085e-003
      8.19672085e-003 8.65209475e-003 1.73041895e-002 1.00182146e-002
      7.74134789e-003 1.82149354e-002 1.36612018e-003 6.37522759e-003
      7.74134789e-003 8.65209475e-003 1.13843353e-002 1.22950822e-002
      1.04735885e-002 1.41165759e-002 1.09289614e-002 3.64298723e-003
      1.50273219e-002 2.73224036e-003 5.46448072e-003 1.18397083e-002
      5.91985416e-003 1.54826958e-002 1.00182146e-002 1.09289614e-002
      1.00182146e-002 5.46448072e-003 1.68488156e-002 1.00182146e-002
      3.64298723e-003 1.36612020e-002 2.27686693e-003 1.00182146e-002
      9.10746807e-004 5.46448072e-003 5.91985416e-003 2.77777780e-002
      9.10746807e-004 2.73224036e-003 4.55373386e-003 4.05282341e-002
      4.55373386e-003 5.91985416e-003 6.83060102e-003 1.09289614e-002
      9.10746807e-004 5.46448072e-003 1.73041895e-002 1.27504552e-002
      1.27504552e-002 3.14207636e-002 4.55373386e-003 2.50455365e-002
      1.36612020e-002 1.27504552e-002 3.64298723e-003 8.19672085e-003
      9.10746772e-003 1.09289614e-002 6.37522759e-003 6.37522759e-003
      1.22950822e-002 4.09836043e-003 4.09836043e-003 1.13843353e-002
      2.73224036e-003 1.32058291e-002 6.37522759e-003 1.27504552e-002
      1.50273219e-002 5.91985416e-003 7.28597445e-003 2.27686693e-003
      2.73224036e-003 5.00910729e-003 5.91985416e-003 1.63934417e-002
      1.04735885e-002 1.22950822e-002 1.18397083e-002 5.00910729e-003
      1.86703093e-002 1.91256832e-002 1.59380697e-002 4.55373386e-003</_>
    <_>
      6.36739889e-003 6.04902906e-003 1.08245779e-002 3.82043933e-003
      6.36739889e-003 6.04902906e-003 5.73065877e-003 8.27761833e-003
      1.59184970e-002 6.04902906e-003 1.33715374e-002 4.77554929e-003
      9.55109857e-003 2.32410058e-002 8.27761833e-003 2.10124161e-002
      5.09391911e-003 1.08245779e-002 9.23272874e-003 1.68736074e-002
      8.59598815e-003 1.24164280e-002 1.36899073e-002 2.29226351e-002
      6.36739889e-003 1.36899073e-002 6.68576872e-003 9.55109857e-003
      1.05062081e-002 9.86946840e-003 1.36899073e-002 1.14613175e-002
      1.40082780e-002 6.04902906e-003 7.64087867e-003 2.35593766e-002
      3.18369945e-003 2.00573057e-002 9.23272874e-003 1.91021971e-002
      1.20980581e-002 5.09391911e-003 6.68576872e-003 8.59598815e-003
      3.18369945e-004 1.30531676e-002 5.73065877e-003 1.56001272e-002
      2.54695956e-003 1.11429477e-002 9.86946840e-003 4.13880916e-003
      2.86532938e-003 4.77554929e-003 1.27347978e-002 8.59598815e-003
      4.13880916e-003 1.56001272e-002 6.04902906e-003 9.23272874e-003
      5.73065877e-003 1.49633875e-002 4.77554929e-003 3.82043933e-003
      4.45717946e-003 1.97389368e-002 5.41228894e-003 4.13880916e-003
      9.55109857e-003 1.40082780e-002 1.20980581e-002 8.27761833e-003
      7.95924850e-003 2.19675265e-002 9.55109834e-004 7.64087867e-003
      5.09391911e-003 6.36739889e-003 1.30531676e-002 4.45717946e-003
      8.27761833e-003 3.82043933e-003 1.24164280e-002 2.86532957e-002
      6.36739889e-003 1.27347978e-003 3.18369945e-003 5.09391911e-003
      4.77554929e-003 1.01878382e-002 5.73065877e-003 2.10124161e-002
      7.64087867e-003 4.13880916e-003 9.55109857e-003 3.50206951e-003
      1.05062081e-002 1.87838264e-002 2.99267750e-002 3.18369940e-002</_>
    <_>
      9.39597376e-003 1.34228189e-002 2.41610743e-002 1.07382555e-002
      5.36912773e-003 1.07382555e-002 6.04026858e-003 1.14093963e-002
      1.40939606e-002 1.20805372e-002 9.39597376e-003 1.47651015e-002
      1.07382555e-002 6.04026858e-003 8.05369206e-003 9.39597376e-003
      1.67785250e-002 4.02684603e-003 8.72483291e-003 3.35570471e-003
      2.21476518e-002 1.07382555e-002 8.72483291e-003 4.02684603e-003
      1.40939606e-002 1.07382555e-002 7.38255074e-003 6.71140943e-003
      2.68456386e-003 4.02684603e-003 1.27516780e-002 4.69798688e-003
      1.81208067e-002 1.14093963e-002 5.36912773e-003 1.27516780e-002
      8.05369206e-003 7.38255074e-003 1.20805372e-002 1.67785250e-002
      9.39597376e-003 7.38255074e-003 6.71140943e-003 7.38255074e-003
      2.08053701e-002 4.02684603e-003 1.54362423e-002 6.04026858e-003
      1.07382555e-002 6.04026858e-003 3.28859091e-002 1.94630884e-002
      8.72483291e-003 1.20805372e-002 2.68456377e-002 1.81208067e-002
      1.07382555e-002 1.34228193e-003 4.02684603e-003 6.71140943e-003
      4.02684603e-003 3.35570471e-003 1.40939606e-002 1.40939606e-002
      2.08053701e-002 1.81208067e-002 1.20805372e-002 1.74496658e-002
      8.05369206e-003 4.69798688e-003 1.07382555e-002 8.72483291e-003
      1.00671146e-002 6.04026858e-003 1.27516780e-002 1.14093963e-002
      6.71140943e-003 8.72483291e-003 2.68456386e-003 1.07382555e-002
      6.04026858e-003 8.72483291e-003 1.14093963e-002 6.04026858e-003
      7.38255074e-003 1.00671146e-002 1.00671146e-002 2.01342301e-003
      3.35570471e-003 2.68456386e-003 1.47651015e-002 1.87919475e-002
      4.69798688e-003 1.54362423e-002 5.36912773e-003 4.02684603e-003
      6.04026858e-003 7.38255074e-003 3.35570471e-003 2.68456386e-003</_>
    <_>
      5.02197118e-003 4.39422484e-003 1.12994350e-002 1.06716892e-002
      6.90521020e-003 1.19271819e-002 6.27746386e-003 1.82046462e-002
      1.50659140e-002 1.25549277e-002 5.02197118e-003 5.02197118e-003
      1.56936608e-002 1.50659140e-002 9.41619556e-003 1.12994350e-002
      3.07595730e-002 1.44381672e-002 1.06716892e-002 6.27746386e-003
      1.63214058e-002 1.31826745e-002 1.88323911e-002 8.16070288e-003
      3.13873193e-003 8.16070288e-003 8.78844969e-003 1.12994350e-002
      1.00439424e-002 6.90521020e-003 9.41619556e-003 1.06716892e-002
      1.19271819e-002 1.50659140e-002 1.88323925e-003 1.00439424e-002
      3.13873193e-003 6.27746386e-003 9.41619556e-003 2.07156315e-002
      2.51098559e-003 6.27746398e-004 1.63214058e-002 6.90521020e-003
      1.88323925e-003 7.53295701e-003 2.51098559e-003 8.16070288e-003
      3.13873193e-003 6.90521020e-003 2.76208408e-002 1.00439424e-002
      1.25549280e-003 6.27746386e-003 2.88763344e-002 1.00439424e-002
      2.25988701e-002 1.69491526e-002 1.44381672e-002 1.82046462e-002
      1.88323925e-003 3.13873193e-003 1.38104204e-002 1.06716892e-002
      3.82925309e-002 2.13433784e-002 3.13873193e-003 1.00439424e-002
      8.78844969e-003 1.00439424e-002 1.94601379e-002 7.53295701e-003
      7.53295701e-003 1.44381672e-002 2.51098559e-003 5.64971752e-003
      6.27746386e-003 5.02197118e-003 6.90521020e-003 1.88323911e-002
      2.51098559e-003 5.02197118e-003 7.53295701e-003 5.64971752e-003
      1.25549277e-002 7.53295701e-003 5.02197118e-003 5.02197118e-003
      1.88323925e-003 1.25549280e-003 3.13873193e-003 2.19711233e-002
      4.39422484e-003 8.78844969e-003 6.27746386e-003 6.27746386e-003
      7.53295701e-003 1.63214058e-002 8.16070288e-003 5.64971752e-003</_>
    <_>
      6.08166819e-003 6.08166819e-003 7.81928748e-003 1.04257166e-002
      1.04257166e-002 1.47697655e-002 4.34404891e-003 0. 1.73761956e-002
      2.51954831e-002 1.21633364e-002 7.81928748e-003 1.56385750e-002
      1.21633364e-002 1.30321467e-002 1.21633364e-002 1.04257166e-002
      8.68809759e-004 6.95047807e-003 6.95047807e-003 6.95047807e-003
      5.21285832e-003 2.60642916e-003 1.30321467e-002 1.30321467e-002
      1.73761956e-002 5.21285832e-003 1.21633364e-002 5.21285832e-003
      6.08166819e-003 7.81928748e-003 5.21285832e-003 1.91138145e-002 0.
      1.04257166e-002 1.99826248e-002 8.68809759e-004 1.04257166e-002
      1.56385750e-002 1.56385750e-002 4.34404891e-003 1.73761952e-003
      4.34404891e-003 7.81928748e-003 6.08166819e-003 5.21285832e-003
      2.78019123e-002 8.68809782e-003 0. 5.21285832e-003 1.30321467e-002
      2.43266728e-002 0. 4.34404891e-003 1.30321467e-002 1.99826248e-002
      4.77845371e-002 4.34404891e-003 3.47523903e-003 1.47697655e-002
      1.73761952e-003 9.55690723e-003 2.25890540e-002 1.39009561e-002
      7.81928748e-003 1.73761952e-003 6.95047807e-003 2.86707226e-002
      8.68809782e-003 9.55690723e-003 1.73761952e-003 2.25890540e-002
      1.04257166e-002 1.47697655e-002 5.21285832e-003 4.34404891e-003
      4.60469164e-002 6.08166819e-003 8.68809782e-003 1.56385750e-002
      5.21285832e-003 1.91138145e-002 1.73761956e-002 6.95047807e-003
      4.34404891e-003 1.73761952e-003 1.56385750e-002 0. 3.47523903e-003
      1.47697655e-002 6.08166819e-003 6.08166819e-003 2.60642916e-003
      3.47523903e-003 1.73761952e-003 3.47523903e-003 8.68809782e-003
      1.56385750e-002 6.08166819e-003 1.73761952e-003</_>
    <_>
      3.19488812e-003 7.98721984e-003 1.03833862e-002 2.39616609e-003
      7.98722031e-004 3.99360992e-003 3.19488812e-003 1.43769961e-002
      3.43450457e-002 8.22683722e-002 6.38977624e-003 8.78594257e-003 0.
      7.98722031e-004 3.99360992e-003 7.98721984e-003 4.23322693e-002
      9.58466437e-003 1.59744406e-003 7.98722031e-004 3.51437703e-002
      3.19488812e-003 1.43769961e-002 9.58466437e-003 4.79233218e-003
      6.38977624e-003 1.59744406e-003 1.59744406e-003 3.99360992e-003
      1.59744406e-003 5.59105445e-003 1.59744406e-003 1.51757188e-002
      5.59105445e-003 5.59105445e-003 7.98721984e-003 3.19488812e-003
      6.38977624e-003 2.39616609e-003 1.59744397e-002 3.99360992e-003
      5.59105445e-003 7.98721984e-003 5.59105445e-003 3.99360992e-003
      4.79233218e-003 8.78594257e-003 1.59744406e-003 4.79233218e-003
      3.99360992e-003 3.19488794e-002 1.11821089e-002 7.98722031e-004
      9.58466437e-003 1.51757188e-002 2.95527149e-002 5.83067089e-002
      1.43769961e-002 0. 1.59744406e-003 3.19488812e-003 1.59744406e-003
      1.59744406e-003 3.99360992e-003 3.35463248e-002 3.19488794e-002
      4.79233218e-003 1.83706060e-002 4.79233218e-003 3.99360992e-003
      1.75718851e-002 3.99360992e-003 3.99360992e-003 2.39616609e-003
      1.91693287e-002 1.03833862e-002 1.19808307e-002 2.39616609e-003
      2.39616609e-003 7.98721984e-003 3.19488812e-003 3.99360992e-003
      8.78594257e-003 3.99360992e-003 1.51757188e-002 2.47603822e-002
      1.59744406e-003 6.38977624e-003 5.59105445e-003 5.59105445e-003
      3.19488812e-003 2.95527149e-002 0. 2.55591050e-002 3.99360992e-003
      2.23642178e-002 1.43769961e-002 4.79233218e-003 4.79233218e-003
      1.59744406e-003</_>
    <_>
      2.08768272e-003 0. 1.04384134e-002 6.26304839e-003 1.67014617e-002
      4.17536544e-003 2.08768272e-003 3.13152410e-002 1.46137793e-002
      2.71398760e-002 2.08768272e-003 1.04384134e-002 8.35073087e-003
      2.08768272e-003 4.17536544e-003 2.08768272e-003 2.08768272e-003
      8.35073087e-003 4.17536544e-003 1.25260968e-002 2.92275585e-002
      2.08768272e-003 4.17536544e-003 6.26304839e-003 1.25260968e-002
      4.17536544e-003 2.08768272e-003 8.35073087e-003 4.17536544e-003
      6.26304839e-003 1.67014617e-002 2.08768272e-003 4.17536544e-003
      4.17536544e-003 1.04384134e-002 4.17536544e-003 0. 2.08768272e-003
      6.26304839e-003 1.04384134e-002 4.17536544e-003 1.67014617e-002
      1.67014617e-002 6.26304839e-003 0. 0. 4.17536534e-002 0. 0. 0.
      8.97703543e-002 8.35073087e-003 0. 0. 8.35073087e-003
      1.04384134e-002 1.87891442e-002 4.17536544e-003 6.26304839e-003
      8.35073087e-003 0. 6.26304839e-003 1.25260968e-002 2.92275585e-002
      2.08768267e-002 1.46137793e-002 4.17536544e-003 1.46137793e-002
      6.26304839e-003 6.26304839e-003 6.26304839e-003 2.29645092e-002
      4.17536544e-003 8.35073087e-003 1.04384134e-002 4.17536544e-003
      3.75782885e-002 2.08768272e-003 8.35073087e-003 2.08768267e-002
      2.08768272e-003 2.08768272e-003 3.13152410e-002 0. 2.08768267e-002
      2.71398760e-002 2.08768272e-003 4.17536544e-003 6.26304839e-003
      4.17536544e-003 1.25260968e-002 1.04384134e-002 6.26304839e-003
      3.34029235e-002 2.08768272e-003 8.35073087e-003 2.29645092e-002
      6.26304839e-003 4.17536544e-003 2.08768272e-003</_>
    <_>
      1.49492798e-002 1.36145223e-002 1.01441536e-002 5.33902831e-003
      3.47036845e-003 1.60170859e-003 1.89535506e-002 3.17672193e-002
      1.49492798e-002 1.36145223e-002 6.40683435e-003 8.54244549e-003
      3.47036845e-003 4.27122274e-003 3.20341717e-003 1.92205030e-002
      1.94874536e-002 6.11318760e-002 8.00854294e-004 4.53817425e-003
      9.07634851e-003 3.47036845e-003 2.74959970e-002 6.94073690e-003
      1.86865998e-003 3.47036845e-003 5.60597982e-003 1.06780569e-003
      4.27122274e-003 6.40683435e-003 4.27122274e-003 5.07207680e-003
      1.49492798e-002 2.21569687e-002 2.13561137e-003 8.54244549e-003
      6.40683435e-003 6.40683435e-003 4.80512576e-003 1.57501344e-002
      6.94073690e-003 1.60170859e-003 2.13561133e-002 8.80939700e-003
      8.27549398e-003 5.07207680e-003 4.27122274e-003 6.94073690e-003
      8.27549398e-003 4.53817425e-003 1.01441536e-002 2.93646567e-003
      6.94073690e-003 2.34917253e-002 1.49492798e-002 6.40683435e-003
      8.27549398e-003 2.37586759e-002 3.73731996e-003 4.00427124e-003
      1.68179404e-002 1.06780566e-002 2.93646567e-003 9.07634851e-003
      3.47036831e-002 3.23011205e-002 6.13988284e-003 2.40256288e-003
      2.66951416e-003 1.01441536e-002 1.86866000e-002 3.20341717e-003
      7.47463992e-003 7.47463992e-003 7.47463992e-003 7.20768841e-003
      2.93646567e-003 3.73731996e-003 7.47463992e-003 1.12119596e-002
      3.47036845e-003 0. 3.73731996e-003 1.04111051e-002 9.34330001e-003
      8.27549398e-003 4.53817425e-003 5.65937012e-002 6.40683435e-003
      6.40683435e-003 2.13561137e-003 1.12119596e-002 5.87293133e-003
      7.47463992e-003 4.00427124e-003 1.54831829e-002 1.09450081e-002
      5.33902831e-003 9.34330001e-003 1.38814738e-002</_>
    <_>
      2.28245370e-002 1.56918690e-002 1.92582030e-002 2.13980023e-003
      9.27246828e-003 2.13980023e-003 3.56633402e-003 1.78316701e-002
      9.98573471e-003 1.71184018e-002 3.56633402e-003 1.06990021e-002
      4.27960046e-003 2.85306713e-003 6.41940115e-003 1.56918690e-002
      2.63908710e-002 2.13980041e-002 7.13266782e-004 7.13266805e-003
      1.64051354e-002 1.42653356e-003 1.42653361e-002 7.84593448e-003
      1.56918690e-002 3.56633402e-003 1.49786025e-002 4.99286735e-003
      6.41940115e-003 4.99286735e-003 2.85306713e-003 7.84593448e-003
      4.99286735e-003 1.21255349e-002 2.13980023e-003 1.42653361e-002
      9.98573471e-003 1.06990021e-002 7.84593448e-003 1.21255349e-002
      1.35520687e-002 1.42653361e-002 1.64051354e-002 1.21255349e-002
      1.49786025e-002 4.27960046e-003 1.71184018e-002 2.85306713e-003
      3.56633402e-003 3.56633402e-003 1.85449366e-002 1.42653356e-003
      8.55920091e-003 2.21112706e-002 3.20970044e-002 1.21255349e-002
      1.92582030e-002 7.84593448e-003 2.13980023e-003 3.56633402e-003
      1.06990021e-002 1.06990021e-002 4.27960046e-003 4.99286735e-003
      3.06704715e-002 1.21255349e-002 1.06990021e-002 8.55920091e-003
      4.99286735e-003 1.42653356e-003 2.35378034e-002 5.70613425e-003
      1.42653361e-002 5.70613425e-003 9.27246828e-003 1.28388023e-002
      7.84593448e-003 8.55920091e-003 4.99286735e-003 1.06990021e-002
      1.21255349e-002 7.13266782e-004 3.56633402e-003 7.13266805e-003
      2.85306713e-003 9.98573471e-003 1.14122685e-002 1.35520687e-002
      1.56918690e-002 7.13266805e-003 1.85449366e-002 1.06990021e-002
      2.85306713e-003 5.70613425e-003 7.13266805e-003 7.13266805e-003
      7.84593448e-003 2.13980023e-003 9.98573471e-003 1.64051354e-002</_>
    <_>
      8.00556876e-003 9.04977415e-003 8.35363753e-003 3.82875046e-003
      7.30943261e-003 7.65750092e-003 1.42707974e-002 9.04977415e-003
      1.35746608e-002 2.33205706e-002 8.00556876e-003 4.87295492e-003
      4.87295492e-003 9.74590983e-003 8.35363753e-003 2.61051171e-002
      1.63592063e-002 4.00278457e-002 4.52488707e-003 3.48068215e-003
      1.56630706e-002 4.87295492e-003 1.77514795e-002 1.35746608e-002
      2.08840938e-003 1.11381831e-002 5.56909153e-003 4.52488707e-003
      5.91715984e-003 6.96136430e-003 3.13261407e-003 6.26522815e-003
      7.30943261e-003 2.29725018e-002 4.52488707e-003 2.54089795e-002
      5.91715984e-003 9.39784199e-003 3.48068215e-003 2.33205706e-002
      6.61329599e-003 1.74034107e-003 1.42707974e-002 5.91715984e-003
      9.04977415e-003 4.52488707e-003 1.94918197e-002 5.56909153e-003
      4.17681877e-003 7.65750092e-003 1.98398884e-002 8.00556876e-003
      5.56909153e-003 2.01879572e-002 1.84476152e-002 1.21823875e-002
      9.39784199e-003 2.05360241e-002 2.78454577e-003 4.17681877e-003
      4.87295492e-003 1.67072751e-002 1.39227288e-003 3.48068215e-003
      1.80995483e-002 2.05360241e-002 6.96136430e-003 1.35746608e-002
      5.56909153e-003 9.04977415e-003 2.40167081e-002 8.35363753e-003
      5.22102322e-003 1.04420464e-002 4.17681877e-003 4.17681877e-003
      9.39784199e-003 5.22102322e-003 1.00939786e-002 4.17681877e-003
      3.82875046e-003 8.35363753e-003 5.56909153e-003 1.28785241e-002
      7.65750092e-003 5.22102322e-003 4.87295492e-003 3.68952304e-002
      8.35363753e-003 1.46188652e-002 3.82875046e-003 1.49669331e-002
      2.43647746e-003 4.17681877e-003 1.39227288e-003 2.78454577e-003
      7.65750092e-003 3.82875046e-003 9.39784199e-003 2.50609126e-002</_>
    <_>
      4.33734944e-003 4.81927721e-003 9.15662665e-003 2.74698790e-002
      9.63855442e-003 7.22891558e-003 7.71084335e-003 0. 1.10843377e-002
      5.78313228e-003 7.71084335e-003 1.15662646e-002 2.16867477e-002
      1.97590366e-002 1.25301201e-002 8.67469888e-003 2.89156614e-003
      1.92771084e-003 2.21686754e-002 1.59036145e-002 6.26506004e-003
      1.83132533e-002 6.26506004e-003 1.25301201e-002 1.44578312e-002
      7.22891558e-003 6.26506004e-003 2.07228921e-002 1.39759034e-002
      1.10843377e-002 1.63855422e-002 1.73493978e-002 1.59036145e-002
      1.01204822e-002 1.59036145e-002 8.19277111e-003 3.85542167e-003
      1.30120479e-002 1.06024100e-002 1.34939756e-002 6.26506004e-003
      5.30120498e-003 4.81927709e-004 9.63855442e-003 4.81927721e-003
      1.44578312e-002 5.30120498e-003 1.20481923e-002 2.40963860e-003
      8.67469888e-003 3.37349391e-003 2.21686754e-002 1.92771084e-003
      2.31325291e-002 9.63855442e-003 1.34939756e-002 9.63855442e-003
      1.92771084e-003 9.15662665e-003 2.21686754e-002 2.84337346e-002
      3.37349391e-003 2.26506032e-002 3.85542167e-003 2.40963860e-003
      5.30120498e-003 5.30120498e-003 1.59036145e-002 1.63855422e-002
      1.63855422e-002 5.78313228e-003 1.15662646e-002 6.74698781e-003
      1.01204822e-002 6.26506004e-003 3.85542167e-003 2.89156614e-003
      4.33734944e-003 1.25301201e-002 1.10843377e-002 4.81927721e-003
      1.59036145e-002 1.59036145e-002 7.71084335e-003 9.63855442e-003
      3.85542167e-003 5.78313228e-003 4.81927709e-004 3.37349391e-003
      6.26506004e-003 8.67469888e-003 1.44578312e-002 6.26506004e-003
      1.92771084e-003 1.25301201e-002 6.26506004e-003 8.67469888e-003
      1.87951811e-002 9.63855442e-003 3.85542167e-003</_>
    <_>
      2.62467191e-002 7.87401572e-003 1.57480314e-002 1.31233595e-002
      9.84251965e-003 1.18110236e-002 6.56167977e-003 5.90551179e-003
      1.04986876e-002 3.01837269e-002 9.18635167e-003 1.44356955e-002
      7.87401572e-003 7.21784774e-003 7.21784774e-003 3.28083988e-003
      1.18110236e-002 9.84251965e-003 1.04986876e-002 1.96850393e-003
      1.83727033e-002 3.28083988e-003 1.11548556e-002 3.93700786e-003
      1.44356955e-002 7.87401572e-003 7.21784774e-003 7.21784774e-003
      3.93700786e-003 1.96850393e-003 5.90551179e-003 8.53018370e-003
      1.11548556e-002 8.53018370e-003 3.93700786e-003 1.04986876e-002
      8.53018370e-003 7.87401572e-003 7.87401572e-003 1.64042003e-002
      7.87401572e-003 1.37795275e-002 9.18635167e-003 7.87401572e-003
      1.96850393e-002 1.96850393e-003 8.53018370e-003 9.84251965e-003
      9.18635167e-003 9.18635167e-003 1.90288723e-002 1.96850393e-002
      1.18110236e-002 7.21784774e-003 2.23097112e-002 1.90288723e-002
      3.08398940e-002 1.18110236e-002 3.93700786e-003 3.28083988e-003
      1.64042003e-002 7.21784774e-003 3.93700786e-003 1.31233595e-002
      9.84251965e-003 7.21784774e-003 1.57480314e-002 2.29658782e-002
      5.90551179e-003 7.21784774e-003 2.62467191e-003 8.53018370e-003
      1.24671916e-002 1.04986876e-002 1.18110236e-002 3.28083988e-003
      9.18635167e-003 1.11548556e-002 7.87401572e-003 8.53018370e-003
      1.57480314e-002 5.90551179e-003 1.04986876e-002 3.93700786e-003
      5.24934381e-003 8.53018370e-003 9.84251965e-003 1.11548556e-002
      1.64042003e-002 6.56167977e-003 1.44356955e-002 8.53018370e-003
      6.56167977e-003 5.24934381e-003 6.56167977e-003 5.90551179e-003
      1.11548556e-002 4.59317584e-003 5.90551179e-003 5.90551179e-003</_>
    <_>
      2.50375574e-003 8.01201817e-003 1.10165253e-002 1.40210316e-002
      1.25187784e-002 1.15172761e-002 6.00901339e-003 5.50826266e-003
      1.50225339e-002 1.40210316e-002 6.00901339e-003 1.00150229e-002
      2.25338005e-002 1.60240363e-002 8.01201817e-003 1.15172761e-002
      9.51427128e-003 1.30195292e-002 1.00150229e-002 1.05157737e-002
      1.70255378e-002 1.40210316e-002 1.05157737e-002 8.01201817e-003
      8.51276889e-003 1.50225339e-002 5.00751147e-003 1.50225339e-002
      9.51427128e-003 1.00150229e-002 1.30195292e-002 1.15172761e-002
      8.51276889e-003 1.15172761e-002 1.65247880e-002 1.05157737e-002
      5.00751147e-003 6.50976459e-003 1.40210316e-002 1.15172761e-002
      5.00751147e-003 3.50525789e-003 1.00150229e-002 8.01201817e-003
      2.50375574e-003 1.10165253e-002 1.70255378e-002 1.50225339e-002
      1.00150227e-003 6.50976459e-003 1.10165253e-002 6.50976459e-003 0.
      9.51427128e-003 1.05157737e-002 1.15172761e-002 9.01352055e-003
      1.20180268e-002 6.50976459e-003 1.45217832e-002 3.50525789e-003
      8.01201817e-003 1.05157737e-002 1.35202808e-002 1.95292942e-002
      2.20330507e-002 1.00150227e-003 6.50976459e-003 1.10165253e-002
      1.30195292e-002 1.00150229e-002 1.15172761e-002 7.51126697e-003
      1.65247880e-002 5.00751147e-003 4.50676028e-003 9.51427128e-003
      7.51126697e-003 1.10165253e-002 9.51427128e-003 4.00600908e-003
      7.01051578e-003 1.10165253e-002 1.35202808e-002 1.35202808e-002
      2.00300454e-003 6.50976459e-003 1.35202808e-002 8.01201817e-003
      7.51126697e-003 3.00450670e-003 1.30195292e-002 4.00600908e-003
      1.10165253e-002 9.51427128e-003 5.00751147e-003 1.20180268e-002
      1.80270411e-002 2.00300459e-002 7.01051578e-003</_>
    <_>
      8.52272753e-003 9.94318165e-003 1.56250000e-002 4.26136376e-003
      9.94318165e-003 1.13636367e-002 1.56250000e-002 4.26136376e-003
      1.56250000e-002 2.41477285e-002 1.84659101e-002 9.94318165e-003
      4.26136376e-003 5.68181835e-003 5.68181835e-003 1.13636367e-002
      8.52272753e-003 4.26136376e-003 7.10227294e-003 5.68181835e-003
      1.13636367e-002 4.26136376e-003 0. 4.26136376e-003 1.27840918e-002
      1.56250000e-002 1.42045459e-002 4.26136376e-003 5.68181835e-003
      1.42045459e-003 8.52272753e-003 2.84090918e-003 1.13636367e-002
      2.84090918e-003 8.52272753e-003 2.55681835e-002 1.42045459e-002
      9.94318165e-003 4.26136376e-003 8.52272753e-003 1.42045459e-003
      2.98295468e-002 1.42045459e-002 2.84090918e-003 7.10227294e-003
      2.84090918e-003 1.98863633e-002 2.84090918e-003 5.68181835e-003
      1.42045459e-003 2.84090918e-002 1.27840918e-002 2.84090918e-003
      5.68181835e-003 1.13636367e-002 3.83522734e-002 1.84659101e-002
      9.94318165e-003 2.84090918e-003 2.84090918e-003 2.84090918e-003
      7.10227294e-003 2.84090918e-003 7.10227294e-003 1.84659101e-002
      7.10227294e-003 2.55681835e-002 1.98863633e-002 7.10227294e-003
      9.94318165e-003 5.68181835e-003 1.13636367e-002 2.41477285e-002
      1.13636367e-002 1.56250000e-002 9.94318165e-003 1.27840918e-002
      4.26136376e-003 5.68181835e-003 9.94318165e-003 1.42045459e-003
      8.52272753e-003 1.70454551e-002 9.94318165e-003 1.70454551e-002
      2.13068184e-002 5.68181835e-003 4.26136376e-003 1.42045459e-003
      1.42045459e-002 1.84659101e-002 1.42045459e-002 2.84090918e-003
      7.10227294e-003 4.26136376e-003 1.27840918e-002 8.52272753e-003
      7.10227294e-003 2.84090918e-003 9.94318165e-003</_>
    <_>
      2.42972840e-002 7.14626024e-003 8.57551210e-003 8.57551210e-003
      5.71700791e-003 4.28775605e-003 2.04859450e-002 1.09575987e-002
      2.09623631e-002 2.19151974e-002 4.28775605e-003 7.14626024e-003
      5.71700791e-003 6.66984264e-003 1.04811816e-002 1.09575987e-002
      1.23868510e-002 3.33492132e-003 4.28775605e-003 7.14626024e-003
      3.00142914e-002 3.33492132e-003 1.66746061e-002 1.09575987e-002
      1.52453547e-002 6.19342551e-003 7.62267737e-003 5.24059078e-003
      9.52834636e-003 6.19342551e-003 5.24059078e-003 6.19342551e-003
      6.66984264e-003 2.28680316e-002 1.90566934e-003 6.66984264e-003
      1.90566934e-003 8.09909496e-003 6.66984264e-003 1.42925205e-002
      9.05192923e-003 2.85850395e-003 1.38161024e-002 6.66984264e-003
      1.42925205e-002 7.62267737e-003 1.04811816e-002 8.09909496e-003
      5.24059078e-003 4.28775605e-003 2.81086229e-002 7.62267737e-003
      5.24059078e-003 2.71557886e-002 1.52453547e-002 2.42972840e-002
      4.52596471e-002 2.19151974e-002 9.52834671e-004 5.71700791e-003
      2.81086229e-002 3.81133868e-003 7.62267737e-003 4.76417318e-003
      1.38161024e-002 1.28632681e-002 1.33396853e-002 1.23868510e-002
      4.28775605e-003 6.19342551e-003 2.14387793e-002 6.19342551e-003
      7.14626024e-003 9.52834636e-003 7.14626024e-003 1.19104329e-002
      9.05192923e-003 4.28775605e-003 4.28775605e-003 3.81133868e-003
      7.14626024e-003 6.66984264e-003 6.19342551e-003 6.19342551e-003
      6.19342551e-003 9.52834636e-003 6.19342551e-003 6.19342551e-003
      1.14340158e-002 1.04811816e-002 1.04811816e-002 9.05192923e-003
      8.57551210e-003 5.24059078e-003 8.09909496e-003 2.38208659e-003
      8.09909496e-003 7.62267737e-003 6.19342551e-003 5.24059078e-003</_>
    <_>
      2.50138957e-002 6.67037256e-003 8.89382977e-003 2.27904394e-002
      1.22290161e-002 1.50083378e-002 6.11450803e-003 1.50083378e-002
      1.44524733e-002 3.89105058e-003 9.44969431e-003 5.55864361e-004
      2.11228449e-002 1.94552522e-002 7.22623663e-003 1.22290161e-002
      3.89105058e-003 1.27848806e-002 2.50138957e-002 1.00055588e-002
      9.44969431e-003 1.38966087e-002 1.66759305e-002 6.11450803e-003
      3.89105058e-003 8.89382977e-003 3.33518628e-003 1.16731515e-002
      5.55864349e-003 1.27848806e-002 1.16731515e-002 9.44969431e-003
      1.05614224e-002 3.05725392e-002 4.44691489e-003 1.27848806e-002
      1.66759314e-003 7.22623663e-003 6.11450803e-003 2.05669813e-002
      7.78210117e-003 2.22345744e-003 4.44691489e-003 6.11450803e-003 0.
      1.27848806e-002 2.22345740e-002 1.00055588e-002 0. 8.89382977e-003
      2.77932175e-003 1.27848806e-002 5.55864361e-004 1.66759305e-002
      3.89105058e-003 7.22623663e-003 1.05614224e-002 6.11450803e-003
      3.00166756e-002 2.00111177e-002 1.94552522e-002 5.55864349e-003
      1.27848806e-002 3.33518628e-003 5.55864349e-003 1.55642023e-002
      1.66759314e-003 7.22623663e-003 6.11450803e-003 1.33407451e-002
      6.67037256e-003 1.05614224e-002 5.00277942e-003 1.61200669e-002
      2.77932175e-003 4.44691489e-003 2.77932175e-003 2.77932175e-003
      1.11172870e-002 9.44969431e-003 1.05614224e-002 1.00055588e-002
      8.89382977e-003 7.22623663e-003 9.44969431e-003 2.77932175e-003
      1.11172872e-003 1.72317959e-002 1.44524733e-002 6.67037256e-003
      1.66759314e-003 1.77876595e-002 5.00277942e-003 8.33796524e-003
      1.27848806e-002 4.44691489e-003 1.33407451e-002 1.94552522e-002
      1.66759305e-002 5.55864349e-003</_>
    <_>
      9.88142379e-003 1.97628466e-003 5.92885399e-003 0. 9.88142332e-004
      1.08695654e-002 9.88142379e-003 2.07509883e-002 1.97628466e-003
      1.61067203e-001 1.97628466e-003 2.96442700e-003 8.89328122e-003
      1.97628466e-003 5.92885399e-003 2.96442700e-003 2.07509883e-002
      1.38339922e-002 2.96442700e-003 3.95256933e-003 5.63241132e-002
      3.95256933e-003 2.17391308e-002 9.88142332e-004 9.88142332e-004
      6.91699609e-003 3.95256933e-003 9.88142332e-004 0. 1.97628466e-003
      9.88142332e-004 1.97628466e-003 5.92885399e-003 5.92885399e-003
      5.92885399e-003 2.96442700e-003 9.88142332e-004 9.88142332e-004
      8.89328122e-003 1.97628466e-003 2.96442700e-003 1.97628466e-003
      1.28458505e-002 0. 7.90513866e-003 1.97628466e-003 1.48221347e-002
      0. 1.97628466e-003 4.94071189e-003 2.76679844e-002 6.91699609e-003
      2.96442700e-003 1.28458505e-002 3.55731249e-002 1.28458505e-002
      5.83003983e-002 9.88142379e-003 9.88142332e-004 5.92885399e-003
      1.18577080e-002 7.90513866e-003 3.95256933e-003 5.92885399e-003
      5.73122539e-002 1.48221347e-002 9.88142379e-003 8.89328122e-003
      3.95256933e-003 4.94071189e-003 3.45849805e-002 2.96442700e-003 0.
      4.94071189e-003 2.37154160e-002 7.90513866e-003 1.18577080e-002 0.
      3.95256933e-003 6.91699609e-003 5.92885399e-003 1.97628466e-003
      3.95256933e-003 6.91699609e-003 6.91699609e-003 1.87747050e-002
      1.97628466e-003 1.77865624e-002 6.91699609e-003 8.89328122e-003
      1.97628466e-003 3.95256933e-003 9.88142332e-004 2.47035585e-002 0.
      3.95256933e-003 3.95256933e-003 1.97628466e-003 9.88142332e-004
      3.95256933e-003</_>
    <_>
      1.44628091e-002 8.26446246e-003 9.29751992e-003 4.13223123e-003 0.
      3.09917331e-003 3.09917331e-003 6.19834661e-003 1.34297516e-002
      6.40495867e-002 1.03305781e-003 4.13223123e-003 4.13223123e-003
      2.06611562e-003 1.13636358e-002 1.44628091e-002 3.20247933e-002
      2.06611562e-003 2.06611562e-003 2.06611562e-003 3.71900797e-002 0.
      2.06611562e-003 6.19834661e-003 2.99586765e-002 6.19834661e-003
      9.29751992e-003 1.03305781e-003 0. 3.09917331e-003 7.23140454e-003
      7.23140454e-003 1.34297516e-002 4.13223123e-003 2.06611562e-003
      1.03305783e-002 1.03305783e-002 4.13223123e-003 2.06611562e-003
      1.34297516e-002 7.23140454e-003 9.29751992e-003 5.16528916e-003
      6.19834661e-003 1.03305783e-002 2.06611562e-003 1.44628091e-002
      3.09917331e-003 2.06611562e-003 2.06611562e-003 2.06611566e-002
      3.09917331e-003 7.23140454e-003 3.09917331e-003 1.65289249e-002
      9.29751992e-003 9.40082595e-002 7.23140454e-003 0. 6.19834661e-003
      2.06611566e-002 7.23140454e-003 4.13223123e-003 2.06611562e-003
      4.75206599e-002 1.34297516e-002 3.09917331e-003 6.19834661e-003
      7.23140454e-003 3.09917331e-003 1.85950398e-002 6.19834661e-003
      4.13223123e-003 5.16528916e-003 2.37603299e-002 1.03305783e-002
      1.75619833e-002 1.03305781e-003 8.26446246e-003 6.19834661e-003
      4.13223123e-003 4.13223123e-003 5.16528916e-003 7.23140454e-003
      2.27272715e-002 3.09917349e-002 6.19834661e-003 6.19834661e-003
      6.19834661e-003 5.16528916e-003 3.09917349e-002 1.54958675e-002
      2.06611562e-003 1.03305783e-002 0. 4.13223123e-003 1.34297516e-002
      1.03305781e-003 6.19834661e-003 2.06611562e-003</_>
    <_>
      7.66550517e-003 7.66550517e-003 1.53310103e-002 7.66550517e-003
      9.75609757e-003 1.46341464e-002 4.87804879e-003 8.36236961e-003
      1.60278734e-002 3.48432064e-002 6.96864072e-003 6.96864072e-003
      1.11498255e-002 1.11498255e-002 1.18466895e-002 5.57491276e-003
      1.88153312e-002 4.18118481e-003 9.75609757e-003 5.57491276e-003
      2.16027871e-002 9.05923359e-003 1.04529615e-002 6.96864072e-003
      1.46341464e-002 1.74216032e-002 8.36236961e-003 5.57491276e-003
      4.18118481e-003 1.11498255e-002 9.05923359e-003 4.18118481e-003
      1.32404175e-002 9.75609757e-003 8.36236961e-003 2.43902430e-002
      5.57491276e-003 8.36236961e-003 1.04529615e-002 1.60278734e-002
      3.48432036e-003 3.48432036e-003 6.27177674e-003 9.05923359e-003
      4.87804879e-003 7.66550517e-003 1.46341464e-002 4.87804879e-003
      4.18118481e-003 7.66550517e-003 1.46341464e-002 1.88153312e-002
      1.39372819e-003 4.87804879e-003 2.85714287e-002 3.06620207e-002
      1.18466895e-002 4.87804879e-003 1.39372819e-003 4.87804879e-003
      1.32404175e-002 4.87804879e-003 7.66550517e-003 2.29965150e-002
      1.04529615e-002 1.32404175e-002 6.27177674e-003 2.16027871e-002
      6.27177674e-003 5.57491276e-003 2.29965150e-002 1.04529615e-002
      4.87804879e-003 6.27177674e-003 8.36236961e-003 6.27177674e-003
      1.46341464e-002 2.09059240e-003 4.87804879e-003 6.27177674e-003
      1.11498255e-002 8.36236961e-003 1.11498255e-002 8.36236961e-003
      1.81184672e-002 8.36236961e-003 1.04529615e-002 3.48432036e-003
      5.57491276e-003 7.66550517e-003 1.25435535e-002 1.39372814e-002
      2.09059240e-003 9.75609757e-003 2.78745638e-003 4.87804879e-003
      1.53310103e-002 1.11498255e-002 2.78745638e-003 6.96864072e-003</_>
    <_>
      1.05900150e-002 1.13464445e-002 2.04236005e-002 3.78214801e-003
      1.51285925e-003 1.43721625e-002 1.36157330e-002 1.81543119e-002
      7.56429601e-003 5.74886501e-002 3.02571850e-003 4.53857798e-003
      1.13464445e-002 5.29500749e-003 8.32072552e-003 1.21028740e-002
      1.36157330e-002 1.81543119e-002 3.02571850e-003 3.02571850e-003
      3.40393335e-002 6.80786651e-003 2.26928890e-002 6.80786651e-003
      8.32072552e-003 1.51285920e-002 5.29500749e-003 3.78214801e-003
      3.78214801e-003 7.56429625e-004 2.26928899e-003 3.02571850e-003
      1.96671709e-002 2.26928890e-002 3.78214801e-003 2.26928890e-002
      3.78214801e-003 7.56429625e-004 9.07715596e-003 1.05900150e-002
      8.32072552e-003 7.56429625e-004 1.81543119e-002 4.53857798e-003
      5.29500749e-003 7.56429625e-004 2.34493185e-002 5.29500749e-003
      7.56429625e-004 6.80786651e-003 1.43721625e-002 7.56429601e-003
      7.56429601e-003 1.51285920e-002 1.21028740e-002 1.81543119e-002
      2.72314660e-002 1.13464445e-002 3.78214801e-003 2.26928899e-003
      3.02571850e-003 7.56429601e-003 8.32072552e-003 8.32072552e-003
      4.91679274e-002 2.26928890e-002 3.78214801e-003 1.36157330e-002
      4.53857798e-003 5.29500749e-003 1.43721625e-002 9.83358547e-003
      9.83358547e-003 4.53857798e-003 1.58850215e-002 8.32072552e-003
      9.07715596e-003 1.51285925e-003 1.51285925e-003 4.53857798e-003
      6.05143700e-003 1.66414510e-002 9.07715596e-003 6.80786651e-003
      9.07715596e-003 1.73978806e-002 2.26928899e-003 1.36157330e-002
      6.80786651e-003 7.56429601e-003 6.80786651e-003 1.51285920e-002 0.
      1.13464445e-002 1.51285925e-003 3.78214801e-003 5.29500749e-003
      3.78214801e-003 2.26928899e-003 8.32072552e-003</_>
    <_>
      1.80952381e-002 1.90476188e-003 1.14285713e-002 1.14285713e-002
      4.76190448e-003 9.52380942e-004 1.33333337e-002 1.71428565e-002
      2.38095243e-002 1.14285713e-002 1.90476188e-003 9.52380896e-003
      1.14285713e-002 1.14285713e-002 3.80952377e-003 4.76190448e-003
      2.76190471e-002 2.85714283e-003 6.66666683e-003 1.23809520e-002
      1.33333337e-002 5.71428565e-003 1.61904767e-002 6.66666683e-003
      1.04761906e-002 9.52380896e-003 5.71428565e-003 7.61904754e-003
      9.52380896e-003 8.57142825e-003 8.57142825e-003 1.33333337e-002
      1.04761906e-002 8.57142825e-003 5.71428565e-003 1.14285713e-002
      4.76190448e-003 4.76190448e-003 1.52380951e-002 9.52380896e-003
      5.71428565e-003 3.80952377e-003 1.52380951e-002 3.80952377e-003
      7.61904754e-003 5.71428565e-003 2.38095243e-002 7.61904754e-003
      9.52380942e-004 2.85714283e-003 2.19047610e-002 1.33333337e-002
      9.52380942e-004 2.09523812e-002 5.14285713e-002 1.71428565e-002
      1.23809520e-002 7.61904754e-003 4.76190448e-003 8.57142825e-003
      9.52380942e-004 1.90476188e-003 6.66666683e-003 9.52380896e-003
      3.42857130e-002 1.80952381e-002 4.76190448e-003 1.23809520e-002
      4.76190448e-003 4.76190448e-003 1.80952381e-002 9.52380896e-003
      1.23809520e-002 7.61904754e-003 1.14285713e-002 8.57142825e-003
      3.80952377e-003 8.57142825e-003 5.71428565e-003 9.52380896e-003
      1.90476188e-003 8.57142825e-003 8.57142825e-003 8.57142825e-003
      1.23809520e-002 1.04761906e-002 1.14285713e-002 0. 7.61904754e-003
      8.57142825e-003 1.14285713e-002 1.71428565e-002 3.80952377e-003
      7.61904754e-003 3.80952377e-003 5.71428565e-003 1.61904767e-002
      1.33333337e-002 1.42857144e-002 6.66666683e-003</_>
    <_>
      1.82546750e-002 1.02404281e-002 6.23330381e-003 8.45948420e-003
      8.45948420e-003 3.56188789e-003 6.23330381e-003 8.45948420e-003
      1.73642039e-002 2.00356189e-002 4.45235986e-003 6.67853979e-003
      5.78806782e-003 5.34283184e-003 6.67853979e-003 9.34995525e-003
      1.11308992e-002 1.69189684e-002 5.78806782e-003 1.78094395e-003
      1.82546750e-002 5.34283184e-003 1.64737310e-002 9.34995525e-003
      1.29118431e-002 4.45235986e-003 7.56901177e-003 8.01424775e-003
      3.56188789e-003 5.34283184e-003 5.34283184e-003 8.90471973e-003
      8.90471973e-003 1.51380235e-002 7.12377578e-003 5.34283184e-003
      9.34995525e-003 4.89759585e-003 4.45235986e-003 8.90471973e-003
      1.15761356e-002 4.89759585e-003 1.15761356e-002 4.89759585e-003
      5.34283184e-003 3.56188789e-003 3.56188789e-003 5.78806782e-003
      4.45235986e-003 7.12377578e-003 2.18165629e-002 1.15761356e-002
      4.45235986e-003 9.34995525e-003 2.53784508e-002 1.29118431e-002
      3.20569910e-002 1.24666076e-002 4.00712388e-003 7.12377578e-003
      8.90471973e-003 6.67853979e-003 6.23330381e-003 3.11665190e-003
      8.90471973e-003 1.82546750e-002 1.51380235e-002 1.15761356e-002
      7.56901177e-003 1.15761356e-002 8.45948420e-003 8.90471973e-003
      6.23330381e-003 7.12377578e-003 1.02404281e-002 1.29118431e-002
      7.56901177e-003 6.23330381e-003 8.90471973e-003 7.12377578e-003
      1.38023160e-002 1.33570796e-003 4.00712388e-003 1.38023160e-002
      2.13713273e-002 1.42475516e-002 1.46927871e-002 4.45235986e-003
      1.02404281e-002 3.11665190e-003 1.78094395e-002 9.79519170e-003
      1.33570796e-002 3.02760471e-002 1.82546750e-002 1.73642039e-002
      2.49332152e-002 8.45948420e-003 1.24666076e-002 9.79519170e-003</_>
    <_>
      1.42309796e-002 9.85221658e-003 1.91570874e-002 1.14942528e-002
      1.03995623e-002 1.20415986e-002 4.92610829e-003 6.02079928e-003
      1.09469071e-002 2.07991246e-002 1.14942528e-002 9.85221658e-003
      1.31362891e-002 1.31362891e-002 8.21018033e-003 8.21018033e-003
      1.25889434e-002 1.25889434e-002 1.03995623e-002 8.75752605e-003
      8.21018033e-003 1.25889434e-002 3.83141777e-003 8.21018033e-003
      1.58730168e-002 1.09469071e-002 1.36836348e-002 9.30487178e-003
      6.02079928e-003 1.20415986e-002 1.09469071e-002 7.11548980e-003
      1.58730168e-002 5.47345355e-003 2.73672678e-003 1.42309796e-002
      1.20415986e-002 7.66283553e-003 1.03995623e-002 1.53256711e-002
      9.30487178e-003 5.47345355e-003 8.75752605e-003 6.56814454e-003
      7.11548980e-003 9.30487178e-003 6.02079928e-003 1.14942528e-002
      6.02079928e-003 8.75752605e-003 1.03995623e-002 1.53256711e-002
      3.83141777e-003 1.25889434e-002 8.75752605e-003 1.42309796e-002
      1.69677064e-002 7.66283553e-003 7.11548980e-003 6.02079928e-003
      9.85221658e-003 6.56814454e-003 9.30487178e-003 6.56814454e-003
      2.13464703e-002 8.21018033e-003 1.20415986e-002 1.80623978e-002
      1.14942528e-002 1.20415986e-002 6.02079928e-003 9.30487178e-003
      8.21018033e-003 9.85221658e-003 8.75752605e-003 7.66283553e-003
      1.14942528e-002 3.83141777e-003 1.25889434e-002 1.36836348e-002
      1.20415986e-002 1.20415986e-002 6.56814454e-003 1.03995623e-002
      7.11548980e-003 1.14942528e-002 9.85221658e-003 8.75752605e-003
      2.73672678e-003 4.37876303e-003 1.31362891e-002 1.14942528e-002
      7.11548980e-003 7.66283553e-003 9.30487178e-003 3.83141777e-003
      6.56814454e-003 1.64203607e-002 1.14942528e-002 8.21018033e-003</_>
    <_>
      4.96524312e-002 1.39026809e-002 4.96524340e-003 4.96524340e-003
      6.95134047e-003 1.98609731e-003 1.48957297e-002 1.19165834e-002
      1.48957297e-002 1.78748760e-002 7.94438925e-003 5.95829170e-003
      1.78748760e-002 9.93048656e-004 6.95134047e-003 5.95829170e-003
      1.39026809e-002 1.09235356e-002 1.98609731e-003 3.97219462e-003
      8.93743802e-003 1.98609731e-003 1.78748760e-002 6.95134047e-003
      8.93743802e-003 4.96524340e-003 5.95829170e-003 3.97219462e-003
      1.98609731e-003 3.97219462e-003 5.95829170e-003 3.97219462e-003
      1.68818273e-002 2.58192644e-002 2.97914585e-003 6.95134047e-003
      3.97219462e-003 4.96524340e-003 1.98609731e-003 9.93048679e-003
      8.93743802e-003 1.98609731e-003 1.88679248e-002 4.96524340e-003
      5.95829170e-003 5.95829170e-003 1.68818273e-002 8.93743802e-003
      2.97914585e-003 8.93743802e-003 3.77358496e-002 1.98609731e-003
      2.97914585e-003 2.28401199e-002 1.68818273e-002 3.97219462e-003
      6.45481646e-002 9.93048679e-003 9.93048656e-004 0. 9.93048623e-002
      3.97219462e-003 2.97914585e-003 9.93048656e-004 2.68123131e-002
      1.98609736e-002 3.97219462e-003 3.97219462e-003 2.97914585e-003
      4.96524340e-003 2.08540224e-002 5.95829170e-003 8.93743802e-003
      8.93743802e-003 3.97219462e-003 6.95134047e-003 9.93048679e-003
      6.95134047e-003 2.97914585e-003 8.93743802e-003 2.97914585e-003
      2.97914585e-003 0. 7.94438925e-003 9.93048679e-003 9.93048656e-004
      5.95829170e-003 1.98609731e-003 2.18470711e-002 4.96524340e-003
      1.19165834e-002 9.93048679e-003 1.39026809e-002 2.97914585e-003
      5.95829170e-003 1.98609731e-003 6.95134047e-003 6.95134047e-003
      3.97219462e-003 7.94438925e-003</_>
    <_>
      3.13725509e-002 6.53594779e-003 9.15032718e-003 1.30718956e-002
      2.61437916e-003 5.22875832e-003 5.22875832e-003 2.22222228e-002
      3.52941193e-002 3.00653595e-002 3.92156886e-003 1.30718958e-003
      3.92156886e-003 1.30718958e-003 3.92156886e-003 6.53594779e-003
      4.57516350e-002 3.00653595e-002 6.53594779e-003 1.30718958e-003
      5.75163402e-002 0. 1.83006544e-002 2.61437916e-003 5.22875832e-003
      7.84313772e-003 5.22875832e-003 5.22875832e-003 3.92156886e-003
      1.30718958e-003 2.61437916e-003 0. 1.04575166e-002 2.09150333e-002
      1.30718958e-003 3.66013087e-002 2.61437916e-003 2.61437916e-003
      5.22875832e-003 7.84313772e-003 1.30718958e-003 2.61437916e-003
      2.09150333e-002 0. 2.61437916e-003 2.61437916e-003 3.92156886e-003
      2.61437916e-003 0. 1.30718958e-003 1.83006544e-002 1.17647061e-002
      1.30718958e-003 3.92156886e-003 1.83006544e-002 4.05228771e-002
      1.43790850e-002 2.74509806e-002 2.61437916e-003 1.30718958e-003
      6.53594779e-003 2.61437916e-003 9.15032718e-003 7.84313772e-003
      3.92156877e-002 1.43790850e-002 7.84313772e-003 2.61437912e-002
      6.53594779e-003 5.22875832e-003 1.43790850e-002 6.53594779e-003
      1.30718958e-003 0. 2.61437916e-003 3.92156886e-003 1.04575166e-002
      1.30718958e-003 2.61437916e-003 3.92156886e-003 0. 2.61437916e-003
      1.56862754e-002 5.22875832e-003 1.69934649e-002 6.53594779e-003
      1.30718958e-003 1.43790850e-002 7.84313772e-003 6.53594779e-003
      6.53594779e-003 1.30718956e-002 1.30718958e-003 6.79738596e-002 0.
      1.30718958e-003 6.53594779e-003 3.92156886e-003 5.22875832e-003
      3.92156886e-003</_>
    <_>
      3.83435562e-002 1.61042940e-002 9.96932480e-003 4.60122712e-003
      5.36809815e-003 7.66871148e-004 5.36809815e-003 1.30368099e-002
      9.20245424e-003 1.61042940e-002 3.83435562e-003 2.45398767e-002
      3.06748459e-003 7.66871148e-004 3.83435562e-003 1.45705519e-002
      2.53067482e-002 1.68711655e-002 3.83435562e-003 1.53374230e-003
      1.45705519e-002 3.06748459e-003 2.53067482e-002 3.06748459e-003
      4.60122712e-003 2.30061356e-003 6.13496918e-003 6.13496918e-003
      7.66871148e-004 4.60122712e-003 1.53374230e-003 8.43558274e-003
      9.96932480e-003 2.22392641e-002 7.66871148e-004 5.36809815e-003
      1.53374225e-002 1.07361963e-002 6.13496918e-003 2.30061337e-002
      1.68711655e-002 3.83435562e-003 1.38036804e-002 1.53374230e-003
      3.83435562e-002 7.66871148e-004 5.36809815e-003 7.66871148e-004
      2.45398767e-002 2.30061356e-003 1.99386496e-002 8.43558274e-003
      2.60736197e-002 5.44478521e-002 2.07055211e-002 3.83435562e-003
      2.37730052e-002 1.38036804e-002 7.66871148e-004 3.83435562e-003
      1.76380370e-002 3.06748459e-003 1.53374230e-003 9.20245424e-003
      1.84049085e-002 9.96932480e-003 3.22085880e-002 6.90184021e-003
      9.96932480e-003 3.83435562e-003 1.30368099e-002 2.30061356e-003
      4.60122712e-003 5.36809815e-003 5.36809815e-003 9.20245424e-003
      1.99386496e-002 3.06748459e-003 6.13496918e-003 8.43558274e-003
      5.36809815e-003 1.53374230e-003 3.83435562e-003 9.20245424e-003
      6.13496918e-003 1.07361963e-002 4.60122712e-003 2.91411038e-002
      1.22699384e-002 5.36809815e-003 3.83435562e-003 4.60122712e-003
      1.53374230e-003 6.13496918e-003 0. 6.90184021e-003 9.96932480e-003
      4.60122712e-003 3.06748459e-003 6.13496918e-003</_>
    <_>
      3.08285169e-002 5.78034669e-003 6.42260769e-003 8.99165124e-003
      4.49582562e-003 5.13808616e-003 1.02761723e-002 1.54142585e-002
      5.13808616e-003 4.23892103e-002 3.21130385e-003 1.92678231e-003
      3.21130385e-003 2.56904308e-003 8.99165124e-003 7.06486870e-003
      1.66987795e-002 8.99165124e-003 5.13808616e-003 2.56904308e-003
      5.45921661e-002 7.06486870e-003 2.18368657e-002 5.78034669e-003
      1.15606934e-002 6.42260769e-003 2.56904308e-003 8.34938977e-003
      5.78034669e-003 3.85356462e-003 9.63391177e-003 4.49582562e-003
      8.34938977e-003 1.73410401e-002 4.49582562e-003 8.99165124e-003
      6.42260769e-003 6.42260769e-003 7.06486870e-003 1.54142585e-002
      4.49582562e-003 2.56904308e-003 9.63391177e-003 6.42260769e-004
      3.85356462e-003 1.92678231e-003 1.54142585e-002 1.92678231e-003
      6.42260769e-004 3.85356462e-003 2.56904308e-002 1.09184328e-002
      3.85356462e-003 2.95439959e-002 1.79833025e-002 1.79833025e-002
      5.71612082e-002 8.34938977e-003 7.70712923e-003 9.63391177e-003
      1.22029549e-002 8.34938977e-003 3.85356462e-003 5.78034669e-003
      3.27553004e-002 1.79833025e-002 4.49582562e-003 1.79833025e-002
      7.70712923e-003 5.13808616e-003 1.54142585e-002 5.78034669e-003
      5.78034669e-003 2.56904308e-003 6.42260769e-003 5.13808616e-003
      1.09184328e-002 1.28452154e-003 4.49582562e-003 7.70712923e-003
      7.70712923e-003 5.13808616e-003 2.56904308e-003 7.70712923e-003
      1.66987795e-002 1.41297374e-002 5.13808616e-003 8.34938977e-003
      5.78034669e-003 8.34938977e-003 1.15606934e-002 8.99165124e-003
      1.28452154e-003 2.18368657e-002 1.92678231e-003 7.06486870e-003
      2.05523446e-002 7.06486870e-003 4.49582562e-003 6.42260769e-003</_>
    <_>
      9.92990658e-003 1.75233632e-002 1.05140181e-002 1.75233632e-002
      8.76168162e-003 9.34579410e-003 2.92056054e-003 4.67289705e-003
      1.63551401e-002 1.86915882e-002 1.51869152e-002 8.17757007e-003
      1.69392526e-002 1.10981306e-002 4.08878503e-003 9.92990658e-003
      1.46028036e-002 5.84112108e-003 9.34579410e-003 1.16822426e-003
      1.98598132e-002 1.40186911e-002 1.10981306e-002 1.05140181e-002
      8.17757007e-003 9.92990658e-003 4.67289705e-003 1.22663546e-002
      6.42523356e-003 7.59345759e-003 1.51869152e-002 7.59345759e-003
      1.34345787e-002 1.22663546e-002 1.16822422e-002 7.00934557e-003
      7.59345759e-003 9.34579410e-003 7.00934557e-003 1.16822422e-002
      6.42523356e-003 6.42523356e-003 7.59345759e-003 9.34579410e-003
      9.34579410e-003 1.16822422e-002 8.76168162e-003 1.34345787e-002
      7.00934557e-003 1.16822422e-002 2.27803737e-002 1.16822422e-002
      7.00934557e-003 6.42523356e-003 1.28504671e-002 2.33644852e-003
      2.04439238e-002 1.46028036e-002 1.05140181e-002 1.51869152e-002
      2.92056054e-003 5.84112108e-003 6.42523356e-003 5.84112108e-003
      1.16822422e-002 1.46028036e-002 6.42523356e-003 1.05140181e-002
      1.34345787e-002 1.05140181e-002 1.16822422e-002 9.92990658e-003
      4.08878503e-003 1.81074757e-002 5.25700906e-003 2.68691573e-002
      1.16822422e-002 5.84112108e-003 1.22663546e-002 7.59345759e-003
      1.16822422e-002 5.84112108e-003 1.22663546e-002 5.25700906e-003
      8.17757007e-003 3.50467279e-003 4.08878503e-003 4.08878503e-003
      5.84112108e-003 5.84112108e-003 7.59345759e-003 7.59345759e-003
      7.00934557e-003 8.17757007e-003 6.42523356e-003 1.51869152e-002
      1.10981306e-002 1.57710277e-002 1.05140181e-002 7.00934557e-003</_>
    <_>
      9.25313961e-003 7.27032404e-003 8.59220140e-003 9.25313961e-003
      1.12359552e-002 1.52015872e-002 6.60938560e-004 6.60938583e-003
      1.52015872e-002 5.94844716e-003 5.28750848e-003 7.27032404e-003
      1.18968943e-002 1.38797099e-002 5.94844716e-003 1.32187717e-002
      5.94844716e-003 1.45406481e-002 1.05750170e-002 4.62656980e-003
      7.27032404e-003 7.27032404e-003 2.64375433e-002 1.38797099e-002
      1.98281556e-003 1.32187717e-002 8.59220140e-003 1.32187717e-002
      4.62656980e-003 2.64375424e-003 9.91407875e-003 7.27032404e-003
      1.45406481e-002 1.32187717e-002 5.28750848e-003 1.78453419e-002
      1.05750170e-002 7.27032404e-003 1.25578325e-002 1.52015872e-002
      3.96563113e-003 1.32187712e-003 6.60938583e-003 1.05750170e-002
      1.05750170e-002 5.28750848e-003 9.25313961e-003 7.93126225e-003
      2.64375424e-003 4.62656980e-003 9.91407875e-003 1.98281575e-002
      6.60938583e-003 2.57766042e-002 1.98281556e-003 1.58625245e-002
      2.04890948e-002 9.91407875e-003 8.59220140e-003 9.25313961e-003
      4.62656980e-003 6.60938583e-003 1.18968943e-002 3.10641117e-002
      1.85062792e-002 1.12359552e-002 2.04890948e-002 1.98281575e-002
      1.71844028e-002 1.05750170e-002 1.71844028e-002 1.05750170e-002
      5.28750848e-003 1.12359552e-002 5.94844716e-003 1.32187717e-002
      9.91407875e-003 1.32187712e-003 9.25313961e-003 1.52015872e-002
      1.32187712e-003 7.93126225e-003 5.94844716e-003 1.52015872e-002
      9.91407875e-003 1.12359552e-002 3.96563113e-003 1.71844028e-002
      3.30469292e-003 8.59220140e-003 6.60938560e-004 1.32187717e-002
      9.91407875e-003 1.05750170e-002 6.60938583e-003 3.30469292e-003
      4.62656980e-003 7.27032404e-003 1.05750170e-002 1.12359552e-002</_>
    <_>
      1.42180100e-002 0. 3.31753567e-002 0. 1.42180100e-002
      9.47867334e-003 0. 1.89573467e-002 0. 1.89573467e-002
      4.73933667e-003 0. 4.73933667e-003 0. 9.47867334e-003
      9.47867334e-003 1.42180100e-002 1.89573467e-002 2.36966833e-002
      4.73933667e-003 1.42180100e-002 1.89573467e-002 2.84360200e-002
      1.42180100e-002 0. 1.42180100e-002 4.73933667e-003 1.42180100e-002
      0. 4.73933667e-003 0. 9.47867334e-003 5.21327034e-002
      4.73933667e-003 0. 0. 0. 0. 4.73933667e-003 1.42180100e-002
      3.31753567e-002 0. 9.47867334e-003 9.47867334e-003 4.73933667e-003
      0. 0. 0. 4.73933667e-003 0. 9.47867334e-003 1.89573467e-002
      4.73933667e-003 5.68720400e-002 4.73933667e-003 2.84360200e-002 0.
      1.42180100e-002 0. 0. 9.47867334e-003 1.42180100e-002
      9.47867334e-003 0. 2.36966833e-002 1.89573467e-002 9.47867334e-003
      2.36966833e-002 1.89573467e-002 4.73933667e-003 9.47867334e-003
      9.47867334e-003 9.47867334e-003 9.47867334e-003 4.73933667e-003
      1.89573467e-002 0. 1.42180100e-002 1.89573467e-002 1.89573467e-002
      1.89573467e-002 1.42180100e-002 9.47867334e-003 0. 9.47867334e-003
      4.73933667e-003 0. 1.42180100e-002 4.73933667e-003 4.73933667e-003
      0. 0. 0. 2.84360200e-002 0. 9.47867334e-003 9.47867334e-003
      4.73933667e-003 4.73933667e-003 1.89573467e-002</_>
    <_>
      1.25313280e-002 1.25313280e-002 2.00501252e-002 7.51879718e-003
      1.00250626e-002 5.01253130e-003 7.51879718e-003 1.00250626e-002
      1.75438598e-002 1.00250626e-002 7.51879718e-003 5.01253130e-003
      2.00501252e-002 1.00250626e-002 5.01253130e-003 3.50877196e-002
      2.25563906e-002 2.50626565e-003 1.00250626e-002 1.75438598e-002
      1.75438598e-002 1.25313280e-002 1.00250626e-002 1.00250626e-002
      2.50626565e-003 7.51879718e-003 5.01253130e-003 1.25313280e-002
      2.50626565e-003 7.51879718e-003 7.51879718e-003 1.00250626e-002
      7.51879718e-003 0. 1.00250626e-002 1.50375944e-002 2.50626565e-003
      2.50626560e-002 7.51879718e-003 1.00250626e-002 1.00250626e-002
      5.01253130e-003 2.50626565e-003 5.01253130e-003 0. 2.50626565e-003
      5.01253130e-003 2.00501252e-002 0. 7.51879718e-003 1.25313280e-002
      1.75438598e-002 7.51879718e-003 1.00250626e-002 7.51879718e-003
      1.00250626e-002 2.50626565e-003 2.00501252e-002 7.51879718e-003
      1.25313280e-002 2.50626565e-003 1.75438598e-002 7.51879718e-003
      2.50626565e-003 1.50375944e-002 1.25313280e-002 7.51879718e-003
      2.50626565e-003 7.51879718e-003 2.25563906e-002 7.51879718e-003 0.
      2.50626565e-003 2.75689214e-002 5.01253130e-003 2.50626565e-003
      2.50626565e-003 1.00250626e-002 2.50626560e-002 1.50375944e-002
      5.01253130e-003 0. 1.50375944e-002 3.25814523e-002 1.75438598e-002
      1.25313280e-002 2.50626565e-003 2.50626565e-003 0. 7.51879718e-003
      2.50626565e-003 2.25563906e-002 1.00250626e-002 5.01253130e-003
      2.50626565e-003 5.01253130e-003 1.50375944e-002 1.25313280e-002
      2.75689214e-002 1.00250626e-002</_>
    <_>
      3.96039616e-003 0. 1.18811885e-002 1.58415847e-002 7.92079233e-003
      3.96039635e-002 0. 1.38613861e-002 3.96039616e-003 3.36633660e-002
      7.92079233e-003 1.98019808e-003 7.92079233e-003 5.94059424e-003
      1.98019817e-002 1.38613861e-002 7.92079233e-003 7.92079233e-003
      5.94059424e-003 1.98019808e-003 1.98019817e-002 5.94059424e-003
      7.92079233e-003 3.96039616e-003 3.96039616e-003 1.58415847e-002
      1.98019808e-003 9.90099087e-003 3.96039616e-003 1.98019808e-003
      1.98019808e-003 3.96039616e-003 7.92079233e-003 9.90099087e-003 0.
      1.18811885e-002 3.96039616e-003 1.18811885e-002 1.78217832e-002
      1.58415847e-002 7.92079233e-003 3.96039616e-003 1.38613861e-002 0.
      7.92079233e-003 1.98019808e-003 1.18811885e-002 1.98019808e-003
      1.98019808e-003 9.90099087e-003 7.92079233e-003 4.35643569e-002
      3.96039616e-003 5.94059424e-003 1.18811885e-002 4.35643569e-002
      1.18811885e-002 7.92079233e-003 7.92079233e-003 9.90099087e-003
      7.92079233e-003 3.96039616e-003 1.18811885e-002 3.96039616e-003
      1.38613861e-002 7.92079233e-003 5.94059424e-003 2.97029708e-002
      1.58415847e-002 7.92079233e-003 1.18811885e-002 3.96039616e-003
      1.98019808e-003 9.90099087e-003 1.38613861e-002 0. 1.78217832e-002
      0. 5.94059424e-003 1.78217832e-002 5.94059424e-003 3.56435664e-002
      9.90099087e-003 1.18811885e-002 1.58415847e-002 9.90099087e-003
      1.98019808e-003 5.94059424e-003 2.37623770e-002 1.18811885e-002
      5.94059424e-003 3.96039616e-003 3.96039616e-003 1.78217832e-002 0.
      1.38613861e-002 1.38613861e-002 1.38613861e-002 7.92079233e-003
      5.94059424e-003</_>
    <_>
      0. 0. 0. 0. 0. 0. 0. 0. 0. 0. 0. 0. 0. 0. 0. 0. 0. 0. 0. 0. 0. 0.
      0. 0. 0. 0. 0. 0. 0. 0. 3.33333343e-001 0. 0. 0. 0.
      3.33333343e-001 0. 0. 0. 0. 0. 0. 0. 0. 0. 0. 0. 0. 0. 0. 0. 0. 0.
      0. 0. 0. 0. 0. 0. 0. 0. 0. 0. 0. 0. 0. 0. 0. 0. 0. 0. 0. 0. 0. 0.
      3.33333343e-001 0. 0. 0. 0. 0. 0. 0. 0. 0. 0. 0. 0. 0. 0. 0. 0. 0.
      0. 0. 0. 0. 0. 0. 0.</_>
    <_>
      9.90098994e-003 2.47524753e-002 1.48514844e-002 0. 4.95049497e-003
      0. 9.90098994e-003 1.48514844e-002 4.95049497e-003 2.97029689e-002
      1.48514844e-002 9.90098994e-003 0. 4.95049497e-003 9.90098994e-003
      4.95049497e-003 4.95049497e-003 4.95049497e-003 0. 4.95049497e-003
      0. 4.95049497e-003 5.44554442e-002 1.98019799e-002 4.95049497e-003
      9.90098994e-003 9.90098994e-003 9.90098994e-003 0. 0.
      4.95049497e-003 0. 2.97029689e-002 9.90098994e-003 1.48514844e-002
      1.98019799e-002 4.95049497e-003 4.95049497e-003 9.90098994e-003
      4.95049497e-003 9.90098994e-003 9.90098994e-003 2.47524753e-002
      9.90098994e-003 1.48514844e-002 9.90098994e-003 4.95049497e-003
      4.95049497e-003 0. 4.95049497e-003 1.98019799e-002 9.90098994e-003
      4.95049497e-003 1.48514844e-002 9.90098994e-003 3.46534662e-002 0.
      1.98019799e-002 0. 4.95049497e-003 2.47524753e-002 0.
      4.95049497e-003 4.95049497e-003 0. 4.95049497e-003 0.
      1.48514844e-002 1.98019799e-002 0. 4.45544533e-002 4.45544533e-002
      1.48514844e-002 4.95049497e-003 3.96039598e-002 9.90098994e-003
      1.48514844e-002 1.48514844e-002 0. 4.95049497e-003 9.90098994e-003
      9.90098994e-003 9.90098994e-003 4.95049497e-003 1.48514844e-002
      1.98019799e-002 0. 0. 4.95049497e-003 0. 0. 4.95049497e-003
      4.95049497e-003 0. 9.90098994e-003 9.90098994e-003 4.95049497e-003
      1.48514844e-002 0. 4.95049497e-003</_>
    <_>
      9.46372282e-003 1.26182968e-002 9.46372282e-003 0. 3.15457419e-003
      9.46372282e-003 1.26182968e-002 3.15457419e-003 1.89274456e-002
      3.47003154e-002 1.57728717e-002 0. 3.15457419e-003 9.46372282e-003
      9.46372282e-003 3.15457419e-003 2.20820196e-002 3.15457419e-003
      6.30914839e-003 3.15457419e-003 2.52365936e-002 6.30914839e-003
      9.46372282e-003 3.15457419e-003 3.47003154e-002 3.15457419e-003
      1.57728717e-002 1.26182968e-002 6.30914839e-003 0. 6.30914839e-003
      3.15457419e-003 3.15457419e-003 6.30914839e-003 0. 6.30914839e-003
      9.46372282e-003 6.30914839e-003 9.46372282e-003 9.46372282e-003
      1.26182968e-002 2.52365936e-002 9.46372282e-003 1.57728717e-002
      2.52365936e-002 6.30914839e-003 2.20820196e-002 0. 0.
      6.30914839e-003 2.20820196e-002 0. 0. 1.57728717e-002
      3.78548913e-002 6.30914839e-003 5.67823350e-002 3.15457419e-003 0.
      0. 3.15457419e-003 1.57728717e-002 3.15457419e-003 3.15457419e-003
      2.20820196e-002 3.15457419e-003 9.46372282e-003 3.15457419e-003
      9.46372282e-003 1.26182968e-002 3.15457419e-003 9.46372282e-003
      2.20820196e-002 1.26182968e-002 2.52365936e-002 9.46372282e-003
      9.46372282e-003 9.46372282e-003 6.30914839e-003 0. 9.46372282e-003
      3.15457419e-003 3.15457419e-003 1.89274456e-002 6.30914839e-003
      1.89274456e-002 3.15457419e-003 3.15457419e-003 6.30914839e-003
      1.57728717e-002 2.83911675e-002 1.26182968e-002 0. 3.15457419e-003
      0. 9.46372282e-003 3.15457419e-003 0. 2.52365936e-002
      6.30914839e-003</_>
    <_>
      0. 0. 0. 5.55555560e-002 5.55555560e-002 5.55555560e-002 0. 0. 0.
      0. 0. 1.11111112e-001 0. 5.55555560e-002 0. 0. 0. 0. 0. 0. 0. 0.
      0. 0. 0. 0. 0. 0. 0. 0. 5.55555560e-002 0. 0. 5.55555560e-002 0.
      0. 0. 0. 0. 1.11111112e-001 0. 0. 0. 0. 0. 0. 0. 0. 0. 0. 0.
      1.11111112e-001 0. 1.11111112e-001 0. 0. 0. 0. 0. 0. 0. 0. 0. 0.
      0. 0. 0. 0. 0. 0. 0. 0. 0. 0. 0. 0. 0. 0. 0. 0. 0. 1.11111112e-001
      5.55555560e-002 0. 0. 0. 0. 0. 0. 0. 0. 0. 0. 0. 0. 0. 0.
      5.55555560e-002 0. 0.</_>
    <_>
      0. 7.26392306e-003 2.17917692e-002 1.69491526e-002 9.68523044e-003
      9.68523044e-003 9.68523044e-003 7.26392306e-003 1.93704609e-002
      1.21065378e-002 2.42130761e-003 9.68523044e-003 1.93704609e-002
      2.42130761e-003 1.45278461e-002 2.42130756e-002 7.26392306e-003 0.
      0. 2.42130761e-003 2.90556923e-002 7.26392306e-003 4.84261522e-003
      1.45278461e-002 1.69491526e-002 1.45278461e-002 2.42130761e-003
      2.42130761e-003 2.42130761e-003 4.84261522e-003 9.68523044e-003
      2.42130761e-003 4.84261522e-003 4.84261522e-003 0. 9.68523044e-003
      9.68523044e-003 7.26392306e-003 7.26392306e-003 9.68523044e-003
      9.68523044e-003 7.26392306e-003 1.93704609e-002 1.45278461e-002 0.
      9.68523044e-003 1.69491526e-002 0. 2.42130761e-003 2.42130761e-003
      1.21065378e-002 1.93704609e-002 0. 2.42130761e-003 2.42130761e-003
      3.87409218e-002 4.84261522e-003 3.63196135e-002 2.42130761e-003
      1.21065378e-002 0. 1.45278461e-002 9.68523044e-003 1.69491526e-002
      3.14770006e-002 1.93704609e-002 1.69491526e-002 3.14770006e-002
      9.68523044e-003 1.21065378e-002 7.26392306e-003 7.26392306e-003
      4.84261522e-003 7.26392306e-003 2.17917692e-002 7.26392306e-003
      1.21065378e-002 7.26392306e-003 0. 7.26392306e-003 7.26392306e-003
      1.45278461e-002 1.93704609e-002 9.68523044e-003 1.69491526e-002
      1.69491526e-002 2.42130761e-003 2.42130761e-003 2.42130761e-003
      1.21065378e-002 4.84261522e-003 1.93704609e-002 0. 2.66343839e-002
      0. 2.42130761e-003 1.21065378e-002 2.42130761e-003 7.26392306e-003
      2.42130761e-003</_>
    <_>
      1.46627566e-002 2.05278583e-002 2.93255132e-003 0. 0.
      2.93255132e-003 2.93255132e-003 8.79765395e-003 1.17302053e-002
      5.86510263e-002 2.93255132e-003 8.79765395e-003 2.93255132e-003 0.
      2.93255132e-003 1.46627566e-002 6.74486831e-002 2.93255132e-003
      2.93255132e-003 0. 2.05278583e-002 0. 1.17302053e-002
      5.86510263e-003 1.75953079e-002 5.86510263e-003 8.79765395e-003 0.
      0. 0. 2.93255132e-003 2.93255132e-003 5.86510263e-003
      1.75953079e-002 0. 5.86510263e-003 8.79765395e-003 0.
      5.86510263e-003 5.86510263e-003 8.79765395e-003 1.17302053e-002
      2.34604105e-002 2.93255132e-003 2.63929628e-002 0. 2.93255132e-002
      0. 8.79765395e-003 2.93255132e-003 2.63929628e-002 5.86510263e-003
      2.93255132e-003 8.79765395e-003 2.93255132e-002 1.46627566e-002
      8.21114331e-002 8.79765395e-003 0. 2.93255132e-003 1.17302053e-002
      0. 0. 8.79765395e-003 3.22580636e-002 1.46627566e-002
      3.51906158e-002 1.75953079e-002 0. 0. 8.79765395e-003
      1.17302053e-002 8.79765395e-003 2.93255132e-003 1.46627566e-002
      1.46627566e-002 2.34604105e-002 0. 2.93255132e-003 1.17302053e-002
      5.86510263e-003 0. 2.93255132e-003 1.17302053e-002 1.17302053e-002
      1.17302053e-002 5.86510263e-003 0. 2.63929628e-002 5.86510263e-003
      1.75953079e-002 5.86510263e-003 0. 2.93255132e-003 0.
      2.93255132e-003 8.79765395e-003 2.93255132e-003 2.93255132e-003
      2.93255132e-003</_>
    <_>
      0. 1.36363637e-002 9.09090880e-003 0. 0. 0. 4.54545440e-003
      2.72727273e-002 9.09090880e-003 0. 0. 4.54545440e-003
      4.54545440e-003 4.54545440e-003 9.09090880e-003 2.72727273e-002
      1.81818176e-002 4.99999970e-002 0. 9.09090880e-003 4.54545431e-002
      0. 3.63636352e-002 0. 4.54545440e-003 4.54545440e-003
      1.81818176e-002 0. 0. 4.54545440e-003 0. 4.54545440e-003 0.
      2.72727273e-002 0. 0. 0. 2.27272715e-002 9.09090880e-003 0.
      1.36363637e-002 0. 0. 9.09090880e-003 0. 4.54545440e-003 0.
      4.54545440e-003 4.54545440e-003 4.54545440e-003 1.81818176e-002
      4.54545440e-003 0. 9.09090880e-003 0. 4.54545440e-003 0.
      1.81818176e-002 0. 4.54545440e-003 1.81818176e-002 0.
      9.09090880e-003 0. 7.27272704e-002 2.72727273e-002 0.
      9.09090880e-003 4.54545440e-003 4.54545440e-003 4.09090891e-002 0.
      0. 1.36363637e-002 4.54545440e-003 1.36363637e-002 0.
      4.54545440e-003 1.81818176e-002 4.54545440e-003 4.54545440e-003 0.
      4.54545440e-003 1.81818176e-002 1.81818176e-002 9.09090880e-003
      4.54545440e-003 4.99999970e-002 9.09090880e-003 9.09090880e-003 0.
      1.81818176e-002 0. 7.72727281e-002 4.54545440e-003 1.36363637e-002
      2.27272715e-002 0. 0. 2.27272715e-002</_>
    <_>
      0. 4.34782617e-002 0. 0. 0. 0. 0. 0. 0. 0. 0. 0. 4.34782617e-002
      0. 0. 0. 0. 0. 0. 0. 0. 4.34782617e-002 0. 8.69565234e-002 0.
      4.34782617e-002 0. 0. 0. 0. 4.34782617e-002 0. 8.69565234e-002 0.
      0. 0. 0. 8.69565234e-002 0. 0. 8.69565234e-002 0. 0. 0. 0.
      4.34782617e-002 0. 0. 0. 4.34782617e-002 0. 0. 0. 4.34782617e-002
      0. 0. 0. 0. 0. 0. 0. 1.30434781e-001 0. 0. 0. 0. 0. 0. 0. 0. 0. 0.
      4.34782617e-002 0. 0. 4.34782617e-002 0. 0. 0. 0. 0. 0. 0. 0. 0.
      0. 0. 4.34782617e-002 0. 0. 4.34782617e-002 0. 0. 0. 0. 0. 0. 0.
      0. 0.</_>
    <_>
      0. 1.78571437e-002 8.92857183e-003 0. 1.78571437e-002
      8.92857183e-003 0. 1.33928582e-002 1.78571437e-002 1.78571437e-002
      0. 4.46428591e-003 8.92857183e-003 8.92857183e-003 1.33928582e-002
      1.33928582e-002 1.33928582e-002 1.33928582e-002 2.23214291e-002
      4.46428591e-003 3.12500000e-002 4.46428591e-003 4.46428591e-003
      1.33928582e-002 0. 2.67857164e-002 4.46428591e-003 1.78571437e-002
      8.92857183e-003 8.92857183e-003 4.46428591e-003 4.46428591e-003
      1.33928582e-002 1.78571437e-002 8.92857183e-003 1.78571437e-002
      8.92857183e-003 4.46428591e-003 4.46428591e-003 2.67857164e-002
      8.92857183e-003 0. 1.33928582e-002 1.33928582e-002 4.46428591e-003
      4.46428591e-003 4.46428591e-003 4.46428591e-003 0. 0.
      1.78571437e-002 4.46428591e-003 4.46428591e-003 8.92857183e-003
      8.92857183e-003 2.67857164e-002 0. 4.46428582e-002 4.46428591e-003
      4.46428591e-003 4.46428591e-003 0. 0. 4.46428591e-003
      3.12500000e-002 1.78571437e-002 1.33928582e-002 4.46428591e-003
      8.92857183e-003 1.78571437e-002 3.12500000e-002 4.46428591e-003 0.
      4.46428591e-003 8.92857183e-003 4.46428591e-003 8.92857183e-003 0.
      8.92857183e-003 3.57142873e-002 0. 0. 8.92857183e-003
      2.23214291e-002 1.33928582e-002 2.23214291e-002 0. 2.67857164e-002
      8.92857183e-003 8.92857183e-003 0. 4.46428591e-003 4.46428591e-003
      8.92857183e-003 0. 8.92857183e-003 4.46428591e-003 8.92857183e-003
      8.92857183e-003 1.33928582e-002</_>
    <_>
      0. 4.19287197e-003 2.93501038e-002 2.51572318e-002 2.09643599e-003
      6.28930796e-003 6.28930796e-003 6.28930796e-003 1.67714879e-002
      1.25786159e-002 8.38574395e-003 8.38574395e-003 2.30607949e-002
      2.09643599e-002 1.04821799e-002 8.38574395e-003 8.38574395e-003
      1.25786159e-002 1.46750519e-002 8.38574395e-003 1.67714879e-002
      8.38574395e-003 4.19287197e-003 8.38574395e-003 2.09643599e-003
      4.19287197e-003 4.19287197e-003 1.04821799e-002 4.19287197e-003
      2.09643599e-003 8.38574395e-003 1.25786159e-002 3.14465389e-002
      1.25786159e-002 6.28930796e-003 2.09643599e-003 4.19287197e-003
      1.04821799e-002 8.38574395e-003 1.04821799e-002 1.04821799e-002
      2.09643599e-003 3.14465389e-002 6.28930796e-003 4.19287197e-003
      1.46750519e-002 0. 8.38574395e-003 4.19287197e-003 4.19287197e-003
      2.30607949e-002 2.93501038e-002 2.09643599e-003 0. 2.09643599e-003
      1.67714879e-002 0. 1.88679248e-002 1.04821799e-002 1.46750519e-002
      0. 8.38574395e-003 6.28930796e-003 1.04821799e-002 3.77358496e-002
      1.46750519e-002 0. 3.56394127e-002 1.67714879e-002 4.19287197e-003
      1.25786159e-002 8.38574395e-003 8.38574395e-003 4.19287197e-003
      6.28930796e-003 8.38574395e-003 6.28930796e-003 0. 2.09643599e-003
      1.25786159e-002 4.19287197e-003 2.30607949e-002 1.04821799e-002
      2.09643599e-003 8.38574395e-003 4.19287197e-003 1.04821799e-002
      1.67714879e-002 6.28930796e-003 6.28930796e-003 2.09643599e-003
      4.19287197e-003 4.19287197e-003 1.25786159e-002 1.04821799e-002
      1.04821799e-002 2.09643599e-002 1.67714879e-002 8.38574395e-003
      6.28930796e-003</_>
    <_>
      0. 1.75438598e-002 2.63157897e-002 0. 8.77192989e-003 0.
      8.77192989e-003 8.77192989e-003 8.77192989e-003 8.77192989e-003
      8.77192989e-003 8.77192989e-003 2.63157897e-002 0. 8.77192989e-003
      1.75438598e-002 0. 1.75438598e-002 0. 8.77192989e-003
      8.77192989e-003 0. 0. 1.75438598e-002 0. 8.77192989e-003
      8.77192989e-003 8.77192989e-003 1.75438598e-002 0. 0. 0.
      8.77192989e-003 0. 1.75438598e-002 3.50877196e-002 8.77192989e-003
      8.77192989e-003 8.77192989e-003 8.77192989e-003 1.75438598e-002 0.
      8.77192989e-002 0. 0. 0. 8.77192989e-003 0. 0. 8.77192989e-003
      2.63157897e-002 0. 8.77192989e-003 0. 0. 0. 0. 4.38596494e-002
      2.63157897e-002 8.77192989e-003 0. 0. 8.77192989e-003
      8.77192989e-003 0. 2.63157897e-002 0. 0. 1.75438598e-002
      1.75438598e-002 1.75438598e-002 0. 0. 8.77192989e-003
      2.63157897e-002 0. 2.63157897e-002 0. 2.63157897e-002 0. 0.
      8.77192989e-003 0. 0. 0. 1.75438598e-002 1.75438598e-002
      3.50877196e-002 3.50877196e-002 2.63157897e-002 8.77192989e-003 0.
      1.75438598e-002 0. 8.77192989e-003 0. 0. 0. 0. 5.26315793e-002</_>
    <_>
      5.51724155e-003 9.65517294e-003 2.34482773e-002 0. 5.51724155e-003
      4.13793139e-003 6.89655170e-003 1.93103459e-002 8.27586278e-003
      4.27586213e-002 5.51724155e-003 1.65517256e-002 4.13793139e-003
      1.37931039e-003 1.24137932e-002 1.51724145e-002 2.89655179e-002
      6.89655170e-003 2.75862077e-003 4.13793139e-003 1.93103459e-002
      4.13793139e-003 9.65517294e-003 6.89655170e-003 6.89655170e-003
      1.51724145e-002 8.27586278e-003 5.51724155e-003 2.75862077e-003
      2.75862077e-003 2.75862077e-003 1.37931039e-003 2.06896551e-002
      8.27586278e-003 1.10344831e-002 1.37931034e-002 4.13793139e-003
      8.27586278e-003 6.89655170e-003 1.65517256e-002 9.65517294e-003
      2.75862077e-003 1.93103459e-002 2.75862077e-003 1.24137932e-002
      4.13793139e-003 2.62068976e-002 5.51724155e-003 2.75862077e-003
      2.75862077e-003 3.03448290e-002 8.27586278e-003 1.37931039e-003
      2.75862068e-002 2.48275865e-002 1.93103459e-002 1.10344831e-002
      5.51724155e-003 0. 2.75862077e-003 1.37931039e-003 6.89655170e-003
      2.75862077e-003 1.51724145e-002 3.17241400e-002 1.24137932e-002
      4.13793139e-003 2.06896551e-002 1.24137932e-002 2.75862077e-003
      1.10344831e-002 1.93103459e-002 1.24137932e-002 1.24137932e-002
      1.37931034e-002 1.10344831e-002 1.65517256e-002 6.89655170e-003
      9.65517294e-003 5.51724155e-003 9.65517294e-003 4.13793139e-003
      1.65517256e-002 1.10344831e-002 4.13793139e-003 8.27586278e-003
      1.51724145e-002 8.27586278e-003 1.79310348e-002 6.89655170e-003
      8.27586278e-003 9.65517294e-003 0. 8.27586278e-003 0.
      5.51724155e-003 1.37931039e-003 5.51724155e-003 5.51724155e-003
      6.89655170e-003</_>
    <_>
      0. 0. 0. 0. 0. 0. 0. 0. 0. 0. 0. 0. 0. 0. 0. 0. 0. 0. 0. 0. 0. 0.
      0. 0. 0. 0. 0. 0. 0. 2.50000000e-001 0. 0. 0. 0. 0. 0. 0.
      2.50000000e-001 0. 2.50000000e-001 0. 0. 0. 0. 0. 0. 0.
      2.50000000e-001 0. 0. 0. 0. 0. 0. 0. 0. 0. 0. 0. 0. 0. 0. 0. 0. 0.
      0. 0. 0. 0. 0. 0. 0. 0. 0. 0. 0. 0. 0. 0. 0. 0. 0. 0. 0. 0. 0. 0.
      0. 0. 0. 0. 0. 0. 0. 0. 0. 0. 0. 0. 0.</_>
    <_>
      4.71698120e-003 4.71698120e-003 1.41509436e-002 9.43396240e-003 0.
      4.71698120e-003 3.30188684e-002 1.41509436e-002 2.35849060e-002
      2.83018872e-002 0. 4.71698120e-003 1.41509436e-002 0. 0.
      1.41509436e-002 1.41509436e-002 4.71698120e-003 4.71698120e-003 0.
      3.30188684e-002 9.43396240e-003 7.54716992e-002 0. 4.71698120e-003
      9.43396240e-003 1.88679248e-002 1.88679248e-002 0. 0. 0.
      9.43396240e-003 4.71698120e-003 1.88679248e-002 4.71698120e-003
      9.43396240e-003 0. 4.71698120e-003 0. 1.88679248e-002
      2.35849060e-002 4.71698120e-003 4.71698120e-003 4.71698120e-003 0.
      0. 0. 4.71698120e-003 1.88679248e-002 9.43396240e-003
      2.35849060e-002 0. 0. 2.83018872e-002 1.88679248e-002
      9.43396240e-003 4.71698120e-003 9.43396240e-003 0. 0.
      3.77358496e-002 0. 4.71698120e-003 4.71698120e-003 1.88679248e-002
      1.41509436e-002 4.71698120e-003 0. 9.43396240e-003 4.71698120e-003
      3.30188684e-002 9.43396240e-003 1.88679248e-002 9.43396240e-003
      1.88679248e-002 4.71698120e-003 9.43396240e-003 4.71698120e-003 0.
      9.43396240e-003 4.71698120e-003 0. 0. 1.41509436e-002
      4.71698120e-003 9.43396240e-003 0. 3.77358496e-002 4.24528308e-002
      0. 1.41509436e-002 1.88679248e-002 9.43396240e-003 4.71698120e-003
      0. 0. 9.43396240e-003 0. 0. 1.41509436e-002</_>
    <_>
      1.67224072e-002 1.33779263e-002 6.68896316e-003 0. 3.34448158e-003
      0. 2.00668890e-002 3.34448158e-003 5.01672253e-002 2.00668890e-002
      0. 6.68896316e-003 3.34448158e-003 0. 1.00334445e-002
      1.00334445e-002 2.34113708e-002 1.00334445e-002 6.68896316e-003 0.
      2.67558526e-002 0. 2.67558526e-002 3.01003344e-002 2.67558526e-002
      1.33779263e-002 3.34448158e-003 3.34448158e-003 0. 0. 0. 0.
      6.68896316e-003 6.68896316e-003 6.68896316e-003 4.01337780e-002
      1.00334445e-002 1.00334445e-002 1.00334445e-002 1.33779263e-002
      6.68896316e-003 1.00334445e-002 3.34448158e-003 0. 3.34448158e-003
      3.34448158e-003 2.34113708e-002 1.33779263e-002 1.00334445e-002
      1.00334445e-002 3.01003344e-002 0. 3.34448158e-003 3.34448158e-003
      5.01672253e-002 1.00334445e-002 2.00668890e-002 1.33779263e-002 0.
      1.00334445e-002 0. 1.00334445e-002 0. 3.34448158e-003
      5.01672253e-002 2.00668890e-002 2.00668890e-002 0. 3.34448158e-003
      3.34448158e-003 1.33779263e-002 1.00334445e-002 0. 6.68896316e-003
      6.68896316e-003 6.68896316e-003 6.68896316e-003 1.33779263e-002 0.
      3.34448158e-003 2.67558526e-002 3.34448158e-003 0. 6.68896316e-003
      1.33779263e-002 3.34448158e-003 3.34448158e-003 0. 2.00668890e-002
      6.68896316e-003 2.00668890e-002 1.33779263e-002 0. 6.68896316e-003
      3.34448158e-003 0. 1.67224072e-002 3.34448158e-003 3.34448158e-003
      1.00334445e-002</_>
    <_>
      0. 9.95024852e-003 4.97512426e-003 1.99004970e-002 2.98507456e-002
      0. 0. 0. 9.95024852e-003 0. 4.97512426e-003 0. 1.99004970e-002
      3.98009941e-002 2.98507456e-002 1.99004970e-002 0. 0.
      1.99004970e-002 1.49253728e-002 4.97512426e-003 2.48756222e-002 0.
      4.97512426e-003 0. 4.97512426e-003 0. 3.48258689e-002
      1.49253728e-002 2.48756222e-002 1.49253728e-002 1.99004970e-002
      4.97512426e-003 4.97512426e-003 0. 0. 4.97512426e-003
      9.95024852e-003 4.97512426e-003 9.95024852e-003 9.95024852e-003 0.
      0. 9.95024852e-003 0. 1.99004970e-002 0. 4.97512426e-003 0.
      4.97512426e-003 0. 0. 0. 0. 0. 0. 0. 0. 5.47263660e-002
      4.97512445e-002 0. 9.95024852e-003 1.49253728e-002 1.49253728e-002
      0. 9.95024852e-003 4.97512426e-003 9.95024852e-003 4.97512426e-003
      1.99004970e-002 9.95024852e-003 4.97512426e-003 4.97512426e-003
      4.97512445e-002 1.49253728e-002 0. 0. 0. 1.49253728e-002
      9.95024852e-003 0. 4.97512426e-003 1.99004970e-002 1.49253728e-002
      3.48258689e-002 0. 4.97512426e-003 4.97512426e-003 0. 0. 0. 0.
      2.48756222e-002 0. 4.47761193e-002 0. 9.95024852e-003
      3.48258689e-002 2.48756222e-002 9.95024852e-003</_>
    <_>
      1.50829563e-002 1.35746608e-002 1.96078438e-002 3.01659130e-003
      4.52488707e-003 1.05580697e-002 1.96078438e-002 3.92156877e-002
      1.05580697e-002 6.93816021e-002 0. 1.50829565e-003 0.
      1.50829565e-003 7.54147815e-003 4.52488707e-003 4.52488707e-003
      3.01659130e-003 3.01659130e-003 0. 1.96078438e-002 3.01659130e-003
      1.96078438e-002 9.04977415e-003 1.05580697e-002 1.65912528e-002
      1.20663652e-002 1.50829565e-003 3.01659130e-003 0. 1.50829565e-003
      1.50829565e-003 1.35746608e-002 2.11161394e-002 0. 4.52488707e-003
      6.03318261e-003 0. 1.05580697e-002 6.03318261e-003 1.50829565e-003
      7.54147815e-003 1.96078438e-002 1.50829565e-003 6.03318261e-003 0.
      1.80995483e-002 0. 4.52488707e-003 1.50829565e-003 6.03318261e-003
      7.54147815e-003 6.03318261e-003 2.41327304e-002 1.65912528e-002
      1.50829563e-002 4.82654609e-002 2.86576170e-002 0. 6.03318261e-003
      7.84313753e-002 1.50829565e-003 1.50829565e-003 1.50829565e-003
      1.50829563e-002 1.50829563e-002 1.65912528e-002 1.05580697e-002 0.
      6.03318261e-003 2.26244349e-002 7.54147815e-003 7.54147815e-003
      1.50829565e-003 1.20663652e-002 7.54147815e-003 1.65912528e-002 0.
      3.01659130e-003 4.52488707e-003 6.03318261e-003 7.54147815e-003
      6.03318261e-003 4.52488707e-003 4.52488707e-003 1.65912528e-002
      3.01659130e-003 9.04977415e-003 9.04977415e-003 1.50829563e-002
      1.50829563e-002 1.20663652e-002 0. 3.46908011e-002 0.
      3.01659130e-003 1.50829563e-002 0. 0. 0.</_>
    <_>
      0. 3.43642617e-003 1.71821304e-002 6.87285233e-003 1.03092790e-002
      1.71821304e-002 0. 6.87285233e-003 3.43642617e-003 4.81099673e-002
      0. 0. 1.37457047e-002 2.06185579e-002 2.40549836e-002
      2.06185579e-002 6.87285233e-003 1.37457047e-002 1.03092790e-002 0.
      3.78006883e-002 0. 1.03092790e-002 3.43642617e-003 0.
      6.87285233e-003 0. 2.06185579e-002 3.43642617e-003 0. 0.
      3.43642617e-003 1.37457047e-002 6.87285233e-003 6.87285233e-003
      1.03092790e-002 0. 3.43642617e-003 6.87285233e-003 1.03092790e-002
      3.43642617e-003 0. 3.43642617e-003 0. 0. 0. 3.43642617e-003 0. 0.
      3.43642617e-003 3.78006883e-002 3.43642607e-002 0. 1.37457047e-002
      0. 5.15463911e-002 0. 1.37457047e-002 0. 0. 3.43642617e-003
      3.43642617e-003 1.37457047e-002 3.43642607e-002 2.06185579e-002
      4.12371159e-002 3.43642617e-003 5.15463911e-002 6.87285233e-003
      1.03092790e-002 1.03092790e-002 1.37457047e-002 6.87285233e-003
      1.37457047e-002 3.43642617e-003 0. 1.03092790e-002 1.03092790e-002
      6.87285233e-003 3.43642617e-003 3.43642617e-003 2.06185579e-002
      2.06185579e-002 6.87285233e-003 1.03092790e-002 2.74914093e-002
      6.87285233e-003 1.03092790e-002 1.37457047e-002 6.87285233e-003 0.
      1.37457047e-002 6.87285233e-003 2.06185579e-002 0. 3.43642617e-003
      6.87285233e-003 1.03092790e-002 1.03092790e-002 0.</_>
    <_>
      1.24223605e-002 6.21118024e-003 6.21118024e-003 0. 6.21118024e-003
      0. 0. 3.72670814e-002 1.24223605e-002 4.34782617e-002
      6.21118024e-003 0. 6.21118024e-003 6.21118024e-003 1.24223605e-002
      1.86335407e-002 1.24223605e-002 6.21118024e-003 0. 6.21118024e-003
      4.96894419e-002 0. 4.34782617e-002 6.21118024e-003 6.21118024e-003
      0. 1.86335407e-002 6.21118024e-003 0. 6.21118024e-003
      1.24223605e-002 0. 1.24223605e-002 1.86335407e-002 0.
      6.21118024e-003 0. 0. 0. 1.86335407e-002 0. 0. 0. 0.
      1.86335407e-002 0. 1.24223605e-002 0. 0. 6.21118024e-003
      3.72670814e-002 0. 6.21118024e-003 1.24223605e-002 6.21118024e-002
      1.86335407e-002 6.21118024e-003 1.86335407e-002 1.24223605e-002
      1.24223605e-002 0. 6.21118024e-003 0. 0. 1.86335407e-002
      3.72670814e-002 2.48447210e-002 6.21118024e-003 6.21118024e-003 0.
      1.86335407e-002 0. 0. 1.24223605e-002 6.21118024e-003
      1.86335407e-002 0. 1.24223605e-002 0. 1.24223605e-002 0.
      1.24223605e-002 0. 3.10559012e-002 0. 6.21118024e-003
      6.21118024e-003 2.48447210e-002 0. 6.21118024e-003 6.21118024e-003
      1.86335407e-002 6.21118024e-003 3.72670814e-002 6.21118024e-003 0.
      0. 6.21118024e-003 1.86335407e-002 6.21118024e-003</_>
    <_>
      2.52659563e-002 6.64893584e-003 2.65957438e-003 2.65957438e-003
      5.31914877e-003 1.32978719e-003 5.31914877e-003 1.86170209e-002
      3.98936169e-003 8.24468061e-002 6.64893584e-003 3.98936169e-003 0.
      1.32978719e-003 2.65957438e-003 0. 2.65957434e-002 1.46276588e-002
      5.31914877e-003 3.98936169e-003 3.59042548e-002 0. 1.19680846e-002
      2.65957438e-003 1.72872338e-002 5.31914877e-003 1.46276588e-002
      3.98936169e-003 0. 3.98936169e-003 0. 1.32978719e-003
      1.19680846e-002 1.59574468e-002 2.65957438e-003 5.31914877e-003
      9.30851046e-003 2.65957438e-003 5.31914877e-003 1.32978717e-002
      7.97872338e-003 5.31914877e-003 2.65957434e-002 5.31914877e-003
      1.06382975e-002 0. 1.06382975e-002 2.65957438e-003 1.32978719e-003
      1.32978719e-003 1.46276588e-002 9.30851046e-003 9.30851046e-003
      2.12765951e-002 1.46276588e-002 5.31914877e-003 5.98404221e-002
      1.59574468e-002 0. 5.31914877e-003 2.65957434e-002 3.98936169e-003
      5.31914877e-003 0. 5.98404221e-002 3.32446806e-002 1.19680846e-002
      1.19680846e-002 2.65957438e-003 6.64893584e-003 1.59574468e-002
      1.19680846e-002 1.19680846e-002 3.98936169e-003 9.30851046e-003
      1.19680846e-002 1.32978717e-002 3.98936169e-003 3.98936169e-003
      6.64893584e-003 1.59574468e-002 2.65957438e-003 5.31914877e-003
      1.46276588e-002 1.19680846e-002 9.30851046e-003 2.65957438e-003
      6.64893584e-003 1.86170209e-002 1.32978719e-003 1.19680846e-002
      6.64893584e-003 1.32978719e-003 7.97872338e-003 0. 5.31914877e-003
      6.64893584e-003 2.65957438e-003 2.65957438e-003 0.</_>
    <_>
      7.12250695e-002 1.42450146e-002 2.84900283e-003 0. 1.42450142e-003
