<?xml version="1.0"?>
<opencv_storage>
<my_svm type_id="opencv-ml-svm">
  <svm_type>C_SVC</svm_type>
  <kernel><type>RBF</type>
    <gamma>5.0625000000000009e-001</gamma></kernel>
  <C>6.2500000000000000e+001</C>
  <term_criteria><epsilon>1.1920928955078125e-007</epsilon>
    <iterations>1000</iterations></term_criteria>
  <var_all>100</var_all>
  <var_count>100</var_count>
  <class_count>2</class_count>
  <class_labels type_id="opencv-matrix">
    <rows>1</rows>
    <cols>2</cols>
    <dt>i</dt>
    <data>
      0 1</data></class_labels>
  <sv_total>207</sv_total>
  <support_vectors>
    <_>
      1.11317253e-002 9.27643757e-003 5.56586264e-003 1.85528758e-003
      1.11317253e-002 0. 3.33951749e-002 7.42115034e-003 5.56586264e-003
      1.85528758e-003 5.56586264e-003 1.85528751e-002 5.56586264e-003
      5.56586264e-003 5.56586264e-003 3.71057517e-003 1.29870130e-002
      1.66975874e-002 5.56586264e-003 7.42115034e-003 3.71057517e-003
      9.27643757e-003 5.56586264e-003 1.85528758e-003 1.85528758e-003
      1.85528758e-003 9.27643757e-003 5.56586264e-003 2.04081628e-002
      5.56586264e-003 3.71057517e-003 1.29870130e-002 1.66975874e-002
      7.42115034e-003 1.29870130e-002 1.11317253e-002 0. 1.48423007e-002
      7.42115034e-003 3.71057517e-003 3.71057517e-003 1.85528751e-002
      1.85528758e-003 3.71057517e-003 7.42115034e-003 1.11317253e-002
      1.11317253e-002 4.26716134e-002 0. 7.42115034e-003 2.04081628e-002
      5.56586264e-003 0. 1.29870130e-002 9.27643757e-003 1.85528751e-002
      5.56586264e-003 9.27643757e-003 1.29870130e-002 1.29870130e-002
      1.66975874e-002 3.15398872e-002 0. 7.42115034e-003 1.85528758e-003
      3.71057517e-003 9.27643757e-003 7.42115034e-003 1.29870130e-002
      3.71057517e-003 4.08163257e-002 1.85528758e-003 1.85528751e-002
      1.11317253e-002 3.89610380e-002 5.56586264e-003 1.48423007e-002
      1.85528758e-003 3.71057517e-003 3.71057517e-003 1.29870130e-002
      7.42115034e-003 3.71057517e-003 1.85528758e-003 5.56586264e-003
      7.42115034e-003 7.42115034e-003 1.85528758e-003 5.56586264e-003
      1.11317253e-002 2.22634505e-002 3.71057517e-003 1.85528758e-003
      1.85528758e-003 5.56586264e-003 2.22634505e-002 5.56586264e-003
      1.85528751e-002 6.86456412e-002 3.71057517e-003</_>
    <_>
      1.09409187e-002 1.31291030e-002 2.62582060e-002 6.56455150e-003
      6.56455150e-003 6.56455150e-003 1.33479208e-001 4.37636767e-003
      1.31291030e-002 8.75273533e-003 0. 4.37636767e-003 6.56455150e-003
      0. 6.56455150e-003 1.31291030e-002 5.90809621e-002 0.
      2.18818383e-003 0. 8.75273533e-003 8.75273533e-003 2.18818383e-003
      8.75273533e-003 2.18818383e-003 2.18818383e-003 2.18818383e-003 0.
      0. 1.09409187e-002 6.56455150e-003 3.50109413e-002 1.31291030e-002
      6.56455150e-003 8.75273533e-003 1.09409187e-002 2.18818383e-003
      2.62582060e-002 1.75054707e-002 1.31291030e-002 0. 2.18818383e-003
      1.09409187e-002 4.37636767e-003 6.56455150e-003 2.18818383e-003
      2.84463894e-002 4.37636767e-003 0. 8.75273533e-003 6.56455150e-003
      0. 4.37636767e-003 6.56455150e-003 8.75273533e-003 1.31291030e-002
      2.18818374e-002 2.18818383e-003 2.18818383e-003 4.37636767e-003
      4.37636767e-003 2.40700226e-002 8.75273533e-003 4.37636767e-003
      4.37636767e-003 2.18818383e-003 6.56455150e-003 1.31291030e-002
      4.37636767e-003 2.18818383e-003 4.37636767e-003 2.18818383e-003 0.
      1.96936540e-002 9.40919071e-002 0. 4.37636767e-003 4.37636767e-003
      4.37636767e-003 4.37636767e-003 6.56455150e-003 2.18818383e-003
      2.18818383e-003 6.56455150e-003 1.31291030e-002 2.18818383e-003
      8.75273533e-003 0. 2.18818383e-003 0. 4.37636767e-003 0.
      2.18818383e-003 6.56455150e-003 5.03282286e-002 0. 1.53172873e-002
      0. 1.53172873e-002 4.37636767e-003</_>
    <_>
      1.85387116e-002 6.54307473e-003 1.09051252e-002 6.54307473e-003
      1.30861495e-002 2.18102504e-002 3.27153737e-003 8.72409996e-003
      6.54307473e-003 5.45256259e-003 1.30861495e-002 2.18102499e-003
      1.63576882e-002 1.19956378e-002 1.96292251e-002 8.72409996e-003
      1.74481999e-002 2.18102499e-003 8.72409996e-003 8.72409996e-003
      1.74481999e-002 4.36204998e-003 1.09051252e-002 9.81461257e-003
      2.07197368e-002 1.41766621e-002 8.72409996e-003 6.54307473e-003
      7.63358735e-003 8.72409996e-003 1.41766621e-002 1.09051252e-002
      1.19956378e-002 1.09051252e-002 7.63358735e-003 7.63358735e-003
      2.29007620e-002 8.72409996e-003 1.19956378e-002 1.30861495e-002
      1.19956378e-002 5.45256259e-003 6.54307473e-003 1.09051252e-002
      2.29007620e-002 8.72409996e-003 5.45256259e-003 4.36204998e-003
      6.54307473e-003 7.63358735e-003 1.30861495e-002 2.18102499e-003
      1.09051252e-002 1.41766621e-002 8.72409996e-003 7.63358735e-003
      7.63358735e-003 1.63576882e-002 7.63358735e-003 7.63358735e-003
      9.81461257e-003 6.54307473e-003 7.63358735e-003 1.30861495e-002
      9.81461257e-003 3.27153737e-003 2.18102499e-003 7.63358735e-003
      8.72409996e-003 9.81461257e-003 0. 1.41766621e-002 1.63576882e-002
      3.27153737e-003 3.27153737e-003 1.19956378e-002 7.63358735e-003
      1.30861495e-002 6.54307473e-003 1.30861495e-002 1.09051249e-003
      8.72409996e-003 1.63576882e-002 2.18102504e-002 1.96292251e-002
      7.63358735e-003 9.81461257e-003 7.63358735e-003 2.07197368e-002
      1.09051252e-002 0. 1.30861495e-002 1.09051252e-002 9.81461257e-003
      7.63358735e-003 6.54307473e-003 1.30861495e-002 2.18102499e-003
      5.45256259e-003 1.30861495e-002</_>
    <_>
      1.06728533e-002 1.25290025e-002 6.03248272e-003 1.90255214e-002
      1.76334102e-002 1.29930396e-002 3.24825989e-003 3.71229695e-003
      1.20649654e-002 1.43851507e-002 6.03248272e-003 1.11368913e-002
      1.94895584e-002 1.34570766e-002 1.02088163e-002 3.24825989e-003
      5.56844566e-003 5.56844566e-003 3.24825989e-003 1.67053360e-002
      5.10440813e-003 6.49651978e-003 1.90255214e-002 8.81670509e-003
      1.16009284e-002 1.71693731e-002 7.88863096e-003 1.48491878e-002
      1.11368913e-002 3.24825989e-003 1.71693731e-002 5.10440813e-003
      9.28074238e-004 8.81670509e-003 2.78422283e-003 1.29930396e-002
      1.62412990e-002 9.74477921e-003 1.06728533e-002 1.25290025e-002
      1.29930396e-002 8.35266802e-003 1.20649654e-002 1.85614848e-003
      1.53132249e-002 1.34570766e-002 4.64037107e-003 6.03248272e-003
      1.06728533e-002 1.94895584e-002 7.42459390e-003 8.81670509e-003
      5.56844566e-003 1.06728533e-002 1.29930396e-002 1.02088163e-002
      8.81670509e-003 1.62412990e-002 9.74477921e-003 6.96055684e-003
      1.29930396e-002 1.11368913e-002 4.17633401e-003 5.10440813e-003
      8.35266802e-003 1.53132249e-002 5.10440813e-003 7.42459390e-003
      9.28074215e-003 1.99535955e-002 4.64037119e-004 1.53132249e-002
      1.20649654e-002 2.78422283e-003 2.32018554e-003 8.35266802e-003
      4.17633401e-003 1.16009284e-002 9.28074215e-003 1.57772619e-002
      6.96055684e-003 1.94895584e-002 1.39211137e-002 1.20649654e-002
      1.02088163e-002 2.78422283e-003 7.88863096e-003 1.06728533e-002
      1.25290025e-002 8.81670509e-003 4.17633401e-003 1.34570766e-002
      9.28074215e-003 1.25290025e-002 4.17633401e-003 1.06728533e-002
      1.76334102e-002 1.48491878e-002 1.39211142e-003 1.39211137e-002</_>
    <_>
      1.04472740e-002 1.63238663e-002 8.81488714e-003 7.18250079e-003
      1.01207970e-002 1.24061378e-002 1.99151151e-002 1.01207970e-002
      1.17531829e-002 1.07737510e-002 7.18250079e-003 1.01207970e-002
      1.11002289e-002 1.01207970e-002 1.63238663e-002 1.63238663e-002
      4.57068253e-003 7.50897825e-003 2.93829571e-003 1.50179565e-002
      8.81488714e-003 1.27326148e-002 1.04472740e-002 9.46784206e-003
      5.87659143e-003 1.24061378e-002 9.14136507e-003 1.04472740e-002
      9.79431905e-003 1.27326148e-002 9.14136507e-003 1.01207970e-002
      7.83545524e-003 1.20796608e-002 4.24420508e-003 1.14267059e-002
      9.14136507e-003 1.69768203e-002 7.18250079e-003 5.55011444e-003
      7.18250079e-003 7.50897825e-003 8.81488714e-003 7.18250079e-003
      8.81488714e-003 1.11002289e-002 7.50897825e-003 9.46784206e-003
      8.16193316e-003 1.56709105e-002 1.14267059e-002 6.52954634e-003
      8.16193316e-003 8.16193316e-003 8.81488714e-003 5.22363698e-003
      1.46914786e-002 1.14267059e-002 1.01207970e-002 5.87659143e-003
      1.11002289e-002 1.43650016e-002 7.18250079e-003 6.85602333e-003
      7.83545524e-003 9.79431905e-003 7.83545524e-003 8.81488714e-003
      1.73032973e-002 6.85602333e-003 9.79431905e-003 9.79431905e-003
      1.04472740e-002 6.85602333e-003 1.43650016e-002 1.24061378e-002
      4.24420508e-003 1.04472740e-002 9.14136507e-003 6.85602333e-003
      1.14267059e-002 1.17531829e-002 1.66503433e-002 1.27326148e-002
      9.79431905e-003 5.55011444e-003 6.85602333e-003 5.55011444e-003
      1.04472740e-002 6.85602333e-003 1.73032973e-002 1.30590927e-002
      1.20796608e-002 1.56709105e-002 7.18250079e-003 1.20796608e-002
      9.79431905e-003 1.01207970e-002 6.85602333e-003 9.46784206e-003</_>
    <_>
      1.08892918e-002 1.08892918e-002 1.45190563e-002 9.07441042e-003
      1.08892918e-002 1.27041740e-002 3.08529940e-002 3.62976408e-003
      1.27041740e-002 1.08892918e-002 1.81488204e-003 0. 0.
      5.44464588e-003 9.07441042e-003 1.27041740e-002 3.08529940e-002
      9.07441042e-003 2.35934667e-002 9.07441042e-003 1.27041740e-002
      7.25952815e-003 3.62976408e-003 1.81488204e-003 5.44464588e-003
      3.62976408e-003 3.62976408e-003 1.08892918e-002 1.08892918e-002
      1.63339376e-002 3.62976408e-003 1.45190563e-002 1.99637022e-002
      1.27041740e-002 1.08892918e-002 3.62976408e-003 5.44464588e-003
      1.81488204e-003 1.63339376e-002 2.17785835e-002 7.25952815e-003
      9.07441042e-003 5.44464588e-003 2.17785835e-002 1.81488204e-003
      5.44464588e-003 2.72232313e-002 2.17785835e-002 1.08892918e-002
      7.25952815e-003 9.07441042e-003 1.08892918e-002 1.08892918e-002
      1.08892918e-002 5.44464588e-003 1.08892918e-002 1.08892918e-002
      5.44464588e-003 1.08892918e-002 2.54083481e-002 1.08892918e-002
      5.44464588e-003 1.81488208e-002 1.63339376e-002 0. 3.62976408e-003
      3.62976408e-003 1.27041740e-002 3.62976408e-003 1.81488204e-003
      5.44464588e-003 5.44464588e-003 3.62976408e-003 1.99637022e-002
      4.71869335e-002 1.63339376e-002 9.07441042e-003 0. 3.62976408e-003
      3.62976408e-003 9.07441042e-003 1.81488204e-003 1.81488204e-003
      1.27041740e-002 9.07441042e-003 1.45190563e-002 3.62976408e-003
      1.81488204e-003 1.08892918e-002 1.27041740e-002 3.62976408e-003
      3.62976408e-003 1.81488204e-003 5.44464588e-003 1.81488208e-002
      1.99637022e-002 7.25952815e-003 7.25952815e-003 9.07441042e-003
      1.08892918e-002</_>
    <_>
      1.35350320e-002 1.03503186e-002 1.51273888e-002 1.11464970e-002
      4.77707013e-003 1.67197455e-002 1.27388537e-002 8.75796191e-003
      6.36942685e-003 1.03503186e-002 1.03503186e-002 6.36942685e-003
      1.03503186e-002 6.36942685e-003 1.27388537e-002 1.03503186e-002
      1.43312104e-002 7.16560520e-003 6.36942685e-003 6.36942685e-003
      1.27388537e-002 8.75796191e-003 9.55414027e-003 9.55414027e-003
      6.36942685e-003 7.96178356e-003 7.96178356e-003 8.75796191e-003
      7.16560520e-003 1.27388537e-002 5.57324849e-003 1.11464970e-002
      7.16560520e-003 5.57324849e-003 3.98089178e-003 8.75796191e-003
      8.75796191e-003 1.99044589e-002 1.91082805e-002 1.43312104e-002
      1.51273888e-002 7.96178356e-003 1.35350320e-002 5.57324849e-003
      8.75796191e-003 4.77707013e-003 2.22929940e-002 1.27388537e-002
      7.96178356e-003 1.03503186e-002 1.51273888e-002 6.36942685e-003
      5.57324849e-003 1.27388537e-002 1.03503186e-002 9.55414027e-003
      1.35350320e-002 7.16560520e-003 3.98089178e-003 4.77707013e-003
      1.03503186e-002 8.75796191e-003 8.75796191e-003 4.77707013e-003
      1.11464970e-002 7.96178356e-003 3.98089178e-003 5.57324849e-003
      1.75159238e-002 1.59235671e-002 7.16560520e-003 7.96178356e-003
      1.27388537e-002 8.75796191e-003 3.26433107e-002 7.16560520e-003
      7.16560520e-003 7.16560520e-003 5.57324849e-003 4.77707013e-003
      1.27388537e-002 1.11464970e-002 8.75796191e-003 1.51273888e-002
      1.27388537e-002 1.59235671e-002 1.11464970e-002 8.75796191e-003
      8.75796191e-003 4.77707013e-003 1.91082805e-002 9.55414027e-003
      6.36942685e-003 8.75796191e-003 1.27388537e-002 1.59235671e-002
      4.77707013e-003 7.16560520e-003 7.96178356e-003 7.16560520e-003</_>
    <_>
      8.78594257e-003 5.59105445e-003 3.99360992e-003 8.78594257e-003
      7.98721984e-003 7.98721984e-003 1.99680515e-002 7.18849804e-003
      6.38977624e-003 3.99360992e-003 4.79233218e-003 7.98721984e-003
      9.58466437e-003 3.19488812e-003 2.39616609e-003 1.51757188e-002
      1.27795525e-002 8.78594257e-003 4.15335447e-002 1.51757188e-002
      3.19488812e-003 6.38977624e-003 1.19808307e-002 1.11821089e-002
      6.38977624e-003 7.98721984e-003 5.59105445e-003 6.38977624e-003
      1.11821089e-002 1.43769961e-002 1.03833862e-002 1.43769961e-002
      1.43769961e-002 1.19808307e-002 8.78594257e-003 6.38977624e-003
      4.79233218e-003 1.91693287e-002 1.11821089e-002 1.51757188e-002
      6.38977624e-003 8.78594257e-003 3.99360992e-003 3.67412120e-002
      1.59744406e-003 5.59105445e-003 1.11821089e-002 1.11821089e-002
      7.18849804e-003 5.59105445e-003 8.78594257e-003 5.59105445e-003
      6.38977624e-003 1.83706060e-002 7.18849804e-003 1.51757188e-002
      1.19808307e-002 5.59105445e-003 5.59105445e-003 3.35463248e-002
      1.11821089e-002 1.19808307e-002 1.43769961e-002 7.18849804e-003
      6.38977624e-003 7.98721984e-003 4.79233218e-003 1.35782743e-002
      2.55591050e-002 1.27795525e-002 6.38977624e-003 7.18849804e-003
      1.91693287e-002 1.19808307e-002 1.11821089e-002 3.99360992e-003
      3.99360992e-003 9.58466437e-003 7.98721984e-003 5.59105445e-003
      3.99360992e-003 1.35782743e-002 7.18849804e-003 1.35782743e-002
      4.79233218e-003 1.59744406e-003 6.38977624e-003 2.39616609e-003
      1.19808307e-002 1.03833862e-002 7.98721984e-003 8.78594257e-003
      1.67731624e-002 7.18849804e-003 1.43769961e-002 1.11821089e-002
      7.18849804e-003 9.58466437e-003 6.38977624e-003 1.19808307e-002</_>
    <_>
      1.24269007e-002 5.84795326e-003 8.77192989e-003 1.02339182e-002
      1.31578948e-002 1.24269007e-002 2.19298247e-003 9.50292405e-003
      5.11695910e-003 1.60818715e-002 1.24269007e-002 1.02339182e-002
      8.77192989e-003 1.24269007e-002 8.04093573e-003 8.77192989e-003
      1.53508773e-002 5.84795326e-003 3.65497079e-003 1.46198831e-002
      1.02339182e-002 3.65497079e-003 6.57894742e-003 1.09649124e-002
      1.24269007e-002 1.02339182e-002 7.30994157e-003 1.46198831e-002
      8.04093573e-003 1.09649124e-002 1.31578948e-002 1.02339182e-002
      3.14327478e-002 1.09649124e-002 5.84795326e-003 1.31578948e-002
      9.50292405e-003 2.04678364e-002 1.46198831e-002 8.77192989e-003
      9.50292405e-003 1.02339182e-002 2.92397663e-003 1.02339182e-002
      1.31578948e-002 1.31578948e-002 8.04093573e-003 5.84795326e-003
      6.57894742e-003 9.50292405e-003 7.30994157e-003 7.30994157e-003
      4.38596494e-003 1.82748549e-002 1.09649124e-002 9.50292405e-003
      1.97368413e-002 1.31578948e-002 1.31578948e-002 5.11695910e-003
      9.50292405e-003 1.38888890e-002 3.65497079e-003 6.57894742e-003
      6.57894742e-003 8.04093573e-003 4.38596494e-003 8.04093573e-003
      1.97368413e-002 8.04093573e-003 2.92397663e-003 1.31578948e-002
      1.24269007e-002 5.84795326e-003 7.30994157e-003 5.11695910e-003
      8.77192989e-003 1.16959065e-002 8.04093573e-003 9.50292405e-003
      8.77192989e-003 1.16959065e-002 1.24269007e-002 1.38888890e-002
      7.30994157e-003 1.09649124e-002 8.77192989e-003 8.04093573e-003
      1.16959065e-002 1.02339182e-002 7.30994157e-003 1.02339182e-002
      1.38888890e-002 8.77192989e-003 4.38596494e-003 1.09649124e-002
      1.09649124e-002 1.09649124e-002 6.57894742e-003 1.16959065e-002</_>
    <_>
      1.26811601e-002 1.08695654e-002 1.81159424e-003 5.43478271e-003
      9.05797072e-003 1.08695654e-002 2.35507246e-002 7.24637695e-003
      1.63043477e-002 5.43478271e-003 7.24637695e-003 1.08695654e-002
      7.24637695e-003 1.08695654e-002 1.63043477e-002 1.08695654e-002
      1.63043477e-002 2.35507246e-002 1.81159414e-002 1.26811601e-002
      9.05797072e-003 0. 1.08695654e-002 9.05797072e-003 3.62318847e-003
      0. 1.08695654e-002 9.05797072e-003 1.08695654e-002 5.43478271e-003
      9.05797072e-003 1.63043477e-002 9.05797072e-003 5.43478271e-003
      1.81159424e-003 7.24637695e-003 1.81159424e-003 1.08695654e-002
      1.44927539e-002 1.99275371e-002 3.62318847e-003 5.43478271e-003
      7.24637695e-003 2.35507246e-002 9.05797072e-003 5.43478271e-003
      1.63043477e-002 1.44927539e-002 5.43478271e-003 9.05797072e-003
      1.08695654e-002 5.43478271e-003 1.81159424e-003 2.89855078e-002
      7.24637695e-003 1.63043477e-002 7.24637695e-003 1.44927539e-002
      3.62318847e-003 2.17391308e-002 9.05797072e-003 1.81159414e-002
      9.05797072e-003 1.63043477e-002 5.43478271e-003 5.43478271e-003
      3.62318847e-003 1.81159414e-002 5.43478271e-003 9.05797072e-003
      5.43478271e-003 7.24637695e-003 1.26811601e-002 5.43478271e-003
      1.08695654e-002 1.08695654e-002 3.62318847e-003 3.62318847e-003
      1.08695654e-002 7.24637695e-003 1.44927539e-002 1.63043477e-002
      3.62318847e-003 5.43478271e-003 7.24637695e-003 1.63043477e-002
      1.26811601e-002 5.43478271e-003 1.26811601e-002 7.24637695e-003
      9.05797072e-003 9.05797072e-003 1.26811601e-002 9.05797072e-003
      1.81159424e-003 1.81159414e-002 7.24637695e-003 1.44927539e-002
      9.05797072e-003 1.08695654e-002</_>
    <_>
      1.25823850e-002 6.59077335e-003 1.43798683e-002 3.59496707e-003
      8.38825665e-003 1.55781908e-002 1.01857400e-002 1.01857400e-002
      1.31815467e-002 1.31815467e-002 1.13840625e-002 7.78909540e-003
      1.55781908e-002 1.43798683e-002 1.61773525e-002 3.59496707e-003
      5.39245084e-003 6.59077335e-003 5.39245084e-003 1.13840625e-002
      1.37807075e-002 1.49790300e-002 1.37807075e-002 3.59496707e-003
      1.61773525e-002 1.37807075e-002 8.98741838e-003 1.25823850e-002
      6.59077335e-003 3.59496707e-003 1.07849017e-002 4.79328958e-003
      1.49790300e-002 1.19832242e-002 7.78909540e-003 1.19832242e-002
      9.58657917e-003 4.19412833e-003 3.59496707e-003 7.78909540e-003
      1.19832242e-002 3.59496707e-003 5.99161210e-003 1.49790300e-002
      2.21689641e-002 6.59077335e-003 9.58657917e-003 7.78909540e-003
      1.91731583e-002 8.38825665e-003 6.59077335e-003 5.39245084e-003
      1.43798683e-002 1.19832242e-002 5.39245084e-003 4.79328958e-003
      7.18993414e-003 1.19832242e-002 8.98741838e-003 8.38825665e-003
      1.07849017e-002 7.18993414e-003 1.01857400e-002 9.58657917e-003
      9.58657917e-003 8.98741838e-003 2.99580605e-003 7.18993414e-003
      5.99161210e-003 1.25823850e-002 5.39245084e-003 1.55781908e-002
      1.19832242e-002 4.79328958e-003 5.99161210e-003 1.07849017e-002
      4.79328958e-003 1.31815467e-002 1.79748368e-002 1.79748368e-002
      1.19832242e-002 1.25823850e-002 8.98741838e-003 1.37807075e-002
      1.85739975e-002 6.59077335e-003 1.13840625e-002 8.98741838e-003
      1.73756741e-002 5.99161210e-003 5.99161198e-004 1.31815467e-002
      1.67765133e-002 8.38825665e-003 8.98741838e-003 7.78909540e-003
      1.01857400e-002 1.01857400e-002 2.99580605e-003 1.49790300e-002</_>
    <_>
      7.90513866e-003 1.84453223e-002 3.95256933e-003 6.58761524e-003
      6.58761524e-003 7.90513866e-003 3.55731212e-002 6.58761524e-003
      5.27009228e-003 6.58761524e-003 3.95256933e-003 1.44927539e-002
      3.95256933e-003 2.63504614e-003 7.90513866e-003 1.58102773e-002
      1.18577080e-002 1.05401846e-002 9.22266115e-003 9.22266115e-003
      5.27009228e-003 1.18577080e-002 6.58761524e-003 1.31752305e-002
      2.63504614e-003 1.31752307e-003 7.90513866e-003 1.31752307e-003
      1.05401846e-002 2.63504614e-003 6.58761524e-003 1.44927539e-002
      9.22266115e-003 1.31752307e-003 1.18577080e-002 6.58761524e-003
      2.63504614e-003 3.29380780e-002 2.76679844e-002 7.90513866e-003
      3.95256933e-003 1.18577080e-002 5.27009228e-003 1.71278007e-002 0.
      6.58761524e-003 2.37154160e-002 2.89855078e-002 2.63504614e-003
      1.18577080e-002 1.58102773e-002 7.90513866e-003 2.63504614e-003
      1.31752305e-002 1.05401846e-002 1.05401846e-002 6.58761524e-003
      3.95256933e-003 9.22266115e-003 9.22266115e-003 5.27009228e-003
      7.90513866e-003 1.44927539e-002 1.31752307e-003 2.63504614e-003
      5.27009228e-003 1.18577080e-002 1.18577080e-002 2.37154160e-002
      1.18577080e-002 4.74308319e-002 3.95256933e-003 3.95256933e-003
      5.27009228e-003 4.61133085e-002 5.27009228e-003 3.95256933e-003 0.
      9.22266115e-003 2.63504614e-003 1.31752305e-002 5.27009228e-003
      7.90513866e-003 3.95256933e-003 7.90513866e-003 3.95256933e-003
      5.27009228e-003 3.95256933e-003 2.63504614e-003 3.95256933e-003
      1.84453223e-002 0. 5.27009228e-003 3.95256933e-003 5.27009228e-003
      2.63504609e-002 3.95256933e-003 1.05401846e-002 5.66534922e-002
      6.58761524e-003</_>
    <_>
      7.88954645e-003 7.88954645e-003 1.28205130e-002 6.90335315e-003
      1.18343197e-002 1.38067063e-002 1.87376738e-002 8.87573976e-003
      1.38067063e-002 4.93096653e-003 1.28205130e-002 8.87573976e-003
      4.93096653e-003 5.91715984e-003 6.90335315e-003 8.87573976e-003
      2.95857992e-002 1.18343197e-002 1.08481264e-002 6.90335315e-003
      1.38067063e-002 3.94477323e-003 1.08481264e-002 1.28205130e-002
      5.91715984e-003 2.95857992e-003 2.95857992e-003 5.91715984e-003
      6.90335315e-003 3.94477323e-003 8.87573976e-003 7.88954645e-003
      4.93096653e-003 1.57790929e-002 8.87573976e-003 8.87573976e-003
      5.91715984e-003 1.18343197e-002 1.18343197e-002 2.16962527e-002
      1.08481264e-002 5.91715984e-003 3.94477323e-003 1.67652853e-002
      9.86193307e-004 2.95857992e-003 2.66272202e-002 1.77514795e-002
      1.08481264e-002 5.91715984e-003 1.47928996e-002 6.90335315e-003
      8.87573976e-003 6.90335315e-003 6.90335315e-003 1.28205130e-002
      1.38067063e-002 7.88954645e-003 3.94477323e-003 1.18343197e-002
      6.90335315e-003 1.08481264e-002 1.18343197e-002 6.90335315e-003
      6.90335315e-003 7.88954645e-003 1.57790929e-002 1.57790929e-002
      1.28205130e-002 1.97238661e-002 1.28205130e-002 7.88954645e-003
      1.08481264e-002 5.91715984e-003 1.57790929e-002 1.28205130e-002
      2.66272202e-002 2.95857992e-003 5.91715984e-003 4.93096653e-003
      1.67652853e-002 3.94477323e-003 1.18343197e-002 1.57790929e-002
      7.88954645e-003 1.77514795e-002 8.87573976e-003 8.87573976e-003
      3.94477323e-003 8.87573976e-003 8.87573976e-003 2.95857992e-003
      3.94477323e-003 4.93096653e-003 1.38067063e-002 1.28205130e-002
      1.08481264e-002 6.90335315e-003 7.88954645e-003 1.18343197e-002</_>
    <_>
      7.79347308e-003 1.85094979e-002 1.21773016e-002 2.92255240e-003
      5.84510481e-003 1.12031177e-002 1.70482229e-002 1.31514855e-002
      6.81928918e-003 7.79347308e-003 8.28056503e-003 1.31514855e-002
      6.81928918e-003 5.35801286e-003 1.99707747e-002 1.94836818e-002
      2.33804192e-002 1.02289338e-002 2.92255240e-003 5.35801286e-003
      9.74184088e-003 1.16902096e-002 2.92255240e-003 3.84802744e-002
      7.79347308e-003 8.76765698e-003 4.38382849e-003 5.35801286e-003
      3.40964459e-003 1.46127623e-002 1.07160257e-002 2.92255245e-002
      1.70482229e-002 3.89673654e-003 4.87092044e-003 5.84510481e-003
      6.33219676e-003 3.45835350e-002 1.70482229e-002 4.38382849e-003
      7.79347308e-003 2.43546022e-003 7.30638113e-003 1.16902096e-002
      5.84510481e-003 6.81928918e-003 1.50998542e-002 8.28056503e-003
      9.74184088e-003 8.28056503e-003 1.55869462e-002 7.30638113e-003
      2.92255240e-003 7.79347308e-003 4.38382849e-003 4.38382849e-003
      2.82513406e-002 4.38382849e-003 2.92255240e-003 6.33219676e-003
      7.79347308e-003 1.07160257e-002 2.43546022e-003 5.84510481e-003
      1.12031177e-002 5.84510481e-003 5.35801286e-003 6.81928918e-003
      3.65319066e-002 4.38382849e-003 7.30638113e-003 8.28056503e-003
      7.30638113e-003 1.94836827e-003 1.55869462e-002 5.84510481e-003
      9.25474893e-003 3.40964459e-003 1.26643935e-002 5.35801286e-003
      9.25474893e-003 5.35801286e-003 1.12031177e-002 7.79347308e-003
      1.50998542e-002 9.74184088e-003 7.79347308e-003 4.87092044e-003
      1.12031177e-002 7.30638113e-003 2.82513406e-002 8.28056503e-003
      1.26643935e-002 5.35801286e-003 1.41256703e-002 1.12031177e-002
      7.79347308e-003 7.79347308e-003 5.84510481e-003 8.28056503e-003</_>
    <_>
      5.63236047e-003 8.70455708e-003 3.58422939e-003 9.21658985e-003
      5.12032770e-003 7.16845877e-003 4.86431122e-002 4.60829493e-003
      1.68970823e-002 3.58422939e-003 6.14439324e-003 8.70455708e-003
      1.33128520e-002 4.09626216e-003 4.60829493e-003 1.74091142e-002
      1.12647209e-002 1.02406554e-002 2.09933445e-002 1.17767537e-002
      3.07219662e-003 6.65642601e-003 1.53609831e-003 3.02099325e-002
      4.09626216e-003 3.07219662e-003 1.07526882e-002 4.09626216e-003
      5.12032770e-003 9.72862262e-003 7.16845877e-003 1.53609831e-002
      3.48182283e-002 1.07526882e-002 1.22887865e-002 1.12647209e-002
      2.56016385e-003 3.12339999e-002 1.58730149e-002 8.70455708e-003
      2.04813108e-003 8.70455708e-003 4.60829493e-003 2.91858688e-002
      1.53609831e-003 6.14439324e-003 1.33128520e-002 1.68970823e-002
      4.09626216e-003 1.02406554e-002 1.17767537e-002 1.43369175e-002
      3.07219662e-003 1.12647209e-002 9.72862262e-003 1.02406554e-002
      1.48489503e-002 3.58422939e-003 8.19252431e-003 2.25294419e-002
      7.16845877e-003 8.70455708e-003 5.12032770e-003 2.56016385e-003
      4.60829493e-003 5.12032770e-003 1.02406554e-002 1.63850486e-002
      2.15053763e-002 5.63236047e-003 2.66257040e-002 5.12032770e-003
      1.53609831e-002 8.70455708e-003 1.58730149e-002 4.60829493e-003
      6.14439324e-003 1.12647209e-002 1.02406554e-003 1.02406554e-003
      6.65642601e-003 9.72862262e-003 8.70455708e-003 3.07219662e-003
      4.60829493e-003 1.07526882e-002 4.09626216e-003 3.58422939e-003
      4.60829493e-003 8.19252431e-003 2.20174082e-002 4.09626216e-003
      5.63236047e-003 5.12032770e-003 6.14439324e-003 1.68970823e-002
      2.04813108e-003 4.09626216e-003 2.91858688e-002 1.53609831e-003</_>
    <_>
      3.74531820e-002 7.49063678e-003 1.12359552e-002 3.74531839e-003
      7.49063678e-003 3.74531839e-003 3.74531839e-003 7.49063678e-003
      3.74531839e-003 2.99625471e-002 0. 3.74531839e-003 7.49063678e-003
      7.49063678e-003 1.12359552e-002 1.12359552e-002 1.12359552e-002 0.
      7.49063678e-003 7.49063678e-003 1.12359552e-002 2.62172297e-002 0.
      3.74531839e-003 0. 1.49812736e-002 1.49812736e-002 0. 0.
      1.12359552e-002 1.49812736e-002 4.49438207e-002 5.24344593e-002
      3.74531839e-003 3.74531839e-003 1.49812736e-002 3.74531839e-003
      4.49438207e-002 7.49063678e-003 1.12359552e-002 7.49063678e-003
      7.49063678e-003 0. 9.73782763e-002 2.24719103e-002 3.74531839e-003
      2.62172297e-002 0. 3.74531839e-003 0. 0. 3.74531839e-003
      3.74531839e-003 0. 3.74531839e-003 0. 1.87265910e-002
      1.12359552e-002 7.49063678e-003 1.49812736e-002 0. 7.49063678e-003
      0. 0. 1.12359552e-002 1.12359552e-002 7.49063678e-003 0.
      1.12359552e-002 3.74531839e-003 3.74531839e-003 2.99625471e-002
      3.74531839e-003 7.49063678e-003 3.74531839e-003 2.24719103e-002 0.
      1.49812736e-002 0. 1.12359552e-002 3.74531839e-003 7.49063678e-003
      7.49063678e-003 1.12359552e-002 2.24719103e-002 1.12359552e-002
      7.49063678e-003 0. 1.12359552e-002 1.87265910e-002 2.62172297e-002
      7.49063678e-003 3.74531839e-003 0. 0. 0. 3.74531839e-003 0. 0.
      7.49063678e-003</_>
    <_>
      1.34259257e-002 1.48148146e-002 6.94444450e-003 7.87037052e-003
      1.48148146e-002 7.87037052e-003 1.01851849e-002 7.40740728e-003
      1.29629625e-002 9.72222164e-003 7.40740728e-003 1.48148146e-002
      1.11111104e-002 1.38888890e-002 1.15740737e-002 3.70370364e-003
      3.70370364e-003 5.09259244e-003 3.24074063e-003 1.29629625e-002
      6.01851847e-003 8.79629608e-003 1.25000002e-002 1.85185182e-003
      1.29629625e-002 1.75925922e-002 1.06481481e-002 1.15740737e-002
      4.16666642e-003 2.77777761e-003 1.75925922e-002 3.24074063e-003
      3.24074063e-003 2.22222209e-002 3.24074063e-003 2.12962963e-002
      1.71296299e-002 5.55555522e-003 4.16666642e-003 1.11111104e-002
      1.15740737e-002 6.48148125e-003 7.40740728e-003 1.11111104e-002
      8.33333284e-003 1.34259257e-002 7.40740728e-003 6.48148125e-003
      1.99074075e-002 1.06481481e-002 1.01851849e-002 9.25925933e-003
      7.40740728e-003 1.15740737e-002 9.25925933e-003 1.01851849e-002
      5.09259244e-003 1.20370369e-002 8.33333284e-003 5.55555522e-003
      1.20370369e-002 7.40740728e-003 3.24074063e-003 5.55555522e-003
      1.29629625e-002 2.17592586e-002 4.62962966e-003 6.01851847e-003
      9.25925933e-003 1.34259257e-002 5.09259244e-003 1.06481481e-002
      1.85185187e-002 4.16666642e-003 2.31481483e-003 1.20370369e-002
      5.09259244e-003 1.85185187e-002 1.75925922e-002 1.15740737e-002
      7.87037052e-003 1.48148146e-002 1.48148146e-002 1.11111104e-002
      1.06481481e-002 5.09259244e-003 1.25000002e-002 1.38888890e-002
      7.40740728e-003 8.79629608e-003 1.85185182e-003 1.71296299e-002
      1.62037034e-002 8.79629608e-003 1.38888881e-003 1.11111104e-002
      1.85185187e-002 8.33333284e-003 2.77777761e-003 2.22222209e-002</_>
    <_>
      9.53029282e-003 2.11027917e-002 8.84955749e-003 5.44588175e-003
      6.12661708e-003 6.80735242e-003 1.36147044e-003 1.63376443e-002
      8.16882215e-003 1.15724988e-002 8.84955749e-003 9.53029282e-003
      8.16882215e-003 1.29339695e-002 1.22532342e-002 1.22532342e-002
      1.29339695e-002 1.63376443e-002 2.04220554e-003 1.15724988e-002
      7.48808729e-003 1.70183796e-002 7.48808729e-003 9.53029282e-003
      2.17835270e-002 1.70183796e-002 1.15724988e-002 1.08917635e-002
      1.02110282e-002 1.49761746e-002 1.36147048e-002 6.80735242e-003
      1.63376443e-002 4.76514641e-003 4.08441108e-003 1.02110282e-002
      8.84955749e-003 8.84955749e-003 2.38257330e-002 6.80735242e-003
      9.53029282e-003 6.80735242e-003 9.53029282e-003 2.17835270e-002
      1.02110282e-002 9.53029282e-003 2.65486743e-002 7.48808729e-003
      2.04220563e-002 1.70183796e-002 2.11027917e-002 4.76514641e-003
      1.29339695e-002 9.53029282e-003 6.80735242e-003 4.76514641e-003
      1.42954392e-002 1.29339695e-002 6.12661708e-003 8.16882215e-003
      8.84955749e-003 3.40367621e-003 2.72294087e-003 3.40367621e-003
      8.16882215e-003 1.42954392e-002 2.04220554e-003 6.12661708e-003
      1.36147048e-002 6.80735242e-003 4.76514641e-003 4.76514641e-003
      1.08917635e-002 0. 8.84955749e-003 8.16882215e-003 4.76514641e-003
      1.15724988e-002 6.80735242e-003 8.16882215e-003 1.15724988e-002
      1.36147048e-002 1.22532342e-002 4.76514641e-003 8.84955749e-003
      4.08441108e-003 9.53029282e-003 1.42954392e-002 8.16882215e-003
      1.49761746e-002 1.08917635e-002 1.02110282e-002 8.84955749e-003
      1.42954392e-002 5.44588175e-003 2.72294087e-003 8.84955749e-003
      1.02110282e-002 6.12661708e-003 7.48808729e-003</_>
    <_>
      1.71306208e-002 6.42398279e-003 1.92719474e-002 8.56531039e-003
      4.28265519e-003 2.35546045e-002 2.14132760e-003 2.14132760e-003
      4.28265519e-003 1.28479656e-002 2.56959312e-002 0. 1.49892932e-002
      2.14132760e-003 8.56531039e-003 0. 4.49678786e-002 2.14132760e-003
      1.28479656e-002 4.28265519e-003 2.56959312e-002 6.42398279e-003
      1.49892932e-002 1.07066380e-002 6.42398279e-003 8.56531039e-003
      8.56531039e-003 1.28479656e-002 8.56531039e-003 2.14132760e-003
      2.14132760e-003 2.35546045e-002 2.35546045e-002 8.56531039e-003
      6.42398279e-003 8.56531039e-003 8.56531039e-003 8.56531039e-003
      1.71306208e-002 3.21199149e-002 1.07066380e-002 6.42398279e-003
      8.56531039e-003 4.28265519e-003 1.28479656e-002 6.42398279e-003
      5.56745157e-002 0. 6.42398279e-003 8.56531039e-003 1.07066380e-002
      6.42398279e-003 1.49892932e-002 1.49892932e-002 6.42398279e-003
      1.28479656e-002 0. 4.28265519e-003 4.28265519e-003 1.49892932e-002
      1.49892932e-002 8.56531039e-003 1.07066380e-002 8.56531039e-003
      8.56531039e-003 8.56531039e-003 1.07066380e-002 6.42398279e-003
      6.42398279e-003 1.07066380e-002 4.28265519e-003 1.28479656e-002
      4.28265519e-003 2.14132760e-002 6.42398279e-003 4.28265519e-003
      8.56531039e-003 6.42398279e-003 0. 1.71306208e-002 2.14132760e-003
      1.71306208e-002 2.14132760e-003 2.99785864e-002 1.28479656e-002
      1.28479656e-002 1.07066380e-002 0. 1.28479656e-002 6.42398279e-003
      6.42398279e-003 0. 2.14132760e-003 2.14132760e-003 4.28265519e-003
      4.28265519e-003 2.14132760e-003 2.14132760e-003 2.14132760e-003
      1.71306208e-002</_>
    <_>
      3.40136047e-003 3.40136047e-003 1.02040814e-002 0. 6.80272095e-003
      1.02040814e-002 1.70068033e-002 0. 6.80272095e-003 1.70068033e-002
      2.38095224e-002 3.40136047e-003 3.40136047e-003 3.40136047e-003
      1.02040814e-002 6.80272095e-003 1.70068033e-002 3.40136047e-003
      1.02040814e-002 6.80272095e-003 2.38095224e-002 6.80272095e-003
      3.40136047e-003 3.40136047e-003 2.72108838e-002 3.40136047e-003
      1.70068033e-002 3.40136047e-003 3.06122452e-002 0. 6.80272095e-003
      2.38095224e-002 6.80272095e-003 6.80272095e-003 6.80272095e-003
      1.02040814e-002 0. 1.70068033e-002 1.70068033e-002 6.80272095e-003
      0. 3.40136047e-003 3.40136047e-003 3.74149643e-002 1.70068033e-002
      0. 2.04081628e-002 1.70068033e-002 1.70068033e-002 2.04081628e-002
      2.72108838e-002 2.04081628e-002 1.02040814e-002 3.40136047e-003
      3.40136047e-003 0. 3.40136066e-002 3.40136047e-003 1.36054419e-002
      3.40136047e-003 3.40136047e-003 1.36054419e-002 6.80272095e-003
      3.40136047e-003 1.36054419e-002 3.40136047e-003 1.70068033e-002
      1.36054419e-002 1.02040814e-002 6.80272095e-003 1.02040814e-002
      1.02040814e-002 6.80272095e-003 1.36054419e-002 1.36054419e-002
      6.80272095e-003 1.70068033e-002 6.80272095e-003 1.70068033e-002
      6.80272095e-003 1.36054419e-002 3.40136047e-003 6.80272095e-003
      1.36054419e-002 3.40136047e-003 1.02040814e-002 1.02040814e-002
      3.40136047e-003 6.80272095e-003 1.36054419e-002 0. 0.
      1.02040814e-002 1.02040814e-002 1.02040814e-002 1.02040814e-002
      6.80272095e-003 1.70068033e-002 0. 1.02040814e-002</_>
    <_>
      0. 2.38907840e-002 1.36518767e-002 0. 1.36518767e-002
      3.41296918e-003 1.70648452e-002 6.82593836e-003 1.36518767e-002
      6.82593836e-003 1.36518767e-002 6.82593836e-003 3.41296918e-003 0.
      6.82593836e-003 0. 2.04778146e-002 2.04778146e-002 1.36518767e-002
      6.82593836e-003 3.41296918e-003 1.02389073e-002 6.82593836e-003
      6.82593836e-003 3.41296918e-003 6.82593836e-003 1.02389073e-002
      1.36518767e-002 2.38907840e-002 3.41296918e-003 3.41296918e-003
      1.70648452e-002 0. 2.73037534e-002 1.02389073e-002 6.82593836e-003
      6.82593836e-003 2.04778146e-002 6.82593836e-003 6.82593836e-003
      3.41296918e-003 3.41296918e-003 2.73037534e-002 2.04778146e-002 0.
      3.41296918e-003 2.73037534e-002 0. 6.82593836e-003 1.36518767e-002
      2.38907840e-002 2.04778146e-002 2.38907840e-002 1.36518767e-002
      6.82593836e-003 6.82593836e-003 1.02389073e-002 3.41296918e-003
      6.82593836e-003 6.82593836e-003 1.36518767e-002 6.82593836e-003
      1.36518767e-002 3.41296918e-003 1.70648452e-002 1.02389073e-002
      1.36518767e-002 1.36518767e-002 1.36518767e-002 1.02389073e-002
      1.36518767e-002 6.82593836e-003 1.02389073e-002 2.04778146e-002
      1.36518767e-002 1.36518767e-002 6.82593836e-003 6.82593836e-003
      1.02389073e-002 3.41296918e-003 1.02389073e-002 1.36518767e-002
      6.82593836e-003 3.41296918e-003 3.41296918e-003 6.82593836e-003
      1.36518767e-002 3.41296918e-003 6.82593836e-003 3.41296918e-003
      1.02389073e-002 0. 3.41296918e-003 1.36518767e-002 6.82593836e-003
      0. 1.02389073e-002 1.36518767e-002 1.02389073e-002 2.38907840e-002</_>
    <_>
      1.77304968e-002 7.09219836e-003 1.41843967e-002 0. 0.
      2.48226933e-002 3.54609918e-003 0. 0. 0. 1.06382975e-002
      3.54609918e-003 1.06382975e-002 3.54609918e-003 0. 1.41843967e-002
      2.12765951e-002 1.41843967e-002 3.54609918e-003 7.09219836e-003
      1.06382975e-002 7.09219836e-003 3.54609918e-003 2.83687934e-002
      1.41843967e-002 3.54609918e-003 7.09219836e-003 1.41843967e-002
      7.09219836e-003 3.54609918e-003 3.54609918e-003 1.41843967e-002
      2.48226933e-002 1.06382975e-002 7.09219836e-003 0. 3.54609918e-003
      1.06382975e-002 4.60992903e-002 1.06382975e-002 0. 0.
      1.06382975e-002 5.31914867e-002 1.06382975e-002 7.09219836e-003
      2.48226933e-002 3.54609918e-003 3.54609918e-003 0. 3.54609918e-003
      7.09219836e-003 2.12765951e-002 3.54609918e-003 0. 0.
      1.41843967e-002 3.54609918e-003 2.12765951e-002 1.06382975e-002
      3.54609918e-003 3.54609918e-003 1.06382975e-002 7.09219836e-003 0.
      4.25531901e-002 3.54609918e-003 0. 2.48226933e-002 7.09219836e-003
      4.96453866e-002 3.54609918e-003 3.54609918e-003 1.06382975e-002
      1.41843967e-002 2.12765951e-002 3.54609918e-003 3.54609918e-003
      3.54609918e-003 3.54609918e-003 0. 1.06382975e-002 7.09219836e-003
      3.54609918e-003 2.83687934e-002 2.83687934e-002 7.09219836e-003 0.
      0. 1.06382975e-002 3.54609918e-003 0. 0. 3.54609918e-003
      1.41843967e-002 3.54609918e-003 1.41843967e-002 1.41843967e-002
      3.19148935e-002 1.41843967e-002</_>
    <_>
      8.53080582e-003 1.42180091e-002 1.89573467e-002 7.58293830e-003
      7.58293830e-003 2.36966815e-002 5.68720372e-003 1.23222750e-002
      1.32701416e-002 4.73933667e-003 9.47867334e-003 9.47867334e-003
      9.47867334e-003 1.13744074e-002 8.53080582e-003 6.63507078e-003
      1.23222750e-002 8.53080582e-003 4.73933667e-003 8.53080582e-003
      1.51658766e-002 1.23222750e-002 1.89573457e-003 1.04265399e-002
      6.63507078e-003 8.53080582e-003 1.13744074e-002 9.47867334e-003
      1.04265399e-002 7.58293830e-003 7.58293830e-003 9.47867334e-003
      1.42180091e-002 1.13744074e-002 1.04265399e-002 9.47867334e-003
      4.73933667e-003 1.23222750e-002 1.13744074e-002 1.32701416e-002
      1.13744074e-002 6.63507078e-003 1.61137432e-002 1.70616116e-002
      1.23222750e-002 1.04265399e-002 1.32701416e-002 9.47867334e-003
      5.68720372e-003 8.53080582e-003 1.70616116e-002 9.47867334e-003
      1.51658766e-002 8.53080582e-003 6.63507078e-003 1.42180091e-002
      7.58293830e-003 4.73933667e-003 9.47867334e-003 1.23222750e-002
      1.04265399e-002 8.53080582e-003 9.47867334e-003 1.61137432e-002
      3.79146915e-003 1.32701416e-002 4.73933667e-003 9.47867334e-003
      9.47867334e-003 1.04265399e-002 9.47867334e-003 7.58293830e-003
      5.68720372e-003 5.68720372e-003 8.53080582e-003 1.42180091e-002
      8.53080582e-003 9.47867334e-003 2.84360186e-003 1.32701416e-002
      1.13744074e-002 1.13744074e-002 5.68720372e-003 1.61137432e-002
      1.23222750e-002 1.13744074e-002 5.68720372e-003 6.63507078e-003
      1.32701416e-002 2.27488149e-002 4.73933667e-003 8.53080582e-003
      6.63507078e-003 1.32701416e-002 6.63507078e-003 1.04265399e-002
      1.13744074e-002 1.04265399e-002 5.68720372e-003 4.73933667e-003</_>
    <_>
      1.00452034e-002 1.20542441e-002 1.15519837e-002 1.40632847e-002
      1.35610243e-002 1.65745858e-002 7.03164237e-003 6.52938243e-003
      1.15519837e-002 8.03616270e-003 1.10497233e-002 5.02260169e-003
      1.55700650e-002 1.25565045e-002 1.00452034e-002 9.54294298e-003
      8.03616270e-003 8.53842311e-003 2.51130085e-003 1.25565045e-002
      1.50678046e-002 6.52938243e-003 1.25565045e-002 1.00452034e-003
      1.45655451e-002 1.40632847e-002 1.00452034e-002 7.03164237e-003
      5.02260169e-003 7.03164237e-003 1.10497233e-002 8.03616270e-003
      5.02260169e-003 1.70768462e-002 4.52034175e-003 1.50678046e-002
      9.54294298e-003 4.01808135e-003 1.45655451e-002 1.35610243e-002
      1.50678046e-002 4.01808135e-003 1.10497233e-002 2.10949276e-002
      8.53842311e-003 1.00452034e-002 2.81265695e-002 7.03164237e-003
      1.05474638e-002 1.75791066e-002 1.15519837e-002 8.53842311e-003
      1.00452034e-002 9.54294298e-003 1.40632847e-002 8.03616270e-003
      6.52938243e-003 1.15519837e-002 5.02260169e-003 4.52034175e-003
      1.00452034e-002 1.50678046e-002 5.52486163e-003 9.04068351e-003
      1.30587649e-002 1.00452034e-002 4.52034175e-003 5.52486163e-003
      8.03616270e-003 9.54294298e-003 2.00904068e-003 1.35610243e-002
      1.20542441e-002 6.52938243e-003 2.51130085e-003 1.05474638e-002
      5.02260169e-003 1.05474638e-002 1.25565045e-002 1.80813670e-002
      9.04068351e-003 1.05474638e-002 1.35610243e-002 1.65745858e-002
      8.03616270e-003 9.04068351e-003 1.15519837e-002 5.52486163e-003
      1.10497233e-002 1.55700650e-002 3.01356101e-003 6.52938243e-003
      7.53390230e-003 1.25565045e-002 7.53390230e-003 9.54294298e-003
      1.20542441e-002 6.02712203e-003 2.00904068e-003 1.45655451e-002</_>
    <_>
      1.31964814e-002 1.02639291e-002 1.61290318e-002 8.79765395e-003
      7.33137829e-003 1.46627566e-002 1.46627566e-002 1.17302053e-002
      1.31964814e-002 1.02639291e-002 2.49266867e-002 2.93255132e-003
      7.33137829e-003 2.93255132e-003 1.75953079e-002 7.33137829e-003
      1.46627566e-002 1.17302053e-002 5.86510263e-003 8.79765395e-003
      2.19941344e-002 7.33137829e-003 1.46627566e-002 8.79765395e-003
      1.46627566e-003 1.61290318e-002 4.39882698e-003 1.02639291e-002
      2.93255132e-003 1.02639291e-002 8.79765395e-003 8.79765395e-003
      1.75953079e-002 4.39882698e-003 1.02639291e-002 1.02639291e-002
      5.86510263e-003 8.79765395e-003 2.19941344e-002 7.33137829e-003
      8.79765395e-003 7.33137829e-003 1.90615840e-002 1.46627566e-002
      4.39882698e-003 1.46627566e-003 3.22580636e-002 1.02639291e-002
      7.33137829e-003 1.90615840e-002 1.61290318e-002 8.79765395e-003
      1.02639291e-002 5.86510263e-003 7.33137829e-003 2.93255132e-003
      1.02639291e-002 1.02639291e-002 5.86510263e-003 1.02639291e-002
      7.33137829e-003 1.17302053e-002 2.93255132e-003 5.86510263e-003
      2.93255132e-003 4.39882698e-003 1.17302053e-002 8.79765395e-003
      7.33137829e-003 4.39882698e-003 8.79765395e-003 1.75953079e-002
      1.17302053e-002 0. 7.33137829e-003 1.17302053e-002 1.46627566e-002
      1.02639291e-002 1.17302053e-002 1.31964814e-002 8.79765395e-003
      1.02639291e-002 2.93255132e-003 1.61290318e-002 1.17302053e-002
      8.79765395e-003 1.31964814e-002 1.02639291e-002 8.79765395e-003
      7.33137829e-003 7.33137829e-003 8.79765395e-003 1.46627566e-002
      1.02639291e-002 1.02639291e-002 1.02639291e-002 8.79765395e-003
      4.39882698e-003 4.39882698e-003 8.79765395e-003</_>
    <_>
      1.19712688e-002 1.91540308e-002 7.18276156e-003 4.78850771e-003
      7.98084587e-003 1.03751002e-002 1.03751002e-002 7.98084587e-003
      9.57701541e-003 1.43655231e-002 1.03751002e-002 6.38467679e-003
      1.03751002e-002 1.11731840e-002 1.35674383e-002 7.98084587e-003
      1.03751002e-002 1.35674383e-002 6.38467679e-003 1.03751002e-002
      9.57701541e-003 1.03751002e-002 8.77893064e-003 2.39425385e-003
      1.59616917e-002 1.59616917e-002 1.43655231e-002 2.39425385e-003
      5.58659201e-003 2.39425385e-003 6.38467679e-003 4.78850771e-003
      2.79329605e-002 7.18276156e-003 8.77893064e-003 1.19712688e-002
      9.57701541e-003 8.77893064e-003 2.07502004e-002 7.98084587e-003
      1.51636070e-002 3.19233839e-003 1.11731840e-002 1.27693536e-002
      1.19712688e-002 4.78850771e-003 2.15482842e-002 7.98084587e-003
      1.75578613e-002 2.07502004e-002 2.63367910e-002 6.38467679e-003
      1.11731840e-002 7.18276156e-003 7.18276156e-003 4.78850771e-003
      9.57701541e-003 8.77893064e-003 7.98084587e-003 8.77893064e-003
      7.18276156e-003 1.03751002e-002 4.78850771e-003 2.39425385e-003
      1.51636070e-002 1.75578613e-002 7.18276156e-003 7.98084587e-003
      1.03751002e-002 8.77893064e-003 7.98084587e-003 9.57701541e-003
      7.98084587e-003 6.38467679e-003 6.38467679e-003 8.77893064e-003
      4.78850771e-003 1.51636070e-002 6.38467679e-003 7.98084587e-003
      7.98084587e-003 9.57701541e-003 8.77893064e-003 8.77893064e-003
      1.19712688e-002 9.57701541e-003 8.77893064e-003 7.18276156e-003
      9.57701541e-003 1.91540308e-002 5.58659201e-003 1.35674383e-002
      1.11731840e-002 1.19712688e-002 3.99042293e-003 1.03751002e-002
      7.18276156e-003 1.19712688e-002 7.18276156e-003 1.11731840e-002</_>
    <_>
      1.52439019e-002 1.52439019e-002 7.11382087e-003 7.11382087e-003
      9.14634112e-003 1.11788614e-002 1.11788614e-002 7.11382087e-003
      7.11382087e-003 6.09756075e-003 9.14634112e-003 1.01626012e-002
      1.01626012e-002 7.11382087e-003 1.11788614e-002 1.11788614e-002
      3.04878037e-002 9.14634112e-003 8.13008100e-003 1.32113816e-002
      3.04878037e-003 3.04878037e-003 1.01626012e-002 4.06504050e-003
      6.09756075e-003 8.13008100e-003 1.32113816e-002 1.32113816e-002
      7.11382087e-003 1.52439019e-002 1.32113816e-002 1.11788614e-002
      1.72764212e-002 9.14634112e-003 6.09756075e-003 8.13008100e-003
      6.09756075e-003 1.93089433e-002 1.01626012e-002 1.72764212e-002
      1.01626012e-002 4.06504050e-003 3.04878037e-003 1.93089433e-002
      3.04878037e-003 4.06504050e-003 3.15040648e-002 1.11788614e-002
      8.13008100e-003 1.42276417e-002 1.01626012e-002 1.21951215e-002
      1.42276417e-002 8.13008100e-003 4.06504050e-003 1.42276417e-002
      4.06504050e-003 2.03252025e-003 8.13008100e-003 7.11382087e-003
      1.62601620e-002 7.11382087e-003 7.11382087e-003 3.04878037e-003
      1.32113816e-002 5.08130062e-003 1.01626012e-002 7.11382087e-003
      6.09756075e-003 1.52439019e-002 6.09756075e-003 8.13008100e-003
      2.03252025e-002 1.52439019e-002 6.09756075e-003 1.01626012e-002
      5.08130062e-003 9.14634112e-003 1.21951215e-002 6.09756075e-003
      7.11382087e-003 1.21951215e-002 4.06504050e-003 1.72764212e-002
      1.72764212e-002 9.14634112e-003 1.01626012e-002 6.09756075e-003
      1.11788614e-002 4.06504050e-003 9.14634112e-003 8.13008100e-003
      1.01626012e-002 8.13008100e-003 1.72764212e-002 1.32113816e-002
      8.13008100e-003 1.32113816e-002 5.08130062e-003 9.14634112e-003</_>
    <_>
      1.08173080e-002 2.04326939e-002 9.61538497e-003 8.41346197e-003
      1.08173080e-002 7.21153896e-003 3.00480779e-002 1.08173080e-002
      6.00961549e-003 8.41346197e-003 1.08173080e-002 6.00961549e-003
      3.60576948e-003 4.80769249e-003 8.41346197e-003 1.80288460e-002
      3.96634638e-002 3.60576948e-003 2.40384624e-003 4.80769249e-003
      1.44230779e-002 7.21153896e-003 6.00961549e-003 1.44230779e-002
      6.00961549e-003 8.41346197e-003 6.00961549e-003 1.20192312e-003
      1.20192310e-002 4.80769249e-003 9.61538497e-003 1.44230779e-002
      1.44230779e-002 4.80769249e-003 1.56250000e-002 7.21153896e-003
      1.44230779e-002 1.20192310e-002 2.40384620e-002 1.08173080e-002
      6.00961549e-003 6.00961549e-003 3.60576948e-003 1.80288460e-002
      7.21153896e-003 1.20192312e-003 3.12500000e-002 1.32211540e-002
      6.00961549e-003 2.04326939e-002 1.56250000e-002 1.32211540e-002
      8.41346197e-003 1.44230779e-002 1.08173080e-002 8.41346197e-003
      1.92307699e-002 0. 7.21153896e-003 3.60576948e-003 7.21153896e-003
      1.56250000e-002 1.44230779e-002 1.68269239e-002 6.00961549e-003
      8.41346197e-003 7.21153896e-003 1.20192312e-003 1.68269239e-002
      1.08173080e-002 1.20192310e-002 8.41346197e-003 3.60576948e-003
      3.60576948e-003 2.40384620e-002 4.80769249e-003 8.41346197e-003
      7.21153896e-003 6.00961549e-003 1.08173080e-002 2.40384624e-003
      6.00961549e-003 7.21153896e-003 9.61538497e-003 7.21153896e-003
      1.32211540e-002 6.00961549e-003 7.21153896e-003 8.41346197e-003
      2.40384624e-003 6.00961549e-003 9.61538497e-003 1.08173080e-002
      7.21153896e-003 1.56250000e-002 1.56250000e-002 9.61538497e-003
      2.40384624e-003 4.80769249e-003 8.41346197e-003</_>
    <_>
      1.43430866e-002 8.60585179e-003 8.60585179e-003 4.58978768e-003
      1.31956395e-002 1.77854281e-002 5.73723461e-004 3.44234076e-003
      6.31095795e-003 9.75329895e-003 1.03270225e-002 1.20481923e-002
      2.29489394e-002 1.77854281e-002 1.09007461e-002 5.16351126e-003
      4.01606411e-003 4.58978768e-003 4.58978768e-003 1.26219159e-002
      1.26219159e-002 1.20481923e-002 1.26219159e-002 8.60585179e-003
      1.26219159e-002 2.06540450e-002 8.03212821e-003 1.37693631e-002
      4.01606411e-003 4.58978768e-003 2.06540450e-002 4.58978768e-003
      1.26219159e-002 9.75329895e-003 4.01606411e-003 6.31095795e-003
      2.00803205e-002 4.58978768e-003 5.16351126e-003 1.49168102e-002
      1.66379809e-002 8.03212821e-003 9.17957537e-003 4.58978768e-003
      1.66379809e-002 1.14744697e-002 4.58978768e-003 1.03270225e-002
      8.03212821e-003 2.23752148e-002 6.31095795e-003 6.31095795e-003
      1.49168102e-002 1.49168102e-002 1.43430866e-002 5.73723484e-003
      4.58978768e-003 1.14744697e-002 7.45840510e-003 9.17957537e-003
      1.72117036e-002 1.20481923e-002 5.16351126e-003 6.88468153e-003
      8.60585179e-003 1.26219159e-002 6.88468153e-003 6.31095795e-003
      8.03212821e-003 1.26219159e-002 5.73723461e-004 1.26219159e-002
      1.54905338e-002 4.01606411e-003 1.14744692e-003 9.75329895e-003
      5.16351126e-003 1.37693631e-002 1.31956395e-002 1.54905338e-002
      4.01606411e-003 1.77854281e-002 1.60642564e-002 1.43430866e-002
      1.09007461e-002 6.88468153e-003 1.31956395e-002 6.31095795e-003
      9.75329895e-003 1.37693631e-002 2.29489384e-003 1.14744697e-002
      1.14744697e-002 1.43430866e-002 2.29489384e-003 1.03270225e-002
      1.37693631e-002 5.73723484e-003 2.29489384e-003 1.37693631e-002</_>
    <_>
      4.43704939e-003 1.10926237e-002 8.87409877e-003 3.88241815e-003
      3.88241815e-003 7.76483631e-003 2.38491409e-002 1.22018857e-002
      6.10094285e-003 6.65557384e-003 6.65557384e-003 7.76483631e-003
      6.10094285e-003 2.77315592e-003 9.42873023e-003 1.16472542e-002
      1.60843041e-002 9.98336077e-003 1.94120910e-002 1.05379922e-002
      7.76483631e-003 1.16472542e-002 2.77315592e-003 8.87409877e-003
      3.88241815e-003 3.88241815e-003 6.65557384e-003 0. 8.87409877e-003
      7.76483631e-003 7.21020531e-003 1.55296726e-002 3.82695496e-002
      2.77315592e-003 3.88241815e-003 3.32778692e-003 1.10926235e-003
      1.22018857e-002 9.98336077e-003 1.44204106e-002 4.99168038e-003
      5.54631185e-003 6.10094285e-003 8.54132026e-002 0. 7.76483631e-003
      1.71935670e-002 6.65557384e-003 4.99168038e-003 5.54631185e-003
      1.33111477e-002 6.65557384e-003 5.54631185e-003 2.99500842e-002
      6.10094285e-003 6.10094285e-003 1.16472542e-002 5.54631185e-003
      9.42873023e-003 4.04880755e-002 1.60843041e-002 1.55296726e-002
      5.54631185e-003 1.05379922e-002 7.21020531e-003 4.43704939e-003
      3.88241815e-003 6.65557384e-003 1.38657792e-002 1.77481975e-002
      9.98336077e-003 6.65557384e-003 8.87409877e-003 2.21852469e-003
      2.27398779e-002 7.21020531e-003 5.54631185e-003 6.10094285e-003
      1.27565172e-002 2.21852469e-003 1.44204106e-002 6.10094285e-003
      9.98336077e-003 1.27565172e-002 8.87409877e-003 6.10094285e-003
      4.99168038e-003 2.77315592e-003 6.65557384e-003 2.77315592e-003
      1.27565172e-002 5.54631185e-003 4.43704939e-003 5.54631185e-003
      2.05213539e-002 6.65557384e-003 6.10094285e-003 1.44204106e-002
      1.83028281e-002 5.54631185e-003</_>
    <_>
      8.29875562e-003 1.16182575e-002 4.14937781e-003 9.95850656e-003
      7.46887969e-003 1.24481330e-002 1.41078839e-002 9.12863109e-003
      1.32780084e-002 9.12863109e-003 4.14937781e-003 4.97925328e-003
      1.32780084e-002 1.07883820e-002 1.07883820e-002 4.14937781e-003
      2.24066395e-002 3.31950211e-003 4.97925328e-003 1.32780084e-002
      5.80912875e-003 5.80912875e-003 1.99170131e-002 9.12863109e-003
      1.65975112e-002 1.65975112e-002 6.63900422e-003 1.65975112e-002
      9.95850656e-003 4.14937781e-003 1.65975112e-002 6.63900422e-003
      4.14937781e-003 8.29875562e-003 5.80912875e-003 9.12863109e-003
      1.99170131e-002 8.29875562e-003 2.24066395e-002 9.12863109e-003
      1.07883820e-002 7.46887969e-003 4.14937781e-003 1.07883820e-002
      7.46887969e-003 9.12863109e-003 1.32780084e-002 9.12863109e-003
      1.24481330e-002 1.74273867e-002 9.12863109e-003 6.63900422e-003
      4.97925328e-003 1.32780084e-002 8.29875562e-003 1.16182575e-002
      9.12863109e-003 1.24481330e-002 8.29875562e-003 5.80912875e-003
      1.41078839e-002 1.07883820e-002 6.63900422e-003 8.29875562e-003
      2.48962664e-003 1.82572622e-002 9.12863109e-003 6.63900422e-003
      1.57676358e-002 6.63900422e-003 5.80912875e-003 7.46887969e-003
      7.46887969e-003 8.29875562e-003 4.97925328e-003 8.29875562e-003
      4.14937781e-003 1.57676358e-002 9.95850656e-003 1.49377594e-002
      2.48962664e-003 1.07883820e-002 1.24481330e-002 7.46887969e-003
      8.29875562e-003 7.46887969e-003 4.97925328e-003 1.16182575e-002
      1.82572622e-002 1.16182575e-002 9.12863109e-003 1.24481330e-002
      5.80912875e-003 1.74273867e-002 2.40663905e-002 7.46887969e-003
      1.07883820e-002 7.46887969e-003 8.29875562e-003 1.07883820e-002</_>
    <_>
      1.19680846e-002 1.59574468e-002 5.31914877e-003 3.98936169e-003
      3.98936169e-003 3.98936169e-003 1.46276588e-002 6.64893584e-003
      1.06382975e-002 2.65957438e-003 6.64893584e-003 7.97872338e-003
      7.97872338e-003 5.31914877e-003 1.32978719e-003 1.19680846e-002
      2.52659563e-002 2.65957438e-003 2.26063821e-002 5.31914877e-003
      1.06382975e-002 2.65957438e-003 3.98936169e-003 1.19680846e-002
      3.98936169e-003 6.64893584e-003 7.97872338e-003 5.31914877e-003
      2.52659563e-002 1.19680846e-002 3.98936169e-003 1.59574468e-002
      1.59574468e-002 7.97872338e-003 9.30851046e-003 1.19680846e-002
      7.97872338e-003 1.72872338e-002 1.46276588e-002 6.64893584e-003
      5.31914877e-003 1.99468080e-002 5.31914877e-003 2.12765951e-002
      3.98936169e-003 2.65957438e-003 3.45744677e-002 1.72872338e-002
      9.30851046e-003 5.31914877e-003 7.97872338e-003 1.46276588e-002
      5.31914877e-003 1.19680846e-002 1.06382975e-002 2.65957434e-002
      3.98936169e-003 5.31914877e-003 2.65957438e-003 2.26063821e-002
      6.64893584e-003 7.97872338e-003 2.65957438e-003 7.97872338e-003
      9.30851046e-003 6.64893584e-003 2.79255304e-002 1.32978717e-002
      1.06382975e-002 3.98936169e-003 3.32446806e-002 1.32978719e-003
      6.64893584e-003 9.30851046e-003 3.05851046e-002 5.31914877e-003
      1.06382975e-002 9.30851046e-003 1.32978719e-003 6.64893584e-003
      6.64893584e-003 6.64893584e-003 6.64893584e-003 1.32978717e-002
      9.30851046e-003 1.06382975e-002 9.30851046e-003 3.98936169e-003
      5.31914877e-003 5.31914877e-003 1.06382975e-002 6.64893584e-003
      1.32978719e-003 5.31914877e-003 1.06382975e-002 1.19680846e-002
      2.65957438e-003 5.31914877e-003 3.72340418e-002 3.98936169e-003</_>
    <_>
      9.24397446e-003 1.12248259e-002 1.28755365e-002 9.57411621e-003
      1.02344006e-002 1.71673819e-002 7.92340655e-003 5.61241293e-003
      6.93298085e-003 1.12248259e-002 1.12248259e-002 7.59326480e-003
      1.12248259e-002 1.05645424e-002 1.61769558e-002 4.95212944e-003
      1.91482324e-002 1.08946841e-002 4.95212944e-003 1.08946841e-002
      9.57411621e-003 1.08946841e-002 9.57411621e-003 4.95212944e-003
      1.35358199e-002 9.90425888e-003 6.93298085e-003 5.94255514e-003
      9.90425888e-003 9.24397446e-003 1.22152520e-002 2.64113559e-003
      5.61241293e-003 9.24397446e-003 3.63156153e-003 1.38659617e-002
      5.94255514e-003 4.95212944e-003 1.38659617e-002 1.51865296e-002
      8.58369097e-003 8.91383272e-003 1.05645424e-002 1.45262461e-002
      1.84879489e-002 1.51865296e-002 3.82964648e-002 7.59326480e-003
      4.29184549e-003 1.18851103e-002 8.91383272e-003 1.32056782e-002
      1.15549685e-002 1.05645424e-002 9.24397446e-003 8.91383272e-003
      3.63156153e-003 9.24397446e-003 1.18851103e-002 9.90425888e-003
      9.90425888e-003 1.12248259e-002 1.08946841e-002 1.18851103e-002
      8.25354829e-003 7.59326480e-003 5.28227119e-003 8.25354829e-003
      3.96170327e-003 1.08946841e-002 1.32056780e-003 1.18851103e-002
      1.55166714e-002 1.08946841e-002 1.12248259e-002 1.48563879e-002
      6.27269689e-003 1.12248259e-002 8.91383272e-003 1.05645424e-002
      8.25354829e-003 1.08946841e-002 5.61241293e-003 1.51865296e-002
      9.90425888e-003 7.26312306e-003 6.93298085e-003 6.93298085e-003
      1.15549685e-002 1.18851103e-002 2.64113559e-003 1.41961034e-002
      9.24397446e-003 1.12248259e-002 7.92340655e-003 9.57411621e-003
      1.32056782e-002 1.05645424e-002 1.98085164e-003 1.15549685e-002</_>
    <_>
      1.11111114e-002 1.22807017e-002 8.77192989e-003 8.77192989e-003
      8.77192989e-003 1.34502919e-002 1.22807017e-002 1.34502919e-002
      9.35672503e-003 1.16959065e-002 1.46198831e-002 9.94152017e-003
      9.94152017e-003 9.35672503e-003 4.67836251e-003 1.05263153e-002
      1.63742695e-002 9.94152017e-003 5.26315765e-003 1.46198831e-002
      1.52046783e-002 5.84795326e-003 1.40350871e-002 1.22807017e-002
      9.35672503e-003 1.16959065e-002 1.40350871e-002 4.09356738e-003
      5.84795326e-003 1.63742695e-002 1.63742695e-002 8.18713475e-003
      8.18713475e-003 8.77192989e-003 1.11111114e-002 8.18713475e-003
      5.84795326e-003 1.28654968e-002 7.60233914e-003 7.01754354e-003
      1.40350871e-002 7.60233914e-003 9.94152017e-003 1.46198831e-002
      1.11111114e-002 5.84795326e-003 1.87134501e-002 6.43274840e-003
      1.05263153e-002 1.28654968e-002 1.40350871e-002 8.18713475e-003
      7.60233914e-003 1.05263153e-002 8.77192989e-003 9.94152017e-003
      1.05263153e-002 7.01754354e-003 9.35672503e-003 6.43274840e-003
      1.11111114e-002 8.77192989e-003 2.92397663e-003 5.26315765e-003
      5.26315765e-003 1.92982461e-002 1.22807017e-002 1.11111114e-002
      8.77192989e-003 9.35672503e-003 1.22807017e-002 1.16959065e-002
      9.35672503e-003 3.50877177e-003 8.77192989e-003 7.60233914e-003
      1.46198831e-002 9.35672503e-003 9.35672503e-003 1.11111114e-002
      1.16959065e-002 7.01754354e-003 7.01754354e-003 6.43274840e-003
      9.94152017e-003 1.40350871e-002 8.77192989e-003 5.26315765e-003
      9.35672503e-003 9.35672503e-003 1.63742695e-002 9.94152017e-003
      4.67836251e-003 1.11111114e-002 1.05263153e-002 8.18713475e-003
      1.34502919e-002 7.60233914e-003 7.01754354e-003 8.18713475e-003</_>
    <_>
      1.25733446e-002 1.17351217e-002 1.42497905e-002 2.51466897e-003
      5.02933795e-003 2.17937976e-002 2.26320196e-002 8.38223007e-003
      1.17351217e-002 1.17351217e-002 9.22045298e-003 5.02933795e-003
      6.70578377e-003 7.54400669e-003 1.34115675e-002 1.59262363e-002
      3.43671404e-002 6.70578377e-003 9.22045298e-003 6.70578377e-003
      1.17351217e-002 7.54400669e-003 8.38223007e-003 8.38223007e-003
      1.17351217e-002 1.00586759e-002 5.02933795e-003 1.00586759e-002
      8.38223007e-003 1.08968988e-002 1.42497905e-002 1.34115675e-002
      1.42497905e-002 1.25733446e-002 2.51466897e-003 1.34115675e-002
      7.54400669e-003 1.76026821e-002 1.00586759e-002 1.50880134e-002
      5.02933795e-003 5.86756086e-003 5.02933795e-003 1.50880134e-002
      1.84409060e-002 9.22045298e-003 2.09555738e-002 3.35289189e-003
      1.17351217e-002 3.35289189e-003 1.92791279e-002 5.86756086e-003
      1.67644601e-002 6.70578377e-003 5.02933795e-003 8.38223007e-003
      1.59262363e-002 1.08968988e-002 8.38223007e-003 1.08968988e-002
      5.02933795e-003 6.70578377e-003 4.19111503e-003 7.54400669e-003
      3.35289189e-003 3.35289189e-003 5.02933795e-003 5.02933795e-003
      2.09555738e-002 6.70578377e-003 4.19111503e-003 5.86756086e-003
      1.00586759e-002 4.19111503e-003 1.50880134e-002 8.38223007e-003
      1.25733446e-002 4.19111503e-003 1.34115675e-002 5.86756086e-003
      1.00586759e-002 4.19111503e-003 9.22045298e-003 2.09555738e-002
      1.92791279e-002 1.17351217e-002 9.22045298e-003 5.86756086e-003
      8.38223007e-003 7.54400669e-003 5.02933795e-003 1.59262363e-002
      1.00586759e-002 6.70578377e-003 7.54400669e-003 1.00586759e-002
      1.25733446e-002 4.19111503e-003 1.67644594e-003 1.17351217e-002</_>
    <_>
      0. 1.96078443e-003 5.88235352e-003 1.76470596e-002 1.76470596e-002
      7.84313772e-003 2.94117667e-002 1.96078443e-003 0. 3.92156886e-003
      0. 1.56862754e-002 1.96078443e-003 3.92156886e-003 1.96078443e-003
      1.96078438e-002 1.56862754e-002 3.92156886e-003 3.72549035e-002
      5.88235352e-003 0. 3.92156886e-003 0. 3.52941193e-002
      1.96078443e-003 1.96078443e-003 1.96078443e-003 3.92156886e-003
      1.17647070e-002 5.88235352e-003 3.92156886e-003 9.80392192e-003
      1.37254912e-002 9.80392192e-003 3.92156886e-003 1.37254912e-002
      1.96078443e-003 1.76470596e-002 1.37254912e-002 3.92156877e-002 0.
      1.76470596e-002 1.96078443e-003 1.17647070e-002 0. 0.
      2.94117667e-002 3.13725509e-002 1.96078443e-003 3.92156886e-003
      1.37254912e-002 9.80392192e-003 5.88235352e-003 1.37254912e-002
      3.92156886e-003 7.45098069e-002 9.80392192e-003 0. 3.92156886e-003
      2.15686280e-002 7.84313772e-003 1.37254912e-002 4.90196124e-002
      9.80392192e-003 1.96078443e-003 0. 3.92156886e-003 9.80392192e-003
      1.56862754e-002 1.37254912e-002 5.88235352e-003 0. 1.96078438e-002
      4.31372561e-002 2.94117667e-002 1.37254912e-002 3.92156886e-003 0.
      0. 7.84313772e-003 1.96078443e-003 7.84313772e-003 3.92156886e-003
      0. 1.96078443e-003 5.88235352e-003 1.96078443e-003 0.
      1.96078443e-003 0. 1.76470596e-002 0. 0. 5.88235352e-003 0.
      3.72549035e-002 9.80392192e-003 3.92156886e-003 7.84313772e-003
      1.96078443e-003</_>
    <_>
      1.14583336e-002 8.33333377e-003 1.56250000e-002 4.16666688e-003
      9.37500037e-003 2.39583347e-002 2.08333344e-003 2.08333344e-003
      5.20833349e-003 6.25000056e-003 1.56250000e-002 7.29166716e-003
      1.25000011e-002 8.33333377e-003 2.08333340e-002 7.29166716e-003
      3.85416672e-002 3.12500028e-003 4.16666688e-003 5.20833349e-003
      1.56250000e-002 5.20833349e-003 1.14583336e-002 8.33333377e-003
      1.04166670e-002 2.08333344e-003 6.25000056e-003 2.08333344e-003
      8.33333377e-003 1.25000011e-002 3.12500028e-003 8.33333377e-003
      4.79166694e-002 7.29166716e-003 5.20833349e-003 1.25000011e-002
      7.29166716e-003 7.29166716e-003 8.33333377e-003 1.45833343e-002
      9.37500037e-003 5.20833349e-003 7.29166716e-003 2.81250011e-002
      1.97916683e-002 7.29166716e-003 6.87500015e-002 4.16666688e-003
      3.12500028e-003 9.37500037e-003 4.16666688e-003 1.14583336e-002
      1.45833343e-002 8.33333377e-003 2.08333344e-003 1.45833343e-002
      7.29166716e-003 1.35416677e-002 4.16666688e-003 8.33333377e-003
      7.29166716e-003 6.25000056e-003 8.33333377e-003 1.45833343e-002
      8.33333377e-003 7.29166716e-003 2.08333344e-003 1.14583336e-002
      8.33333377e-003 7.29166716e-003 3.12500028e-003 8.33333377e-003
      1.35416677e-002 7.29166716e-003 1.04166672e-003 1.04166670e-002
      4.16666688e-003 1.14583336e-002 1.14583336e-002 1.35416677e-002
      7.29166716e-003 7.29166716e-003 9.37500037e-003 1.56250000e-002
      1.77083351e-002 1.25000011e-002 8.33333377e-003 3.12500028e-003
      6.25000056e-003 9.37500037e-003 2.08333344e-003 1.77083351e-002
      7.29166716e-003 1.04166672e-003 1.14583336e-002 4.16666688e-003
      9.37500037e-003 6.25000056e-003 0. 1.14583336e-002</_>
    <_>
      1.53846154e-002 4.61538462e-003 1.07692312e-002 1.53846154e-003
      3.07692308e-003 1.23076923e-002 1.23076923e-002 1.53846154e-002
      1.84615385e-002 3.07692308e-003 1.23076923e-002 7.69230770e-003
      1.23076923e-002 9.23076924e-003 1.07692312e-002 7.69230770e-003
      3.38461548e-002 6.15384616e-003 3.07692308e-003 6.15384616e-003
      9.23076924e-003 7.69230770e-003 6.15384616e-003 4.61538462e-003
      1.38461534e-002 1.53846154e-002 1.38461534e-002 6.15384616e-003
      1.07692312e-002 1.84615385e-002 7.69230770e-003 4.61538462e-003
      1.38461534e-002 6.15384616e-003 1.07692312e-002 1.07692312e-002
      1.69230774e-002 1.53846154e-003 1.69230774e-002 6.15384616e-003
      1.07692312e-002 1.38461534e-002 7.69230770e-003 1.38461534e-002
      1.23076923e-002 6.15384616e-003 2.92307697e-002 7.69230770e-003
      1.53846154e-002 1.07692312e-002 1.23076923e-002 1.53846154e-003
      1.07692312e-002 9.23076924e-003 1.07692312e-002 1.23076923e-002
      3.07692308e-003 9.23076924e-003 7.69230770e-003 7.69230770e-003
      6.15384616e-003 1.53846154e-002 6.15384616e-003 1.53846154e-003
      9.23076924e-003 9.23076924e-003 1.53846154e-003 1.53846154e-002
      6.15384616e-003 7.69230770e-003 3.07692308e-003 1.07692312e-002
      9.23076924e-003 6.15384616e-003 0. 1.38461534e-002 1.84615385e-002
      1.23076923e-002 1.53846154e-003 1.99999996e-002 3.07692308e-003
      1.84615385e-002 1.07692312e-002 9.23076924e-003 1.99999996e-002
      1.84615385e-002 2.46153846e-002 7.69230770e-003 1.07692312e-002
      2.15384625e-002 1.53846154e-003 6.15384616e-003 1.07692312e-002
      7.69230770e-003 4.61538462e-003 4.61538462e-003 9.23076924e-003
      4.61538462e-003 4.61538462e-003 7.69230770e-003</_>
    <_>
      1.63043477e-002 1.52173908e-002 1.73913036e-002 7.60869542e-003
      3.26086953e-003 1.95652172e-002 2.60869563e-002 1.19565213e-002
      1.41304340e-002 1.19565213e-002 2.17391290e-002 6.52173907e-003
      3.26086953e-003 5.43478224e-003 9.78260860e-003 1.19565213e-002
      1.95652172e-002 1.19565213e-002 1.84782594e-002 4.34782589e-003
      1.52173908e-002 6.52173907e-003 3.26086953e-003 2.28260867e-002
      4.34782589e-003 7.60869542e-003 7.60869542e-003 2.17391294e-003
      4.34782589e-003 1.30434781e-002 5.43478224e-003 7.60869542e-003
      7.60869542e-003 4.34782589e-003 8.69565178e-003 1.19565213e-002 0.
      1.30434781e-002 9.78260860e-003 9.78260860e-003 4.34782589e-003
      3.26086953e-003 1.08695645e-002 3.91304344e-002 4.34782589e-003
      2.17391294e-003 3.58695649e-002 1.08695645e-002 9.78260860e-003
      5.43478224e-003 1.52173908e-002 5.43478224e-003 7.60869542e-003
      8.69565178e-003 3.26086953e-003 1.30434781e-002 1.95652172e-002
      2.17391294e-003 7.60869542e-003 9.78260860e-003 5.43478224e-003
      4.34782589e-003 7.60869542e-003 7.60869542e-003 7.60869542e-003
      4.34782589e-003 3.26086953e-003 1.84782594e-002 1.63043477e-002
      8.69565178e-003 3.26086953e-003 9.78260860e-003 6.52173907e-003
      4.34782589e-003 7.60869542e-003 8.69565178e-003 1.52173908e-002
      4.34782589e-003 6.52173907e-003 1.08695645e-002 7.60869542e-003
      1.30434781e-002 8.69565178e-003 1.52173908e-002 1.30434781e-002
      8.69565178e-003 1.52173908e-002 4.34782589e-003 7.60869542e-003
      5.43478224e-003 2.06521731e-002 5.43478224e-003 4.34782589e-003
      3.26086953e-003 1.95652172e-002 1.30434781e-002 6.52173907e-003
      9.78260860e-003 9.78260860e-003 7.60869542e-003</_>
    <_>
      1.30841127e-002 1.86915901e-002 9.34579503e-003 4.67289751e-003
      1.86915894e-003 9.34579503e-003 2.61682253e-002 1.12149538e-002
      1.30841127e-002 1.30841127e-002 6.54205633e-003 2.42990665e-002
      2.80373846e-003 3.73831787e-003 1.86915894e-003 1.02803744e-002
      2.24299077e-002 1.02803744e-002 3.73831787e-003 7.47663574e-003
      2.80373846e-003 3.73831787e-003 3.73831787e-003 2.42990665e-002
      6.54205633e-003 3.73831787e-003 1.40186921e-002 5.60747692e-003
      1.12149538e-002 1.68224312e-002 8.41121562e-003 1.86915901e-002
      4.67289751e-003 7.47663574e-003 1.30841127e-002 2.80373846e-003
      1.86915894e-003 1.96261685e-002 1.21495333e-002 9.34579503e-003
      4.67289751e-003 8.41121562e-003 3.73831787e-003 4.67289751e-003
      9.34579468e-004 8.41121562e-003 1.77570097e-002 1.86915901e-002
      6.54205633e-003 9.34579503e-003 1.49532715e-002 9.34579503e-003
      7.47663574e-003 1.12149538e-002 1.02803744e-002 9.34579503e-003
      2.52336450e-002 3.73831787e-003 8.41121562e-003 5.60747692e-003
      1.30841127e-002 1.12149538e-002 1.68224312e-002 1.12149538e-002
      4.67289751e-003 9.34579503e-003 1.02803744e-002 1.86915901e-002
      1.49532715e-002 9.34579503e-003 9.34579503e-003 5.60747692e-003
      1.30841127e-002 2.24299077e-002 2.05607489e-002 1.12149538e-002
      9.34579503e-003 4.67289751e-003 1.02803744e-002 2.80373846e-003
      1.68224312e-002 2.80373846e-003 1.02803744e-002 1.86915894e-003
      7.47663574e-003 1.02803744e-002 5.60747692e-003 1.86915894e-003
      6.54205633e-003 3.73831787e-003 2.61682253e-002 4.67289751e-003
      8.41121562e-003 7.47663574e-003 7.47663574e-003 1.86915901e-002
      3.73831787e-003 1.40186921e-002 1.40186921e-002 5.60747692e-003</_>
    <_>
      1.36570558e-002 1.36570558e-002 1.97268594e-002 1.51745067e-003
      1.51745062e-002 1.66919567e-002 0. 4.55235224e-003 9.10470448e-003
      6.06980268e-003 1.97268594e-002 3.03490134e-003 1.51745067e-003
      4.55235224e-003 4.55235224e-003 3.03490134e-003 1.21396054e-002 0.
      1.51745067e-003 3.03490134e-003 2.57966612e-002 3.03490134e-003
      6.06980268e-003 1.51745067e-003 1.06221549e-002 0. 1.06221549e-002
      0. 9.10470448e-003 3.03490134e-003 0. 1.06221549e-002
      4.09711674e-002 2.27617603e-002 1.51745067e-003 3.79362665e-002 0.
      9.10470448e-003 2.12443098e-002 3.33839133e-002 1.51745067e-003
      4.55235224e-003 6.06980268e-003 5.15933223e-002 2.73141116e-002
      6.06980268e-003 5.00758737e-002 1.51745067e-003 1.51745067e-003
      9.10470448e-003 3.03490134e-003 1.21396054e-002 1.51745062e-002
      1.51745067e-003 3.03490134e-003 1.36570558e-002 3.03490134e-003
      1.06221549e-002 1.51745067e-003 6.06980268e-003 1.51745062e-002
      4.55235224e-003 1.36570558e-002 1.06221549e-002 6.06980268e-003
      7.58725312e-003 7.58725312e-003 1.51745067e-003 3.03490134e-003
      1.51745062e-002 0. 1.06221549e-002 0. 1.66919567e-002
      7.58725312e-003 2.73141116e-002 1.21396054e-002 7.58725312e-003
      3.03490134e-003 1.36570558e-002 0. 6.06980268e-003 3.03490134e-003
      1.97268594e-002 1.21396054e-002 1.51745062e-002 1.51745062e-002
      9.10470448e-003 4.55235224e-003 9.10470448e-003 1.51745067e-003
      3.03490134e-003 7.58725312e-003 3.03490134e-003 1.82094090e-002 0.
      2.27617603e-002 7.58725312e-003 0. 2.88315620e-002</_>
    <_>
      9.07821208e-003 2.51396634e-002 1.11731840e-002 9.07821208e-003
      8.37988779e-003 1.11731840e-002 5.58659201e-003 1.60614513e-002
      9.07821208e-003 1.32681560e-002 8.37988779e-003 1.04748597e-002
      9.07821208e-003 1.25698317e-002 9.77653638e-003 1.11731840e-002
      8.37988779e-003 1.60614513e-002 3.49162007e-003 9.77653638e-003
      5.58659201e-003 2.02513952e-002 1.18715083e-002 8.37988779e-003
      2.02513952e-002 2.02513952e-002 8.37988779e-003 8.37988779e-003
      7.68156396e-003 1.18715083e-002 1.04748597e-002 5.58659201e-003
      1.11731840e-002 1.11731840e-002 4.88826819e-003 6.98324014e-003
      1.11731840e-002 9.77653638e-003 1.95530728e-002 5.58659201e-003
      9.77653638e-003 6.28491584e-003 1.18715083e-002 2.09497195e-002
      1.25698317e-002 6.98324014e-003 1.60614513e-002 4.88826819e-003
      1.88547485e-002 1.53631279e-002 2.58379877e-002 9.77653638e-003
      5.58659201e-003 9.77653638e-003 7.68156396e-003 6.28491584e-003
      7.68156396e-003 6.98324014e-003 1.25698317e-002 6.98324014e-003
      7.68156396e-003 5.58659201e-003 1.39664800e-003 4.18994389e-003
      1.04748597e-002 2.09497195e-002 2.79329601e-003 9.07821208e-003
      1.32681560e-002 4.88826819e-003 6.28491584e-003 6.98324014e-003
      6.98324014e-003 2.09497195e-003 5.58659201e-003 7.68156396e-003
      8.37988779e-003 8.37988779e-003 8.37988779e-003 9.77653638e-003
      1.11731840e-002 6.98324014e-003 9.77653638e-003 1.04748597e-002
      9.07821208e-003 2.09497195e-003 9.77653638e-003 8.37988779e-003
      8.37988779e-003 1.32681560e-002 9.77653638e-003 1.25698317e-002
      1.25698317e-002 1.25698317e-002 4.18994389e-003 6.28491584e-003
      1.25698317e-002 1.25698317e-002 6.28491584e-003 1.11731840e-002</_>
    <_>
      1.17924530e-002 1.41509436e-002 1.41509436e-002 7.07547180e-003
      4.71698120e-003 1.65094342e-002 2.35849060e-003 7.07547180e-003
      2.35849060e-003 1.41509436e-002 7.07547180e-003 2.35849060e-003
      7.07547180e-003 7.07547180e-003 0. 2.12264154e-002 2.12264154e-002
      4.71698120e-003 2.59433966e-002 4.71698120e-003 1.17924530e-002
      4.71698120e-003 2.35849060e-003 1.65094342e-002 0. 7.07547180e-003
      1.17924530e-002 0. 7.07547180e-003 7.07547180e-003 0.
      1.17924530e-002 4.71698120e-003 4.71698120e-003 4.71698120e-003
      2.35849060e-003 0. 2.35849060e-003 2.35849060e-002 1.65094342e-002
      2.35849060e-003 4.71698120e-003 7.07547180e-003 7.54716992e-002
      2.35849060e-003 2.35849060e-003 3.53773609e-002 1.88679248e-002
      4.71698120e-003 9.43396240e-003 1.65094342e-002 1.65094342e-002
      1.17924530e-002 1.41509436e-002 7.07547180e-003 4.24528308e-002
      1.17924530e-002 4.71698120e-003 4.71698120e-003 3.06603778e-002
      1.41509436e-002 3.06603778e-002 4.71698120e-003 9.43396240e-003 0.
      4.71698120e-003 2.35849060e-003 4.71698120e-003 2.83018872e-002
      1.17924530e-002 2.35849060e-003 4.71698120e-003 9.43396240e-003
      1.41509436e-002 7.07547180e-003 1.17924530e-002 1.65094342e-002
      2.35849060e-003 7.07547180e-003 7.07547180e-003 1.17924530e-002
      7.07547180e-003 4.71698120e-003 2.35849060e-003 9.43396240e-003
      1.17924530e-002 1.41509436e-002 7.07547180e-003 1.17924530e-002
      2.35849060e-003 4.71698120e-003 2.35849060e-003 2.35849060e-003
      2.35849060e-003 9.43396240e-003 9.43396240e-003 9.43396240e-003
      7.07547180e-003 1.41509436e-002 4.71698120e-003</_>
    <_>
      7.02106301e-003 6.01805421e-003 1.50451353e-002 1.10330991e-002
      6.01805421e-003 1.70511529e-002 1.50451353e-002 8.02407227e-003
      1.10330991e-002 1.30391177e-002 1.50451353e-002 2.30692085e-002
      7.02106301e-003 7.02106301e-003 4.01203614e-003 7.02106301e-003
      2.60782354e-002 5.01504540e-003 9.02708154e-003 5.01504540e-003
      1.50451353e-002 4.01203614e-003 5.01504540e-003 2.00601807e-003
      4.01203614e-003 6.01805421e-003 1.00300908e-002 1.00300903e-003
      1.00300908e-002 6.01805421e-003 1.00300908e-002 6.01805421e-003
      9.02708154e-003 1.70511529e-002 8.02407227e-003 1.30391177e-002
      6.01805421e-003 2.00601807e-003 8.02407227e-003 1.70511529e-002
      1.00300908e-002 4.01203614e-003 4.01203614e-003 2.60782354e-002
      7.02106301e-003 2.00601807e-003 2.00601816e-002 1.00300908e-002
      6.01805421e-003 1.10330991e-002 9.02708154e-003 7.02106301e-003
      1.40421260e-002 8.02407227e-003 6.01805421e-003 2.70812437e-002
      7.02106301e-003 5.01504540e-003 5.01504540e-003 1.20361084e-002
      1.90571714e-002 1.00300908e-002 1.50451353e-002 1.10330991e-002
      4.01203614e-003 8.02407227e-003 1.10330991e-002 1.30391177e-002
      9.02708154e-003 8.02407227e-003 7.02106301e-003 1.00300908e-002
      1.20361084e-002 1.70511529e-002 2.10631900e-002 1.40421260e-002
      1.70511529e-002 1.00300908e-002 4.01203614e-003 1.10330991e-002
      8.02407227e-003 7.02106301e-003 9.02708154e-003 8.02407227e-003
      9.02708154e-003 1.40421260e-002 1.80541631e-002 4.01203614e-003
      1.70511529e-002 4.01203614e-003 4.01203614e-003 1.00300908e-002
      4.01203614e-003 2.00601807e-003 1.30391177e-002 1.10330991e-002
      1.90571714e-002 5.01504540e-003 7.02106301e-003 1.70511529e-002</_>
    <_>
      1.08882515e-002 1.77650433e-002 1.71919763e-002 4.58452711e-003
      6.30372483e-003 1.66189112e-002 8.59598815e-003 1.20343836e-002
      1.71919763e-002 1.03151863e-002 1.37535818e-002 4.58452711e-003
      5.73065877e-003 1.66189112e-002 8.59598815e-003 1.48997130e-002
      6.30372483e-003 1.60458442e-002 5.73065889e-004 8.59598815e-003
      2.00573057e-002 9.74212028e-003 1.31805157e-002 4.01146105e-003
      1.08882515e-002 1.20343836e-002 9.74212028e-003 3.43839545e-003
      8.02292209e-003 4.01146105e-003 1.48997130e-002 5.73065877e-003
      1.71919772e-003 1.08882515e-002 8.59598815e-003 1.20343836e-002
      8.02292209e-003 6.87679090e-003 1.48997130e-002 1.48997130e-002
      1.20343836e-002 6.30372483e-003 1.31805157e-002 5.73065877e-003
      7.44985649e-003 8.02292209e-003 9.74212028e-003 3.43839545e-003
      1.43266469e-002 1.20343836e-002 2.63610315e-002 5.73065877e-003
      1.14613175e-002 4.58452711e-003 9.16905422e-003 6.30372483e-003
      1.26074497e-002 6.87679090e-003 7.44985649e-003 4.01146105e-003
      1.20343836e-002 4.01146105e-003 6.30372483e-003 6.30372483e-003
      6.87679090e-003 1.77650433e-002 7.44985649e-003 1.03151863e-002
      8.02292209e-003 9.74212028e-003 1.03151863e-002 6.87679090e-003
      3.43839545e-003 9.16905422e-003 2.69340966e-002 1.03151863e-002
      1.31805157e-002 7.44985649e-003 9.74212028e-003 1.20343836e-002
      1.26074497e-002 6.87679090e-003 1.14613175e-002 1.37535818e-002
      6.30372483e-003 1.20343836e-002 9.74212028e-003 1.20343836e-002
      1.03151863e-002 1.14613175e-002 6.30372483e-003 9.74212028e-003
      6.87679090e-003 5.73065877e-003 1.08882515e-002 5.73065877e-003
      1.31805157e-002 1.08882515e-002 1.03151863e-002 1.77650433e-002</_>
    <_>
      2.04603579e-002 2.55754474e-003 7.67263398e-003 0. 1.02301789e-002
      1.53452680e-002 0. 0. 5.11508947e-003 7.67263398e-003
      1.27877239e-002 2.55754474e-003 7.67263398e-003 7.67263398e-003
      7.67263398e-003 2.55754474e-003 4.34782617e-002 5.11508947e-003
      7.67263398e-003 2.55754474e-003 2.55754474e-003 1.27877239e-002
      1.02301789e-002 2.04603579e-002 5.11508947e-003 1.02301789e-002
      5.11508947e-003 0. 7.67263398e-003 5.11508947e-003 5.11508947e-003
      2.81329919e-002 4.60358039e-002 0. 1.27877239e-002 2.55754474e-003
      2.55754474e-003 1.27877239e-002 8.69565234e-002 7.67263398e-003
      5.11508947e-003 2.55754474e-003 1.02301789e-002 6.90537095e-002
      2.55754478e-002 0. 8.43989775e-002 0. 5.11508947e-003 0.
      5.11508947e-003 5.11508947e-003 1.27877239e-002 2.55754474e-003
      2.55754474e-003 2.55754474e-003 2.55754474e-003 5.11508947e-003
      2.55754474e-003 1.79028139e-002 5.11508947e-003 1.02301789e-002
      2.55754474e-003 2.55754474e-003 1.53452680e-002 7.67263398e-003
      1.27877239e-002 5.11508947e-003 7.67263398e-003 2.55754474e-003
      2.55754474e-003 2.04603579e-002 2.55754474e-003 7.67263398e-003 0.
      5.11508947e-003 7.67263398e-003 7.67263398e-003 2.55754474e-003
      2.55754474e-003 2.55754474e-003 7.67263398e-003 5.11508947e-003
      1.02301789e-002 2.55754478e-002 1.02301789e-002 1.02301789e-002 0.
      1.53452680e-002 5.11508947e-003 5.11508947e-003 7.67263398e-003
      7.67263398e-003 2.55754474e-003 1.27877239e-002 5.11508947e-003
      1.02301789e-002 5.11508947e-003 2.55754474e-003 5.11508947e-003</_>
    <_>
      9.63391177e-003 8.34938977e-003 8.34938977e-003 8.99165124e-003
      1.34874759e-002 1.47719979e-002 2.56904308e-003 6.42260769e-003
      6.42260769e-003 9.63391177e-003 1.09184328e-002 1.15606934e-002
      1.41297374e-002 1.34874759e-002 1.28452154e-002 5.13808616e-003
      1.22029549e-002 6.42260769e-003 5.13808616e-003 1.79833025e-002
      9.63391177e-003 5.78034669e-003 1.28452154e-002 6.42260769e-003
      1.02761723e-002 8.99165124e-003 1.02761723e-002 1.34874759e-002
      8.99165124e-003 8.99165124e-003 1.34874759e-002 3.21130385e-003
      1.09184328e-002 1.54142585e-002 3.21130385e-003 1.34874759e-002
      1.15606934e-002 3.85356462e-003 6.42260769e-003 1.60565190e-002
      1.28452154e-002 7.70712923e-003 8.99165124e-003 1.34874759e-002
      1.66987795e-002 1.02761723e-002 1.28452154e-002 7.06486870e-003
      1.02761723e-002 1.73410401e-002 5.78034669e-003 7.06486870e-003
      7.06486870e-003 1.22029549e-002 7.70712923e-003 9.63391177e-003
      1.02761723e-002 1.41297374e-002 6.42260769e-003 7.70712923e-003
      1.47719979e-002 1.22029549e-002 5.13808616e-003 6.42260769e-003
      3.85356462e-003 8.99165124e-003 5.13808616e-003 6.42260769e-003
      6.42260769e-003 1.54142585e-002 1.92678231e-003 1.15606934e-002
      1.47719979e-002 3.85356462e-003 1.92678231e-003 1.60565190e-002
      6.42260769e-003 1.92678235e-002 9.63391177e-003 1.86255630e-002
      6.42260769e-003 2.31213868e-002 1.09184328e-002 1.47719979e-002
      6.42260769e-003 4.49582562e-003 1.28452154e-002 8.34938977e-003
      1.60565190e-002 1.41297374e-002 4.49582562e-003 1.47719979e-002
      1.41297374e-002 7.70712923e-003 7.06486870e-003 5.13808616e-003
      1.73410401e-002 8.34938977e-003 1.92678231e-003 1.54142585e-002</_>
    <_>
      1.26315784e-002 5.26315765e-003 1.57894734e-002 7.36842072e-003
      4.21052612e-003 1.99999996e-002 1.68421045e-002 8.42105225e-003
      8.42105225e-003 1.26315784e-002 1.15789473e-002 8.42105225e-003
      6.31578919e-003 8.42105225e-003 2.10526306e-003 2.10526306e-003
      2.10526306e-002 4.21052612e-003 1.05263153e-002 4.21052612e-003
      9.47368331e-003 6.31578919e-003 5.26315765e-003 1.05263153e-003
      4.21052612e-003 7.36842072e-003 1.05263153e-002 5.26315765e-003
      6.31578919e-003 4.21052612e-003 6.31578919e-003 1.15789473e-002
      1.15789473e-002 1.36842094e-002 3.15789459e-003 1.47368414e-002
      5.26315765e-003 6.31578919e-003 1.15789473e-002 1.36842094e-002
      1.36842094e-002 4.21052612e-003 8.42105225e-003 3.89473662e-002
      1.78947356e-002 6.31578919e-003 3.15789469e-002 6.31578919e-003
      3.15789459e-003 1.05263153e-002 1.05263153e-002 8.42105225e-003
      6.31578919e-003 1.15789473e-002 7.36842072e-003 1.57894734e-002
      1.78947356e-002 6.31578919e-003 3.15789459e-003 1.57894734e-002
      1.78947356e-002 3.15789459e-003 1.47368414e-002 1.05263153e-002
      7.36842072e-003 6.31578919e-003 9.47368331e-003 9.47368331e-003
      1.26315784e-002 2.31578946e-002 8.42105225e-003 1.47368414e-002
      3.15789459e-003 9.47368331e-003 3.15789459e-003 1.47368414e-002
      1.15789473e-002 9.47368331e-003 8.42105225e-003 1.68421045e-002
      9.47368331e-003 1.26315784e-002 9.47368331e-003 1.57894734e-002
      1.05263153e-002 1.05263153e-002 1.99999996e-002 3.15789459e-003
      1.99999996e-002 7.36842072e-003 4.21052612e-003 3.15789459e-003
      4.21052612e-003 7.36842072e-003 5.26315765e-003 9.47368331e-003
      1.36842094e-002 4.21052612e-003 1.26315784e-002 9.47368331e-003</_>
    <_>
      1.03926100e-002 1.27020786e-002 0. 4.61893762e-003 6.92840666e-003
      6.92840666e-003 4.15704399e-002 1.38568133e-002 9.23787523e-003
      4.61893762e-003 5.77367190e-003 1.15473438e-002 5.77367190e-003
      1.27020786e-002 6.92840666e-003 2.54041571e-002 4.61893762e-003
      8.08314048e-003 3.46420333e-003 2.07852200e-002 6.92840666e-003
      4.61893762e-003 5.77367190e-003 2.30946876e-002 9.23787523e-003
      1.50115471e-002 8.08314048e-003 1.27020786e-002 9.23787523e-003
      1.50115471e-002 1.03926100e-002 1.27020786e-002 9.23787523e-003
      6.92840666e-003 4.61893762e-003 5.77367190e-003 9.23787523e-003
      1.50115471e-002 1.03926100e-002 1.03926100e-002 8.08314048e-003
      3.46420333e-003 8.08314048e-003 2.77136266e-002 6.92840666e-003
      6.92840666e-003 1.38568133e-002 6.92840666e-003 6.92840666e-003
      1.03926100e-002 2.19399538e-002 2.30946881e-003 6.92840666e-003
      1.15473438e-002 6.92840666e-003 2.30946881e-003 3.11778281e-002
      1.27020786e-002 1.38568133e-002 5.77367190e-003 9.23787523e-003
      1.38568133e-002 1.15473440e-003 2.30946881e-003 4.61893762e-003
      1.27020786e-002 4.61893762e-003 1.15473438e-002 1.50115471e-002
      4.61893762e-003 6.92840666e-003 1.03926100e-002 6.92840666e-003 0.
      2.19399538e-002 6.92840666e-003 4.61893762e-003 1.03926100e-002
      5.77367190e-003 8.08314048e-003 1.61662810e-002 5.77367190e-003
      1.38568133e-002 6.92840666e-003 1.03926100e-002 3.46420333e-003
      8.08314048e-003 9.23787523e-003 6.92840666e-003 1.15473438e-002
      2.07852200e-002 1.38568133e-002 1.03926100e-002 1.84757505e-002
      4.61893762e-003 1.15473438e-002 9.23787523e-003 4.61893762e-003
      4.61893762e-003 1.27020786e-002</_>
    <_>
      7.85854645e-003 1.96463661e-003 3.92927323e-003 1.57170929e-002
      1.76817290e-002 1.17878197e-002 4.51866426e-002 1.96463661e-003
      7.85854645e-003 1.96463661e-003 3.92927323e-003 5.89390984e-003
      1.96463661e-003 5.89390984e-003 3.92927323e-003 1.96463652e-002
      9.82318260e-003 3.92927323e-003 4.71512787e-002 0. 3.92927323e-003
      1.96463661e-003 1.96463661e-003 9.82318260e-003 7.85854645e-003
      7.85854645e-003 9.82318260e-003 0. 5.89390984e-003 5.89390984e-003
      7.85854645e-003 9.82318260e-003 3.73280942e-002 5.89390984e-003
      5.89390984e-003 7.85854645e-003 0. 2.16110032e-002 1.37524568e-002
      1.17878197e-002 7.85854645e-003 5.89390984e-003 7.85854645e-003
      3.33988219e-002 1.37524568e-002 1.57170929e-002 1.57170929e-002
      1.17878197e-002 0. 5.89390984e-003 7.85854645e-003 1.37524568e-002
      7.85854645e-003 2.94695497e-002 7.85854645e-003 1.76817290e-002
      9.82318260e-003 7.85854645e-003 1.37524568e-002 5.50098270e-002
      5.89390984e-003 9.82318260e-003 1.57170929e-002 1.96463661e-003
      7.85854645e-003 0. 1.37524568e-002 1.57170929e-002 1.17878197e-002
      1.17878197e-002 3.92927323e-003 3.92927323e-003 1.37524568e-002
      1.57170929e-002 2.94695497e-002 0. 9.82318260e-003 9.82318260e-003
      1.96463661e-003 1.96463661e-003 0. 1.96463661e-003 3.92927323e-003
      3.92927323e-003 1.57170929e-002 1.17878197e-002 5.89390984e-003
      1.96463661e-003 3.92927323e-003 9.82318260e-003 1.96463661e-003
      1.96463652e-002 1.17878197e-002 0. 9.82318260e-003 9.82318260e-003
      1.96463661e-003 1.17878197e-002 5.89390984e-003 0.</_>
    <_>
      1.85507238e-002 1.33333327e-002 1.44927530e-002 9.27536190e-003
      6.37681130e-003 1.15942024e-002 4.63768095e-003 7.53623154e-003
      1.15942024e-002 1.68115944e-002 1.39130428e-002 1.33333327e-002
      5.21739107e-003 1.21739125e-002 1.79710127e-002 9.27536190e-003
      8.11594166e-003 1.21739125e-002 2.31884047e-003 1.10144923e-002
      1.85507238e-002 1.50724631e-002 9.27536190e-003 4.63768095e-003
      1.27536226e-002 1.33333327e-002 1.15942024e-002 8.69565178e-003
      9.27536190e-003 1.10144923e-002 1.21739125e-002 6.37681130e-003
      6.95652142e-003 1.50724631e-002 5.79710118e-003 1.39130428e-002
      5.79710118e-003 8.11594166e-003 8.69565178e-003 1.04347821e-002
      1.27536226e-002 6.95652142e-003 1.15942024e-002 2.89855059e-003
      7.53623154e-003 6.95652142e-003 1.62318833e-002 2.89855059e-003
      1.33333327e-002 1.04347821e-002 1.21739125e-002 4.63768095e-003
      1.33333327e-002 6.37681130e-003 8.11594166e-003 4.63768095e-003
      8.69565178e-003 9.27536190e-003 1.15942024e-002 4.05797083e-003
      1.10144923e-002 8.69565178e-003 1.15942024e-003 5.21739107e-003
      6.95652142e-003 1.39130428e-002 4.63768095e-003 1.10144923e-002
      8.69565178e-003 1.10144923e-002 4.63768095e-003 1.15942024e-002
      4.63768095e-003 1.73913036e-003 8.69565178e-003 1.21739125e-002
      1.10144923e-002 1.10144923e-002 8.69565178e-003 1.04347821e-002
      1.50724631e-002 8.11594166e-003 1.27536226e-002 1.33333327e-002
      1.44927530e-002 1.33333327e-002 2.37681158e-002 8.11594166e-003
      1.62318833e-002 1.33333327e-002 3.47826071e-003 1.10144923e-002
      1.04347821e-002 1.50724631e-002 5.79710118e-003 4.63768095e-003
      1.50724631e-002 8.11594166e-003 4.63768095e-003 1.44927530e-002</_>
    <_>
      1.61943324e-002 2.02429146e-002 8.09716620e-003 8.09716620e-003
      1.61943324e-002 8.09716620e-003 2.02429146e-002 2.42914986e-002 0.
      4.04858310e-003 8.09716620e-003 4.04858310e-003 0. 0. 0.
      8.09716620e-003 8.09716620e-003 1.61943324e-002 4.04858291e-002
      4.04858310e-003 0. 0. 0. 6.47773296e-002 4.04858310e-003
      1.21457493e-002 8.09716620e-003 1.21457493e-002 1.21457493e-002
      8.09716620e-003 8.09716620e-003 4.04858310e-003 2.42914986e-002 0.
      0. 4.04858310e-003 0. 1.61943324e-002 2.42914986e-002
      4.04858310e-003 0. 4.04858310e-003 8.09716620e-003 3.23886648e-002
      0. 0. 1.21457493e-002 3.23886648e-002 0. 0. 8.09716620e-003
      4.04858310e-003 0. 3.23886648e-002 4.04858310e-003 2.83400826e-002
      2.02429146e-002 0. 8.09716620e-003 2.42914986e-002 8.09716620e-003
      6.07287474e-002 0. 4.04858310e-003 0. 0. 0. 4.04858310e-003
      3.23886648e-002 1.21457493e-002 0. 4.04858310e-003 0. 0.
      2.83400826e-002 4.04858310e-003 4.04858310e-003 8.09716620e-003
      8.09716620e-003 0. 2.02429146e-002 4.04858310e-003 1.21457493e-002
      0. 2.02429146e-002 4.04858310e-003 0. 0. 4.04858310e-003
      4.04858310e-003 3.23886648e-002 0. 0. 2.02429146e-002
      4.04858310e-003 4.04858291e-002 0. 1.61943324e-002 0. 0.</_>
    <_>
      1.49253733e-003 1.19402986e-002 4.47761174e-003 2.98507465e-003
      1.49253737e-002 5.97014930e-003 5.37313446e-002 4.47761174e-003
      2.23880596e-002 5.97014930e-003 1.49253733e-003 4.47761174e-003
      4.47761174e-003 0. 4.47761174e-003 1.34328362e-002 1.64179113e-002
      1.19402986e-002 5.97014930e-003 7.46268686e-003 1.49253733e-003
      5.97014930e-003 0. 2.38805972e-002 2.98507465e-003 4.47761174e-003
      2.98507465e-003 2.98507465e-003 1.34328362e-002 4.47761174e-003
      2.98507465e-003 7.46268686e-003 5.97014930e-003 1.49253733e-003
      7.46268686e-003 2.98507465e-003 0. 8.95522349e-003 1.49253737e-002
      1.04477610e-002 0. 1.34328362e-002 4.47761174e-003 5.97014930e-003
      0. 4.47761174e-003 2.38805972e-002 3.43283601e-002 0. 0.
      1.34328362e-002 1.49253733e-003 4.47761174e-003 1.04477610e-002
      7.46268686e-003 2.23880596e-002 1.49253737e-002 5.97014930e-003
      1.19402986e-002 1.49253733e-003 1.49253737e-002 2.83582099e-002
      1.19402986e-002 5.97014930e-003 2.98507465e-003 5.97014930e-003
      7.46268686e-003 1.34328362e-002 4.02985066e-002 7.46268686e-003
      2.08955221e-002 1.49253733e-003 2.23880596e-002 2.83582099e-002
      6.11940287e-002 1.19402986e-002 2.98507465e-003 2.98507465e-003
      4.47761174e-003 2.98507465e-003 4.47761174e-003 1.49253733e-003
      2.98507465e-003 2.98507465e-003 2.98507465e-003 5.97014930e-003
      1.49253733e-003 1.19402986e-002 5.97014930e-003 2.98507465e-003
      2.68656723e-002 4.47761174e-003 1.49253733e-003 5.97014930e-003
      1.79104470e-002 2.53731348e-002 4.47761174e-003 2.68656723e-002
      3.73134315e-002 2.98507465e-003</_>
    <_>
      7.62631092e-003 4.76644421e-003 1.33460443e-002 6.67302217e-003
      7.62631092e-003 1.71591993e-002 9.53288842e-003 6.67302217e-003
      1.62059106e-002 9.53288842e-003 1.81124881e-002 7.62631092e-003
      4.76644421e-003 6.67302217e-003 8.57959967e-003 5.71973342e-003
      1.23927556e-002 8.57959967e-003 8.57959967e-003 4.76644421e-003
      1.33460443e-002 7.62631092e-003 9.53288842e-003 2.85986671e-003
      4.76644421e-003 3.81315546e-003 1.04861772e-002 3.81315546e-003
      1.81124881e-002 9.53288842e-003 7.62631092e-003 1.04861772e-002
      6.67302217e-003 1.04861772e-002 1.14394668e-002 1.52526218e-002
      4.76644421e-003 5.71973342e-003 6.67302217e-003 1.52526218e-002
      8.57959967e-003 8.57959967e-003 7.62631092e-003 3.52716893e-002
      8.57959967e-003 1.90657773e-003 1.62059106e-002 2.57387999e-002
      2.85986671e-003 1.04861772e-002 1.04861772e-002 9.53288842e-003
      1.52526218e-002 1.23927556e-002 6.67302217e-003 2.00190656e-002
      1.23927556e-002 3.81315546e-003 4.76644421e-003 1.23927556e-002
      5.71973342e-003 1.14394668e-002 1.14394668e-002 8.57959967e-003
      2.85986671e-003 1.04861772e-002 1.14394668e-002 9.53288842e-003
      1.52526218e-002 7.62631092e-003 1.23927556e-002 1.04861772e-002
      7.62631092e-003 1.23927556e-002 1.04861772e-002 1.04861772e-002
      1.33460443e-002 6.67302217e-003 1.33460443e-002 1.14394668e-002
      5.71973342e-003 7.62631092e-003 5.71973342e-003 1.33460443e-002
      2.85986671e-003 1.90657768e-002 1.52526218e-002 6.67302217e-003
      1.23927556e-002 6.67302217e-003 1.33460443e-002 4.76644421e-003
      3.81315546e-003 4.76644421e-003 4.76644421e-003 2.38322224e-002
      2.00190656e-002 6.67302217e-003 9.53288842e-003 1.33460443e-002</_>
    <_>
      2.02177297e-002 3.11041996e-003 7.77604990e-003 3.11041996e-003
      4.66562994e-003 6.22083992e-003 2.64385697e-002 3.11041996e-003
      1.08864699e-002 6.22083992e-003 1.39968898e-002 7.77604990e-003
      6.22083992e-003 3.11041996e-003 7.77604990e-003 3.11041996e-003
      3.26594114e-002 9.33125988e-003 1.39968898e-002 4.66562994e-003
      1.24416798e-002 6.22083992e-003 3.11041996e-003 1.71073098e-002
      9.33125988e-003 4.66562994e-003 7.77604990e-003 0. 9.33125988e-003
      1.39968898e-002 6.22083992e-003 3.73250395e-002 4.35458794e-002
      1.55520998e-003 7.77604990e-003 4.66562994e-003 4.66562994e-003
      6.06531873e-002 1.24416798e-002 4.66562994e-003 0. 9.33125988e-003
      4.66562994e-003 4.51010913e-002 3.11041996e-003 0. 4.35458794e-002
      1.08864699e-002 7.77604990e-003 1.55520998e-003 7.77604990e-003
      1.55520998e-003 3.11041996e-003 3.11041996e-003 0. 1.24416798e-002
      2.33281497e-002 1.08864699e-002 3.11041996e-003 1.08864699e-002
      9.33125988e-003 3.11041996e-003 4.66562994e-003 6.22083992e-003
      1.55520998e-003 1.55520998e-003 1.86625198e-002 1.55520998e-002
      2.33281497e-002 4.66562994e-003 1.55520998e-003 1.24416798e-002
      7.77604990e-003 1.08864699e-002 9.33125988e-003 1.55520998e-003
      1.24416798e-002 7.77604990e-003 7.77604990e-003 3.11041996e-003
      9.33125988e-003 0. 9.33125988e-003 1.55520998e-003 9.33125988e-003
      1.86625198e-002 1.08864699e-002 6.22083992e-003 1.39968898e-002
      1.08864699e-002 2.33281497e-002 7.77604990e-003 7.77604990e-003
      1.55520998e-003 6.22083992e-003 1.86625198e-002 4.66562994e-003
      1.55520998e-003 4.66562994e-003 6.22083992e-003</_>
    <_>
      6.84210584e-002 0. 0. 0. 5.26315812e-003 1.57894753e-002 0. 0.
      5.26315812e-003 2.10526325e-002 0. 0. 0. 5.26315812e-003
      1.05263162e-002 5.26315812e-003 1.05263162e-002 0. 2.10526325e-002
      0. 0. 0. 2.10526325e-002 1.57894753e-002 1.05263162e-002
      5.26315812e-003 0. 0. 0. 0. 5.26315812e-003 1.05263162e-002
      1.10526323e-001 0. 0. 5.26315812e-003 1.05263162e-002
      1.05263162e-002 6.84210584e-002 0. 5.26315812e-003 0. 0.
      6.31579012e-002 4.73684222e-002 5.26315812e-003 4.21052650e-002 0.
      1.05263162e-002 0. 0. 0. 0. 1.57894753e-002 0. 5.26315812e-003
      1.57894753e-002 1.57894753e-002 0. 2.63157897e-002 5.26315812e-003
      0. 1.05263162e-002 5.26315812e-003 0. 1.57894753e-002 0.
      1.05263162e-002 0. 1.57894753e-002 0. 1.05263162e-002 0.
      5.26315812e-003 5.26315812e-003 1.05263162e-002 1.05263162e-002
      2.63157897e-002 0. 0. 5.26315812e-003 5.26315812e-003
      1.05263162e-002 2.10526325e-002 2.63157897e-002 1.05263162e-002
      5.26315812e-003 5.26315812e-003 0. 3.68421078e-002 1.05263162e-002
      1.05263162e-002 0. 0. 1.05263162e-002 0. 1.05263162e-002 0. 0.
      5.26315812e-003</_>
    <_>
      1.08303251e-002 1.08303251e-002 7.22021703e-003 7.22021703e-003
      7.22021703e-003 9.62695573e-003 1.92539115e-002 1.20336944e-002
      6.01684721e-003 1.20336944e-002 1.56438034e-002 9.62695573e-003
      4.81347786e-003 1.08303251e-002 1.20336944e-002 1.44404341e-002
      2.16606501e-002 1.08303251e-002 1.20336947e-003 3.61010851e-003
      1.44404341e-002 1.20336944e-002 6.01684721e-003 1.68471728e-002
      4.81347786e-003 8.42358638e-003 1.08303251e-002 4.81347786e-003
      1.20336944e-002 6.01684721e-003 4.81347786e-003 1.44404341e-002
      8.42358638e-003 7.22021703e-003 3.61010851e-003 1.20336944e-002
      4.81347786e-003 1.80505421e-002 2.28640195e-002 8.42358638e-003
      1.32370638e-002 1.32370638e-002 9.62695573e-003 2.64741275e-002
      1.08303251e-002 1.80505421e-002 4.45246696e-002 1.20336947e-003
      7.22021703e-003 1.92539115e-002 1.44404341e-002 1.32370638e-002
      8.42358638e-003 2.40673893e-003 3.61010851e-003 6.01684721e-003
      2.88808681e-002 2.40673893e-003 9.62695573e-003 4.81347786e-003
      6.01684721e-003 9.62695573e-003 3.61010851e-003 3.61010851e-003
      1.32370638e-002 4.81347786e-003 4.81347786e-003 3.61010851e-003
      1.56438034e-002 8.42358638e-003 6.01684721e-003 8.42358638e-003
      7.22021703e-003 2.40673893e-003 2.28640195e-002 6.01684721e-003
      1.32370638e-002 4.81347786e-003 4.81347786e-003 6.01684721e-003
      6.01684721e-003 6.01684721e-003 9.62695573e-003 8.42358638e-003
      9.62695573e-003 1.44404341e-002 8.42358638e-003 9.62695573e-003
      7.22021703e-003 1.08303251e-002 2.52707582e-002 1.08303251e-002
      8.42358638e-003 6.01684721e-003 6.01684721e-003 1.20336947e-003
      1.20336944e-002 8.42358638e-003 6.01684721e-003 4.81347786e-003</_>
    <_>
      1.36239780e-002 8.17438681e-003 3.26975472e-002 1.36239780e-002
      2.72479560e-003 2.72479560e-002 2.45231614e-002 8.17438681e-003
      8.17438681e-003 1.08991824e-002 5.44959120e-003 0. 8.17438681e-003
      8.17438681e-003 2.72479560e-003 2.72479560e-003 4.90463227e-002
      8.17438681e-003 8.17438681e-003 0. 8.17438681e-003 2.72479560e-003
      2.72479560e-003 1.08991824e-002 1.08991824e-002 5.44959120e-003
      5.44959120e-003 0. 1.36239780e-002 8.17438681e-003 2.72479560e-003
      2.45231614e-002 3.26975472e-002 8.17438681e-003 5.44959120e-003
      1.63487736e-002 0. 1.90735683e-002 8.17438681e-003 1.90735683e-002
      2.72479560e-003 8.17438681e-003 0. 4.08719331e-002 2.72479560e-003
      2.72479560e-003 4.35967296e-002 5.44959120e-003 2.72479560e-003 0.
      2.72479560e-003 1.08991824e-002 1.63487736e-002 8.17438681e-003
      2.72479560e-003 1.36239780e-002 1.36239780e-002 2.72479560e-003
      5.44959120e-003 2.72479560e-002 2.72479560e-003 2.72479560e-003
      1.36239780e-002 1.63487736e-002 2.72479560e-003 0. 2.72479560e-003
      8.17438681e-003 2.72479560e-002 0. 2.72479560e-003 0.
      2.72479560e-003 1.08991824e-002 8.17438681e-003 2.99727507e-002
      1.90735683e-002 8.17438681e-003 1.08991824e-002 2.72479560e-003
      8.17438681e-003 5.44959120e-003 2.72479560e-003 1.36239780e-002
      1.36239780e-002 1.63487736e-002 2.72479560e-003 0. 0.
      5.44959120e-003 1.36239780e-002 8.17438681e-003 8.17438681e-003
      5.44959120e-003 2.45231614e-002 1.08991824e-002 5.44959120e-003 0.
      8.17438681e-003 1.63487736e-002</_>
    <_>
      6.91358000e-003 2.32098773e-002 6.41975319e-003 5.92592591e-003
      5.92592591e-003 9.38271638e-003 5.92592591e-003 1.08641973e-002
      1.33333337e-002 1.62962954e-002 1.08641973e-002 9.38271638e-003
      1.13580246e-002 1.18518518e-002 1.28395064e-002 1.13580246e-002
      9.87654366e-003 1.72839500e-002 3.95061728e-003 1.53086418e-002
      6.91358000e-003 1.53086418e-002 6.91358000e-003 5.43209864e-003
      1.58024691e-002 1.58024691e-002 9.38271638e-003 1.03703700e-002
      1.28395064e-002 1.03703700e-002 1.38271600e-002 5.92592591e-003
      1.23456791e-002 7.90123455e-003 7.40740728e-003 1.03703700e-002
      1.18518518e-002 1.23456791e-002 1.53086418e-002 8.88888910e-003
      5.43209864e-003 5.43209864e-003 1.18518518e-002 1.72839500e-002
      7.40740728e-003 9.87654366e-003 2.02469137e-002 6.91358000e-003
