<?xml version="1.0"?>
<opencv_storage>
<my_svm type_id="opencv-ml-svm">
  <svm_type>C_SVC</svm_type>
  <kernel><type>RBF</type>
    <gamma>5.0625000000000009e-001</gamma></kernel>
  <C>3.1250000000000000e+002</C>
  <term_criteria><epsilon>1.1920928955078125e-007</epsilon>
    <iterations>10000</iterations></term_criteria>
  <var_all>100</var_all>
  <var_count>100</var_count>
  <class_count>2</class_count>
  <class_labels type_id="opencv-matrix">
    <rows>1</rows>
    <cols>2</cols>
    <dt>i</dt>
    <data>
      0 1</data></class_labels>
  <sv_total>132</sv_total>
  <support_vectors>
    <_>
      9.53288842e-003 1.81124881e-002 9.53288842e-003 3.52716893e-002
      1.42993331e-002 6.67302217e-003 9.53288842e-003 7.62631092e-003
      6.67302217e-003 7.62631092e-003 2.85986671e-003 9.53288842e-003
      1.52526218e-002 8.57959967e-003 9.53288842e-003 2.38322224e-002
      9.53288842e-003 4.76644421e-003 7.62631092e-003 5.71973342e-003
      6.67302217e-003 6.67302217e-003 1.23927556e-002 2.85986671e-003
      1.14394668e-002 8.57959967e-003 9.53288842e-003 5.71973342e-003
      1.81124881e-002 1.52526218e-002 1.04861772e-002 1.23927556e-002
      1.23927556e-002 3.81315546e-003 5.71973342e-003 4.76644421e-003
      1.62059106e-002 2.19256431e-002 9.53288842e-003 7.62631092e-003
      7.62631092e-003 0. 6.67302217e-003 1.52526218e-002 1.52526218e-002
      1.42993331e-002 6.67302217e-003 5.71973342e-003 8.57959967e-003
      1.52526218e-002 9.53288842e-003 1.33460443e-002 1.62059106e-002
      7.62631092e-003 8.57959967e-003 6.67302217e-003 2.85986671e-003
      1.33460443e-002 4.76644421e-003 1.04861772e-002 4.76644421e-003
      7.62631092e-003 7.62631092e-003 7.62631092e-003 1.62059106e-002
      7.62631092e-003 2.00190656e-002 1.14394668e-002 9.53288842e-003
      2.19256431e-002 7.62631092e-003 1.14394668e-002 1.52526218e-002
      1.14394668e-002 5.71973342e-003 6.67302217e-003 4.76644421e-003
      1.23927556e-002 5.71973342e-003 4.76644421e-003 6.67302217e-003
      9.53288842e-003 9.53288842e-003 1.62059106e-002 9.53288842e-003
      1.33460443e-002 3.81315546e-003 9.53288842e-003 4.76644421e-003
      2.00190656e-002 9.53288842e-003 1.81124881e-002 1.04861772e-002
      1.04861772e-002 1.14394668e-002 5.71973342e-003 2.85986671e-003
      1.90657773e-003 6.67302217e-003 6.67302217e-003</_>
    <_>
      4.05268511e-003 1.72239114e-002 5.06585650e-003 4.05268511e-003
      3.03951371e-003 8.10537022e-003 7.09219882e-003 6.07902743e-003
      5.06585650e-003 1.11448839e-002 1.21580549e-002 1.31712267e-002
      2.02634255e-003 3.03951371e-003 1.11448839e-002 8.10537022e-003
      7.09219882e-003 8.10537022e-003 1.21580549e-002 5.06585650e-003
      2.02634255e-003 6.07902743e-003 1.01317130e-002 1.41843976e-002
      5.06585650e-003 1.31712267e-002 9.11854114e-003 8.10537022e-003
      2.33029388e-002 2.93819662e-002 1.41843976e-002 1.01317128e-003
      6.07902743e-003 7.09219882e-003 7.09219882e-003 4.05268511e-003
      2.33029388e-002 3.03951390e-002 7.09219882e-003 2.02634255e-003
      1.01317130e-002 1.01317128e-003 1.11448839e-002 2.33029388e-002
      7.09219882e-003 1.11448839e-002 9.11854114e-003 1.21580549e-002
      1.31712267e-002 2.02634260e-002 9.11854114e-003 8.10537022e-003
      9.11854114e-003 7.09219882e-003 3.03951371e-003 9.11854114e-003
      8.10537022e-003 1.01317130e-002 5.06585650e-003 4.05268511e-003
      5.06585650e-003 8.10537022e-003 7.09219882e-003 1.11448839e-002
      2.02634260e-002 1.01317130e-002 4.05268511e-003 1.11448839e-002
      1.62107404e-002 1.92502551e-002 1.62107404e-002 2.02634260e-002
      1.41843976e-002 1.62107404e-002 1.01317128e-003 1.11448839e-002
      5.06585650e-003 2.22897679e-002 1.31712267e-002 9.11854114e-003
      4.05268511e-003 5.06585650e-003 1.31712267e-002 5.06585650e-003
      1.31712267e-002 1.92502551e-002 6.07902743e-003 1.31712267e-002
      5.06585650e-003 2.22897679e-002 1.51975695e-002 1.41843976e-002
      5.06585650e-003 1.01317130e-002 7.09219882e-003 9.11854114e-003
      6.07902743e-003 4.05268511e-003 1.21580549e-002 2.02634255e-003</_>
    <_>
      7.85854645e-003 1.96463652e-002 9.82318260e-003 3.33988219e-002
      1.96463661e-003 7.85854645e-003 7.85854645e-003 0. 7.85854645e-003
      5.89390984e-003 1.96463661e-003 2.16110032e-002 5.89390984e-003 0.
      1.96463661e-003 9.82318260e-003 9.82318260e-003 5.89390984e-003
      1.37524568e-002 7.85854645e-003 7.85854645e-003 5.89390984e-003
      1.17878197e-002 0. 5.89390993e-002 7.85854645e-003 1.96463661e-003
      1.76817290e-002 9.82318260e-003 0. 7.85854645e-003 6.09037355e-002
      9.82318260e-003 1.17878197e-002 1.96463661e-003 1.96463661e-003
      9.82318260e-003 7.85854645e-003 7.85854645e-003 3.73280942e-002
      1.96463661e-003 0. 3.92927323e-003 1.57170929e-002 1.37524568e-002
      5.89390984e-003 1.96463661e-003 9.82318260e-003 1.17878197e-002
      5.89390984e-003 7.85854645e-003 1.17878197e-002 1.76817290e-002
      7.85854645e-003 9.82318260e-003 1.57170929e-002 2.16110032e-002
      5.89390984e-003 1.76817290e-002 3.92927323e-003 1.96463661e-003
      1.96463661e-003 5.89390984e-003 1.37524568e-002 1.17878197e-002
      3.92927323e-003 1.37524568e-002 5.89390984e-003 5.89390984e-003
      1.96463661e-003 9.82318260e-003 1.57170929e-002 1.96463661e-003
      5.89390984e-003 1.76817290e-002 9.82318260e-003 0. 1.96463661e-003
      5.89390984e-003 9.82318260e-003 1.96463661e-003 4.32220064e-002
      1.96463652e-002 7.85854645e-003 0. 1.96463661e-003 1.96463661e-003
      5.89390984e-003 3.92927323e-003 0. 3.14341858e-002 1.37524568e-002
      5.89390984e-003 7.85854645e-003 1.96463661e-003 1.17878197e-002
      1.76817290e-002 7.85854645e-003 1.17878197e-002 7.85854645e-003</_>
    <_>
      3.19148935e-002 1.99468080e-002 1.59574468e-002 2.12765951e-002
      9.30851046e-003 3.98936169e-003 7.97872338e-003 6.64893584e-003
      7.97872338e-003 9.30851046e-003 5.31914877e-003 6.64893584e-003
      3.45744677e-002 5.31914877e-003 2.65957438e-003 6.64893584e-003
      7.97872338e-003 5.31914877e-003 3.98936169e-003 0. 7.97872338e-003
      6.64893584e-003 1.72872338e-002 1.59574468e-002 1.99468080e-002
      6.64893584e-003 1.06382975e-002 3.98936169e-003 1.19680846e-002
      5.31914877e-003 2.65957438e-003 1.59574468e-002 9.30851046e-003
      5.31914877e-003 7.97872338e-003 5.31914877e-003 1.32978719e-003
      1.32978717e-002 2.65957438e-003 1.59574468e-002 5.31914877e-003 0.
      3.98936169e-003 2.92553175e-002 9.30851046e-003 1.06382975e-002
      5.31914877e-003 1.72872338e-002 7.97872338e-003 9.30851046e-003
      9.30851046e-003 5.31914877e-003 2.52659563e-002 6.64893584e-003
      7.97872338e-003 7.97872338e-003 1.19680846e-002 2.65957438e-003
      1.59574468e-002 5.31914877e-003 9.30851046e-003 3.98936169e-003
      3.98936169e-003 2.65957438e-003 3.05851046e-002 1.32978719e-003
      1.59574468e-002 1.32978717e-002 6.64893584e-003 1.06382975e-002
      2.65957438e-003 3.98936169e-003 2.65957438e-003 5.31914877e-003
      1.99468080e-002 1.06382975e-002 1.32978719e-003 1.59574468e-002
      7.97872338e-003 6.64893584e-003 7.97872338e-003 1.46276588e-002
      1.32978717e-002 3.05851046e-002 5.31914877e-003 1.06382975e-002
      6.64893584e-003 9.30851046e-003 2.65957438e-003 3.98936169e-003
      2.92553175e-002 9.30851046e-003 1.19680846e-002 1.46276588e-002
      3.98936169e-003 9.30851046e-003 2.65957438e-003 1.32978717e-002
      1.06382975e-002 1.86170209e-002</_>
    <_>
      5.02873585e-003 1.36494255e-002 6.46551698e-003 1.00574717e-002
      5.02873585e-003 1.00574717e-002 9.33908019e-003 9.33908019e-003
      1.00574717e-002 1.50862066e-002 6.46551698e-003 5.74712642e-003
      9.33908019e-003 6.46551698e-003 1.00574717e-002 9.33908019e-003
      7.90229905e-003 7.90229905e-003 9.33908019e-003 8.62068962e-003
      7.90229905e-003 1.07758623e-002 1.22126434e-002 1.43678160e-002
      1.58045981e-002 1.58045981e-002 5.74712642e-003 9.33908019e-003
      1.00574717e-002 1.22126434e-002 1.22126434e-002 1.86781604e-002
      7.18390802e-003 8.62068962e-003 9.33908019e-003 1.58045981e-002
      6.46551698e-003 1.43678160e-002 1.07758623e-002 7.18390802e-003
      1.00574717e-002 0. 1.50862066e-002 1.00574717e-002 1.07758623e-002
      9.33908019e-003 8.62068962e-003 9.33908019e-003 1.22126434e-002
      1.79597698e-002 5.74712642e-003 8.62068962e-003 1.07758623e-002
      1.00574717e-002 1.36494255e-002 1.00574717e-002 1.29310340e-002
      7.18390802e-004 8.62068962e-003 5.02873585e-003 1.36494255e-002
      8.62068962e-003 1.36494255e-002 1.43678160e-002 7.18390802e-003
      1.07758623e-002 1.22126434e-002 1.22126434e-002 6.46551698e-003
      5.74712642e-003 6.46551698e-003 7.18390802e-003 9.33908019e-003
      1.22126434e-002 1.50862066e-002 7.90229905e-003 1.07758623e-002
      9.33908019e-003 1.22126434e-002 1.00574717e-002 7.90229905e-003
      1.14942528e-002 1.00574717e-002 1.07758623e-002 7.90229905e-003
      1.36494255e-002 1.43678160e-002 1.07758623e-002 1.58045981e-002
      5.02873585e-003 6.46551698e-003 8.62068962e-003 4.31034481e-003
      3.59195401e-003 7.90229905e-003 1.65229887e-002 1.29310340e-002
      1.50862066e-002 1.14942528e-002 1.00574717e-002</_>
    <_>
      8.13008100e-003 7.11382087e-003 7.11382087e-003 1.16869919e-002
      7.62195094e-003 8.63821059e-003 9.65447165e-003 1.16869919e-002
      6.09756075e-003 1.88008118e-002 7.62195094e-003 1.62601620e-002
      2.03252025e-002 9.65447165e-003 8.63821059e-003 4.06504050e-003
      5.08130062e-003 1.16869919e-002 1.01626012e-002 1.37195121e-002
      1.57520324e-002 1.37195121e-002 1.16869919e-002 1.82926822e-002
      6.09756075e-003 7.62195094e-003 9.14634112e-003 7.11382087e-003
      1.37195121e-002 1.27032511e-002 4.06504050e-003 4.57317056e-003
      7.62195094e-003 5.58943069e-003 1.62601620e-002 1.37195121e-002
      1.37195121e-002 4.57317056e-003 3.55691044e-003 1.01626012e-002
      5.58943069e-003 2.03252025e-003 1.62601620e-002 1.52439019e-002
      6.60569081e-003 1.06707308e-002 7.62195094e-003 6.09756075e-003
      7.11382087e-003 9.65447165e-003 1.06707308e-002 5.58943069e-003
      8.13008100e-003 1.21951215e-002 6.60569081e-003 4.06504050e-003
      8.63821059e-003 6.09756075e-003 5.08130062e-003 4.57317056e-003
      1.06707308e-002 1.16869919e-002 9.65447165e-003 1.27032511e-002
      1.88008118e-002 1.32113816e-002 9.14634112e-003 2.03252025e-002
      1.01626012e-002 1.21951215e-002 3.55691044e-003 9.14634112e-003
      6.09756075e-003 7.11382087e-003 7.62195094e-003 7.62195094e-003
      1.27032511e-002 1.47357713e-002 7.11382087e-003 1.32113816e-002
      1.52439019e-002 8.13008100e-003 4.57317056e-003 1.06707308e-002
      1.01626012e-002 1.62601620e-002 9.65447165e-003 1.42276417e-002
      1.01626012e-002 1.21951215e-002 1.93089433e-002 9.65447165e-003
      6.60569081e-003 8.63821059e-003 1.16869919e-002 1.11788614e-002
      9.14634112e-003 7.11382087e-003 1.11788614e-002 1.47357713e-002</_>
    <_>
      4.34782589e-003 1.41304340e-002 6.52173907e-003 4.02173884e-002
      2.17391290e-002 3.26086953e-003 6.52173907e-003 5.43478224e-003
      6.52173907e-003 1.08695645e-002 4.34782589e-003 1.95652172e-002
      6.52173907e-003 1.08695645e-002 6.52173907e-003 1.08695645e-002
      8.69565178e-003 4.34782589e-003 7.60869542e-003 6.52173907e-003
      7.60869542e-003 7.60869542e-003 4.34782589e-003 8.69565178e-003
      1.08695645e-002 5.43478224e-003 7.60869542e-003 6.52173907e-003
      6.52173907e-003 6.52173907e-003 7.60869542e-003 1.63043477e-002
      1.52173908e-002 0. 1.08695645e-002 5.43478224e-003 1.30434781e-002
      1.08695645e-002 1.08695645e-002 6.52173907e-003 4.34782589e-003 0.
      3.26086953e-003 3.26086953e-002 1.19565213e-002 1.52173908e-002
      1.08695645e-002 4.34782589e-003 5.43478224e-003 1.19565213e-002
      1.84782594e-002 2.17391294e-003 1.52173908e-002 6.52173907e-003
      7.60869542e-003 3.26086953e-003 1.19565213e-002 2.17391294e-003
      1.19565213e-002 1.73913036e-002 6.52173907e-003 1.41304340e-002
      1.19565213e-002 7.60869542e-003 2.17391290e-002 1.08695645e-002
      1.30434781e-002 5.43478224e-003 7.60869542e-003 2.49999985e-002
      1.52173908e-002 1.08695645e-002 9.78260860e-003 8.69565178e-003
      1.52173908e-002 1.95652172e-002 3.26086953e-003 1.63043477e-002
      5.43478224e-003 6.52173907e-003 3.26086953e-003 2.06521731e-002
      6.52173907e-003 7.60869542e-003 1.08695645e-002 1.95652172e-002
      3.26086953e-003 9.78260860e-003 4.34782589e-003 4.34782589e-003
      6.52173907e-003 1.30434781e-002 1.41304340e-002 3.26086953e-003
      1.08695645e-002 3.26086953e-003 6.52173907e-003 2.39130426e-002
      1.30434781e-002 9.78260860e-003</_>
    <_>
      4.33839485e-003 8.67678970e-003 6.50759228e-003 1.84381790e-002
      3.25379614e-003 1.08459871e-002 1.30151846e-002 8.67678970e-003
      1.73535794e-002 1.35574844e-002 9.76138841e-003 7.59219099e-003
      8.67678970e-003 1.19305858e-002 1.19305858e-002 4.88069421e-003
      8.13448988e-003 1.30151846e-002 8.13448988e-003 1.13882869e-002
      8.67678970e-003 7.04989163e-003 9.76138841e-003 1.03036873e-002
      4.88069421e-003 5.42299356e-003 2.00650766e-002 1.46420822e-002
      8.13448988e-003 1.95227768e-002 1.19305858e-002 2.16919743e-003
      7.59219099e-003 9.76138841e-003 8.67678970e-003 7.59219099e-003
      1.30151846e-002 9.76138841e-003 9.76138841e-003 5.96529292e-003
      1.03036873e-002 2.16919743e-003 6.50759228e-003 2.27765739e-002
      3.25379614e-003 1.35574844e-002 1.19305858e-002 1.19305858e-002
      1.08459871e-002 1.68112796e-002 1.40997833e-002 9.21908952e-003
      5.96529292e-003 1.46420822e-002 1.62689798e-002 1.13882869e-002
      1.24728847e-002 4.33839485e-003 7.59219099e-003 4.33839485e-003
      1.03036873e-002 5.42299356e-003 4.33839485e-003 1.40997833e-002
      1.73535794e-002 1.19305858e-002 5.96529292e-003 1.19305858e-002
      1.24728847e-002 7.59219099e-003 5.96529292e-003 4.33839485e-003
      1.46420822e-002 1.19305858e-002 4.88069421e-003 1.19305858e-002
      1.30151846e-002 1.19305858e-002 1.19305858e-002 1.78958792e-002
      1.19305858e-002 4.88069421e-003 9.21908952e-003 3.79609549e-003
      1.03036873e-002 8.67678970e-003 1.08459871e-002 1.08459871e-002
      1.03036873e-002 1.78958792e-002 3.25379614e-003 7.04989163e-003
      9.21908952e-003 2.71149678e-003 7.04989163e-003 1.24728847e-002
      1.24728847e-002 3.25379614e-003 1.84381790e-002 1.03036873e-002</_>
    <_>
      2.22222228e-002 1.18518518e-002 1.11111114e-002 1.48148146e-002
      9.62962955e-003 3.70370364e-003 4.44444455e-003 4.44444455e-003
      5.92592591e-003 7.40740728e-003 6.66666683e-003 2.07407400e-002
      4.51851860e-002 7.40740728e-003 1.33333337e-002 1.62962954e-002
      8.88888910e-003 3.70370364e-003 8.88888910e-003 4.44444455e-003
      4.44444455e-003 7.40740728e-003 4.44444455e-003 8.88888910e-003
      9.62962955e-003 2.22222228e-003 3.70370364e-003 8.14814772e-003
      1.18518518e-002 5.92592591e-003 6.66666683e-003 1.33333337e-002
      1.85185187e-002 3.70370364e-003 7.40740728e-003 7.40740728e-003
      1.40740741e-002 1.11111114e-002 2.22222228e-003 6.66666683e-003
      5.92592591e-003 0. 7.40740728e-003 3.25925909e-002 1.33333337e-002
      7.40740728e-003 7.40740728e-003 2.96296296e-003 6.66666683e-003
      1.70370378e-002 8.88888910e-003 0. 1.11111114e-002 4.44444455e-003
      5.18518500e-003 5.18518500e-003 6.66666683e-003 3.70370364e-003
      8.14814772e-003 1.25925923e-002 3.70370364e-003 5.18518500e-003
      8.88888910e-003 1.11111114e-002 2.96296291e-002 9.62962955e-003
      1.55555559e-002 5.18518500e-003 5.92592591e-003 4.44444455e-003
      2.29629632e-002 1.25925923e-002 5.92592591e-003 5.92592591e-003
      2.37037037e-002 6.66666683e-003 4.44444455e-003 8.88888910e-003
      4.44444455e-003 5.18518500e-003 1.11111114e-002 3.70370373e-002
      7.40740728e-003 9.62962955e-003 1.11111114e-002 1.40740741e-002
      6.66666683e-003 8.14814772e-003 8.14814772e-003 6.66666683e-003
      2.44444441e-002 1.18518518e-002 1.18518518e-002 2.22222228e-003
      1.33333337e-002 1.03703700e-002 4.44444455e-003 7.40740728e-003
      1.70370378e-002 2.14814823e-002</_>
    <_>
      4.81347786e-003 4.81347786e-003 1.56438034e-002 2.40673888e-002
      2.64741275e-002 1.08303251e-002 3.61010851e-003 1.20336947e-003
      7.22021703e-003 9.62695573e-003 2.40673893e-003 8.42358638e-003
      7.22021703e-003 8.42358638e-003 7.22021703e-003 0. 8.42358638e-003
      8.42358638e-003 1.08303251e-002 7.22021703e-003 8.42358638e-003
      1.20336944e-002 1.92539115e-002 6.01684721e-003 7.22021703e-003
      7.22021703e-003 1.08303251e-002 4.81347786e-003 3.61010851e-003
      9.62695573e-003 8.42358638e-003 3.61010851e-003 4.81347786e-003
      9.62695573e-003 8.42358638e-003 9.62695573e-003 9.62695573e-003
      1.44404341e-002 1.20336947e-003 9.62695573e-003 3.61010851e-003 0.
      1.08303251e-002 4.09145616e-002 1.80505421e-002 8.42358638e-003
      8.42358638e-003 4.81347786e-003 4.81347786e-003 1.56438034e-002
      8.42358638e-003 1.08303251e-002 4.81347786e-003 3.61010851e-003
      1.20336944e-002 1.08303251e-002 1.32370638e-002 7.22021703e-003
      1.80505421e-002 1.80505421e-002 3.61010851e-003 9.62695573e-003
      7.22021703e-003 7.22021703e-003 2.40673888e-002 9.62695573e-003
      1.20336947e-003 1.92539115e-002 9.62695573e-003 1.32370638e-002
      1.20336944e-002 0. 1.08303251e-002 1.08303251e-002 1.80505421e-002
      1.56438034e-002 7.22021703e-003 8.42358638e-003 6.01684721e-003
      1.44404341e-002 1.08303251e-002 1.68471728e-002 1.44404341e-002
      9.62695573e-003 1.08303251e-002 9.62695573e-003 7.22021703e-003
      9.62695573e-003 4.81347786e-003 1.20336944e-002 2.16606501e-002
      1.20336944e-002 6.01684721e-003 7.22021703e-003 1.08303251e-002
      8.42358638e-003 8.42358638e-003 1.56438034e-002 2.16606501e-002
      6.01684721e-003</_>
    <_>
      4.85605281e-003 6.93721790e-003 1.00589665e-002 4.50919196e-003
      8.67152307e-003 6.93721790e-003 7.97780044e-003 5.89663535e-003
      8.67152307e-003 7.63094006e-003 1.07526882e-002 6.93721790e-003
      3.46860895e-003 8.32466222e-003 2.42802640e-003 6.24349620e-003
      7.63094006e-003 5.89663535e-003 8.67152307e-003 1.24869924e-002
      7.28407921e-003 6.24349620e-003 5.89663535e-003 8.32466222e-003
      5.54977451e-003 9.36524477e-003 4.50919196e-003 9.36524477e-003
      4.16233111e-003 6.24349620e-003 4.50919196e-003 7.97780044e-003
      6.24349620e-003 1.63024627e-002 9.01838392e-003 9.71210562e-003
      5.20291366e-003 7.63094006e-003 6.93721790e-003 1.66493244e-002
      6.93721790e-003 2.60145694e-001 9.36524477e-003 1.17932707e-002
      5.89663535e-003 7.28407921e-003 8.67152307e-003 6.59035705e-003
      6.93721790e-003 5.20291366e-003 5.89663535e-003 1.21401316e-002
      6.59035705e-003 7.97780044e-003 6.93721790e-003 1.04058273e-002
      1.00589665e-002 1.38744358e-002 4.50919196e-003 4.85605281e-003
      7.28407921e-003 9.01838392e-003 9.01838392e-003 8.32466222e-003
      1.00589665e-002 9.01838392e-003 5.54977451e-003 7.28407921e-003
      4.85605281e-003 3.12174810e-003 3.81547003e-003 4.50919196e-003
      4.16233111e-003 8.67152307e-003 9.71210562e-003 7.63094006e-003
      7.97780044e-003 6.24349620e-003 7.63094006e-003 6.59035705e-003
      6.59035705e-003 3.81547003e-003 7.28407921e-003 1.00589665e-002
      6.93721790e-003 1.04058273e-002 6.59035705e-003 5.54977451e-003
      8.67152307e-003 8.32466222e-003 7.97780044e-003 5.54977451e-003
      4.50919196e-003 4.85605281e-003 1.38744358e-002 9.71210562e-003
      8.67152307e-003 4.50919196e-003 9.36524477e-003 2.08116556e-003</_>
    <_>
      3.99360992e-003 1.91693287e-002 1.59744397e-002 3.35463248e-002
      7.98721984e-003 5.59105445e-003 7.98721984e-003 8.78594257e-003
      3.19488812e-003 7.98721984e-003 1.19808307e-002 7.98721984e-003
      7.98721984e-003 8.78594257e-003 8.78594257e-003 7.98721984e-003
      1.67731624e-002 4.79233218e-003 5.59105445e-003 7.98721984e-003
      1.19808307e-002 6.38977624e-003 9.58466437e-003 8.78594257e-003
      3.51437703e-002 2.87539922e-002 4.79233218e-003 1.03833862e-002
      1.03833862e-002 9.58466437e-003 1.03833862e-002 4.23322693e-002
      8.78594257e-003 6.38977624e-003 6.38977624e-003 9.58466437e-003
      6.38977624e-003 1.59744406e-003 1.11821089e-002 1.27795525e-002
      9.58466437e-003 0. 6.38977624e-003 8.78594257e-003 2.95527149e-002
      5.59105445e-003 9.58466437e-003 7.18849804e-003 1.27795525e-002
      5.59105445e-003 7.98721984e-003 3.19488812e-003 1.51757188e-002
      3.99360992e-003 5.59105445e-003 1.59744406e-003 4.79233218e-003
      7.18849804e-003 1.75718851e-002 7.98721984e-003 1.83706060e-002
      3.19488812e-003 1.03833862e-002 8.78594257e-003 1.59744397e-002
      4.79233218e-003 1.03833862e-002 7.18849804e-003 4.79233218e-003
      3.19488812e-003 1.03833862e-002 1.27795525e-002 6.38977624e-003
      5.59105445e-003 1.91693287e-002 5.59105445e-003 8.78594257e-003
      1.03833862e-002 1.27795525e-002 1.11821089e-002 1.03833862e-002
      1.35782743e-002 4.79233218e-003 1.19808307e-002 7.98721984e-003
      4.79233218e-003 9.58466437e-003 7.98721984e-003 1.19808307e-002
      6.38977624e-003 7.98721984e-003 6.38977624e-003 1.19808307e-002
      1.03833862e-002 8.78594257e-003 1.03833862e-002 1.51757188e-002
      1.03833862e-002 1.19808307e-002 2.39616609e-003</_>
    <_>
      3.35195521e-003 1.34078208e-002 1.67597756e-002 4.02234644e-002
      2.23463681e-002 3.35195521e-003 1.45251397e-002 2.23463681e-003
      1.11731840e-002 5.58659201e-003 4.46927361e-003 2.34636869e-002
      2.23463681e-003 7.82122836e-003 1.11731840e-002 3.35195521e-003
      6.70391042e-003 3.35195521e-003 4.46927361e-003 1.11731840e-003
      6.70391042e-003 6.70391042e-003 1.11731840e-002 8.93854722e-003
      1.34078208e-002 1.22905020e-002 1.00558661e-002 4.46927361e-003
      7.82122836e-003 1.45251397e-002 7.82122836e-003 1.34078208e-002
      1.11731840e-002 4.46927361e-003 4.46927361e-003 8.93854722e-003
      1.00558661e-002 7.82122836e-003 5.58659201e-003 3.01675964e-002
      3.35195521e-003 1.11731840e-003 6.70391042e-003 5.02793267e-002
      1.78770944e-002 7.82122836e-003 5.58659201e-003 2.23463681e-003
      2.23463681e-003 1.56424567e-002 6.70391042e-003 3.35195521e-003
      1.00558661e-002 7.82122836e-003 1.00558661e-002 6.70391042e-003
      1.11731840e-002 7.82122836e-003 6.70391042e-003 1.56424567e-002
      6.70391042e-003 8.93854722e-003 3.35195521e-003 2.23463681e-003
      1.78770944e-002 7.82122836e-003 2.23463681e-003 8.93854722e-003
      5.58659201e-003 1.78770944e-002 8.93854722e-003 5.58659201e-003
      1.34078208e-002 7.82122836e-003 1.34078208e-002 1.45251397e-002
      4.46927361e-003 1.11731840e-002 1.00558661e-002 2.23463681e-003
      5.58659201e-003 1.78770944e-002 5.58659201e-003 1.00558661e-002
      1.00558661e-002 1.34078208e-002 3.35195521e-003 6.70391042e-003
      1.22905020e-002 6.70391042e-003 1.67597756e-002 1.78770944e-002
      1.34078208e-002 6.70391042e-003 7.82122836e-003 8.93854722e-003
      1.11731840e-002 2.56983228e-002 2.34636869e-002 3.35195521e-003</_>
    <_>
      1.06732352e-002 4.10509016e-003 1.14942528e-002 4.92610829e-003
      8.21018033e-003 9.03119892e-003 9.03119892e-003 4.92610829e-003
      9.85221658e-003 4.10509016e-003 4.92610829e-003 1.80623978e-002
      8.21018033e-003 4.10509016e-003 8.21018033e-003 9.85221658e-003
      1.88834164e-002 4.10509016e-003 8.21018033e-003 1.31362891e-002
      8.21018033e-003 6.56814454e-003 1.72413792e-002 5.74712642e-003
      1.14942528e-002 1.06732352e-002 9.03119892e-003 7.38916267e-003
      3.28407227e-003 1.47783253e-002 4.92610829e-003 1.80623978e-002
      1.88834164e-002 7.38916267e-003 3.28407227e-003 6.56814454e-003
      1.31362891e-002 2.13464703e-002 9.03119892e-003 8.21018033e-003
      1.23152714e-002 1.64203614e-003 1.47783253e-002 1.64203607e-002
      1.31362891e-002 7.38916267e-003 6.56814454e-003 9.85221658e-003
      9.85221658e-003 2.13464703e-002 1.31362891e-002 1.06732352e-002
      5.74712642e-003 5.74712642e-003 2.46305414e-003 9.03119892e-003
      1.55993430e-002 4.10509016e-003 7.38916267e-003 2.05254517e-002
      7.38916267e-003 8.21018033e-003 7.38916267e-003 5.74712642e-003
      9.85221658e-003 1.47783253e-002 9.85221658e-003 1.64203607e-002
      9.03119892e-003 9.85221658e-003 6.56814454e-003 9.03119892e-003
      5.74712642e-003 1.23152714e-002 1.64203607e-002 1.72413792e-002
      2.46305414e-003 1.88834164e-002 9.03119892e-003 1.47783253e-002
      3.28407227e-003 7.38916267e-003 6.56814454e-003 1.31362891e-002
      4.10509016e-003 1.80623978e-002 1.39573067e-002 8.21018033e-003
      8.21018033e-003 1.64203607e-002 4.10509016e-003 1.64203607e-002
      9.03119892e-003 2.46305414e-003 1.06732352e-002 7.38916267e-003
      2.13464703e-002 1.55993430e-002 9.03119892e-003 6.56814454e-003</_>
    <_>
      3.47826071e-003 5.21739107e-003 7.53623154e-003 2.31884047e-003
      4.63768095e-003 1.39130428e-002 1.85507238e-002 1.21739125e-002
      9.85507201e-003 1.10144923e-002 6.95652142e-003 6.95652142e-003
      9.85507201e-003 8.11594166e-003 1.04347821e-002 2.89855059e-003
      8.69565178e-003 1.15942024e-002 1.21739125e-002 1.10144923e-002
      1.15942024e-002 6.95652142e-003 7.53623154e-003 1.10144923e-002
      4.05797083e-003 6.95652142e-003 1.21739125e-002 8.11594166e-003
      4.05797083e-003 1.33333327e-002 1.56521723e-002 2.89855059e-003
      1.04347821e-002 9.27536190e-003 6.95652142e-003 1.21739125e-002
      1.21739125e-002 1.39130428e-002 5.79710118e-003 4.63768095e-003
      1.10144923e-002 0. 1.56521723e-002 1.50724631e-002 7.53623154e-003
      1.91304348e-002 1.33333327e-002 8.11594166e-003 1.21739125e-002
      1.68115944e-002 2.20289845e-002 7.53623154e-003 4.05797083e-003
      9.85507201e-003 8.69565178e-003 9.85507201e-003 1.56521723e-002
      6.37681130e-003 6.37681130e-003 4.63768095e-003 8.69565178e-003
      1.50724631e-002 1.15942024e-002 9.27536190e-003 7.53623154e-003
      1.79710127e-002 4.05797083e-003 1.33333327e-002 9.27536190e-003
      1.04347821e-002 9.27536190e-003 3.47826071e-003 9.85507201e-003
      2.02898532e-002 8.11594166e-003 1.27536226e-002 1.68115944e-002
      1.39130428e-002 9.27536190e-003 1.44927530e-002 1.04347821e-002
      2.89855059e-003 1.62318833e-002 8.11594166e-003 1.39130428e-002
      1.73913036e-002 8.69565178e-003 1.39130428e-002 9.27536190e-003
      1.73913036e-002 8.11594166e-003 9.85507201e-003 1.10144923e-002
      1.15942024e-003 1.10144923e-002 8.11594166e-003 1.50724631e-002
      5.21739107e-003 6.95652142e-003 8.69565178e-003</_>
    <_>
      5.38793113e-003 1.07758623e-002 7.54310330e-003 3.44827585e-002
      7.54310330e-003 4.31034481e-003 1.18534481e-002 9.69827548e-003
      5.38793113e-003 5.38793113e-003 6.46551698e-003 7.54310330e-003
      7.54310330e-003 7.54310330e-003 1.18534481e-002 1.18534481e-002
      1.18534481e-002 4.31034481e-003 6.46551698e-003 1.07758623e-002
      1.29310340e-002 3.23275849e-003 4.31034481e-003 1.18534481e-002
      2.58620679e-002 5.38793113e-003 2.04741377e-002 4.31034481e-003
      7.54310330e-003 4.31034481e-003 1.07758623e-002 2.80172415e-002
      1.72413792e-002 1.07758623e-002 3.23275849e-003 1.50862066e-002
      7.54310330e-003 5.38793113e-003 1.07758623e-002 2.47844830e-002
      7.54310330e-003 1.07758620e-003 1.07758623e-002 3.12500000e-002
      1.40086208e-002 1.29310340e-002 2.15517241e-003 4.31034481e-003
      4.31034481e-003 1.07758623e-002 1.40086208e-002 1.29310340e-002
      1.07758623e-002 6.46551698e-003 8.62068962e-003 2.37068962e-002
      1.61637925e-002 6.46551698e-003 1.29310340e-002 8.62068962e-003
      7.54310330e-003 1.18534481e-002 0. 8.62068962e-003 1.93965510e-002
      2.15517241e-003 9.69827548e-003 1.07758623e-002 5.38793113e-003
      6.46551698e-003 6.46551698e-003 1.29310340e-002 9.69827548e-003
      7.54310330e-003 8.62068962e-003 1.50862066e-002 7.54310330e-003
      1.07758623e-002 3.23275849e-003 1.29310340e-002 7.54310330e-003
      9.69827548e-003 1.07758623e-002 3.23275849e-003 1.29310340e-002
      7.54310330e-003 1.40086208e-002 5.38793113e-003 8.62068962e-003
      1.07758623e-002 9.69827548e-003 8.62068962e-003 4.31034481e-003
      1.07758623e-002 5.38793113e-003 7.54310330e-003 1.83189660e-002
      1.07758623e-002 8.62068962e-003 6.46551698e-003</_>
    <_>
      2.04290100e-003 1.43003073e-002 1.02145050e-003 2.04290100e-003
      3.06435162e-003 5.10725239e-003 2.55362634e-002 1.43003073e-002
      1.22574065e-002 4.08580201e-003 2.04290100e-003 7.15015363e-003
      3.06435162e-003 4.08580201e-003 2.04290096e-002 4.08580201e-003
      9.19305440e-003 1.43003073e-002 1.83861088e-002 9.19305440e-003
      1.63432080e-002 9.19305440e-003 2.24719103e-002 5.10725239e-003
      7.15015363e-003 6.12870324e-003 2.86006145e-002 5.10725239e-003
      2.34933607e-002 2.96220649e-002 2.75791641e-002 4.08580201e-003
      6.12870324e-003 1.02145048e-002 6.12870324e-003 4.08580201e-003
      1.83861088e-002 1.22574065e-002 1.02145048e-002 2.04290100e-003
      1.32788569e-002 0. 6.12870324e-003 1.02145050e-003 2.04290100e-003
      1.12359552e-002 8.17160401e-003 1.53217576e-002 9.19305440e-003
      1.83861088e-002 7.15015363e-003 2.04290096e-002 1.43003073e-002
      8.17160401e-003 3.06435162e-003 3.77936698e-002 1.12359552e-002
      1.02145050e-003 3.06435162e-003 0. 7.15015363e-003 5.10725239e-003
      7.15015363e-003 7.15015363e-003 4.08580201e-003 1.02145048e-002
      1.02145050e-003 9.19305440e-003 2.45148130e-002 1.12359552e-002
      7.15015363e-003 1.83861088e-002 2.24719103e-002 2.24719103e-002
      1.02145050e-003 1.12359552e-002 3.06435162e-003 1.53217576e-002
      1.22574065e-002 1.22574065e-002 6.12870324e-003 1.02145050e-003
      2.55362634e-002 1.22574065e-002 1.83861088e-002 1.12359552e-002
      1.22574065e-002 1.02145048e-002 3.06435162e-003 2.24719103e-002
      2.04290100e-003 1.02145048e-002 4.08580201e-003 5.10725239e-003
      2.04290100e-003 4.08580201e-003 2.04290100e-003 5.10725239e-003
      5.10725239e-003 4.08580201e-003</_>
    <_>
      9.11854114e-003 1.36778113e-002 9.11854114e-003 6.07902743e-003
      1.67173259e-002 6.07902743e-003 7.59878429e-003 6.07902743e-003
      1.51975686e-003 7.59878429e-003 6.07902743e-003 2.43161097e-002
      1.51975686e-003 7.59878429e-003 1.51975686e-002 1.51975686e-002
      2.12765969e-002 1.51975686e-003 2.27963533e-002 6.07902743e-003
      6.07902743e-003 1.06382985e-002 7.59878429e-003 9.11854114e-003
      1.06382985e-002 1.06382985e-002 7.59878429e-003 4.55927057e-003
      1.21580549e-002 1.51975686e-003 1.97568387e-002 1.06382985e-002
      1.36778113e-002 1.51975686e-003 7.59878429e-003 1.51975686e-003
      1.21580549e-002 1.67173259e-002 9.11854114e-003 1.97568387e-002
      1.06382985e-002 0. 1.06382985e-002 7.59878429e-003 9.11854114e-003
      1.67173259e-002 1.06382985e-002 7.59878429e-003 6.07902743e-003
      1.06382985e-002 1.06382985e-002 1.51975686e-003 1.21580549e-002
      6.07902743e-003 4.55927057e-003 9.11854114e-003 2.43161097e-002 0.
      7.59878429e-003 1.21580549e-002 1.51975686e-003 3.03951371e-003
      3.64741646e-002 7.59878429e-003 2.12765969e-002 3.03951371e-003
      1.51975686e-002 1.06382985e-002 9.11854114e-003 1.06382985e-002
      1.51975686e-002 1.06382985e-002 6.07902743e-003 4.55927057e-003
      4.55927057e-003 1.36778113e-002 6.07902743e-003 1.67173259e-002
      9.11854114e-003 6.07902743e-003 1.51975686e-003 2.27963533e-002
      4.55927057e-003 1.06382985e-002 1.51975686e-002 2.27963533e-002
      6.07902743e-003 7.59878429e-003 7.59878429e-003 1.51975686e-002
      1.67173259e-002 6.07902743e-003 1.36778113e-002 9.11854114e-003
      9.11854114e-003 6.07902743e-003 6.07902743e-003 1.51975686e-002
      1.06382985e-002 6.07902743e-003</_>
    <_>
      2.18102499e-003 1.19956378e-002 1.19956378e-002 1.19956378e-002 0.
      1.63576882e-002 1.63576882e-002 6.54307473e-003 9.81461257e-003
      7.63358735e-003 1.19956378e-002 1.85387116e-002 0. 1.09051252e-002
      1.96292251e-002 4.36204998e-003 9.81461257e-003 8.72409996e-003
      9.81461257e-003 2.18102499e-003 1.63576882e-002 5.45256259e-003
      4.36204998e-003 4.36204998e-003 7.63358735e-003 8.72409996e-003
      1.19956378e-002 1.41766621e-002 6.54307473e-003 1.41766621e-002
      2.18102504e-002 6.54307473e-003 4.36204998e-003 9.81461257e-003
      1.19956378e-002 9.81461257e-003 2.18102504e-002 9.81461257e-003
      1.30861495e-002 1.52671747e-002 1.96292251e-002 0. 3.27153737e-003
      5.45256259e-003 8.72409996e-003 1.19956378e-002 1.30861495e-002
      5.45256259e-003 9.81461257e-003 1.96292251e-002 1.19956378e-002
      4.36204998e-003 6.54307473e-003 1.41766621e-002 6.54307473e-003
      2.61722989e-002 1.96292251e-002 4.36204998e-003 1.09051252e-002
      7.63358735e-003 7.63358735e-003 7.63358735e-003 4.36204998e-003
      7.63358735e-003 1.74481999e-002 1.30861495e-002 5.45256259e-003
      1.19956378e-002 1.19956378e-002 8.72409996e-003 9.81461257e-003
      7.63358735e-003 1.09051252e-002 1.52671747e-002 7.63358735e-003
      1.85387116e-002 9.81461257e-003 1.52671747e-002 1.30861495e-002
      1.09051252e-002 4.36204998e-003 3.27153737e-003 6.54307473e-003
      7.63358735e-003 1.41766621e-002 1.19956378e-002 9.81461257e-003
      7.63358735e-003 7.63358735e-003 1.41766621e-002 3.27153737e-003
      7.63358735e-003 7.63358735e-003 4.36204998e-003 4.36204998e-003
      1.09051252e-002 1.85387116e-002 1.09051252e-002 7.63358735e-003
      4.36204998e-003</_>
    <_>
      1.16959065e-002 7.60233914e-003 7.60233914e-003 1.63742695e-002
      1.75438598e-002 8.18713475e-003 1.11111114e-002 1.46198831e-002
      7.60233914e-003 1.05263153e-002 1.16959065e-002 9.35672503e-003
      1.40350871e-002 8.77192989e-003 1.11111114e-002 7.60233914e-003
      9.35672503e-003 9.94152017e-003 9.94152017e-003 7.60233914e-003
      1.05263153e-002 8.18713475e-003 1.05263153e-002 9.94152017e-003
      5.84795326e-003 8.77192989e-003 1.16959065e-002 1.05263153e-002
      7.01754354e-003 7.60233914e-003 7.60233914e-003 4.67836251e-003
      1.11111114e-002 5.26315765e-003 1.16959065e-002 1.11111114e-002
      1.16959065e-002 1.46198831e-002 8.77192989e-003 7.60233914e-003
      1.28654968e-002 0. 8.77192989e-003 1.57894734e-002 7.60233914e-003
      9.35672503e-003 7.60233914e-003 8.77192989e-003 7.60233914e-003
      1.75438598e-002 9.94152017e-003 8.77192989e-003 9.35672503e-003
      9.94152017e-003 7.60233914e-003 1.46198831e-002 1.22807017e-002
      7.60233914e-003 9.94152017e-003 9.35672503e-003 9.35672503e-003
      1.57894734e-002 6.43274840e-003 9.94152017e-003 1.75438598e-002
      5.84795326e-003 5.26315765e-003 1.11111114e-002 6.43274840e-003
      1.34502919e-002 6.43274840e-003 3.50877177e-003 1.05263153e-002
      5.84795326e-003 1.05263153e-002 1.16959065e-002 1.11111114e-002
      5.84795326e-003 8.77192989e-003 1.16959065e-002 1.05263153e-002
      1.22807017e-002 8.77192989e-003 4.67836251e-003 1.16959065e-002
      1.34502919e-002 1.05263153e-002 1.22807017e-002 1.57894734e-002
      1.63742695e-002 8.18713475e-003 1.81286540e-002 1.63742695e-002
      8.18713475e-003 1.22807017e-002 8.77192989e-003 4.09356738e-003
      1.28654968e-002 5.84795326e-003 9.35672503e-003</_>
    <_>
      2.39664479e-003 3.59496707e-003 4.79328958e-003 1.49790300e-002
      1.19832240e-003 9.58657917e-003 1.43798683e-002 1.07849017e-002
      6.59077335e-003 7.18993414e-003 8.38825665e-003 1.55781908e-002
      5.99161210e-003 1.43798683e-002 2.15698034e-002 5.39245084e-003
      1.01857400e-002 5.39245084e-003 4.79328958e-003 1.07849017e-002
      1.07849017e-002 8.98741838e-003 6.59077335e-003 9.58657917e-003
      1.01857400e-002 8.38825665e-003 1.85739975e-002 1.19832242e-002
      6.59077335e-003 1.61773525e-002 1.55781908e-002 7.18993414e-003
      8.38825665e-003 1.01857400e-002 9.58657917e-003 1.31815467e-002
      1.25823850e-002 1.07849017e-002 1.19832242e-002 1.61773525e-002
      1.61773525e-002 0. 1.37807075e-002 8.98741838e-003 6.59077335e-003
      1.13840625e-002 1.01857400e-002 8.98741838e-003 9.58657917e-003
      1.61773525e-002 1.85739975e-002 8.98741838e-003 5.39245084e-003
      1.25823850e-002 5.39245084e-003 2.75614150e-002 1.61773525e-002
      6.59077335e-003 2.39664479e-003 5.39245084e-003 8.98741838e-003
      1.19832242e-002 8.38825665e-003 8.38825665e-003 5.99161210e-003
      5.99161210e-003 7.78909540e-003 1.37807075e-002 9.58657917e-003
      9.58657917e-003 7.78909540e-003 7.78909540e-003 1.01857400e-002
      1.55781908e-002 4.19412833e-003 1.31815467e-002 5.99161210e-003
      1.43798683e-002 8.38825665e-003 1.31815467e-002 8.98741838e-003
      1.07849017e-002 1.25823850e-002 2.39664479e-003 1.25823850e-002
      1.25823850e-002 1.37807075e-002 1.37807075e-002 9.58657917e-003
      1.19832242e-002 5.99161210e-003 5.99161210e-003 4.79328958e-003
      5.99161210e-003 1.43798683e-002 1.43798683e-002 2.51647700e-002
      3.59496707e-003 2.39664479e-003 4.79328958e-003</_>
    <_>
      2.30024215e-002 2.42130756e-002 9.68523044e-003 2.17917692e-002
      8.47457629e-003 1.21065381e-003 8.47457629e-003 2.42130761e-003
      2.42130761e-003 4.84261522e-003 8.47457629e-003 1.81598067e-002
      2.90556923e-002 0. 9.68523044e-003 2.17917692e-002 3.63196153e-003
      2.42130761e-003 1.08958846e-002 8.47457629e-003 3.63196153e-003
      8.47457629e-003 7.26392306e-003 3.63196153e-003 1.69491526e-002
      1.21065378e-002 4.84261522e-003 6.05326891e-003 2.66343839e-002
      1.21065378e-002 4.84261522e-003 1.69491526e-002 4.84261522e-003
      7.26392306e-003 3.63196153e-003 4.84261522e-003 1.45278461e-002
      1.33171920e-002 6.05326891e-003 1.33171920e-002 0. 0.
      4.84261522e-003 2.54237298e-002 1.08958846e-002 8.47457629e-003
      1.08958846e-002 0. 1.81598067e-002 3.63196153e-003 1.08958846e-002
      4.84261522e-003 2.05811150e-002 3.63196153e-003 3.63196153e-003 0.
      8.47457629e-003 2.42130761e-003 2.30024215e-002 7.26392306e-003
      3.63196153e-003 8.47457629e-003 8.47457629e-003 7.26392306e-003
      4.23728824e-002 6.05326891e-003 2.54237298e-002 8.47457629e-003
      9.68523044e-003 3.63196153e-003 8.47457629e-003 3.38983051e-002
      4.84261522e-003 3.63196153e-003 2.42130756e-002 9.68523044e-003
      6.05326891e-003 1.08958846e-002 8.47457629e-003 3.63196153e-003
      3.63196153e-003 4.96368073e-002 8.47457629e-003 8.47457629e-003
      3.63196153e-003 4.84261522e-003 2.42130761e-003 9.68523044e-003
      2.42130761e-003 2.42130761e-003 6.05326891e-003 1.08958846e-002
      6.05326891e-003 9.68523044e-003 7.26392306e-003 3.63196153e-003
      9.68523044e-003 9.68523044e-003 9.68523044e-003 1.69491526e-002</_>
    <_>
      9.80392192e-003 5.68627492e-002 9.80392192e-003 1.17647070e-002
      1.76470596e-002 0. 0. 0. 7.84313772e-003 9.80392192e-003
      5.88235352e-003 1.96078443e-003 9.80392192e-003 5.88235352e-003
      3.92156886e-003 3.92156877e-002 3.92156886e-003 3.92156886e-003
      1.96078443e-003 9.80392192e-003 1.96078443e-003 1.96078443e-003
      1.37254912e-002 3.92156886e-003 2.15686280e-002 3.13725509e-002
      1.96078443e-003 1.76470596e-002 4.50980403e-002 9.80392192e-003
      1.96078443e-003 2.35294141e-002 3.92156886e-003 1.96078443e-003 0.
      0. 5.88235352e-003 1.96078443e-003 1.96078443e-003 1.37254912e-002
      0. 0. 1.96078443e-003 2.74509825e-002 1.76470596e-002
      7.84313772e-003 3.92156886e-003 7.84313772e-003 1.56862754e-002 0.
      0. 1.96078443e-003 7.45098069e-002 0. 3.92156886e-003 0. 0.
      1.37254912e-002 1.56862754e-002 1.17647070e-002 3.92156886e-003
      3.92156886e-003 7.84313772e-003 1.37254912e-002 1.17647070e-002 0.
      3.13725509e-002 5.88235352e-003 1.96078438e-002 0. 1.96078443e-003
      5.29411808e-002 3.92156886e-003 1.96078443e-003 1.76470596e-002 0.
      0. 1.96078443e-003 5.88235352e-003 0. 5.88235352e-003
      2.74509825e-002 9.80392192e-003 1.37254912e-002 0. 5.88235352e-003
      5.88235352e-003 3.92156886e-003 1.96078443e-003 9.80392192e-003
      2.74509825e-002 7.84313772e-003 7.84313772e-003 1.56862754e-002
      1.96078443e-003 3.92156886e-003 0. 3.33333351e-002 9.80392192e-003
      5.88235352e-003</_>
    <_>
      1.23390555e-002 4.82832640e-003 6.16952777e-003 4.29184549e-003
      1.07296137e-002 1.52896997e-002 7.77897006e-003 2.38733906e-002
      6.97424915e-003 1.60944201e-002 1.34120174e-002 3.21888411e-003
      1.36802578e-002 8.85193143e-003 7.51072960e-003 8.85193143e-003
      1.04613733e-002 8.31545051e-003 1.07296137e-002 1.09978542e-002
      1.74356215e-002 9.65665281e-003 1.15343351e-002 1.26072960e-002
      1.23390555e-002 1.42167378e-002 9.92489234e-003 9.65665281e-003
      9.12017189e-003 1.42167378e-002 7.77897006e-003 1.42167378e-002
      1.07296137e-002 1.28755365e-002 9.12017189e-003 1.44849783e-002
      5.36480686e-003 8.04721005e-003 1.12660946e-002 1.07296137e-003
      1.28755365e-002 2.68240343e-004 1.66309010e-002 1.07296137e-003
      9.92489234e-003 1.15343351e-002 1.36802578e-002 9.12017189e-003
      9.12017189e-003 5.63304732e-003 1.23390555e-002 7.24248914e-003
      9.65665281e-003 1.34120174e-002 9.12017189e-003 5.90128731e-003
      1.18025746e-002 6.97424915e-003 6.70600869e-003 6.70600869e-003
      1.18025746e-002 1.23390555e-002 1.50214592e-002 8.04721005e-003
      2.14592274e-003 6.97424915e-003 6.97424915e-003 1.63626615e-002
      1.36802578e-002 2.68240343e-003 5.63304732e-003 9.12017189e-003
      1.04613733e-002 9.92489234e-003 6.70600869e-003 9.38841235e-003
      1.09978542e-002 9.12017189e-003 8.85193143e-003 1.18025746e-002
      1.12660946e-002 1.79721024e-002 7.51072960e-003 1.07296137e-002
      1.23390555e-002 5.90128731e-003 1.58261806e-002 1.44849783e-002
      1.01931328e-002 1.09978542e-002 1.07296137e-002 6.43776823e-003
      7.24248914e-003 1.52896997e-002 1.42167378e-002 1.04613733e-002
      9.38841235e-003 9.38841235e-003 2.68240343e-003 9.12017189e-003</_>
    <_>
      5.86510263e-003 5.86510263e-003 7.33137829e-003 1.46627566e-002
      5.86510263e-003 1.02639291e-002 1.02639291e-002 1.02639291e-002
      1.31964814e-002 1.17302053e-002 7.33137829e-003 1.46627566e-002
      1.46627566e-002 8.79765395e-003 1.61290318e-002 4.39882698e-003
      1.17302053e-002 1.75953079e-002 1.46627566e-002 5.86510263e-003
      8.79765395e-003 1.02639291e-002 8.79765395e-003 7.33137829e-003
      8.79765395e-003 8.79765395e-003 1.46627566e-002 1.61290318e-002
      2.93255132e-003 1.46627566e-002 1.02639291e-002 1.02639291e-002
      1.02639291e-002 2.93255132e-003 1.17302053e-002 4.39882698e-003
      8.79765395e-003 1.61290318e-002 8.79765395e-003 1.46627566e-002
      1.90615840e-002 0. 1.46627566e-002 3.22580636e-002 7.33137829e-003
      7.33137829e-003 5.86510263e-003 8.79765395e-003 4.39882698e-003
      2.05278583e-002 1.31964814e-002 0. 4.39882698e-003 5.86510263e-003
      1.02639291e-002 2.93255132e-003 1.75953079e-002 1.17302053e-002
      7.33137829e-003 1.02639291e-002 8.79765395e-003 4.39882698e-003
      1.46627566e-002 5.86510263e-003 1.46627566e-002 8.79765395e-003
      8.79765395e-003 7.33137829e-003 1.46627566e-002 2.05278583e-002
      1.17302053e-002 2.93255132e-003 7.33137829e-003 1.61290318e-002
      1.02639291e-002 1.17302053e-002 1.02639291e-002 1.46627566e-002
      8.79765395e-003 1.31964814e-002 5.86510263e-003 1.02639291e-002
      7.33137829e-003 5.86510263e-003 8.79765395e-003 1.61290318e-002
      5.86510263e-003 0. 1.17302053e-002 7.33137829e-003 7.33137829e-003
      1.46627566e-002 8.79765395e-003 2.93255132e-003 4.39882698e-003
      7.33137829e-003 1.17302053e-002 7.33137829e-003 1.75953079e-002
      8.79765395e-003</_>
    <_>
      6.42398279e-003 2.14132760e-002 2.35546045e-002 6.42398279e-003
      8.56531039e-003 2.14132760e-003 6.42398279e-003 8.56531039e-003
      8.56531039e-003 8.56531039e-003 4.28265519e-003 8.56531039e-003
      6.42398279e-003 0. 1.28479656e-002 2.14132760e-003 2.14132760e-003
      2.14132760e-003 8.56531039e-003 2.14132760e-003 6.42398279e-003
      1.07066380e-002 8.56531039e-003 6.42398279e-003 1.71306208e-002
      4.28265519e-003 1.71306208e-002 1.07066380e-002 1.92719474e-002
      1.71306208e-002 1.28479656e-002 1.49892932e-002 2.14132760e-003 0.
      4.28265519e-003 6.42398279e-003 1.92719474e-002 2.35546045e-002
      4.28265519e-003 2.35546045e-002 4.28265519e-003 0. 2.14132760e-003
      5.78158461e-002 6.42398279e-003 4.28265519e-003 6.42398279e-003
      8.56531039e-003 1.07066380e-002 1.92719474e-002 1.07066380e-002
      4.28265519e-003 1.07066380e-002 6.42398279e-003 6.42398279e-003
      1.07066380e-002 8.56531039e-003 6.42398279e-003 2.14132760e-003 0.
      1.92719474e-002 1.28479656e-002 0. 8.56531039e-003 4.28265519e-002
      6.42398279e-003 0. 1.07066380e-002 8.56531039e-003 2.56959312e-002
      4.28265519e-003 1.49892932e-002 2.35546045e-002 1.07066380e-002
      6.42398279e-003 1.28479656e-002 1.07066380e-002 3.85438949e-002
      1.07066380e-002 6.42398279e-003 1.28479656e-002 2.14132760e-003
      8.56531039e-003 6.42398279e-003 4.28265519e-003 1.49892932e-002
      1.92719474e-002 4.28265519e-003 4.28265519e-003 4.28265519e-003
      6.42398279e-003 8.56531039e-003 4.28265519e-003 4.28265519e-003
      2.14132760e-003 4.28265519e-003 1.28479656e-002 1.28479656e-002
      1.92719474e-002 4.28265519e-003</_>
    <_>
      2.84360186e-003 1.13744074e-002 7.58293830e-003 1.51658766e-002
      6.63507078e-003 8.53080582e-003 9.47867334e-003 9.47867334e-003
      8.53080582e-003 1.70616116e-002 7.58293830e-003 7.58293830e-003
      1.04265399e-002 4.73933667e-003 9.47867334e-003 7.58293830e-003
      7.58293830e-003 6.63507078e-003 1.32701416e-002 1.13744074e-002
      8.53080582e-003 4.73933667e-003 1.13744074e-002 8.53080582e-003
      1.13744074e-002 3.79146915e-003 9.47867334e-003 5.68720372e-003
      1.42180091e-002 1.04265399e-002 1.32701416e-002 5.68720372e-003
      1.42180091e-002 1.04265399e-002 1.23222750e-002 3.79146915e-003
      2.27488149e-002 1.70616116e-002 4.73933667e-003 1.13744074e-002
      6.63507078e-003 9.47867287e-004 2.18009483e-002 1.32701416e-002
      7.58293830e-003 1.42180091e-002 7.58293830e-003 4.73933667e-003
      1.04265399e-002 1.42180091e-002 9.47867334e-003 6.63507078e-003
      1.51658766e-002 1.23222750e-002 1.13744074e-002 1.32701416e-002
      1.51658766e-002 7.58293830e-003 5.68720372e-003 6.63507078e-003
      8.53080582e-003 5.68720372e-003 4.73933667e-003 8.53080582e-003
      1.42180091e-002 9.47867334e-003 9.47867334e-003 1.32701416e-002
      1.61137432e-002 1.13744074e-002 7.58293830e-003 1.13744074e-002
      4.73933667e-003 1.51658766e-002 1.13744074e-002 7.58293830e-003
      1.51658766e-002 1.70616116e-002 1.23222750e-002 1.23222750e-002
      9.47867334e-003 4.73933667e-003 8.53080582e-003 1.32701416e-002
      6.63507078e-003 2.08530799e-002 1.23222750e-002 5.68720372e-003
      4.73933667e-003 1.23222750e-002 6.63507078e-003 1.23222750e-002
      7.58293830e-003 4.73933667e-003 1.13744074e-002 1.04265399e-002
      1.32701416e-002 8.53080582e-003 9.47867334e-003 9.47867334e-003</_>
    <_>
      1.02301789e-002 0. 3.06905359e-002 6.64961636e-002 2.55754474e-003
      1.02301789e-002 1.02301789e-002 1.27877239e-002 0. 5.11508947e-003
      5.11508947e-003 5.11508947e-003 2.55754474e-003 0. 1.79028139e-002
      5.11508947e-003 5.11508947e-003 1.53452680e-002 2.55754474e-003
      2.55754474e-003 5.11508947e-003 1.02301789e-002 2.55754474e-003 0.
      1.79028139e-002 2.55754474e-003 2.55754474e-003 5.11508947e-003
      7.67263398e-003 5.11508947e-003 2.04603579e-002 7.67263398e-003
      7.67263398e-003 5.11508947e-003 0. 5.11508947e-003 1.27877239e-002
      1.02301789e-002 1.02301789e-002 4.09207158e-002 2.55754474e-003 0.
      1.27877239e-002 7.92838857e-002 1.02301789e-002 7.67263398e-003
      7.67263398e-003 5.11508947e-003 0. 2.55754474e-003 1.53452680e-002
      1.02301789e-002 2.55754474e-003 5.11508947e-003 5.11508947e-003
      2.30179019e-002 2.55754478e-002 5.11508947e-003 2.55754474e-003
      2.55754474e-003 1.02301789e-002 7.67263398e-003 0. 0.
      5.11508957e-002 5.11508947e-003 0. 1.02301789e-002 1.02301789e-002
      1.02301789e-002 1.27877239e-002 5.11508947e-003 0. 1.27877239e-002
      1.27877239e-002 2.04603579e-002 5.11508947e-003 1.27877239e-002
      2.55754474e-003 2.55754474e-003 0. 2.55754474e-003 7.67263398e-003
      7.67263398e-003 0. 7.67263398e-003 7.67263398e-003 5.11508947e-003
      7.67263398e-003 1.02301789e-002 0. 5.11508947e-003 5.11508947e-003
      2.55754474e-003 2.55754474e-003 0. 1.27877239e-002 1.79028139e-002
      8.95140693e-002 2.55754474e-003</_>
    <_>
      1.87637974e-002 1.15894042e-002 2.48344373e-002 5.51876379e-003
      3.69757190e-002 6.62251655e-003 6.07063994e-003 1.37969097e-002
      9.93377529e-003 1.60044152e-002 1.04856510e-002 1.21412799e-002
      2.81456951e-002 8.83002207e-003 3.31125828e-003 1.87637974e-002
      6.62251655e-003 4.96688765e-003 8.27814545e-003 1.87637974e-002
      8.83002207e-003 4.96688765e-003 9.93377529e-003 1.26931565e-002
      1.49006620e-002 1.93156730e-002 1.65562914e-003 4.96688765e-003
      8.83002207e-003 6.07063994e-003 2.75938190e-003 1.54525386e-002
      1.87637974e-002 1.54525386e-002 7.17439316e-003 5.51876379e-003
      7.17439316e-003 5.51876379e-003 5.51876379e-003 7.72626931e-003
      3.86313465e-003 2.75938190e-003 9.93377529e-003 9.93377529e-003
      2.31788084e-002 3.31125828e-003 6.62251655e-003 7.17439316e-003
      5.51876379e-003 4.96688765e-003 8.83002207e-003 7.17439316e-003
      6.07063994e-003 3.31125828e-003 5.51876379e-003 5.51876379e-004
      6.07063994e-003 6.62251655e-003 1.71081685e-002 2.37306841e-002
      2.20750552e-003 8.27814545e-003 1.10375276e-002 8.27814545e-003
      7.72626931e-003 1.21412799e-002 2.04194263e-002 1.10375276e-002
      6.07063994e-003 3.31125828e-003 9.38189868e-003 7.17439316e-003
      2.20750552e-003 7.72626931e-003 2.20750552e-002 6.62251655e-003
      3.31125828e-003 6.62251655e-003 7.17439316e-003 7.17439316e-003
      1.49006620e-002 2.15231795e-002 3.86313465e-003 1.10375276e-002
      9.93377529e-003 4.41501103e-003 6.07063994e-003 6.62251655e-003
      5.51876379e-003 6.07063994e-003 1.76600441e-002 1.43487863e-002
      8.27814545e-003 1.37969097e-002 1.65562909e-002 8.27814545e-003
      4.41501103e-003 1.60044152e-002 8.27814545e-003 1.65562909e-002</_>
    <_>
      6.39658887e-003 1.06609808e-002 9.59488284e-003 1.59914717e-002
      2.66524521e-003 1.17270788e-002 1.27931777e-002 1.43923247e-002
      8.52878485e-003 7.99573585e-003 1.01279318e-002 1.22601278e-002
      4.79744142e-003 9.06183384e-003 1.22601278e-002 6.92963786e-003
      1.11940298e-002 1.33262267e-002 5.33049041e-003 8.52878485e-003
      1.65245198e-002 6.39658887e-003 1.06609808e-002 5.86353941e-003
      1.22601278e-002 7.46268686e-003 2.45202556e-002 5.86353941e-003
      2.66524521e-003 1.65245198e-002 1.43923247e-002 7.46268686e-003
      6.39658887e-003 7.99573585e-003 9.06183384e-003 2.66524521e-003
      1.01279318e-002 1.01279318e-002 8.52878485e-003 7.99573585e-003
      1.59914717e-002 4.26439242e-003 1.01279318e-002 1.22601278e-002
      2.07889136e-002 9.59488284e-003 1.01279318e-002 1.54584227e-002
      6.39658887e-003 1.06609808e-002 1.11940298e-002 9.59488284e-003
      1.33262267e-002 1.75906196e-002 7.99573585e-003 1.75906196e-002
      1.22601278e-002 3.19829443e-003 6.92963786e-003 1.01279318e-002
      1.38592757e-002 6.39658887e-003 4.79744142e-003 1.49253737e-002
      1.17270788e-002 1.11940298e-002 7.46268686e-003 9.06183384e-003
      1.11940298e-002 8.52878485e-003 3.73134343e-003 7.46268686e-003
      1.97228156e-002 6.92963786e-003 8.52878485e-003 1.54584227e-002
      1.11940298e-002 6.92963786e-003 9.59488284e-003 1.33262267e-002
      9.06183384e-003 5.86353941e-003 8.52878485e-003 1.06609808e-002
      1.17270788e-002 7.99573585e-003 1.43923247e-002 9.59488284e-003
      1.33262267e-002 1.11940298e-002 3.19829443e-003 1.06609808e-002
      1.17270788e-002 5.33049041e-003 2.66524521e-003 9.59488284e-003
      1.01279318e-002 6.92963786e-003 1.27931777e-002 9.06183384e-003</_>
    <_>
      1.86625198e-002 1.08864699e-002 3.73250395e-002 3.73250395e-002
      2.33281497e-002 1.55520998e-003 9.33125988e-003 0. 6.22083992e-003
      6.22083992e-003 3.11041996e-003 1.71073098e-002 3.11041996e-003
      4.66562994e-003 1.55520998e-002 2.02177297e-002 9.33125988e-003
      1.55520998e-003 3.11041996e-003 4.66562994e-003 1.71073098e-002 0.
      7.77604990e-003 0. 1.24416798e-002 9.33125988e-003 3.11041996e-003
      0. 6.22083992e-003 3.11041996e-003 1.08864699e-002 1.08864699e-002
      1.39968898e-002 6.22083992e-003 4.66562994e-003 4.66562994e-003
      4.66562994e-003 1.39968898e-002 3.11041996e-003 3.73250395e-002
      6.22083992e-003 1.55520998e-003 6.22083992e-003 4.19906676e-002
      2.33281497e-002 1.86625198e-002 4.66562994e-003 4.66562994e-003
      6.22083992e-003 1.24416798e-002 1.08864699e-002 1.55520998e-003
      1.24416798e-002 6.22083992e-003 4.66562994e-003 4.66562994e-003
      1.55520998e-002 3.11041996e-003 1.55520998e-003 2.02177297e-002
      3.11041996e-003 7.77604990e-003 1.55520998e-002 4.66562994e-003
      3.26594114e-002 6.22083992e-003 1.08864699e-002 4.66562994e-003
      3.11041996e-003 1.08864699e-002 1.24416798e-002 3.11041996e-003
      4.66562994e-003 1.55520998e-003 6.22083992e-002 1.39968898e-002
      3.11041996e-003 3.11041996e-003 4.66562994e-003 6.22083992e-003
      3.11041996e-003 2.95489896e-002 1.55520998e-003 1.08864699e-002
      3.11041996e-003 1.39968898e-002 4.66562994e-003 6.22083992e-003
      1.08864699e-002 4.66562994e-003 9.33125988e-003 1.39968898e-002
      1.24416798e-002 3.11041996e-003 3.11041996e-003 6.22083992e-003
      1.08864699e-002 1.08864699e-002 1.39968898e-002 3.11041996e-003</_>
    <_>
      5.26315765e-003 1.05263153e-002 1.05263153e-002 3.68421040e-002
      4.21052612e-003 3.15789459e-003 8.42105225e-003 6.31578919e-003
      6.31578919e-003 1.05263153e-002 2.10526306e-003 7.36842072e-003
      9.47368331e-003 9.47368331e-003 1.57894734e-002 6.31578919e-003
      1.05263153e-002 4.21052612e-003 1.05263153e-002 1.05263153e-003
      7.36842072e-003 1.15789473e-002 6.31578919e-003 6.31578919e-003
      1.57894734e-002 7.36842072e-003 1.57894734e-002 5.26315765e-003
      1.36842094e-002 1.05263153e-002 1.78947356e-002 9.47368331e-003
      1.05263153e-002 8.42105225e-003 9.47368331e-003 5.26315765e-003
      1.78947356e-002 1.68421045e-002 6.31578919e-003 1.15789473e-002
      4.21052612e-003 0. 2.10526306e-003 2.63157878e-002 1.89473666e-002
      1.99999996e-002 5.26315765e-003 9.47368331e-003 2.21052617e-002
      1.15789473e-002 1.78947356e-002 1.05263153e-002 1.36842094e-002
      5.26315765e-003 5.26315765e-003 1.78947356e-002 1.15789473e-002
      1.05263153e-003 3.15789459e-003 1.57894734e-002 8.42105225e-003
      1.15789473e-002 6.31578919e-003 9.47368331e-003 1.89473666e-002
      3.15789459e-003 6.31578919e-003 1.26315784e-002 1.36842094e-002
      8.42105225e-003 1.36842094e-002 1.47368414e-002 1.36842094e-002
      1.36842094e-002 4.21052612e-003 1.05263153e-002 5.26315765e-003
      1.47368414e-002 1.78947356e-002 9.47368331e-003 7.36842072e-003
      1.68421045e-002 1.36842094e-002 4.21052612e-003 1.15789473e-002
      1.89473666e-002 1.15789473e-002 6.31578919e-003 3.15789459e-003
      1.99999996e-002 1.05263153e-003 1.05263153e-002 5.26315765e-003
      3.15789459e-003 1.05263153e-003 5.26315765e-003 6.31578919e-003
      2.10526306e-003 1.05263153e-002 9.47368331e-003</_>
    <_>
      0. 9.00900923e-003 4.50450461e-003 5.85585609e-002 1.35135138e-002
      6.75675692e-003 4.50450461e-003 4.50450461e-003 2.25225231e-003
      4.50450461e-003 9.00900923e-003 1.80180185e-002 1.35135138e-002
      4.50450461e-003 6.75675692e-003 9.00900923e-003 6.75675692e-003
      2.25225231e-003 9.00900923e-003 6.75675692e-003 0. 2.25225231e-003
      4.50450461e-003 6.75675692e-003 5.40540554e-002 9.00900923e-003
      6.75675692e-003 2.25225231e-003 1.80180185e-002 4.50450461e-003
      9.00900923e-003 4.72972989e-002 0. 0. 6.75675692e-003
      4.50450461e-003 4.50450461e-003 1.35135138e-002 2.25225231e-003
      2.47747749e-002 6.75675692e-003 0. 2.25225231e-003 4.05405425e-002
      2.92792805e-002 1.12612620e-002 4.50450461e-003 2.25225231e-003
      2.25225231e-003 6.75675692e-003 4.50450461e-003 2.25225231e-003
      3.37837860e-002 2.25225231e-003 4.50450461e-003 0. 1.12612620e-002
      1.12612620e-002 1.35135138e-002 2.02702712e-002 2.25225231e-003
      4.50450461e-003 2.25225231e-003 4.50450461e-003 4.95495498e-002
      6.75675692e-003 4.50450461e-003 1.35135138e-002 2.25225231e-003
      6.75675692e-003 1.12612620e-002 1.57657657e-002 0. 9.00900923e-003
      2.47747749e-002 9.00900923e-003 2.25225231e-003 4.50450461e-003
      4.50450461e-003 4.50450461e-003 0. 2.25225231e-003 0.
      1.57657657e-002 2.25225231e-003 1.35135138e-002 0. 2.25225231e-003
      4.50450461e-003 4.50450461e-003 2.47747749e-002 9.00900923e-003
      2.47747749e-002 6.75675692e-003 2.25225231e-003 2.25225231e-003
      2.25225231e-003 3.60360369e-002 2.02702712e-002 2.02702712e-002</_>
    <_>
      6.06980268e-003 2.27617603e-002 1.21396054e-002 5.15933223e-002
      1.51745067e-003 3.03490134e-003 9.10470448e-003 6.06980268e-003
      9.10470448e-003 3.03490134e-003 1.51745067e-003 6.06980268e-003
      3.03490134e-003 0. 7.58725312e-003 1.51745067e-003 4.55235224e-003
      1.36570558e-002 7.58725312e-003 3.03490134e-003 1.21396054e-002
      4.55235224e-003 9.10470448e-003 7.58725312e-003 4.55235224e-003 0.
      9.10470448e-003 3.03490134e-003 2.27617603e-002 3.18664648e-002
      4.55235224e-003 3.03490134e-003 3.03490134e-003 6.06980268e-003
      6.06980268e-003 3.03490134e-003 1.51745062e-002 1.97268594e-002
      7.58725312e-003 3.94537188e-002 6.06980268e-003 0. 3.03490134e-003
      3.64188179e-002 4.55235224e-003 1.51745062e-002 6.06980268e-003
      3.03490134e-003 1.36570558e-002 2.57966612e-002 1.36570558e-002
      1.66919567e-002 1.06221549e-002 0. 6.06980268e-003 2.88315620e-002
      1.36570558e-002 4.55235224e-003 6.06980268e-003 0. 6.06980268e-003
      1.51745067e-003 1.51745067e-003 0. 1.51745062e-002 7.58725312e-003
      1.51745067e-003 7.58725312e-003 3.49013656e-002 1.66919567e-002
      2.57966612e-002 1.66919567e-002 3.03490134e-003 2.57966612e-002
      1.06221549e-002 1.06221549e-002 1.51745067e-003 2.57966612e-002
      1.36570558e-002 1.36570558e-002 1.51745067e-003 0. 3.03490125e-002
      7.58725312e-003 1.06221549e-002 1.97268594e-002 1.51745067e-003
      1.51745067e-003 0. 2.73141116e-002 7.58725312e-003 3.03490134e-003
      1.51745067e-003 3.03490134e-003 4.55235224e-003 3.03490134e-003
      9.10470448e-003 1.51745067e-003 2.73141116e-002 0.</_>
    <_>
      6.80272095e-003 6.80272095e-003 2.72108838e-002 3.40136066e-002 0.
      3.40136047e-003 1.36054419e-002 3.40136047e-003 1.02040814e-002
      1.02040814e-002 3.40136047e-003 6.80272095e-003 1.36054419e-002 0.
      1.02040814e-002 1.02040814e-002 1.02040814e-002 6.80272095e-003
      6.80272095e-003 1.70068033e-002 1.02040814e-002 6.80272095e-003
      6.80272095e-003 6.80272095e-003 6.80272095e-003 1.02040814e-002
      6.80272095e-003 6.80272095e-003 1.36054419e-002 1.02040814e-002
      3.40136047e-003 3.40136047e-003 2.04081628e-002 1.02040814e-002
      3.40136047e-003 1.36054419e-002 1.36054419e-002 1.02040814e-002
      6.80272095e-003 6.80272095e-003 3.40136047e-003 0. 6.80272095e-003
      1.70068033e-002 1.36054419e-002 1.36054419e-002 6.80272095e-003
      3.40136047e-003 1.02040814e-002 2.04081628e-002 6.80272095e-003
      1.70068033e-002 3.40136047e-003 0. 6.80272095e-003 1.70068033e-002
      6.80272095e-003 1.70068033e-002 6.80272095e-003 2.38095224e-002
      3.40136047e-003 2.04081628e-002 1.02040814e-002 0. 2.04081628e-002
      0. 1.70068033e-002 2.38095224e-002 1.70068033e-002 2.04081628e-002
      3.06122452e-002 3.40136047e-003 0. 6.80272095e-003 1.70068033e-002
      3.40136047e-003 0. 1.36054419e-002 1.02040814e-002 6.80272095e-003
      6.80272095e-003 1.36054419e-002 1.70068033e-002 1.70068033e-002
      1.70068033e-002 2.04081628e-002 6.80272095e-003 1.02040814e-002
      3.40136047e-003 6.80272095e-003 1.36054419e-002 1.36054419e-002 0.
      1.02040814e-002 6.80272095e-003 0. 6.80272095e-003 3.40136047e-003
      2.04081628e-002 3.40136047e-003</_>
    <_>
      7.70416064e-003 1.54083213e-002 1.46379052e-002 5.70107885e-002
      1.23266568e-002 2.31124810e-003 4.62249620e-003 6.16332842e-003
      1.07858246e-002 1.46379052e-002 6.16332842e-003 1.07858246e-002
      8.47457629e-003 9.24499240e-003 7.70416064e-003 1.84899848e-002
      8.47457629e-003 1.07858246e-002 6.93374453e-003 4.62249620e-003
      2.31124810e-003 6.93374453e-003 3.08166421e-003 1.54083213e-002
      1.69491526e-002 7.70416064e-003 3.85208032e-003 1.15562407e-002
      3.08166421e-003 3.08166421e-003 6.16332842e-003 2.46533137e-002
      8.47457629e-003 2.31124810e-003 3.85208032e-003 7.70416064e-003
      3.08166421e-003 3.85208032e-003 6.16332842e-003 5.70107885e-002
      5.39291231e-003 2.31124810e-003 8.47457629e-003 3.46687213e-002
      2.85053942e-002 3.08166421e-003 6.16332842e-003 1.77195687e-002
      1.00154085e-002 1.15562407e-002 8.47457629e-003 4.62249620e-003
      2.08012331e-002 6.16332842e-003 5.39291231e-003 4.62249620e-003
      1.38674891e-002 6.16332842e-003 1.23266568e-002 2.61941459e-002
      1.07858246e-002 5.39291231e-003 9.24499240e-003 1.61787365e-002
      1.15562407e-002 2.31124810e-003 1.30970730e-002 8.47457629e-003
      2.31124810e-003 9.24499240e-003 4.62249620e-003 2.31124810e-003
      5.39291231e-003 3.08166421e-003 6.93374453e-003 1.07858246e-002
      6.93374453e-003 4.62249620e-003 1.00154085e-002 3.85208032e-003
      3.08166421e-003 1.15562407e-002 3.85208032e-003 2.31124810e-003
      6.16332842e-003 6.16332842e-003 1.07858246e-002 5.39291231e-003
      1.30970730e-002 9.24499240e-003 2.00308170e-002 7.70416064e-003
      5.39291231e-003 4.62249620e-003 6.16332842e-003 7.70416064e-003
      5.39291231e-003 2.61941459e-002 2.23420653e-002 4.62249620e-003</_>
    <_>
      8.18639807e-003 1.70025174e-002 1.51133500e-002 2.07808558e-002
      9.44584329e-003 5.66750625e-003 1.88916875e-003 6.29722886e-003
      8.81612021e-003 8.81612021e-003 5.03778318e-003 1.00755664e-002
      1.32241808e-002 5.03778318e-003 1.13350125e-002 9.44584329e-003
      7.55667500e-003 6.92695193e-003 6.92695193e-003 8.18639807e-003
      6.92695193e-003 6.29722886e-003 1.25944577e-002 1.32241808e-002
      1.00755664e-002 1.13350125e-002 5.03778318e-003 8.18639807e-003
      2.51889154e-002 3.14861443e-003 6.92695193e-003 5.66750625e-003
      8.81612021e-003 7.55667500e-003 9.44584329e-003 8.81612021e-003
      1.82619635e-002 1.95214096e-002 6.92695193e-003 2.07808558e-002
      5.03778318e-003 2.51889159e-003 1.19647346e-002 1.51133500e-002
      1.32241808e-002 8.81612021e-003 6.92695193e-003 6.29722886e-003
      6.92695193e-003 6.29722886e-003 9.44584329e-003 7.55667500e-003
      1.63727961e-002 5.66750625e-003 7.55667500e-003 7.55667500e-003
      8.18639807e-003 6.29722886e-003 1.19647346e-002 1.32241808e-002
      9.44584329e-003 9.44584329e-003 1.07052894e-002 1.19647346e-002
      1.70025174e-002 4.40806011e-003 9.44584329e-003 7.55667500e-003
      8.81612021e-003 1.44836269e-002 1.07052894e-002 1.44836269e-002
      4.40806011e-003 7.55667500e-003 1.57430731e-002 7.55667500e-003
      6.92695193e-003 1.32241808e-002 9.44584329e-003 6.29722886e-003
      4.40806011e-003 1.38539039e-002 7.55667500e-003 1.25944577e-002
      6.92695193e-003 1.13350125e-002 8.18639807e-003 8.81612021e-003
      7.55667500e-003 9.44584329e-003 2.20403019e-002 1.51133500e-002
      1.07052894e-002 9.44584329e-003 1.38539039e-002 1.07052894e-002
      1.51133500e-002 1.63727961e-002 1.38539039e-002 5.03778318e-003</_>
    <_>
      1.85614848e-003 1.06728533e-002 5.56844566e-003 1.85614848e-003
      4.17633401e-003 1.67053360e-002 1.39211137e-002 1.11368913e-002
      1.34570766e-002 5.56844566e-003 1.62412990e-002 7.42459390e-003
      1.39211142e-003 1.06728533e-002 9.28074215e-003 6.96055684e-003
      1.43851507e-002 1.57772619e-002 1.02088163e-002 7.42459390e-003
      1.62412990e-002 8.81670509e-003 1.06728533e-002 9.74477921e-003
      7.42459390e-003 1.02088163e-002 1.02088163e-002 2.32018568e-002
      4.17633401e-003 1.62412990e-002 1.34570766e-002 5.10440813e-003
      1.20649654e-002 1.90255214e-002 5.10440813e-003 9.28074215e-003
      8.81670509e-003 3.71229695e-003 1.57772619e-002 1.39211142e-003
      1.80974472e-002 9.28074238e-004 8.81670509e-003 3.71229695e-003
      9.28074215e-003 1.29930396e-002 1.48491878e-002 1.39211137e-002
      1.48491878e-002 8.35266802e-003 8.81670509e-003 1.16009284e-002
      7.88863096e-003 1.90255214e-002 1.06728533e-002 1.71693731e-002
      1.20649654e-002 8.81670509e-003 1.85614848e-003 8.81670509e-003
      1.71693731e-002 1.43851507e-002 3.24825989e-003 1.85614843e-002
      5.56844566e-003 1.43851507e-002 6.96055684e-003 1.02088163e-002
      9.28074215e-003 5.56844566e-003 7.88863096e-003 3.71229695e-003
      1.48491878e-002 6.49651978e-003 9.74477921e-003 7.88863096e-003
      1.29930396e-002 1.48491878e-002 1.16009284e-002 8.35266802e-003
      1.06728533e-002 3.24825989e-003 8.35266802e-003 8.81670509e-003
      1.29930396e-002 7.42459390e-003 2.41299309e-002 8.81670509e-003
      1.53132249e-002 1.57772619e-002 9.28074238e-004 3.71229695e-003
      2.32018554e-003 5.10440813e-003 1.39211137e-002 1.06728533e-002
      1.29930396e-002 9.74477921e-003 8.35266802e-003 5.10440813e-003</_>
    <_>
      6.30372483e-003 7.44985649e-003 6.87679090e-003 6.30372483e-003
      4.58452711e-003 7.44985649e-003 1.08882515e-002 1.43266469e-002
      1.31805157e-002 2.46418323e-002 9.16905422e-003 9.74212028e-003
      1.20343836e-002 6.30372483e-003 5.73065877e-003 5.73065877e-003
      1.08882515e-002 1.48997130e-002 1.31805157e-002 9.16905422e-003
      1.14613175e-002 8.02292209e-003 6.87679090e-003 1.77650433e-002
      4.58452711e-003 2.86532938e-003 1.20343836e-002 4.58452711e-003
      1.08882515e-002 1.54727791e-002 1.26074497e-002 1.71919772e-003
      1.43266469e-002 9.74212028e-003 1.20343836e-002 7.44985649e-003
      1.14613175e-002 1.48997130e-002 7.44985649e-003 1.71919772e-003
      5.73065877e-003 1.14613178e-003 9.16905422e-003 7.44985649e-003
      6.87679090e-003 1.43266469e-002 8.59598815e-003 6.30372483e-003
      1.03151863e-002 2.23495699e-002 1.37535818e-002 8.02292209e-003
      6.30372483e-003 9.16905422e-003 8.02292209e-003 1.31805157e-002
      8.02292209e-003 4.01146105e-003 1.60458442e-002 9.16905422e-003
      6.30372483e-003 7.44985649e-003 1.26074497e-002 5.15759317e-003
      6.87679090e-003 1.31805157e-002 5.15759317e-003 1.03151863e-002
      1.26074497e-002 1.03151863e-002 1.43266469e-002 1.08882515e-002
      1.20343836e-002 1.71919763e-002 6.87679090e-003 9.74212028e-003
      6.87679090e-003 1.37535818e-002 1.03151863e-002 1.77650433e-002
      6.30372483e-003 9.74212028e-003 9.16905422e-003 6.87679090e-003
      1.66189112e-002 1.66189112e-002 7.44985649e-003 1.26074497e-002
      1.20343836e-002 1.60458442e-002 2.63610315e-002 8.02292209e-003
      4.01146105e-003 5.15759317e-003 1.08882515e-002 3.43839545e-003
      8.59598815e-003 3.43839545e-003 1.43266469e-002 1.77650433e-002</_>
    <_>
      0. 1.04166670e-002 7.29166716e-003 2.81250011e-002 2.08333344e-003
      1.04166670e-002 1.45833343e-002 3.12500028e-003 5.20833349e-003
      3.12500028e-003 5.20833349e-003 1.66666675e-002 2.08333344e-003
      8.33333377e-003 9.37500037e-003 3.12500028e-003 1.45833343e-002
      6.25000056e-003 1.25000011e-002 3.12500028e-003 1.66666675e-002
      7.29166716e-003 1.35416677e-002 8.33333377e-003 8.33333377e-003
      7.29166716e-003 1.35416677e-002 4.16666688e-003 1.04166670e-002
      2.08333340e-002 5.20833349e-003 8.33333377e-003 8.33333377e-003
      5.20833349e-003 3.12500028e-003 6.25000056e-003 2.29166672e-002
      1.45833343e-002 1.25000011e-002 4.89583351e-002 6.25000056e-003 0.
      4.16666688e-003 6.87500015e-002 8.33333377e-003 1.04166670e-002
      6.25000056e-003 1.04166672e-003 7.29166716e-003 1.45833343e-002
      1.04166670e-002 1.14583336e-002 1.25000011e-002 1.04166672e-003
      2.08333344e-003 2.70833354e-002 2.39583347e-002 3.12500028e-003
      7.29166716e-003 2.08333344e-003 7.29166716e-003 7.29166716e-003
      3.12500028e-003 4.16666688e-003 4.16666679e-002 8.33333377e-003
      5.20833349e-003 5.20833349e-003 1.14583336e-002 1.66666675e-002
      9.37500037e-003 1.25000011e-002 7.29166716e-003 8.33333377e-003
      9.37500037e-003 1.25000011e-002 4.16666688e-003 1.45833343e-002
      1.04166670e-002 7.29166716e-003 2.08333344e-003 3.12500028e-003
      1.45833343e-002 4.16666688e-003 9.37500037e-003 2.08333340e-002
      1.14583336e-002 8.33333377e-003 4.16666688e-003 8.33333377e-003
      1.04166672e-003 4.16666688e-003 1.04166670e-002 3.12500028e-003
      5.20833349e-003 1.35416677e-002 1.25000011e-002 6.25000056e-003
      8.33333377e-003 3.12500028e-003</_>
    <_>
      9.72222257e-003 1.04166670e-002 9.72222257e-003 1.04166670e-002
      6.94444450e-003 1.04166670e-002 1.18055558e-002 9.72222257e-003
      1.38888890e-002 1.04166670e-002 1.52777778e-002 8.33333377e-003
      8.33333377e-003 1.04166670e-002 1.31944446e-002 7.63888890e-003
      1.38888890e-002 9.72222257e-003 8.33333377e-003 5.55555569e-003
      1.31944446e-002 3.47222225e-003 8.33333377e-003 1.52777778e-002
      1.25000002e-002 9.02777817e-003 1.04166670e-002 6.94444450e-003
      8.33333377e-003 8.33333377e-003 9.72222257e-003 1.04166670e-002
      7.63888890e-003 1.38888890e-002 6.25000009e-003 1.38888890e-002
      9.72222257e-003 1.31944446e-002 1.11111114e-002 5.55555569e-003
      1.04166670e-002 6.94444461e-004 2.77777785e-003 9.72222257e-003
      1.52777778e-002 6.25000009e-003 4.86111129e-003 1.04166670e-002
      9.72222257e-003 1.45833334e-002 8.33333377e-003 9.72222257e-003
      7.63888890e-003 1.25000002e-002 7.63888890e-003 1.66666675e-002
      7.63888890e-003 1.11111114e-002 1.31944446e-002 1.11111114e-002
      1.04166670e-002 6.94444450e-003 6.25000009e-003 1.04166670e-002
      1.73611119e-002 1.38888890e-002 4.16666688e-003 6.25000009e-003
      8.33333377e-003 1.11111114e-002 1.18055558e-002 6.25000009e-003
      8.33333377e-003 1.18055558e-002 1.31944446e-002 6.94444450e-003
      1.31944446e-002 9.72222257e-003 1.11111114e-002 9.72222257e-003
      1.52777778e-002 4.86111129e-003 6.25000009e-003 9.02777817e-003
      1.73611119e-002 1.38888890e-002 1.04166670e-002 1.59722231e-002
      1.45833334e-002 8.33333377e-003 7.63888890e-003 1.31944446e-002
      9.72222257e-003 7.63888890e-003 9.72222257e-003 5.55555569e-003
      1.18055558e-002 8.33333377e-003 1.73611119e-002 4.16666688e-003</_>
    <_>
      2.79329601e-003 2.09497195e-003 4.88826819e-003 2.09497195e-002
      1.25698317e-002 1.46648036e-002 1.39664803e-002 1.46648036e-002
      1.18715083e-002 2.16480438e-002 9.77653638e-003 4.88826819e-003
      8.37988779e-003 8.37988779e-003 8.37988779e-003 2.09497195e-003
      8.37988779e-003 1.53631279e-002 1.18715083e-002 9.07821208e-003
      9.07821208e-003 9.77653638e-003 9.77653638e-003 2.44413409e-002
      8.37988779e-003 6.98324014e-003 6.98324014e-003 6.98324014e-003
      2.79329601e-003 9.07821208e-003 6.98324014e-003 6.98324014e-003
      1.18715083e-002 1.11731840e-002 1.95530728e-002 2.30446924e-002
      9.07821208e-003 5.58659201e-003 6.98324014e-003 9.77653638e-003
      1.25698317e-002 6.98324002e-004 1.88547485e-002 1.46648036e-002
      1.39664803e-002 9.77653638e-003 1.04748597e-002 1.18715083e-002
      3.49162007e-003 7.68156396e-003 1.32681560e-002 1.04748597e-002
      5.58659201e-003 1.46648036e-002 1.46648036e-002 1.39664803e-002
      1.04748597e-002 2.79329601e-003 9.07821208e-003 7.68156396e-003
      9.07821208e-003 1.39664803e-002 1.53631279e-002 6.98324014e-003
      6.28491584e-003 1.39664803e-002 4.18994389e-003 1.04748597e-002
      5.58659201e-003 4.88826819e-003 5.58659201e-003 4.88826819e-003
      1.11731840e-002 1.25698317e-002 1.11731840e-002 1.32681560e-002
      9.77653638e-003 1.04748597e-002 7.68156396e-003 1.11731840e-002
      9.77653638e-003 4.88826819e-003 5.58659201e-003 5.58659201e-003
      1.32681560e-002 1.04748597e-002 1.53631279e-002 1.88547485e-002
      8.37988779e-003 1.04748597e-002 4.88826819e-003 6.28491584e-003
      1.25698317e-002 6.98324002e-004 1.18715083e-002 6.28491584e-003
      1.18715083e-002 7.68156396e-003 1.95530728e-002 8.37988779e-003</_>
    <_>
      1.05379922e-002 1.05379922e-002 1.66389346e-002 8.65224600e-002
      1.10926237e-002 4.43704939e-003 4.43704939e-003 4.99168038e-003
      8.31946731e-003 1.10926237e-002 5.54631185e-003 8.87409877e-003
      1.44204106e-002 7.76483631e-003 8.87409877e-003 6.65557384e-003
      4.43704939e-003 3.32778692e-003 6.10094285e-003 1.38657792e-002
      4.43704939e-003 7.21020531e-003 5.54631185e-003 1.44204106e-002
      3.82695496e-002 1.38657792e-002 4.43704939e-003 6.65557384e-003
      4.43704939e-003 2.21852469e-003 6.65557384e-003 3.54963951e-002
      7.21020531e-003 6.65557384e-003 1.10926237e-002 8.31946731e-003
      8.87409877e-003 7.21020531e-003 1.60843041e-002 3.66056561e-002
      5.54631185e-003 0. 8.87409877e-003 1.38657792e-002 1.60843041e-002
      8.31946731e-003 1.05379922e-002 4.43704939e-003 1.22018857e-002
      8.31946731e-003 6.65557384e-003 2.21852469e-003 4.99168038e-003
      1.66389346e-003 2.21852469e-003 1.10926235e-003 1.22018857e-002
      1.49750421e-002 1.22018857e-002 1.05379922e-002 6.65557384e-003
      5.54631185e-003 1.55296726e-002 4.43704939e-003 2.10759845e-002
      9.42873023e-003 7.21020531e-003 6.10094285e-003 3.32778692e-003
      6.10094285e-003 2.05213539e-002 1.10926237e-002 1.66389346e-003
      5.54631185e-003 9.42873023e-003 3.32778692e-003 3.88241815e-003
      1.10926237e-002 1.55296726e-002 3.88241815e-003 7.76483631e-003
      2.32945085e-002 4.99168038e-003 9.98336077e-003 7.21020531e-003
      8.31946731e-003 2.77315592e-003 3.32778692e-003 7.21020531e-003
      7.21020531e-003 2.05213539e-002 6.10094285e-003 7.76483631e-003
      3.88241815e-003 1.27565172e-002 1.16472542e-002 6.65557384e-003
      6.65557384e-003 9.42873023e-003 9.98336077e-003</_>
    <_>
      0. 1.05263162e-002 1.05263162e-002 6.31579012e-002 5.26315812e-003
      1.05263162e-002 2.63157897e-002 1.05263162e-002 5.26315812e-003 0.
      0. 1.05263162e-002 0. 0. 0. 0. 1.05263162e-002 0. 0. 0.
      1.57894753e-002 0. 5.26315812e-003 0. 2.63157897e-002 0. 0.
      5.26315812e-003 5.26315812e-003 5.26315812e-003 0. 2.63157897e-002
      2.63157897e-002 0. 0. 5.26315812e-003 1.05263162e-002
      1.05263162e-002 0. 1.15789481e-001 1.57894753e-002 0.
      5.26315812e-003 4.21052650e-002 0. 0. 1.05263162e-002 0.
      1.05263162e-002 0. 5.26315812e-003 5.26315812e-003 5.26315812e-003
      5.26315812e-003 5.26315812e-003 5.78947403e-002 2.10526325e-002 0.
      0. 1.05263162e-002 1.05263162e-002 2.10526325e-002 0. 0.
      1.57894753e-002 5.26315812e-003 0. 0. 5.26315812e-003
      5.26315812e-003 1.05263162e-002 1.05263162e-002 5.26315812e-003 0.
      1.05263162e-002 5.78947403e-002 0. 1.57894753e-002 5.26315812e-003
      3.68421078e-002 0. 5.26315812e-003 0. 0. 1.57894753e-002 0. 0. 0.
      1.05263162e-002 5.26315812e-003 5.26315812e-003 1.05263162e-002 0.
      0. 0. 1.05263162e-002 1.57894753e-002 1.57894753e-002
      6.84210584e-002 0.</_>
    <_>
      6.81928918e-003 3.40964459e-003 3.11738923e-002 1.12031177e-002
      3.11738923e-002 6.33219676e-003 6.81928918e-003 4.87092044e-003
      9.25474893e-003 1.36385784e-002 4.38382849e-003 2.19191425e-002
      9.74184088e-003 1.21773016e-002 8.28056503e-003 7.30638113e-003
      6.81928918e-003 7.30638113e-003 9.25474893e-003 2.92255240e-003
      5.84510481e-003 7.30638113e-003 4.87092044e-003 1.55869462e-002
      7.30638113e-003 6.81928918e-003 5.84510481e-003 4.87092044e-003
      1.46127620e-003 7.30638113e-003 8.76765698e-003 1.94836827e-003
      8.76765698e-003 5.84510481e-003 1.26643935e-002 9.25474893e-003
      9.74184088e-003 1.07160257e-002 8.76765698e-003 1.46127623e-002
      6.81928918e-003 0. 1.46127623e-002 1.46127623e-002 3.31222601e-002
      9.25474893e-003 1.46127623e-002 5.84510481e-003 3.89673654e-003
      1.12031177e-002 7.30638113e-003 2.92255240e-003 5.35801286e-003
      1.12031177e-002 9.25474893e-003 5.84510481e-003 1.94836818e-002
      8.76765698e-003 1.99707747e-002 2.48416960e-002 6.33219676e-003
      8.76765698e-003 8.76765698e-003 2.43546022e-003 2.38675121e-002
      8.28056503e-003 9.25474893e-003 1.07160257e-002 4.38382849e-003
      8.28056503e-003 9.74184088e-003 5.35801286e-003 3.89673654e-003
      4.38382849e-003 3.60448137e-002 8.76765698e-003 7.30638113e-003
      4.38382849e-003 7.30638113e-003 6.81928918e-003 7.30638113e-003
      1.65611301e-002 5.84510481e-003 4.87092044e-003 5.35801286e-003
      1.26643935e-002 7.79347308e-003 6.33219676e-003 1.16902096e-002
      6.81928918e-003 1.50998542e-002 1.12031177e-002 1.46127623e-002
      4.87092067e-004 7.79347308e-003 8.28056503e-003 1.31514855e-002
      3.70189957e-002 1.31514855e-002 6.81928918e-003</_>
    <_>
      0. 1.53256708e-003 3.83141777e-003 1.37931034e-002 7.66283553e-003
      1.60919540e-002 1.76245216e-002 1.22605367e-002 1.22605367e-002
      6.89655170e-003 7.66283553e-003 8.42911936e-003 6.13026833e-003
      9.96168610e-003 1.37931034e-002 3.83141777e-003 9.96168610e-003
      1.60919540e-002 2.29885057e-003 5.36398496e-003 9.96168610e-003
      6.89655170e-003 3.83141777e-003 1.60919540e-002 3.83141777e-003
      7.66283541e-004 2.75862068e-002 1.22605367e-002 2.29885057e-003
      1.07279699e-002 1.45593872e-002 3.83141777e-003 6.89655170e-003
      1.22605367e-002 8.42911936e-003 7.66283553e-003 1.07279699e-002
      5.36398496e-003 1.07279699e-002 3.83141786e-002 1.68582387e-002
      5.36398496e-003 9.19540226e-003 6.89655170e-003 2.91187745e-002
      1.22605367e-002 6.89655170e-003 9.96168610e-003 6.89655170e-003
      7.66283553e-003 7.66283553e-003 6.89655170e-003 7.66283541e-004
      1.68582387e-002 1.22605367e-002 2.60536410e-002 1.53256711e-002
      3.83141777e-003 3.83141777e-003 8.42911936e-003 1.76245216e-002
      1.37931034e-002 6.13026833e-003 1.45593872e-002 2.29885057e-003
      9.96168610e-003 7.66283553e-003 8.42911936e-003 5.36398496e-003
      8.42911936e-003 3.83141777e-003 7.66283541e-004 2.75862068e-002
      6.89655170e-003 1.99233722e-002 1.14942528e-002 9.19540226e-003
      1.07279699e-002 6.13026833e-003 2.29885057e-002 8.42911936e-003
      8.42911936e-003 1.07279699e-002 6.13026833e-003 6.13026833e-003
      3.06513417e-003 1.91570893e-002 1.37931034e-002 1.53256711e-002
      1.22605367e-002 1.99233722e-002 7.66283553e-003 9.96168610e-003
      7.66283541e-004 3.83141777e-003 3.06513417e-003 1.45593872e-002
      1.22605367e-002 4.59770113e-003 4.59770113e-003</_>
    <_>
      6.36942685e-003 1.43312104e-002 1.11464970e-002 4.77707013e-003
      2.07006373e-002 7.96178356e-003 8.75796191e-003 7.16560520e-003
      1.43312104e-002 1.11464970e-002 7.16560520e-003 1.11464970e-002
      6.36942685e-003 1.03503186e-002 1.03503186e-002 1.43312104e-002
      9.55414027e-003 7.16560520e-003 1.51273888e-002 3.98089178e-003
      7.16560520e-003 5.57324849e-003 9.55414027e-003 9.55414027e-003
      4.77707013e-003 7.16560520e-003 8.75796191e-003 8.75796191e-003
      7.16560520e-003 7.16560520e-003 1.03503186e-002 7.16560520e-003
      5.57324849e-003 6.36942685e-003 9.55414027e-003 9.55414027e-003
      1.03503186e-002 1.99044589e-002 5.57324849e-003 6.36942685e-003
      1.51273888e-002 1.59235671e-003 7.16560520e-003 1.91082805e-002
      1.99044589e-002 1.27388537e-002 7.96178356e-003 1.03503186e-002
      1.11464970e-002 1.67197455e-002 1.43312104e-002 6.36942685e-003
      8.75796191e-003 5.57324849e-003 6.36942685e-003 9.55414027e-003
      1.03503186e-002 6.36942685e-003 1.03503186e-002 1.03503186e-002
      1.19426753e-002 9.55414027e-003 7.96178356e-003 1.03503186e-002
      1.67197455e-002 6.36942685e-003 1.27388537e-002 1.11464970e-002
      7.96178356e-003 8.75796191e-003 1.35350320e-002 1.11464970e-002
      7.16560520e-003 4.77707013e-003 1.99044589e-002 1.19426753e-002
      6.36942685e-003 1.99044589e-002 7.96178356e-003 5.57324849e-003
      2.38853507e-003 1.19426753e-002 1.11464970e-002 7.96178356e-003
      8.75796191e-003 1.67197455e-002 9.55414027e-003 9.55414027e-003
      5.57324849e-003 4.77707013e-003 2.86624208e-002 4.77707013e-003
      1.51273888e-002 7.16560520e-003 1.19426753e-002 1.11464970e-002
      9.55414027e-003 9.55414027e-003 1.67197455e-002 6.36942685e-003</_>
    <_>
      2.11565592e-003 3.52609321e-003 1.19887171e-002 1.33991539e-002
      5.64174913e-003 1.33991539e-002 1.19887171e-002 1.55148096e-002
      1.05782794e-002 7.75740482e-003 9.16784257e-003 1.97461210e-002
      9.87306051e-003 8.46262369e-003 1.26939360e-002 3.52609321e-003
      1.05782794e-002 1.19887171e-002 1.19887171e-002 4.93653025e-003
      1.12834983e-002 4.93653025e-003 1.12834983e-002 7.75740482e-003
      1.26939360e-002 7.75740482e-003 1.76304653e-002 7.05218641e-003
      2.11565592e-003 1.69252474e-002 2.18617786e-002 7.05218641e-003
      1.12834983e-002 1.12834983e-002 1.33991539e-002 4.23131185e-003
      1.19887171e-002 9.87306051e-003 9.16784257e-003 3.45557146e-002
      8.46262369e-003 0. 7.05218641e-003 6.34696800e-003 1.12834983e-002
      1.69252474e-002 1.19887171e-002 7.05218641e-003 6.34696800e-003
      1.62200294e-002 1.26939360e-002 4.23131185e-003 7.75740482e-003
      1.55148096e-002 8.46262369e-003 1.97461210e-002 1.76304653e-002
      7.05218641e-004 8.46262369e-003 4.23131185e-003 9.87306051e-003
      7.75740482e-003 3.52609321e-003 8.46262369e-003 4.23131185e-003
      8.46262369e-003 7.05218641e-004 1.12834983e-002 7.05218641e-003
      7.75740482e-003 7.05218641e-003 5.64174913e-003 1.55148096e-002
      7.05218641e-003 1.83356851e-002 1.19887171e-002 9.87306051e-003
      1.05782794e-002 7.05218641e-003 1.76304653e-002 6.34696800e-003
      1.05782794e-002 7.75740482e-003 1.12834983e-002 6.34696800e-003
      9.16784257e-003 1.41043728e-002 9.87306051e-003 1.05782794e-002
      1.48095917e-002 5.64174913e-003 6.34696800e-003 9.87306051e-003
      4.23131185e-003 6.34696800e-003 7.05218641e-003 1.76304653e-002
      1.83356851e-002 1.48095917e-002 4.93653025e-003</_>
    <_>
      2.35849060e-003 2.83018872e-002 9.43396240e-003 7.31132105e-002
      4.71698120e-003 4.71698120e-003 2.35849060e-003 9.43396240e-003
      7.07547180e-003 9.43396240e-003 2.35849060e-003 0. 4.71698120e-003
      4.71698120e-003 2.35849060e-003 1.17924530e-002 0. 9.43396240e-003
      9.43396240e-003 9.43396240e-003 2.35849060e-003 0. 9.43396240e-003
      7.07547180e-003 3.30188684e-002 1.17924530e-002 2.35849060e-003
      4.71698120e-003 2.12264154e-002 4.71698120e-003 1.17924530e-002
      2.12264154e-002 9.43396240e-003 2.35849060e-003 7.07547180e-003
      2.35849060e-003 1.41509436e-002 1.41509436e-002 4.71698120e-003
      2.35849060e-003 7.07547180e-003 0. 2.35849060e-003 3.30188684e-002
      3.30188684e-002 1.88679248e-002 7.07547180e-003 7.07547180e-003
      1.41509436e-002 1.17924530e-002 1.88679248e-002 2.35849060e-003
      4.24528308e-002 0. 1.41509436e-002 4.71698120e-003 1.41509436e-002
      2.59433966e-002 1.17924530e-002 1.41509436e-002 7.07547180e-003
      1.17924530e-002 2.35849060e-003 9.43396240e-003 1.88679248e-002
      4.71698120e-003 1.88679248e-002 1.17924530e-002 4.71698120e-003
      4.71698120e-003 4.71698120e-003 1.17924530e-002 4.71698120e-003
      7.07547180e-003 2.35849060e-003 4.71698120e-003 0. 7.07547180e-003
      9.43396240e-003 4.71698120e-003 0. 7.07547180e-003 1.65094342e-002
      7.07547180e-003 0. 1.88679248e-002 4.71698120e-003 9.43396240e-003
      0. 9.43396240e-003 7.07547180e-003 1.41509436e-002 9.43396240e-003
      4.71698120e-003 2.35849060e-003 4.71698120e-003 2.35849060e-003
      1.65094342e-002 3.06603778e-002 9.43396240e-003</_>
    <_>
      1.49700604e-002 1.04790423e-002 2.99401209e-003 5.68862297e-002
      1.19760484e-002 1.49700604e-003 1.49700604e-002 7.48503022e-003
      2.99401209e-003 1.34730544e-002 4.49101813e-003 7.48503022e-003
      1.49700604e-002 0. 7.48503022e-003 1.04790423e-002 8.98203626e-003
      7.48503022e-003 8.98203626e-003 4.49101813e-003 1.49700604e-003 0.
      8.98203626e-003 1.49700604e-003 5.98802418e-003 2.99401209e-003
      7.48503022e-003 2.99401209e-003 7.48503022e-003 2.99401209e-003
      1.64670665e-002 0. 5.98802418e-003 1.49700604e-003 7.48503022e-003
      4.49101813e-003 2.99401209e-003 1.79640725e-002 1.49700604e-003
      1.78143725e-001 0. 0. 0. 6.28742576e-002 8.98203626e-003
      1.49700604e-003 1.49700604e-003 5.98802418e-003 0. 1.49700604e-003
      4.49101813e-003 1.49700604e-003 2.09580846e-002 4.49101813e-003
      7.48503022e-003 8.98203626e-003 4.19161692e-002 7.48503022e-003
      4.49101813e-003 7.48503022e-003 4.49101813e-003 2.99401209e-003
      2.99401209e-003 8.98203626e-003 1.79640725e-002 1.49700604e-003
      1.19760484e-002 8.98203626e-003 4.49101813e-003 2.99401209e-003
      5.98802418e-003 1.19760484e-002 5.98802418e-003 1.49700604e-003
      7.48503022e-003 4.04191613e-002 1.49700604e-003 1.49700604e-003
      4.49101813e-003 5.98802418e-003 4.49101813e-003 2.69461088e-002
      5.98802418e-003 1.79640725e-002 2.99401209e-003 5.98802418e-003 0.
      1.49700604e-003 2.99401209e-003 1.04790423e-002 1.19760484e-002
      1.64670665e-002 0. 1.49700604e-003 0. 4.49101813e-003
      4.49101813e-003 1.19760484e-002 1.49700604e-002 1.79640725e-002</_>
    <_>
      3.75469355e-003 6.25782227e-003 1.25156445e-002 4.75594513e-002
      8.76095146e-003 7.50938710e-003 1.75219029e-002 1.12640802e-002
      8.76095146e-003 1.00125158e-002 7.50938710e-003 1.25156445e-002 0.
      3.75469355e-003 8.76095146e-003 1.00125158e-002 1.00125158e-002
      1.12640802e-002 8.76095146e-003 6.25782227e-003 6.25782227e-003
      3.75469355e-003 1.62703376e-002 2.50312896e-003 1.50187742e-002
      8.76095146e-003 6.25782227e-003 1.25156448e-003 8.76095146e-003
      6.25782227e-003 1.50187742e-002 1.12640802e-002 5.00625791e-003
      1.00125158e-002 6.25782227e-003 1.25156448e-003 1.25156445e-002
      1.25156445e-002 3.75469355e-003 4.00500633e-002 0. 1.25156448e-003
      5.00625791e-003 2.87859831e-002 1.25156445e-002 5.00625791e-003
      1.00125158e-002 1.12640802e-002 1.00125158e-002 7.50938710e-003
      3.75469355e-003 1.00125158e-002 1.00125158e-002 6.25782227e-003
      7.50938710e-003 1.75219029e-002 1.87734663e-002 1.25156445e-002
      1.25156445e-002 7.50938710e-003 1.62703376e-002 1.00125158e-002
      6.25782227e-003 6.25782227e-003 1.00125158e-002 1.00125158e-002
      8.76095146e-003 1.25156445e-002 1.50187742e-002 1.25156445e-002
      5.00625791e-003 1.00125158e-002 7.50938710e-003 1.25156445e-002
      1.75219029e-002 1.00125158e-002 1.12640802e-002 8.76095146e-003
      1.75219029e-002 1.12640802e-002 2.50312896e-003 2.50312896e-003
      1.00125158e-002 5.00625791e-003 1.25156448e-003 8.76095146e-003
      1.37672089e-002 7.50938710e-003 7.50938710e-003 8.76095146e-003
      7.50938710e-003 1.50187742e-002 1.12640802e-002 6.25782227e-003
      1.00125158e-002 8.76095146e-003 1.37672089e-002 7.50938710e-003
      2.62828544e-002 3.75469355e-003</_>
    <_>
      1.51240164e-002 5.44464588e-003 3.08529940e-002 1.27041740e-002
      3.75075601e-002 4.83968528e-003 1.33091342e-002 2.96430718e-002
      4.23472468e-003 7.25952815e-003 7.25952815e-003 7.86448829e-003
      2.48033870e-002 7.86448829e-003 1.81488190e-002 1.20992130e-002
      1.02843316e-002 3.02480324e-003 6.65456709e-003 6.04960648e-003
      8.46944936e-003 7.86448829e-003 1.81488204e-003 7.25952815e-003
      1.81488204e-003 3.02480324e-003 1.81488190e-002 4.83968528e-003
      3.02480324e-003 2.41984264e-003 1.27041740e-002 4.23472468e-003
      1.33091342e-002 4.83968528e-003 1.27041740e-002 1.14942528e-002
      6.65456709e-003 4.83968528e-003 7.25952815e-003 7.86448829e-003
      1.08892918e-002 6.04960648e-003 1.45190563e-002 1.14942528e-002
      2.11736225e-002 5.44464588e-003 7.25952815e-003 4.23472468e-003
      6.04960648e-003 7.25952815e-003 1.08892918e-002 4.83968528e-003
      3.62976408e-003 6.65456709e-003 4.23472468e-003 1.45190563e-002
      1.08892918e-002 8.46944936e-003 9.07440949e-003 1.75438598e-002
      4.23472468e-003 2.11736225e-002 1.69388987e-002 3.02480324e-003
      1.27041740e-002 3.02480324e-003 7.86448829e-003 9.67937056e-003
      1.81488204e-003 7.86448829e-003 2.41984264e-003 7.86448829e-003
      1.02843316e-002 6.04960660e-004 4.11373265e-002 1.20992130e-002
      1.20992130e-002 3.02480324e-003 6.65456709e-003 1.51240164e-002
      9.07440949e-003 3.20629142e-002 2.41984264e-003 3.02480324e-003
      7.25952815e-003 7.86448829e-003 6.65456709e-003 7.25952815e-003
      6.65456709e-003 3.62976408e-003 1.69388987e-002 1.14942528e-002
      6.04960648e-003 3.62976408e-003 1.45190563e-002 4.83968528e-003
      5.44464588e-003 3.75075601e-002 3.02480324e-003 1.63339376e-002</_>
    <_>
      9.77198686e-003 0. 2.28013024e-002 3.25732902e-002 3.25732888e-003
      6.51465775e-003 9.77198686e-003 1.62866451e-002 1.30293155e-002
      3.25732888e-003 9.77198686e-003 4.23452742e-002 9.77198686e-003 0.
      9.77198686e-003 6.51465775e-003 6.51465775e-003 3.25732888e-003
      6.51465775e-003 6.51465775e-003 9.77198686e-003 1.30293155e-002
      1.30293155e-002 0. 1.30293155e-002 6.51465775e-003 9.77198686e-003
      3.25732888e-003 6.51465775e-003 1.95439737e-002 6.51465775e-003
      6.51465775e-003 9.77198686e-003 6.51465775e-003 9.77198686e-003
      6.51465775e-003 3.25732888e-003 9.77198686e-003 6.51465775e-003
      3.25732902e-002 0. 0. 9.77198686e-003 2.28013024e-002
      1.62866451e-002 3.25732888e-003 1.62866451e-002 3.25732888e-003
      6.51465775e-003 1.95439737e-002 1.30293155e-002 3.25732888e-003
      9.77198686e-003 3.25732888e-003 1.62866451e-002 3.25732888e-003
      1.30293155e-002 0. 3.25732888e-003 1.30293155e-002 0.
      6.51465775e-003 6.51465775e-003 1.30293155e-002 1.62866451e-002
      3.25732888e-003 6.51465775e-003 1.30293155e-002 1.95439737e-002
      9.77198686e-003 2.60586310e-002 3.25732888e-003 9.77198686e-003
      1.30293155e-002 1.62866451e-002 0. 0. 1.30293155e-002
      1.30293155e-002 9.77198686e-003 3.25732888e-003 9.77198686e-003
      9.77198686e-003 1.30293155e-002 0. 1.62866451e-002 6.51465775e-003
      1.62866451e-002 1.30293155e-002 3.25732888e-003 0. 2.28013024e-002
      2.28013024e-002 6.51465775e-003 6.51465775e-003 6.51465775e-003
      9.77198686e-003 9.77198686e-003 3.58306170e-002 3.25732888e-003</_>
    <_>
      6.89655170e-003 0. 0. 1.10344827e-001 1.37931034e-002
      6.89655170e-003 1.37931034e-002 0. 6.89655170e-003 0.
      1.37931034e-002 1.37931034e-002 6.89655170e-003 6.89655170e-003
      6.89655170e-003 0. 2.06896551e-002 1.37931034e-002 6.89655170e-003
      0. 0. 2.75862068e-002 1.37931034e-002 0. 0. 1.37931034e-002
      1.37931034e-002 6.89655170e-003 0. 6.89655170e-003 1.37931034e-002
      0. 0. 6.89655170e-003 2.75862068e-002 2.75862068e-002 0.
      6.89655170e-003 1.37931034e-002 6.89655170e-002 1.37931034e-002 0.
      0. 2.06896551e-002 1.37931034e-002 1.37931034e-002 3.44827585e-002
      6.89655170e-003 0. 6.89655170e-003 2.75862068e-002 0. 0.
      1.37931034e-002 0. 2.06896551e-002 2.75862068e-002 0.
      6.89655170e-003 2.75862068e-002 0. 6.89655170e-003 1.37931034e-002
      6.89655170e-003 2.75862068e-002 6.89655170e-003 0. 1.37931034e-002
      6.89655170e-003 0. 0. 6.89655170e-003 6.89655170e-003 0.
      6.89655170e-003 1.37931034e-002 0. 6.89655170e-003 6.89655170e-003
      0. 0. 0. 0. 6.89655170e-003 6.89655170e-003 6.89655170e-003
      2.06896551e-002 0. 6.89655170e-003 2.75862068e-002 0.
      6.89655170e-003 2.06896551e-002 6.89655170e-003 0. 0.
      6.89655170e-003 6.89655170e-003 1.37931034e-002 0.</_>
    <_>
      1.94174759e-002 9.70873795e-003 1.94174759e-002 4.85436898e-003
      1.94174759e-002 0. 9.70873795e-003 1.45631069e-002 1.45631069e-002
      9.70873795e-003 0. 4.85436898e-003 1.45631069e-002 9.70873795e-003
      4.85436898e-003 1.94174759e-002 4.85436898e-003 4.85436898e-003
      1.45631069e-002 3.39805819e-002 0. 1.45631069e-002 4.85436898e-003
      4.85436898e-003 9.70873795e-003 0. 0. 9.70873795e-003
      1.45631069e-002 9.70873795e-003 0. 1.45631069e-002 0.
      9.70873795e-003 9.70873795e-003 0. 4.85436898e-003 9.70873795e-003
      0. 0. 4.85436898e-003 0. 1.45631069e-002 2.42718458e-002
      2.42718458e-002 9.70873795e-003 4.85436898e-003 4.85436898e-003
      1.45631069e-002 0. 3.39805819e-002 4.85436898e-003 9.70873795e-003
      9.70873795e-003 4.85436898e-003 0. 1.45631069e-002 9.70873795e-003
      1.45631069e-002 1.45631069e-002 4.85436898e-003 0. 1.45631069e-002
      1.45631069e-002 4.85436898e-003 0. 3.39805819e-002 9.70873795e-003
      4.85436898e-003 1.45631069e-002 2.42718458e-002 9.70873795e-003 0.
      9.70873795e-003 9.70873795e-003 0. 9.70873795e-003 0.
      2.42718458e-002 1.45631069e-002 0. 4.36893217e-002 9.70873795e-003
      9.70873795e-003 4.85436898e-003 2.42718458e-002 4.85436898e-003 0.
      4.85436898e-003 0. 1.94174759e-002 4.85436898e-003 4.85436898e-003
      1.45631069e-002 1.94174759e-002 9.70873795e-003 1.45631069e-002
      4.85436898e-003 2.91262139e-002 4.85436898e-003</_>
    <_>
      0. 3.57142873e-002 0. 0. 0. 0. 0. 0. 0. 3.57142873e-002 0. 0. 0.
      3.57142873e-002 0. 0. 0. 0. 0. 0. 3.57142873e-002 0.
      3.57142873e-002 0. 0. 3.57142873e-002 3.57142873e-002 0. 0.
      3.57142873e-002 0. 0. 0. 0. 0. 0. 0. 0. 0. 0. 0. 0. 0. 0. 0. 0. 0.
      0. 3.57142873e-002 3.57142873e-002 3.57142873e-002 7.14285746e-002
      3.57142873e-002 3.57142873e-002 0. 3.57142873e-002 3.57142873e-002
      0. 0. 0. 0. 3.57142873e-002 0. 0. 0. 0. 0. 3.57142873e-002 0. 0.
      0. 0. 3.57142873e-002 0. 0. 3.57142873e-002 0. 0. 3.57142873e-002
      0. 3.57142873e-002 0. 3.57142873e-002 0. 0. 0. 0. 3.57142873e-002
      0. 3.57142873e-002 0. 0. 0. 0. 0. 3.57142873e-002 3.57142873e-002
      0. 0. 0.</_>
    <_>
      2.24719103e-003 6.74157310e-003 3.14606726e-002 1.34831462e-002
      2.02247202e-002 6.74157310e-003 3.37078646e-002 2.24719103e-003
      1.12359552e-002 1.79775283e-002 2.24719103e-003 1.34831462e-002
      4.49438207e-003 1.12359552e-002 8.98876414e-003 6.74157310e-003
      1.34831462e-002 4.49438207e-003 8.98876414e-003 8.98876414e-003
      2.24719103e-003 8.98876414e-003 4.49438207e-003 6.74157310e-003
      2.47191004e-002 2.24719103e-003 1.34831462e-002 4.49438207e-003 0.
      6.74157310e-003 3.14606726e-002 8.98876414e-003 2.24719103e-003
      4.49438207e-003 8.98876414e-003 8.98876414e-003 1.12359552e-002
      4.49438207e-003 8.98876414e-003 2.47191004e-002 4.49438207e-003 0.
      8.98876414e-003 8.98876414e-003 2.92134844e-002 1.34831462e-002
      8.98876414e-003 2.24719103e-003 4.49438207e-003 1.79775283e-002
      2.24719103e-003 2.24719103e-003 6.74157310e-003 8.98876414e-003
      1.12359552e-002 8.98876414e-003 2.24719103e-002 4.49438207e-003
      1.57303363e-002 1.79775283e-002 0. 6.74157310e-003 6.74157310e-003
      1.34831462e-002 1.79775283e-002 4.49438207e-003 0. 4.49438207e-003
      4.49438207e-003 6.74157310e-003 2.02247202e-002 2.24719103e-003
      1.79775283e-002 6.74157310e-003 1.79775283e-002 4.04494405e-002
      2.24719103e-003 6.74157310e-003 8.98876414e-003 1.79775283e-002
      6.74157310e-003 8.98876414e-003 1.34831462e-002 1.12359552e-002
      4.49438207e-003 6.74157310e-003 4.49438207e-003 8.98876414e-003
      4.49438207e-003 1.12359552e-002 4.49438207e-003 6.74157310e-003
      1.34831462e-002 4.49438207e-003 6.74157310e-003 0. 1.12359552e-002
      2.69662924e-002 1.79775283e-002 2.24719103e-003</_>
    <_>
      0. 0. 6.45161271e-002 3.22580636e-002 0. 0. 0. 0. 0. 0. 0. 0. 0.
      0. 0. 3.22580636e-002 0. 0. 0. 0. 0. 0. 0. 0. 0. 0. 0. 0. 0.
      3.22580636e-002 6.45161271e-002 0. 0. 0. 0. 0. 0. 0. 0. 0. 0. 0.
      0. 0. 0. 0. 0. 0. 0. 1.29032254e-001 0. 0. 0. 0. 0. 0.
      3.22580636e-002 6.45161271e-002 3.22580636e-002 0. 0.
      3.22580636e-002 0. 0. 0. 0. 6.45161271e-002 0. 0. 3.22580636e-002
      0. 0. 0. 3.22580636e-002 3.22580636e-002 0. 0. 0. 3.22580636e-002
      0. 6.45161271e-002 6.45161271e-002 0. 0. 0. 0. 0. 3.22580636e-002
      3.22580636e-002 0. 0. 0. 3.22580636e-002 0. 0. 0. 3.22580636e-002
      3.22580636e-002 0. 0.</_>
    <_>
      1.21359229e-002 1.21359229e-002 4.36893217e-002 9.70873795e-003
      9.70873795e-003 4.85436898e-003 2.42718449e-003 7.28155347e-003
      1.21359229e-002 7.28155347e-003 2.42718449e-003 1.94174759e-002
      1.45631069e-002 4.85436898e-003 7.28155347e-003 7.28155347e-003
      7.28155347e-003 2.42718449e-003 1.21359229e-002 4.85436898e-003
      1.21359229e-002 1.45631069e-002 4.85436898e-003 1.45631069e-002
      7.28155347e-003 1.21359229e-002 7.28155347e-003 0. 4.85436898e-003
      1.94174759e-002 9.70873795e-003 9.70873795e-003 9.70873795e-003 0.
      7.28155347e-003 1.45631069e-002 1.94174759e-002 9.70873795e-003
      1.69902910e-002 4.85436898e-003 9.70873795e-003 0. 9.70873795e-003
      2.18446609e-002 9.70873795e-003 9.70873795e-003 9.70873795e-003
      4.85436898e-003 7.28155347e-003 4.85436898e-003 1.21359229e-002
      4.85436898e-003 7.28155347e-003 9.70873795e-003 9.70873795e-003 0.
      2.42718449e-003 0. 1.69902910e-002 3.88349518e-002 4.85436898e-003
      4.85436898e-003 1.69902910e-002 0. 2.42718458e-002 7.28155347e-003
      4.85436898e-003 4.85436898e-003 4.85436898e-003 4.85436898e-003
      1.45631069e-002 4.85436898e-003 9.70873795e-003 9.70873795e-003
      3.15533988e-002 0. 2.42718449e-003 1.45631069e-002 7.28155347e-003
      4.85436898e-003 2.42718449e-003 3.15533988e-002 1.69902910e-002
      9.70873795e-003 1.21359229e-002 2.91262139e-002 4.85436898e-003
      1.21359229e-002 1.94174759e-002 4.85436898e-003 1.69902910e-002
      4.85436898e-003 1.21359229e-002 0. 7.28155347e-003 1.21359229e-002
      9.70873795e-003 0. 9.70873795e-003 1.45631069e-002</_>
    <_>
      3.86100379e-003 1.35135129e-002 1.35135129e-002 2.70270258e-002
      3.86100379e-003 7.72200758e-003 9.65250935e-003 7.72200758e-003
      9.65250935e-003 9.65250935e-003 1.15830116e-002 2.31660232e-002
      7.72200758e-003 7.72200758e-003 7.72200758e-003 5.79150580e-003
      1.15830116e-002 7.72200758e-003 7.72200758e-003 9.65250935e-003
      1.15830116e-002 5.79150580e-003 9.65250935e-003 5.79150580e-003
      1.35135129e-002 1.35135129e-002 1.93050189e-003 1.15830116e-002
      5.79150580e-003 3.86100379e-003 5.79150580e-003 1.93050189e-003
      5.79150580e-003 5.79150580e-003 1.54440152e-002 2.50965245e-002
      9.65250935e-003 1.35135129e-002 1.54440152e-002 7.72200758e-003
      1.35135129e-002 0. 9.65250935e-003 5.79150580e-003 1.93050187e-002
      1.35135129e-002 1.15830116e-002 5.79150580e-003 9.65250935e-003
      9.65250935e-003 2.12355200e-002 3.86100379e-003 7.72200758e-003
      1.54440152e-002 5.79150580e-003 5.79150580e-003 1.73745174e-002
      7.72200758e-003 0. 1.15830116e-002 1.35135129e-002 5.79150580e-003
      1.54440152e-002 9.65250935e-003 7.72200758e-003 5.79150580e-003
      1.15830116e-002 9.65250935e-003 1.15830116e-002 1.73745174e-002
