<?xml version="1.0"?>
<opencv_storage>
<my_svm type_id="opencv-ml-svm">
  <svm_type>C_SVC</svm_type>
  <kernel><type>RBF</type>
    <gamma>5.0625000000000009e-001</gamma></kernel>
  <C>6.2500000000000000e+001</C>
  <term_criteria><epsilon>1.1920928955078125e-007</epsilon>
    <iterations>10000</iterations></term_criteria>
  <var_all>1000</var_all>
  <var_count>1000</var_count>
  <class_count>2</class_count>
  <class_labels type_id="opencv-matrix">
    <rows>1</rows>
    <cols>2</cols>
    <dt>i</dt>
    <data>
      0 1</data></class_labels>
  <sv_total>301</sv_total>
  <support_vectors>
    <_>
      0. 6.28930796e-003 6.28930796e-003 0. 0. 0. 0. 0. 0. 0. 0. 0. 0.
      6.28930796e-003 0. 0. 0. 0. 0. 0. 0. 0. 0. 6.28930796e-003 0. 0.
      0. 0. 0. 0. 6.28930796e-003 0. 0. 0. 0. 6.28930796e-003 0. 0. 0.
      0. 0. 0. 0. 1.25786159e-002 0. 0. 1.25786159e-002 0. 0. 0. 0. 0.
      0. 0. 0. 0. 6.28930796e-003 0. 0. 1.25786159e-002 0. 0. 0. 0.
      1.88679248e-002 0. 0. 0. 0. 0. 0. 0. 0. 0. 0. 0. 0. 0. 0. 0. 0. 0.
      0. 0. 0. 0. 0. 0. 0. 1.25786159e-002 6.28930796e-003 0. 0.
      6.28930796e-003 0. 0. 0. 0. 0. 0. 0. 0. 0. 6.28930796e-003 0. 0.
      0. 0. 0. 0. 0. 0. 0. 0. 0. 0. 0. 0. 0. 0. 0. 1.25786159e-002 0. 0.
      6.28930796e-003 0. 0. 0. 6.28930796e-003 0. 0. 0. 0. 0. 0. 0. 0.
      0. 0. 6.28930796e-003 0. 0. 0. 0. 0. 0. 6.28930796e-003 0. 0. 0.
      0. 0. 0. 6.28930796e-003 6.28930796e-003 0. 0. 0. 0. 0. 0. 0.
      6.28930796e-003 0. 0. 0. 0. 0. 0. 0. 0. 0. 0. 6.28930796e-003 0.
      0. 0. 0. 0. 0. 0. 0. 0. 0. 0. 0. 0. 0. 0. 0. 0. 0. 0. 0. 0. 0. 0.
      0. 0. 0. 0. 0. 0. 0. 0. 0. 0. 0. 0. 0. 0. 0. 0. 0. 0. 0.
      1.25786159e-002 0. 0. 0. 0. 1.25786159e-002 0. 0. 0. 0. 0. 0. 0.
      6.28930796e-003 0. 0. 0. 0. 0. 0. 0. 0. 0. 0. 0. 0.
      6.28930796e-003 0. 0. 0. 0. 0. 0. 0. 0. 0. 0. 0. 0. 0. 0. 0. 0. 0.
      0. 0. 0. 0. 0. 0. 0. 0. 0. 0. 0. 0. 0. 0. 0. 0. 0. 0. 0. 0. 0. 0.
      0. 0. 0. 0. 0. 0. 0. 0. 0. 0. 1.25786159e-002 0. 0. 0. 0.
      6.28930796e-003 0. 0. 0. 0. 6.28930796e-003 6.28930796e-003
      6.28930796e-003 0. 0. 0. 0. 0. 0. 1.88679248e-002 0. 0. 0. 0. 0.
      6.28930796e-003 0. 0. 0. 0. 0. 0. 0. 1.25786159e-002
      6.28930796e-003 0. 6.28930796e-003 0. 0. 0. 0. 0. 0. 0. 0. 0. 0.
      0. 0. 0. 0. 0. 0. 0. 0. 0. 0. 0. 0. 0. 0. 0. 0. 0. 0.
      1.25786159e-002 0. 0. 0. 0. 0. 0. 0. 0. 6.28930796e-003 0.
      1.25786159e-002 0. 0. 1.25786159e-002 0. 0. 0. 0. 0. 0. 0. 0. 0.
      0. 0. 0. 0. 0. 0. 0. 0. 0. 0. 0. 1.25786159e-002 0. 0. 0.
      6.28930796e-003 0. 0. 0. 0. 0. 0. 0. 6.28930796e-003 0. 0. 0. 0.
      0. 0. 0. 0. 0. 0. 0. 0. 0. 0. 0. 0. 0. 0. 0. 0. 0. 0. 0.
      6.28930796e-003 0. 0. 0. 0. 0. 0. 0. 0. 6.28930796e-003 0. 0. 0.
      0. 0. 6.28930796e-003 0. 0. 0. 0. 0. 0. 0. 0. 0. 0.
      6.28930796e-003 1.25786159e-002 0. 0. 0. 6.28930796e-003 0. 0. 0.
      0. 0. 0. 0. 0. 1.25786159e-002 0. 0. 0. 0. 0. 0. 0. 0. 0. 0. 0. 0.
      0. 0. 0. 6.28930796e-003 0. 0. 0. 0. 0. 6.28930796e-003 0. 0. 0.
      0. 0. 0. 0. 0. 0. 0. 0. 0. 0. 0. 0. 0. 0. 6.28930796e-003
      6.28930796e-003 0. 1.25786159e-002 0. 0. 0. 0. 0. 6.28930796e-003
      0. 0. 0. 0. 0. 0. 0. 0. 0. 0. 6.28930796e-003 0. 0. 0. 0. 0. 0. 0.
      0. 0. 0. 0. 0. 0. 6.28930796e-003 0. 0. 0. 0. 0. 0. 0. 0.
      6.28930796e-003 0. 0. 0. 0. 0. 0. 0. 6.28930796e-003 0. 0. 0. 0.
      0. 0. 0. 0. 0. 0. 0. 0. 0. 0. 0. 0. 0. 0. 0. 0. 0. 0. 0. 0. 0. 0.
      0. 6.28930796e-003 0. 0. 0. 0. 0. 0. 0. 0. 0. 0. 6.28930796e-003
      0. 0. 0. 6.28930796e-003 0. 0. 0. 2.51572318e-002 0. 0. 0. 0. 0.
      0. 0. 0. 0. 0. 0. 0. 0. 0. 0. 0. 0. 0. 0. 0. 0. 0. 6.28930796e-003
      0. 6.28930796e-003 0. 0. 6.28930796e-003 0. 0. 0. 0. 0. 0. 0. 0.
      0. 6.28930796e-003 0. 0. 0. 0. 0. 0. 0. 0. 0. 1.25786159e-002
      6.28930796e-003 0. 0. 0. 0. 0. 0. 0. 6.28930796e-003 0. 0. 0. 0.
      0. 0. 0. 0. 0. 0. 0. 0. 0. 0. 0. 0. 0. 0. 6.28930796e-003 0. 0.
      1.25786159e-002 0. 1.25786159e-002 0. 0. 0. 0. 0. 0. 0. 0. 0. 0.
      0. 0. 0. 0. 0. 0. 0. 0. 0. 6.28930796e-003 0. 0. 0. 0. 0. 0. 0. 0.
      0. 6.28930796e-003 1.25786159e-002 0. 0. 0. 6.28930796e-003 0. 0.
      0. 0. 0. 0. 6.28930796e-003 0. 0. 0. 0. 0. 0. 0. 0. 0. 0.
      1.25786159e-002 0. 0. 0. 0. 0. 0. 0. 6.28930796e-003
      1.25786159e-002 1.88679248e-002 0. 0. 0. 0. 6.28930796e-003 0.
      6.28930796e-003 0. 0. 0. 0. 0. 0. 0. 0. 0. 6.28930796e-003 0. 0.
      0. 0. 0. 0. 0. 0. 0. 0. 0. 0. 0. 0. 0. 0. 0. 0. 0. 0. 0. 0.
      6.28930796e-003 0. 0. 0. 0. 0. 0. 0. 0. 0. 0. 0. 0. 0. 0. 0. 0. 0.
      0. 0. 0. 0. 6.28930796e-003 0. 6.28930796e-003 0. 0. 0. 0. 0. 0.
      0. 0. 0. 0. 0. 0. 0. 0. 0. 0. 6.28930796e-003 0. 0. 0. 0.
      6.28930796e-003 0. 0. 0. 0. 0. 0. 0. 0. 0. 0. 6.28930796e-003 0.
      0. 0. 6.28930796e-003 0. 0. 0. 0. 0. 0. 6.28930796e-003
      2.51572318e-002 0. 0. 0. 0. 0. 0. 6.28930796e-003 0.
      6.28930796e-003 0. 6.28930796e-003 0. 0. 0. 0. 0. 0.
      1.25786159e-002 0. 0. 0. 1.25786159e-002 0. 0. 0. 0. 0. 0. 0. 0.
      6.28930796e-003 0. 0. 0. 6.28930796e-003 0. 0. 0. 6.28930796e-003
      0. 0. 0. 0. 0. 6.28930796e-003 0. 0. 0. 0. 0. 6.28930796e-003 0.
      0. 0. 6.28930796e-003 0. 0. 0. 0. 1.25786159e-002 0. 0. 0. 0. 0.
      0. 0. 0. 0. 0. 0. 0. 0. 0. 0. 3.77358496e-002 0. 0. 0.
      6.28930796e-003 0. 6.28930796e-003 0. 0. 0. 6.28930796e-003 0. 0.
      0. 0. 0. 0. 0. 0. 0. 0. 0. 0. 0. 0. 0. 0. 0. 0. 0. 0. 0. 0. 0. 0.
      0. 0. 6.28930796e-003 0. 0. 0. 0. 0. 0. 0. 0. 0. 0.
      6.28930796e-003 0. 0. 0. 0. 0. 6.28930796e-003 0. 0.
      6.28930796e-003 0. 0. 0. 0. 0. 0. 0.</_>
    <_>
      5.31914877e-003 2.65957438e-003 0. 7.97872338e-003 3.98936169e-003
      3.98936169e-003 0. 0. 0. 1.32978719e-003 0. 0. 1.06382975e-002 0.
      0. 0. 2.65957438e-003 0. 0. 1.32978719e-003 0. 0. 0.
      1.32978719e-003 0. 0. 0. 1.32978719e-003 1.32978719e-003
      1.32978719e-003 0. 1.19680846e-002 1.32978719e-003 0.
      2.65957438e-003 0. 0. 0. 0. 1.32978719e-003 1.32978719e-003 0. 0.
      5.31914877e-003 0. 0. 0. 0. 1.32978719e-003 0. 1.32978719e-003
      2.65957438e-003 0. 0. 3.98936169e-003 0. 1.32978719e-003 0.
      2.65957438e-003 3.98936169e-003 0. 2.65957438e-003 0.
      2.65957438e-003 3.98936169e-003 0. 1.32978719e-003 1.06382975e-002
      1.32978719e-003 0. 1.32978719e-003 1.32978719e-003 1.32978719e-003
      2.65957438e-003 3.98936169e-003 2.65957438e-003 0. 1.32978719e-003
      2.65957438e-003 0. 0. 1.32978719e-003 2.65957438e-003 0. 0. 0. 0.
      1.32978719e-003 1.32978719e-003 0. 2.65957438e-003 1.32978719e-003
      5.31914877e-003 0. 0. 1.32978719e-003 0. 0. 2.65957438e-003 0. 0.
      1.32978719e-003 0. 1.32978719e-003 1.32978719e-003 0.
      2.65957438e-003 2.65957438e-003 1.32978719e-003 1.32978719e-003
      1.32978719e-003 0. 0. 2.65957438e-003 1.32978719e-003 0.
      6.64893584e-003 0. 5.31914877e-003 1.32978719e-003 2.65957438e-003
      1.32978719e-003 0. 0. 0. 0. 1.32978719e-003 0. 2.65957438e-003 0.
      0. 1.32978719e-003 0. 0. 0. 1.32978719e-003 0. 2.65957438e-003 0.
      1.32978719e-003 0. 0. 0. 0. 2.65957438e-003 0. 1.32978719e-003 0.
      0. 0. 0. 0. 1.32978719e-003 2.65957438e-003 0. 0. 0. 0. 0. 0. 0.
      0. 7.97872338e-003 0. 1.32978719e-003 0. 0. 0. 1.32978719e-003 0.
      0. 2.65957438e-003 0. 0. 1.32978719e-003 1.32978719e-003 0. 0. 0.
      1.32978719e-003 1.32978719e-003 1.32978719e-003 0. 0.
      1.32978719e-003 0. 0. 1.32978719e-003 3.98936169e-003 0.
      1.32978719e-003 0. 0. 0. 1.32978719e-003 5.31914877e-003
      1.32978719e-003 5.31914877e-003 0. 0. 0. 5.31914877e-003 0. 0. 0.
      9.30851046e-003 1.32978719e-003 0. 2.65957438e-003 0. 0.
      2.65957438e-003 0. 0. 0. 1.32978719e-003 0. 1.32978719e-003 0. 0.
      0. 0. 0. 0. 2.65957438e-003 1.32978719e-003 0. 1.32978719e-003 0.
      0. 0. 1.32978719e-003 0. 0. 0. 0. 1.32978719e-003 0. 0.
      3.98936169e-003 0. 0. 2.65957438e-003 0. 0. 0. 0. 1.32978719e-003
      2.65957438e-003 0. 0. 0. 1.32978719e-003 2.65957438e-003
      2.65957438e-003 0. 1.32978719e-003 1.32978719e-003 1.32978719e-003
      0. 1.32978719e-003 0. 1.32978719e-003 1.32978719e-003 0.
      1.32978719e-003 1.32978719e-003 0. 0. 1.32978719e-003 0. 0. 0.
      1.32978719e-003 0. 0. 0. 2.65957438e-003 0. 0. 0. 0. 0. 0. 0.
      1.32978719e-003 0. 0. 0. 0. 1.32978719e-003 0. 2.65957438e-003 0.
      0. 1.32978719e-003 0. 0. 0. 1.32978719e-003 1.32978719e-003 0. 0.
      0. 0. 0. 2.65957438e-003 0. 6.64893584e-003 0. 1.32978719e-003
      2.65957438e-003 0. 0. 1.32978719e-003 0. 2.65957438e-003 0.
      1.32978719e-003 0. 1.32978719e-003 1.32978719e-003 0. 0. 0.
      1.32978719e-003 2.65957438e-003 1.32978719e-003 0. 0. 0.
      3.98936169e-003 1.32978719e-003 3.98936169e-003 0. 1.32978719e-003
      0. 2.65957438e-003 0. 1.32978719e-003 0. 1.32978719e-003 0. 0.
      1.32978719e-003 0. 0. 0. 0. 0. 1.32978719e-003 0. 3.98936169e-003
      1.32978719e-003 2.65957438e-003 1.32978719e-003 1.32978719e-003 0.
      1.32978719e-003 0. 0. 2.65957438e-003 0. 0. 1.32978719e-003 0. 0.
      1.32978719e-003 2.65957438e-003 1.32978719e-003 0. 0. 0. 0. 0. 0.
      1.32978719e-003 0. 1.06382975e-002 0. 0. 6.64893584e-003 0. 0. 0.
      0. 2.65957438e-003 1.32978719e-003 0. 0. 2.65957438e-003 0. 0.
      1.32978719e-003 0. 0. 0. 0. 1.32978719e-003 1.32978719e-003
      1.32978719e-003 0. 1.32978719e-003 0. 0. 1.32978719e-003 0.
      1.32978719e-003 0. 1.32978719e-003 0. 0. 1.32978719e-003 0.
      1.32978719e-003 0. 0. 0. 0. 0. 0. 3.98936169e-003 1.32978719e-003
      1.32978719e-003 2.65957438e-003 1.32978719e-003 0. 3.98936169e-003
      5.31914877e-003 0. 1.32978719e-003 0. 0. 0. 2.65957438e-003 0. 0.
      0. 3.98936169e-003 0. 1.32978719e-003 0. 1.32978719e-003 0.
      1.32978719e-003 0. 2.65957438e-003 1.32978719e-003 0.
      2.65957438e-003 1.32978719e-003 1.32978719e-003 0. 0.
      2.65957438e-003 5.31914877e-003 5.31914877e-003 3.98936169e-003
      1.32978719e-003 2.65957438e-003 0. 1.32978719e-003 0. 0. 0. 0.
      1.32978719e-003 3.98936169e-003 1.32978719e-003 0. 2.65957438e-003
      1.32978719e-003 0. 1.32978719e-003 0. 2.65957438e-003
      2.65957438e-003 0. 0. 0. 1.32978719e-003 0. 1.32978719e-003 0.
      3.98936169e-003 1.32978719e-003 0. 0. 0. 0. 1.32978719e-003 0.
      1.32978719e-003 0. 1.32978719e-003 0. 0. 0. 0. 3.98936169e-003 0.
      0. 0. 0. 2.65957438e-003 2.65957438e-003 0. 0. 0. 1.32978719e-003
      1.32978719e-003 1.32978719e-003 2.65957438e-003 1.32978719e-003 0.
      0. 0. 0. 0. 1.32978719e-003 0. 0. 0. 3.98936169e-003
      1.32978719e-003 0. 2.65957438e-003 2.65957438e-003 0.
      1.32978719e-003 0. 0. 1.32978719e-003 0. 0. 2.65957438e-003 0. 0.
      0. 1.19680846e-002 0. 3.98936169e-003 2.65957438e-003
      2.65957438e-003 1.32978719e-003 0. 0. 0. 1.32978719e-003
      1.32978719e-003 0. 1.32978719e-003 2.65957438e-003 0.
      1.32978719e-003 1.32978719e-003 1.32978719e-003 0. 1.32978719e-003
      1.32978719e-003 1.32978719e-003 1.32978719e-003 0. 1.32978719e-003
      1.32978719e-003 0. 0. 1.32978719e-003 0. 0. 1.32978719e-003 0. 0.
      0. 3.98936169e-003 1.32978719e-003 0. 1.32978719e-003
      1.32978719e-003 0. 0. 1.32978719e-003 0. 2.65957438e-003 0.
      1.32978719e-003 0. 0. 0. 0. 0. 0. 1.32978719e-003 0. 0. 0.
      3.98936169e-003 0. 1.32978719e-003 1.32978719e-003 0.
      1.32978719e-003 0. 0. 0. 2.65957438e-003 1.32978719e-003 0.
      1.32978719e-003 0. 2.65957438e-003 1.32978719e-003 0.
      2.65957438e-003 0. 0. 0. 2.65957438e-003 0. 3.98936169e-003 0.
      3.98936169e-003 0. 0. 1.32978719e-003 0. 0. 0. 1.32978719e-003
      5.31914877e-003 1.32978719e-003 1.32978719e-003 0. 2.65957438e-003
      0. 2.65957438e-003 0. 2.65957438e-003 1.46276588e-002 0. 0. 0. 0.
      1.32978719e-003 1.32978719e-003 1.32978719e-003 0. 1.32978719e-003
      0. 1.32978719e-003 0. 0. 0. 0. 1.32978719e-003 2.65957438e-003
      1.32978719e-003 0. 0. 0. 0. 0. 1.32978719e-003 0. 1.32978719e-003
      0. 0. 0. 0. 0. 2.65957438e-003 0. 1.32978719e-003 1.32978719e-003
      1.32978719e-003 0. 0. 3.98936169e-003 0. 0. 0. 0. 1.32978719e-003
      2.65957438e-003 1.32978719e-003 5.31914877e-003 0. 1.32978719e-003
      0. 1.32978719e-003 0. 0. 0. 0. 0. 0. 0. 1.32978719e-003 0.
      1.32978719e-003 0. 0. 2.65957438e-003 1.32978719e-003
      1.32978719e-003 0. 0. 1.32978719e-003 0. 1.32978719e-003 0. 0.
      1.32978719e-003 1.32978719e-003 6.64893584e-003 1.32978719e-003 0.
      1.06382975e-002 0. 1.32978719e-003 1.32978719e-003 1.32978719e-003
      1.32978719e-003 0. 2.65957438e-003 0. 1.32978719e-003
      1.32978719e-003 0. 1.32978719e-003 0. 0. 0. 2.65957438e-003 0.
      1.32978719e-003 3.98936169e-003 3.98936169e-003 0. 0.
      2.65957438e-003 0. 1.32978719e-003 3.98936169e-003 0. 0. 0.
      1.32978719e-003 0. 1.32978719e-003 0. 0. 0. 0. 1.32978719e-003
      1.32978719e-003 0. 0. 0. 0. 0. 0. 2.65957438e-003 1.32978719e-003
      0. 0. 1.32978719e-003 0. 0. 0. 0. 0. 1.32978719e-003
      1.32978719e-003 2.65957438e-003 1.32978719e-003 1.32978719e-003 0.
      0. 0. 0. 0. 0. 0. 1.32978719e-003 2.65957438e-003 0. 0.
      1.32978719e-003 1.32978719e-003 1.32978719e-003 2.65957438e-003 0.
      0. 0. 0. 0. 2.65957438e-003 5.31914877e-003 3.98936169e-003 0. 0.
      0. 0. 1.32978719e-003 0. 0. 1.32978719e-003 0. 2.65957438e-003
      2.65957438e-003 0. 2.65957438e-003 0. 0. 0. 0. 0. 1.32978719e-003
      0. 1.32978719e-003 1.32978719e-003 0. 0. 0. 0. 1.32978719e-003 0.
      5.31914877e-003 0. 1.32978719e-003 2.65957438e-003 0.
      1.32978719e-003 0. 0. 1.32978719e-003 0. 1.32978719e-003 0. 0.
      1.32978719e-003 0. 0. 1.32978719e-003 1.32978719e-003 0. 0.
      3.98936169e-003 2.65957438e-003 1.32978719e-003 2.65957438e-003 0.
      0. 1.32978719e-003 2.65957438e-003 0. 2.65957438e-003
      1.32978719e-003 5.31914877e-003 1.32978719e-003 0. 3.98936169e-003
      0. 1.32978719e-003 1.32978719e-003 0. 2.65957438e-003
      1.32978719e-003 1.32978719e-003 2.65957438e-003 2.65957438e-003 0.
      0. 1.32978719e-003 0. 0. 2.65957438e-003 1.32978719e-003
      1.32978719e-003 1.32978719e-003 3.98936169e-003 0. 2.65957438e-003
      2.65957438e-003 1.32978719e-003 0. 2.65957438e-003 0. 0.
      2.65957438e-003 0. 0. 3.98936169e-003 0. 2.65957438e-003 0. 0.
      1.32978719e-003 0. 0. 0. 0. 0. 1.32978719e-003 0. 0. 0. 0. 0.
      1.32978719e-003 0. 1.32978719e-003 0. 1.32978719e-003 0.
      2.65957438e-003 1.32978719e-003 1.32978719e-003 2.65957438e-003
      1.32978719e-003 0. 0. 7.97872338e-003 0. 0. 5.31914877e-003
      6.64893584e-003 0. 0. 0. 0. 0. 0. 0. 0. 0. 1.32978719e-003 0.
      2.65957438e-003 0. 0. 1.32978719e-003 0. 2.65957438e-003 0.
      2.65957438e-003 1.32978719e-003 1.32978719e-003 0. 0. 0.
      1.32978719e-003 0. 2.65957438e-003 0. 1.32978719e-003 0. 0.
      1.32978719e-003 0. 0. 0. 0. 0. 0. 0. 0. 0. 0. 0. 0. 0. 0.
      1.32978719e-003 3.98936169e-003 0. 0. 0. 2.65957438e-003 0. 0. 0.
      5.31914877e-003 0. 0. 0. 1.32978719e-003 2.65957438e-003 0.
      1.32978719e-003 0. 0. 0. 0. 0. 3.98936169e-003 0. 0.
      1.32978719e-003</_>
    <_>
      6.94444461e-004 6.94444461e-004 1.38888892e-003 3.47222225e-003
      2.08333344e-003 0. 6.94444461e-004 1.38888892e-003 6.94444461e-004
      0. 1.38888892e-003 2.08333344e-003 6.94444461e-004 1.38888892e-003
      6.94444461e-004 2.77777785e-003 6.94444461e-004 0. 6.94444461e-004
      0. 2.08333344e-003 6.94444461e-004 6.94444461e-004 3.47222225e-003
      6.94444461e-004 0. 3.47222225e-003 0. 1.38888892e-003
      1.38888892e-003 1.38888892e-003 0. 2.77777785e-003 1.38888892e-003
      0. 6.94444461e-004 0. 2.77777785e-003 0. 1.38888892e-003
      1.38888892e-003 0. 0. 6.94444461e-004 6.94444461e-004
      1.38888892e-003 2.77777785e-003 1.38888892e-003 0. 0. 0.
      1.38888892e-003 0. 0. 2.77777785e-003 1.38888892e-003 0.
      1.38888892e-003 6.94444461e-004 0. 1.38888892e-003 2.08333344e-003
      2.77777785e-003 6.94444461e-004 3.47222225e-003 6.94444461e-004 0.
      0. 2.77777785e-003 2.08333344e-003 6.94444461e-004 2.08333344e-003
      6.94444461e-004 0. 1.38888892e-003 0. 2.77777785e-003
      2.08333344e-003 0. 1.38888892e-003 6.94444461e-004 6.94444461e-004
      0. 1.38888892e-003 1.38888892e-003 6.94444461e-004 1.38888892e-003
      6.94444461e-004 6.94444461e-004 6.94444461e-004 0. 1.38888892e-003
      2.77777785e-003 0. 6.94444461e-004 0. 6.94444461e-004
      6.94444461e-004 6.94444461e-004 6.94444461e-004 1.38888892e-003
      6.94444461e-004 6.94444461e-004 6.94444461e-004 2.08333344e-003
      3.47222225e-003 6.94444461e-004 1.38888892e-003 2.77777785e-003 0.
      2.08333344e-003 1.38888892e-003 1.38888892e-003 6.94444461e-004
      2.08333344e-003 6.94444461e-004 0. 6.94444461e-004 2.08333344e-003
      2.08333344e-003 1.38888892e-003 6.94444461e-004 6.94444461e-004
      2.08333344e-003 6.94444461e-004 0. 1.38888892e-003 6.94444461e-004
      6.94444461e-004 0. 6.94444461e-004 6.94444461e-004 0. 0. 0.
      2.77777785e-003 6.94444461e-004 0. 6.94444461e-004 6.94444461e-004
      6.94444461e-004 0. 1.38888892e-003 6.94444461e-004 6.94444461e-004
      6.94444461e-004 0. 6.94444461e-004 0. 6.94444461e-004
      6.94444461e-004 2.77777785e-003 1.38888892e-003 2.08333344e-003
      1.38888892e-003 6.94444461e-004 0. 0. 2.08333344e-003 0. 0.
      6.94444461e-004 6.94444461e-004 6.94444461e-004 6.94444461e-004
      6.94444461e-004 0. 0. 6.94444461e-004 1.38888892e-003
      2.08333344e-003 0. 6.94444461e-004 1.38888892e-003 1.38888892e-003
      6.94444461e-004 0. 0. 2.77777785e-003 6.94444461e-004
      2.77777785e-003 6.94444461e-004 1.38888892e-003 2.77777785e-003
      2.08333344e-003 1.38888892e-003 1.38888892e-003 6.94444461e-004
      6.94444461e-004 1.38888892e-003 0. 6.94444461e-004 6.94444461e-004
      4.16666688e-003 1.38888892e-003 6.94444461e-004 6.94444461e-004
      2.08333344e-003 1.38888892e-003 2.08333344e-003 0. 2.08333344e-003
      1.38888892e-003 2.08333344e-003 1.38888892e-003 6.94444461e-004
      2.08333344e-003 2.08333344e-003 0. 6.94444461e-004 2.08333344e-003
      0. 0. 0. 6.94444461e-004 6.94444461e-004 2.08333344e-003
      6.94444461e-004 0. 6.94444461e-004 2.77777785e-003 0.
      1.38888892e-003 6.94444461e-004 1.38888892e-003 1.38888892e-003 0.
      0. 6.94444461e-004 0. 0. 0. 6.94444461e-004 0. 1.38888892e-003 0.
      1.38888892e-003 6.94444461e-004 1.38888892e-003 1.38888892e-003
      2.08333344e-003 1.38888892e-003 2.77777785e-003 0. 6.94444461e-004
      6.94444461e-004 3.47222225e-003 6.94444461e-004 0. 1.38888892e-003
      1.38888892e-003 6.94444461e-004 0. 1.38888892e-003 0.
      2.08333344e-003 6.94444461e-004 6.94444461e-004 6.94444461e-004
      6.94444461e-004 2.08333344e-003 0. 2.08333344e-003 0. 0.
      6.94444461e-004 6.94444461e-004 6.94444461e-004 1.38888892e-003
      6.94444461e-004 6.94444461e-004 6.94444461e-004 0. 2.08333344e-003
      6.94444461e-004 0. 6.94444461e-004 6.94444461e-004 6.94444461e-004
      0. 0. 1.38888892e-003 6.94444461e-004 0. 0. 2.08333344e-003
      6.94444461e-004 2.08333344e-003 2.08333344e-003 0. 2.08333344e-003
      0. 4.16666688e-003 0. 1.38888892e-003 0. 1.38888892e-003 0.
      2.08333344e-003 4.86111129e-003 1.38888892e-003 6.94444461e-004
      6.94444461e-004 6.94444461e-004 0. 6.94444461e-004 0.
      6.94444461e-004 0. 6.94444461e-004 6.94444461e-004 2.08333344e-003
      2.77777785e-003 0. 6.94444461e-004 1.38888892e-003 2.77777785e-003
      6.94444461e-004 3.47222225e-003 2.08333344e-003 2.08333344e-003 0.
      0. 6.94444461e-004 6.94444461e-004 6.94444461e-004 6.94444461e-004
      0. 6.94444461e-004 0. 6.94444461e-004 4.16666688e-003
      2.08333344e-003 0. 0. 1.38888892e-003 0. 1.38888892e-003
      6.94444461e-004 2.08333344e-003 6.94444461e-004 3.47222225e-003 0.
      1.38888892e-003 6.94444461e-004 1.38888892e-003 6.94444461e-004
      6.94444461e-004 0. 6.94444461e-004 1.38888892e-003 0. 0.
      6.94444461e-004 2.77777785e-003 0. 0. 3.47222225e-003
      6.94444461e-004 0. 0. 1.38888892e-003 2.08333344e-003
      1.38888892e-003 0. 6.94444461e-004 1.38888892e-003 1.38888892e-003
      0. 0. 0. 0. 0. 0. 0. 6.94444461e-004 0. 6.94444461e-004 0.
      6.94444461e-004 2.08333344e-003 0. 1.38888892e-003 2.08333344e-003
      1.38888892e-003 0. 1.38888892e-003 2.77777785e-003 6.94444461e-004
      6.94444461e-004 0. 6.94444461e-004 0. 0. 6.94444461e-004 0.
      2.77777785e-003 6.94444461e-004 0. 0. 0. 6.94444461e-004
      6.94444461e-004 6.94444461e-004 6.94444461e-004 1.38888892e-003
      6.94444461e-004 2.08333344e-003 1.38888892e-003 6.94444461e-004
      6.94444461e-004 6.94444461e-004 6.94444461e-004 0. 0.
      3.47222225e-003 1.38888892e-003 2.77777785e-003 2.08333344e-003
      6.94444461e-004 2.08333344e-003 6.94444461e-004 0. 1.38888892e-003
      0. 2.08333344e-003 3.47222225e-003 6.94444461e-004 1.38888892e-003
      1.38888892e-003 0. 6.94444461e-004 0. 6.94444461e-004
      6.94444461e-004 1.38888892e-003 1.38888892e-003 1.38888892e-003 0.
      6.94444461e-004 0. 0. 0. 1.38888892e-003 3.47222225e-003 0.
      2.08333344e-003 0. 6.94444461e-004 6.94444461e-004 0. 0.
      6.94444461e-004 0. 6.94444461e-004 1.38888892e-003 6.94444461e-004
      6.94444461e-004 6.94444461e-004 6.94444461e-004 2.08333344e-003
      6.94444461e-004 0. 1.38888892e-003 6.94444461e-004 2.08333344e-003
      2.08333344e-003 2.77777785e-003 2.08333344e-003 0. 6.94444461e-004
      1.38888892e-003 1.38888892e-003 2.77777785e-003 1.38888892e-003 0.
      0. 0. 0. 0. 2.08333344e-003 6.94444461e-004 2.08333344e-003
      1.38888892e-003 6.94444461e-004 2.08333344e-003 6.94444461e-004
      2.08333344e-003 6.94444461e-004 6.94444461e-004 1.38888892e-003
      6.94444461e-004 0. 1.38888892e-003 6.94444461e-004 2.08333344e-003
      0. 2.08333344e-003 1.38888892e-003 2.08333344e-003 0.
      1.38888892e-003 2.08333344e-003 6.94444461e-004 0. 1.38888892e-003
      6.94444461e-004 6.94444461e-004 0. 1.38888892e-003 1.38888892e-003
      6.94444461e-004 2.08333344e-003 4.16666688e-003 1.38888892e-003 0.
      0. 1.38888892e-003 0. 6.94444461e-004 0. 2.08333344e-003
      1.38888892e-003 6.94444461e-004 0. 2.77777785e-003 2.08333344e-003
      6.94444461e-004 1.38888892e-003 5.55555569e-003 2.08333344e-003
      1.38888892e-003 6.94444461e-004 6.94444461e-004 0. 6.94444461e-004
      1.38888892e-003 6.94444461e-004 1.38888892e-003 6.94444461e-004 0.
      1.38888892e-003 6.94444461e-004 6.94444461e-004 2.77777785e-003
      2.08333344e-003 6.94444461e-004 2.77777785e-003 0. 1.38888892e-003
      2.08333344e-003 0. 1.38888892e-003 1.38888892e-003 0.
      6.94444461e-004 6.94444461e-004 2.77777785e-003 1.38888892e-003 0.
      6.94444461e-004 6.94444461e-004 6.94444461e-004 6.94444461e-004
      1.38888892e-003 6.94444461e-004 0. 6.94444461e-004 1.38888892e-003
      1.38888892e-003 0. 1.38888892e-003 1.38888892e-003 0.
      1.38888892e-003 6.94444461e-004 6.94444461e-004 6.94444461e-004 0.
      0. 2.08333344e-003 0. 6.94444461e-004 6.94444461e-004
      6.94444461e-004 0. 2.08333344e-003 1.38888892e-003 6.94444461e-004
      2.08333344e-003 6.94444461e-004 0. 1.38888892e-003 2.77777785e-003
      1.38888892e-003 1.38888892e-003 3.47222225e-003 6.94444461e-004 0.
      0. 6.94444461e-004 1.38888892e-003 6.94444461e-004 1.38888892e-003
      1.38888892e-003 2.08333344e-003 3.47222225e-003 0. 6.94444461e-004
      6.94444461e-004 0. 0. 2.77777785e-003 1.38888892e-003 0. 0.
      1.38888892e-003 6.94444461e-004 6.94444461e-004 6.94444461e-004
      1.38888892e-003 2.77777785e-003 1.38888892e-003 0. 0.
      1.38888892e-003 2.08333344e-003 2.08333344e-003 1.38888892e-003
      6.94444461e-004 1.38888892e-003 2.77777785e-003 1.38888892e-003
      1.38888892e-003 0. 1.38888892e-003 6.94444461e-004 0.
      1.38888892e-003 1.38888892e-003 1.38888892e-003 2.08333344e-003
      2.08333344e-003 6.94444461e-004 0. 6.94444461e-004 6.94444461e-004
      6.94444461e-004 6.94444461e-004 6.94444461e-004 1.38888892e-003 0.
      6.94444461e-004 6.94444461e-004 6.94444461e-004 1.38888892e-003
      2.77777785e-003 1.38888892e-003 6.94444461e-004 6.94444461e-004
      1.38888892e-003 6.94444461e-004 0. 6.94444461e-004 1.38888892e-003
      6.94444461e-004 6.94444461e-004 6.94444461e-004 1.38888892e-003
      6.94444461e-004 6.94444461e-004 1.38888892e-003 2.08333344e-003 0.
      2.08333344e-003 2.08333344e-003 2.08333344e-003 6.94444461e-004 0.
      6.94444461e-004 0. 6.94444461e-004 1.38888892e-003 1.38888892e-003
      6.94444461e-004 1.38888892e-003 0. 1.38888892e-003 6.94444461e-004
      1.38888892e-003 1.38888892e-003 6.94444461e-004 2.77777785e-003 0.
      1.38888892e-003 0. 0. 6.94444461e-004 6.94444461e-004 0. 0.
      6.94444461e-004 0. 1.38888892e-003 0. 2.08333344e-003
      2.08333344e-003 0. 6.94444461e-004 6.94444461e-004 6.94444461e-004
      0. 6.94444461e-004 0. 0. 6.94444461e-004 1.38888892e-003 0.
      6.94444461e-004 0. 0. 0. 6.94444461e-004 6.94444461e-004
      6.94444461e-004 1.38888892e-003 2.08333344e-003 4.16666688e-003
      6.94444461e-004 1.38888892e-003 6.94444461e-004 2.77777785e-003
      6.94444461e-004 0. 1.38888892e-003 2.77777785e-003 2.08333344e-003
      1.38888892e-003 1.38888892e-003 2.77777785e-003 2.08333344e-003
      6.94444461e-004 6.94444461e-004 0. 0. 0. 0. 1.38888892e-003
      6.94444461e-004 1.38888892e-003 1.38888892e-003 6.94444461e-004 0.
      1.38888892e-003 0. 0. 6.94444461e-004 6.94444461e-004
      6.94444461e-004 0. 0. 1.38888892e-003 0. 1.38888892e-003
      6.94444461e-004 0. 1.38888892e-003 0. 0. 2.77777785e-003
      1.38888892e-003 6.94444461e-004 0. 6.94444461e-004 1.38888892e-003
      1.38888892e-003 6.94444461e-004 6.94444461e-004 2.77777785e-003
      6.94444461e-004 2.08333344e-003 0. 0. 6.94444461e-004
      1.38888892e-003 2.77777785e-003 6.94444461e-004 6.94444461e-004 0.
      0. 6.94444461e-004 0. 6.94444461e-004 1.38888892e-003
      1.38888892e-003 0. 0. 1.38888892e-003 0. 0. 2.08333344e-003
      6.94444461e-004 1.38888892e-003 6.94444461e-004 1.38888892e-003 0.
      0. 0. 1.38888892e-003 2.08333344e-003 2.77777785e-003
      6.94444461e-004 0. 6.94444461e-004 2.08333344e-003 2.77777785e-003
      6.94444461e-004 6.94444461e-004 6.94444461e-004 1.38888892e-003
      6.94444461e-004 0. 0. 2.77777785e-003 0. 6.94444461e-004
      6.94444461e-004 1.38888892e-003 0. 2.08333344e-003 1.38888892e-003
      0. 6.94444461e-004 6.94444461e-004 6.94444461e-004 6.94444461e-004
      0. 3.47222225e-003 6.94444461e-004 2.77777785e-003 6.94444461e-004
      1.38888892e-003 1.38888892e-003 1.38888892e-003 6.94444461e-004 0.
      1.38888892e-003 1.38888892e-003 6.94444461e-004 1.38888892e-003
      1.38888892e-003 0. 2.77777785e-003 1.38888892e-003 1.38888892e-003
      6.94444461e-004 4.16666688e-003 2.08333344e-003 6.94444461e-004
      2.08333344e-003 2.08333344e-003 1.38888892e-003 6.94444461e-004
      6.94444461e-004 0. 0. 2.08333344e-003 1.38888892e-003
      3.47222225e-003 3.47222225e-003 0. 1.38888892e-003 1.38888892e-003
      0. 6.94444461e-004 6.94444461e-004 0. 2.08333344e-003
      6.94444461e-004 2.77777785e-003 6.94444461e-004 1.38888892e-003
      1.38888892e-003 1.38888892e-003 0. 2.08333344e-003 0.
      6.94444461e-004 2.77777785e-003 2.08333344e-003 6.94444461e-004 0.
      0. 6.94444461e-004 6.94444461e-004 6.94444461e-004 6.94444461e-004
      1.38888892e-003 0. 0. 0. 2.77777785e-003 1.38888892e-003 0.
      2.77777785e-003 0. 1.38888892e-003 1.38888892e-003 2.08333344e-003
      1.38888892e-003 6.94444461e-004 3.47222225e-003 6.94444461e-004
      2.77777785e-003 2.77777785e-003 6.94444461e-004 6.94444461e-004
      6.94444461e-004 6.94444461e-004 1.38888892e-003 6.94444461e-004
      6.94444461e-004 6.94444461e-004 2.08333344e-003 6.94444461e-004
      1.38888892e-003 0. 6.94444461e-004 0. 1.38888892e-003
      3.47222225e-003 2.77777785e-003 6.94444461e-004 0. 6.94444461e-004
      0. 1.38888892e-003 0. 6.94444461e-004 6.94444461e-004 0.
      1.38888892e-003 6.94444461e-004 1.38888892e-003 2.77777785e-003
      2.08333344e-003 0. 0. 0. 0. 6.94444461e-004 1.38888892e-003 0.
      6.94444461e-004 6.94444461e-004 0. 1.38888892e-003 0. 0.
      1.38888892e-003 0. 2.08333344e-003 1.38888892e-003 6.94444461e-004
      1.38888892e-003 6.94444461e-004 6.94444461e-004 0. 2.08333344e-003
      6.94444461e-004 0. 6.94444461e-004 1.38888892e-003 2.08333344e-003
      1.38888892e-003 1.38888892e-003 0. 4.86111129e-003 3.47222225e-003
      1.38888892e-003 1.38888892e-003 2.08333344e-003 0. 1.38888892e-003
      6.94444461e-004 0. 2.08333344e-003 1.38888892e-003 1.38888892e-003
      0. 0. 6.94444461e-004 6.94444461e-004 1.38888892e-003
      6.94444461e-004 0. 1.38888892e-003 0. 6.94444461e-004
      6.94444461e-004</_>
    <_>
      1.95822446e-003 6.52741524e-004 3.26370774e-003 0. 1.30548305e-003
      6.52741524e-004 1.30548305e-003 0. 0. 6.52741524e-004
      1.95822446e-003 1.95822446e-003 6.52741524e-004 1.95822446e-003
      6.52741524e-004 1.30548305e-003 0. 1.95822446e-003 1.30548305e-003
      0. 0. 0. 1.30548305e-003 1.95822446e-003 1.30548305e-003 0.
      6.52741524e-004 1.30548305e-003 1.30548305e-003 0. 0.
      1.30548305e-003 2.61096610e-003 1.30548305e-003 0. 1.30548305e-003
      6.52741524e-004 1.95822446e-003 1.95822446e-003 1.95822446e-003
      1.95822446e-003 1.30548305e-003 1.95822446e-003 3.91644891e-003
      1.30548305e-003 6.52741524e-004 3.91644891e-003 1.30548305e-003
      6.52741524e-004 1.30548305e-003 1.30548305e-003 1.30548305e-003 0.
      6.52741524e-004 6.52741524e-004 1.30548305e-003 0. 1.95822446e-003
      1.95822446e-003 4.56919055e-003 6.52741524e-004 1.30548305e-003
      1.30548305e-003 1.30548305e-003 3.26370774e-003 1.95822446e-003
      6.52741524e-004 0. 0. 1.95822446e-003 1.95822446e-003
      6.52741524e-004 1.95822446e-003 6.52741524e-004 0. 6.52741524e-004
      1.30548305e-003 0. 0. 1.30548305e-003 1.95822446e-003 0.
      6.52741524e-004 6.52741524e-004 6.52741524e-004 6.52741524e-004
      1.30548305e-003 0. 1.30548305e-003 1.30548305e-003 6.52741524e-004
      0. 6.52741524e-004 0. 0. 1.30548305e-003 1.95822446e-003
      1.30548305e-003 6.52741524e-004 0. 1.30548305e-003 6.52741524e-004
      0. 1.95822446e-003 6.52741524e-004 1.30548305e-003 1.30548305e-003
      6.52741524e-004 6.52741524e-004 3.26370774e-003 1.30548305e-003
      6.52741524e-004 6.52741524e-004 1.30548305e-003 3.26370774e-003
      1.95822446e-003 0. 0. 6.52741524e-004 6.52741524e-004
      1.95822446e-003 0. 6.52741524e-004 3.91644891e-003 1.30548305e-003
      6.52741524e-004 1.30548305e-003 6.52741524e-004 1.95822446e-003
      1.30548305e-003 6.52741524e-004 1.95822446e-003 1.95822446e-003
      2.61096610e-003 6.52741524e-004 6.52741524e-004 6.52741524e-004 0.
      6.52741524e-004 6.52741524e-004 0. 6.52741524e-004 1.30548305e-003
      0. 0. 2.61096610e-003 1.30548305e-003 6.52741524e-004
      1.30548305e-003 6.52741524e-004 1.95822446e-003 6.52741524e-004
      1.95822446e-003 1.95822446e-003 6.52741524e-004 0. 6.52741524e-004
      0. 6.52741524e-004 6.52741524e-004 0. 1.30548305e-003 0. 0.
      6.52741524e-004 0. 1.30548305e-003 6.52741524e-004 0.
      1.95822446e-003 6.52741524e-004 0. 2.61096610e-003 1.30548305e-003
      0. 0. 6.52741524e-004 6.52741524e-004 1.30548305e-003 0.
      1.30548305e-003 0. 1.95822446e-003 6.52741524e-004 6.52741524e-004
      1.30548305e-003 0. 0. 0. 0. 1.30548305e-003 1.30548305e-003 0.
      1.95822446e-003 6.52741524e-004 0. 0. 0. 6.52741524e-004
      6.52741524e-004 0. 6.52741524e-004 6.52741524e-004 1.95822446e-003
      1.95822446e-003 0. 6.52741524e-004 1.30548305e-003 1.30548305e-003
      0. 6.52741524e-004 6.52741524e-004 6.52741524e-004 1.95822446e-003
      1.95822446e-003 6.52741524e-004 1.95822446e-003 1.95822446e-003
      6.52741524e-004 6.52741524e-004 6.52741524e-004 0. 0.
      6.52741524e-004 3.26370774e-003 6.52741524e-004 1.30548305e-003
      6.52741524e-004 0. 1.30548305e-003 6.52741524e-004 6.52741524e-004
      6.52741524e-004 1.95822446e-003 0. 6.52741524e-004 0.
      2.61096610e-003 6.52741524e-004 6.52741524e-004 6.52741524e-004
      1.30548305e-003 6.52741524e-004 1.95822446e-003 6.52741524e-004
      6.52741524e-004 6.52741524e-004 6.52741524e-004 1.30548305e-003
      3.91644891e-003 6.52741524e-004 6.52741524e-004 1.30548305e-003
      6.52741524e-004 6.52741524e-004 6.52741524e-004 1.95822446e-003
      6.52741524e-004 0. 1.30548305e-003 0. 1.30548305e-003
      1.30548305e-003 0. 6.52741524e-004 0. 1.30548305e-003
      1.95822446e-003 1.30548305e-003 3.26370774e-003 2.61096610e-003
      1.95822446e-003 0. 1.95822446e-003 6.52741524e-004 0.
      1.95822446e-003 3.91644891e-003 1.30548305e-003 0. 0. 0. 0.
      1.30548305e-003 0. 2.61096610e-003 6.52741524e-004 1.30548305e-003
      1.95822446e-003 6.52741524e-004 6.52741524e-004 0. 1.95822446e-003
      6.52741524e-004 6.52741524e-004 0. 2.61096610e-003 0.
      1.95822446e-003 6.52741524e-004 1.95822446e-003 1.95822446e-003
      1.30548305e-003 0. 2.61096610e-003 6.52741524e-004 6.52741524e-004
      1.30548305e-003 1.30548305e-003 1.95822446e-003 1.30548305e-003 0.
      1.30548305e-003 1.95822446e-003 1.30548305e-003 6.52741524e-004
      1.30548305e-003 0. 1.30548305e-003 0. 2.61096610e-003 0.
      6.52741524e-004 6.52741524e-004 2.61096610e-003 0. 1.30548305e-003
      6.52741524e-004 0. 1.30548305e-003 6.52741524e-004 1.95822446e-003
      6.52741524e-004 1.30548305e-003 6.52741524e-004 0. 1.95822446e-003
      0. 0. 1.95822446e-003 1.30548305e-003 0. 1.30548305e-003
      1.30548305e-003 1.30548305e-003 1.30548305e-003 0. 1.30548305e-003
      1.30548305e-003 6.52741524e-004 6.52741524e-004 1.30548305e-003 0.
      0. 1.30548305e-003 6.52741524e-004 1.95822446e-003 1.95822446e-003
      2.61096610e-003 1.30548305e-003 1.95822446e-003 0. 6.52741524e-004
      1.30548305e-003 0. 0. 3.26370774e-003 0. 1.30548305e-003
      1.30548305e-003 6.52741524e-004 1.30548305e-003 0. 0.
      6.52741524e-004 0. 1.30548305e-003 6.52741524e-004 1.95822446e-003
      1.30548305e-003 6.52741524e-004 6.52741524e-004 1.95822446e-003
      3.91644891e-003 6.52741524e-004 6.52741524e-004 6.52741524e-004
      6.52741524e-004 0. 6.52741524e-004 0. 1.30548305e-003
      1.30548305e-003 0. 3.26370774e-003 0. 0. 6.52741524e-004
      1.30548305e-003 0. 0. 0. 6.52741524e-004 1.30548305e-003
      6.52741524e-004 6.52741524e-004 6.52741524e-004 1.95822446e-003 0.
      6.52741524e-004 1.30548305e-003 0. 6.52741524e-004 6.52741524e-004
      1.95822446e-003 1.95822446e-003 6.52741524e-004 2.61096610e-003 0.
      1.30548305e-003 1.30548305e-003 6.52741524e-004 6.52741524e-004
      1.30548305e-003 6.52741524e-004 2.61096610e-003 0. 6.52741524e-004
      6.52741524e-004 6.52741524e-004 3.91644891e-003 1.30548305e-003
      1.30548305e-003 6.52741524e-004 6.52741524e-004 1.95822446e-003
      1.30548305e-003 6.52741524e-004 0. 6.52741524e-004 0.
      1.95822446e-003 1.95822446e-003 1.30548305e-003 0. 1.30548305e-003
      0. 1.95822446e-003 0. 6.52741524e-004 6.52741524e-004
      1.30548305e-003 2.61096610e-003 2.61096610e-003 6.52741524e-004
      6.52741524e-004 6.52741524e-004 0. 0. 6.52741524e-004 0. 0.
      1.30548305e-003 0. 1.95822446e-003 1.95822446e-003 1.95822446e-003
      1.30548305e-003 0. 1.95822446e-003 6.52741524e-004 1.95822446e-003
      1.30548305e-003 3.26370774e-003 1.30548305e-003 0. 1.30548305e-003
      1.95822446e-003 0. 3.26370774e-003 0. 1.30548305e-003
      1.30548305e-003 1.30548305e-003 6.52741524e-004 1.95822446e-003 0.
      1.30548305e-003 1.30548305e-003 6.52741524e-004 0. 2.61096610e-003
      2.61096610e-003 6.52741524e-004 6.52741524e-004 1.30548305e-003
      6.52741524e-004 1.95822446e-003 1.30548305e-003 0. 6.52741524e-004
      6.52741524e-004 6.52741524e-004 6.52741524e-004 0. 6.52741524e-004
      6.52741524e-004 0. 6.52741524e-004 6.52741524e-004 6.52741524e-004
      0. 1.30548305e-003 1.30548305e-003 6.52741524e-004 6.52741524e-004
      0. 1.30548305e-003 6.52741524e-004 3.26370774e-003 0. 0.
      6.52741524e-004 6.52741524e-004 0. 1.95822446e-003 6.52741524e-004
      6.52741524e-004 1.30548305e-003 0. 2.61096610e-003 6.52741524e-004
      1.95822446e-003 1.30548305e-003 0. 0. 6.52741524e-004
      6.52741524e-004 1.30548305e-003 1.30548305e-003 6.52741524e-004
      6.52741524e-004 0. 0. 6.52741524e-004 2.61096610e-003
      1.30548305e-003 6.52741524e-004 6.52741524e-004 6.52741524e-004 0.
      1.95822446e-003 6.52741524e-004 0. 3.26370774e-003 1.30548305e-003
      1.30548305e-003 1.30548305e-003 1.30548305e-003 0. 6.52741524e-004
      0. 6.52741524e-004 0. 6.52741524e-004 2.61096610e-003
      6.52741524e-004 6.52741524e-004 2.61096610e-003 0. 0.
      1.95822446e-003 1.95822446e-003 1.95822446e-003 1.95822446e-003
      1.30548305e-003 6.52741524e-004 6.52741524e-004 1.95822446e-003
      1.30548305e-003 1.95822446e-003 1.95822446e-003 0. 1.30548305e-003
      6.52741524e-004 0. 6.52741524e-004 0. 1.30548305e-003 0.
      6.52741524e-004 6.52741524e-004 1.95822446e-003 1.30548305e-003
      6.52741524e-004 1.30548305e-003 6.52741524e-004 2.61096610e-003 0.
      1.30548305e-003 6.52741524e-004 6.52741524e-004 1.95822446e-003
      1.30548305e-003 6.52741524e-004 6.52741524e-004 1.95822446e-003 0.
      1.30548305e-003 1.95822446e-003 1.30548305e-003 6.52741524e-004
      1.30548305e-003 3.26370774e-003 6.52741524e-004 6.52741524e-004
      6.52741524e-004 6.52741524e-004 1.30548305e-003 0. 6.52741524e-004
      3.26370774e-003 6.52741524e-004 1.95822446e-003 2.61096610e-003
      1.30548305e-003 2.61096610e-003 6.52741524e-004 6.52741524e-004 0.
      6.52741524e-004 2.61096610e-003 6.52741524e-004 6.52741524e-004
      6.52741524e-004 1.30548305e-003 1.95822446e-003 0. 0.
      6.52741524e-004 1.30548305e-003 1.95822446e-003 2.61096610e-003 0.
      6.52741524e-004 6.52741524e-004 1.95822446e-003 0. 1.95822446e-003
      1.95822446e-003 6.52741524e-004 0. 0. 6.52741524e-004 0. 0.
      6.52741524e-004 1.95822446e-003 1.30548305e-003 0. 1.30548305e-003
      1.95822446e-003 1.30548305e-003 1.30548305e-003 6.52741524e-004
      3.26370774e-003 6.52741524e-004 6.52741524e-004 0. 1.30548305e-003
      0. 1.30548305e-003 1.30548305e-003 6.52741524e-004 6.52741524e-004
      1.30548305e-003 1.30548305e-003 0. 1.95822446e-003 0. 0.
      6.52741524e-004 1.95822446e-003 1.30548305e-003 0. 1.30548305e-003
      1.95822446e-003 6.52741524e-004 0. 1.95822446e-003 1.30548305e-003
      2.61096610e-003 0. 6.52741524e-004 0. 2.61096610e-003 0.
      1.95822446e-003 0. 6.52741524e-004 0. 6.52741524e-004
      6.52741524e-004 1.30548305e-003 6.52741524e-004 6.52741524e-004
      1.30548305e-003 6.52741524e-004 1.95822446e-003 1.30548305e-003
      6.52741524e-004 1.30548305e-003 6.52741524e-004 1.30548305e-003 0.
      0. 6.52741524e-004 6.52741524e-004 1.30548305e-003 6.52741524e-004
      6.52741524e-004 1.30548305e-003 1.30548305e-003 0. 1.95822446e-003
      1.30548305e-003 1.30548305e-003 2.61096610e-003 1.95822446e-003
      1.30548305e-003 6.52741524e-004 0. 6.52741524e-004 0.
      2.61096610e-003 0. 1.95822446e-003 0. 0. 1.30548305e-003 0.
      6.52741524e-004 1.30548305e-003 6.52741524e-004 1.95822446e-003
      1.30548305e-003 6.52741524e-004 6.52741524e-004 0. 1.30548305e-003
      2.61096610e-003 6.52741524e-004 1.95822446e-003 6.52741524e-004
      1.95822446e-003 6.52741524e-004 1.30548305e-003 0. 1.95822446e-003
      0. 0. 2.61096610e-003 0. 0. 0. 6.52741524e-004 0. 0.
      3.26370774e-003 1.95822446e-003 6.52741524e-004 1.95822446e-003
      6.52741524e-004 6.52741524e-004 1.30548305e-003 0. 1.30548305e-003
      1.30548305e-003 2.61096610e-003 0. 0. 6.52741524e-004
      1.30548305e-003 1.30548305e-003 6.52741524e-004 3.26370774e-003
      2.61096610e-003 3.26370774e-003 0. 6.52741524e-004 1.30548305e-003
      6.52741524e-004 1.30548305e-003 0. 2.61096610e-003 1.30548305e-003
      1.30548305e-003 2.61096610e-003 0. 1.30548305e-003 6.52741524e-004
      1.30548305e-003 1.30548305e-003 6.52741524e-004 6.52741524e-004
      1.30548305e-003 6.52741524e-004 0. 0. 1.30548305e-003
      1.30548305e-003 0. 6.52741524e-004 0. 6.52741524e-004
      1.95822446e-003 1.30548305e-003 0. 6.52741524e-004 6.52741524e-004
      1.30548305e-003 1.30548305e-003 1.30548305e-003 0. 0. 0.
      2.61096610e-003 6.52741524e-004 1.95822446e-003 1.30548305e-003 0.
      6.52741524e-004 1.95822446e-003 1.95822446e-003 6.52741524e-004
      6.52741524e-004 6.52741524e-004 1.30548305e-003 1.95822446e-003
      1.95822446e-003 0. 1.30548305e-003 1.30548305e-003 1.30548305e-003
      0. 6.52741524e-004 1.30548305e-003 1.95822446e-003 1.95822446e-003
      2.61096610e-003 6.52741524e-004 1.95822446e-003 6.52741524e-004
      6.52741524e-004 0. 6.52741524e-004 6.52741524e-004 3.26370774e-003
      0. 1.95822446e-003 6.52741524e-004 0. 1.95822446e-003
      6.52741524e-004 6.52741524e-004 6.52741524e-004 2.61096610e-003 0.
      1.95822446e-003 0. 0. 0. 1.30548305e-003 1.30548305e-003
      6.52741524e-004 0. 1.30548305e-003 1.30548305e-003 1.30548305e-003
      0. 6.52741524e-004 6.52741524e-004 1.30548305e-003 6.52741524e-004
      1.30548305e-003 6.52741524e-004 0. 0. 0. 6.52741524e-004
      6.52741524e-004 1.95822446e-003 0. 1.95822446e-003 0.
      1.30548305e-003 0. 6.52741524e-004 0. 0. 0. 1.30548305e-003
      6.52741524e-004 6.52741524e-004 1.95822446e-003 0. 0. 0.
      6.52741524e-004 3.26370774e-003 6.52741524e-004 1.30548305e-003
      6.52741524e-004 3.26370774e-003 1.30548305e-003 6.52741524e-004
      1.30548305e-003 1.95822446e-003 6.52741524e-004 6.52741524e-004
      1.95822446e-003 1.30548305e-003 6.52741524e-004 6.52741524e-004
      1.95822446e-003 1.30548305e-003 0. 6.52741524e-004 6.52741524e-004
      1.95822446e-003 1.95822446e-003 6.52741524e-004 0. 0.
      6.52741524e-004 1.30548305e-003 6.52741524e-004 0. 1.30548305e-003
      2.61096610e-003 0. 1.95822446e-003 0. 6.52741524e-004
      2.61096610e-003 6.52741524e-004 0. 1.95822446e-003 0.
      3.26370774e-003 2.61096610e-003 0. 6.52741524e-004 0. 0.
      1.30548305e-003 0. 1.95822446e-003 0. 1.30548305e-003
      6.52741524e-004 1.95822446e-003 1.30548305e-003 6.52741524e-004
      1.30548305e-003 1.30548305e-003 6.52741524e-004 1.95822446e-003 0.
      1.30548305e-003 0. 6.52741524e-004 1.30548305e-003 1.30548305e-003
      1.95822446e-003 6.52741524e-004 6.52741524e-004 0. 1.30548305e-003
      1.30548305e-003 0. 1.30548305e-003 2.61096610e-003 6.52741524e-004
      6.52741524e-004 1.95822446e-003 1.30548305e-003 1.30548305e-003
      1.95822446e-003 1.95822446e-003 2.61096610e-003 1.30548305e-003
      6.52741524e-004 1.30548305e-003 1.30548305e-003 1.95822446e-003
      2.61096610e-003 6.52741524e-004 0. 1.95822446e-003</_>
    <_>
      1.01317128e-003 0. 1.01317128e-003 1.01317128e-003 0. 0.
      1.01317128e-003 0. 0. 1.01317128e-003 0. 4.05268511e-003 0.
      1.01317128e-003 4.05268511e-003 0. 1.01317128e-003 0. 0. 0.
      1.01317128e-003 0. 1.01317128e-003 0. 1.01317128e-003 0. 0. 0.
      3.03951371e-003 0. 0. 0. 0. 1.01317128e-003 0. 1.01317128e-003
      3.03951371e-003 3.03951371e-003 0. 1.01317128e-003 0.
      1.01317128e-003 3.03951371e-003 3.03951371e-003 0. 1.01317128e-003
      0. 2.02634255e-003 3.03951371e-003 3.03951371e-003 0. 0.
      1.01317128e-003 4.05268511e-003 0. 1.01317128e-003 0. 0. 0. 0. 0.
      2.02634255e-003 2.02634255e-003 1.01317128e-003 2.02634255e-003
      1.01317128e-003 0. 1.01317128e-003 3.03951371e-003 4.05268511e-003
      0. 3.03951371e-003 1.01317128e-003 2.02634255e-003 1.01317128e-003
      0. 0. 3.03951371e-003 0. 1.01317128e-003 0. 1.01317128e-003 0.
      2.02634255e-003 1.01317128e-003 4.05268511e-003 0. 3.03951371e-003
      1.01317128e-003 0. 0. 2.02634255e-003 3.03951371e-003 0. 0.
      1.01317128e-003 1.01317128e-003 0. 0. 0. 3.03951371e-003
      1.01317128e-003 2.02634255e-003 0. 0. 0. 2.02634255e-003 0.
      1.01317128e-003 1.01317128e-003 2.02634255e-003 1.01317128e-003 0.
      0. 2.02634255e-003 6.07902743e-003 0. 0. 5.06585650e-003
      1.01317128e-003 1.01317128e-003 0. 0. 2.02634255e-003
      7.09219882e-003 0. 0. 0. 0. 0. 1.01317128e-003 1.01317128e-003
      3.03951371e-003 1.01317128e-003 1.01317128e-003 0. 0.
      1.01317128e-003 0. 0. 2.02634255e-003 0. 0. 2.02634255e-003
      1.01317128e-003 0. 0. 2.02634255e-003 0. 0. 3.03951371e-003 0.
      1.01317128e-003 2.02634255e-003 1.01317128e-003 0. 2.02634255e-003
      1.01317128e-003 1.01317128e-003 0. 1.01317128e-003 0.
      2.02634255e-003 0. 1.01317128e-003 0. 3.03951371e-003 0.
      1.01317128e-003 0. 1.01317128e-003 0. 1.01317128e-003 0. 0.
      1.01317128e-003 1.01317128e-003 0. 0. 3.03951371e-003
      1.01317128e-003 2.02634255e-003 2.02634255e-003 1.01317128e-003
      1.01317128e-003 0. 1.01317128e-003 1.01317128e-003 0.
      1.01317128e-003 1.01317128e-003 0. 1.01317128e-003 0.
      2.02634255e-003 0. 0. 1.01317128e-003 0. 1.01317128e-003
      2.02634255e-003 4.05268511e-003 3.03951371e-003 0. 2.02634255e-003
      0. 0. 1.01317128e-003 1.01317128e-003 0. 2.02634255e-003 0. 0.
      5.06585650e-003 0. 0. 5.06585650e-003 1.01317128e-003 0. 0.
      1.01317128e-003 1.01317128e-003 2.02634255e-003 0. 1.01317128e-003
      1.01317128e-003 0. 2.02634255e-003 1.01317128e-003 1.01317128e-003
      1.01317128e-003 1.01317128e-003 0. 0. 0. 0. 1.01317128e-003 0.
      1.01317128e-003 3.03951371e-003 2.02634255e-003 1.01317128e-003
      3.03951371e-003 0. 0. 0. 3.03951371e-003 2.02634255e-003
      1.01317128e-003 2.02634255e-003 1.01317128e-003 1.01317128e-003
      4.05268511e-003 1.01317128e-003 0. 4.05268511e-003 0. 0. 0. 0. 0.
      2.02634255e-003 1.01317128e-003 0. 0. 2.02634255e-003
      1.01317128e-003 0. 0. 0. 1.01317128e-003 0. 0. 0. 2.02634255e-003
      0. 2.02634255e-003 0. 0. 0. 0. 0. 0. 0. 0. 2.02634255e-003
      3.03951371e-003 5.06585650e-003 2.02634255e-003 2.02634255e-003
      1.01317128e-003 0. 0. 0. 1.01317128e-003 2.02634255e-003
      1.01317128e-003 0. 0. 1.01317128e-003 0. 1.01317128e-003
      4.05268511e-003 0. 0. 1.01317128e-003 0. 0. 2.02634255e-003 0.
      1.01317128e-003 2.02634255e-003 0. 1.01317128e-003 1.01317128e-003
      0. 5.06585650e-003 1.01317128e-003 0. 2.02634255e-003
      1.01317128e-003 1.01317128e-003 1.01317128e-003 0. 0. 0. 0.
      2.02634255e-003 0. 0. 1.01317128e-003 5.06585650e-003 0. 0.
      2.02634255e-003 1.01317128e-003 0. 2.02634255e-003 1.01317128e-003
      2.02634255e-003 3.03951371e-003 1.01317128e-003 1.01317128e-003 0.
      2.02634255e-003 0. 1.01317128e-003 0. 0. 1.01317128e-003 0. 0. 0.
      0. 4.05268511e-003 1.01317128e-003 1.01317128e-003 0.
      1.01317128e-003 1.01317128e-003 0. 0. 0. 0. 4.05268511e-003 0. 0.
      0. 0. 6.07902743e-003 2.02634255e-003 0. 0. 0. 1.01317128e-003
      1.01317128e-003 0. 1.01317128e-003 0. 0. 0. 0. 0. 1.01317128e-003
      1.01317128e-003 1.01317128e-003 2.02634255e-003 0. 0.
      2.02634255e-003 7.09219882e-003 0. 0. 0. 0. 3.03951371e-003 0.
      2.02634255e-003 0. 0. 0. 1.01317128e-003 1.01317128e-003
      1.01317128e-003 1.01317128e-003 0. 0. 0. 1.01317128e-003 0.
      1.01317128e-003 5.06585650e-003 1.01317128e-003 1.01317128e-003 0.
      0. 0. 0. 2.02634255e-003 2.02634255e-003 0. 4.05268511e-003
      5.06585650e-003 0. 2.02634255e-003 1.01317128e-003 1.01317128e-003
      1.01317128e-003 0. 0. 1.01317128e-003 0. 3.03951371e-003 0.
      2.02634255e-003 1.01317128e-003 0. 0. 1.01317128e-003 0.
      1.01317128e-003 2.02634255e-003 1.01317128e-003 3.03951371e-003
      4.05268511e-003 2.02634255e-003 1.01317128e-003 1.01317128e-003 0.
      0. 1.01317128e-003 3.03951371e-003 1.01317128e-003 1.01317128e-003
      1.01317128e-003 1.01317128e-003 0. 1.01317128e-003 0. 0.
      2.02634255e-003 3.03951371e-003 1.01317128e-003 2.02634255e-003 0.
      3.03951371e-003 1.01317128e-003 1.01317128e-003 0. 4.05268511e-003
      1.01317128e-003 2.02634255e-003 1.01317128e-003 1.01317128e-003 0.
      0. 0. 1.01317128e-003 0. 0. 1.01317128e-003 3.03951371e-003 0.
      1.01317128e-003 0. 0. 1.01317128e-003 0. 0. 0. 4.05268511e-003 0.
      1.01317128e-003 1.01317128e-003 0. 1.01317128e-003 0.
      3.03951371e-003 0. 2.02634255e-003 0. 5.06585650e-003 0. 0.
      1.01317128e-003 2.02634255e-003 0. 0. 1.01317128e-003
      1.01317128e-003 1.01317128e-003 0. 2.02634255e-003 4.05268511e-003
      1.01317128e-003 0. 0. 0. 0. 1.01317128e-003 0. 0. 2.02634255e-003
      0. 1.01317128e-003 1.01317128e-003 1.01317128e-003 2.02634255e-003
      0. 0. 0. 0. 0. 0. 5.06585650e-003 1.01317128e-003 0.
      2.02634255e-003 0. 0. 0. 0. 0. 0. 0. 1.01317128e-003
      1.01317128e-003 2.02634255e-003 1.01317128e-003 0. 0.
      2.02634255e-003 0. 1.01317128e-003 1.01317128e-003 2.02634255e-003
      0. 0. 3.03951371e-003 1.01317128e-003 1.01317128e-003 0. 0. 0. 0.
      1.01317128e-003 3.03951371e-003 2.02634255e-003 1.01317128e-003
      1.01317128e-003 0. 1.01317128e-003 3.03951371e-003 0.
      1.01317128e-003 0. 1.01317128e-003 0. 1.01317128e-003 0. 0.
      1.01317128e-003 2.02634255e-003 2.02634255e-003 1.01317128e-003
      1.01317128e-003 1.01317128e-003 1.01317128e-003 2.02634255e-003 0.
      0. 1.01317128e-003 0. 2.02634255e-003 1.01317128e-003
      2.02634255e-003 4.05268511e-003 2.02634255e-003 2.02634255e-003
      1.01317128e-003 1.01317128e-003 0. 2.02634255e-003 0.
      2.02634255e-003 1.01317128e-003 0. 3.03951371e-003 0.
      2.02634255e-003 1.01317128e-003 0. 2.02634255e-003 1.01317128e-003
      2.02634255e-003 0. 1.01317128e-003 0. 1.01317128e-003 0.
      2.02634255e-003 5.06585650e-003 1.01317128e-003 1.01317128e-003
      1.01317128e-003 0. 1.01317128e-003 1.01317128e-003 3.03951371e-003
      2.02634255e-003 2.02634255e-003 1.01317128e-003 1.01317128e-003 0.
      1.01317128e-003 0. 0. 0. 0. 1.01317128e-003 2.02634255e-003 0. 0.
      0. 2.02634255e-003 0. 1.01317128e-003 0. 0. 2.02634255e-003 0.
      1.01317128e-003 1.01317128e-003 2.02634255e-003 1.01317128e-003
      1.01317128e-003 2.02634255e-003 0. 2.02634255e-003 0. 0. 0.
      1.01317128e-003 0. 0. 1.01317128e-003 2.02634255e-003
      2.02634255e-003 0. 1.01317128e-003 0. 1.01317128e-003
      2.02634255e-003 3.03951371e-003 3.03951371e-003 0. 2.02634255e-003
      0. 0. 2.02634255e-003 1.01317128e-003 1.01317128e-003
      2.02634255e-003 0. 0. 0. 2.02634255e-003 0. 2.02634255e-003
      1.01317128e-003 1.01317128e-003 0. 0. 0. 0. 0. 0. 0. 0.
      1.01317128e-003 2.02634255e-003 4.05268511e-003 0. 0.
      1.01317128e-003 2.02634255e-003 0. 2.02634255e-003 2.02634255e-003
      0. 0. 3.03951371e-003 2.02634255e-003 2.02634255e-003 0. 0. 0. 0.
      3.03951371e-003 2.02634255e-003 2.02634255e-003 0. 1.01317128e-003
      1.01317128e-003 1.01317128e-003 0. 0. 1.01317128e-003
      1.01317128e-003 2.02634255e-003 1.01317128e-003 0. 1.01317128e-003
      1.01317128e-003 1.01317128e-003 0. 1.01317128e-003 2.02634255e-003
      1.01317128e-003 1.01317128e-003 0. 1.01317128e-003 0. 0.
      1.01317128e-003 3.03951371e-003 0. 1.01317128e-003 2.02634255e-003
      0. 0. 2.02634255e-003 0. 1.01317128e-003 1.01317128e-003
      1.01317128e-003 0. 0. 1.01317128e-003 0. 1.01317128e-003
      2.02634255e-003 3.03951371e-003 0. 1.01317128e-003 5.06585650e-003
      9.11854114e-003 0. 0. 0. 2.02634255e-003 1.01317128e-003 0.
      3.03951371e-003 0. 1.01317128e-003 2.02634255e-003 1.01317128e-003
      1.01317128e-003 0. 4.05268511e-003 0. 0. 3.03951371e-003 0.
      1.01317128e-003 0. 0. 2.02634255e-003 1.01317128e-003 0. 0.
      1.01317128e-003 0. 1.01317128e-003 2.02634255e-003 0. 0. 0.
      1.01317128e-003 1.01317128e-003 0. 1.01317128e-003 0. 0. 0. 0. 0.
      2.02634255e-003 3.03951371e-003 0. 1.01317128e-003 0.
      1.01317128e-003 0. 1.01317128e-003 3.03951371e-003 0. 0. 0. 0. 0.
      0. 0. 1.01317128e-003 0. 1.01317128e-003 0. 1.01317128e-003
      2.02634255e-003 1.01317128e-003 1.01317128e-003 0. 1.01317128e-003
      1.01317128e-003 0. 3.03951371e-003 1.01317128e-003 0.
      1.01317128e-003 0. 2.02634255e-003 2.02634255e-003 2.02634255e-003
      0. 1.01317128e-003 1.01317128e-003 0. 1.01317128e-003
      2.02634255e-003 1.01317128e-003 0. 3.03951371e-003 2.02634255e-003
      0. 2.02634255e-003 0. 1.01317128e-003 0. 2.02634255e-003
      2.02634255e-003 3.03951371e-003 3.03951371e-003 2.02634255e-003
      1.01317128e-003 2.02634255e-003 2.02634255e-003 1.01317128e-003
      3.03951371e-003 2.02634255e-003 1.01317128e-003 1.01317128e-003 0.
      0. 1.01317128e-003 1.01317128e-003 0. 0. 0. 4.05268511e-003
      1.01317128e-003 8.10537022e-003 0. 2.02634255e-003 0.
      2.02634255e-003 0. 0. 1.01317128e-003 0. 0. 0. 1.01317128e-003 0.
      0. 0. 4.05268511e-003 4.05268511e-003 2.02634255e-003
      2.02634255e-003 2.02634255e-003 0. 3.03951371e-003 2.02634255e-003
      0. 2.02634255e-003 0. 1.01317128e-003 1.01317128e-003 0.
      1.01317128e-003 2.02634255e-003 1.01317128e-003 3.03951371e-003 0.
      0. 1.01317128e-003 0. 1.01317128e-003 0. 4.05268511e-003 0. 0.
      1.01317128e-003 2.02634255e-003 1.01317128e-003 0. 1.01317128e-003
      0. 0. 0. 2.02634255e-003 2.02634255e-003 1.01317128e-003
      1.01317128e-003 2.02634255e-003 3.03951371e-003 2.02634255e-003
      4.05268511e-003 0. 0. 1.01317128e-003 1.01317128e-003
      1.01317128e-003 0. 0. 1.01317128e-003 0. 2.02634255e-003 0. 0. 0.
      3.03951371e-003 0. 1.01317128e-003 5.06585650e-003 0.
      1.01317128e-003 0. 5.06585650e-003 1.01317128e-003 0.
      1.01317128e-003 2.02634255e-003 5.06585650e-003 2.02634255e-003
      1.01317128e-003 0. 1.01317128e-003 0. 0. 0. 0. 1.01317128e-003
      1.01317128e-003 2.02634255e-003 3.03951371e-003 6.07902743e-003
      2.02634255e-003 1.01317128e-003 0. 1.01317128e-003 0. 0. 0.
      1.01317128e-003 2.02634255e-003 0. 0. 1.01317128e-003
      1.01317128e-003 0. 1.01317128e-003 4.05268511e-003 0. 0. 0.
      1.01317128e-003 0. 2.02634255e-003</_>
    <_>
      0. 0. 0. 0. 9.68992244e-004 9.68992244e-004 0. 0. 0.
      1.93798449e-003 1.93798449e-003 1.93798449e-003 0. 9.68992244e-004
      9.68992244e-004 2.90697673e-003 0. 9.68992244e-004 0.
      1.93798449e-003 2.90697673e-003 0. 9.68992244e-004 9.68992244e-004
      0. 4.84496122e-003 0. 0. 9.68992244e-004 0. 1.93798449e-003 0. 0.
      9.68992244e-004 1.93798449e-003 0. 9.68992244e-004 0. 0.
      1.93798449e-003 1.93798449e-003 9.68992244e-004 9.68992244e-004
      8.72093067e-003 1.93798449e-003 9.68992244e-004 0. 9.68992244e-004
      0. 1.93798449e-003 0. 0. 9.68992244e-004 0. 9.68992244e-004
      2.90697673e-003 0. 0. 1.93798449e-003 2.13178284e-002 0.
      1.93798449e-003 0. 0. 6.78294571e-003 9.68992244e-004 0. 0.
      9.68992244e-004 9.68992244e-004 0. 0. 9.68992244e-004
      1.93798449e-003 9.68992244e-004 1.93798449e-003 0. 1.93798449e-003
      0. 0. 9.68992244e-004 1.93798449e-003 0. 9.68992244e-004 0.
      1.93798449e-003 9.68992244e-004 9.68992244e-004 1.93798449e-003
      1.93798449e-003 5.81395347e-003 9.68992244e-004 2.90697673e-003
      9.68992244e-004 0. 0. 9.68992244e-004 9.68992244e-004
      9.68992244e-004 9.68992244e-004 9.68992244e-004 9.68992244e-004
      9.68992244e-004 9.68992244e-004 9.68992244e-004 9.68992244e-004 0.
      0. 9.68992244e-004 2.90697673e-003 0. 0. 9.68992244e-004 0.
      1.93798449e-003 0. 9.68992244e-004 0. 6.78294571e-003
      2.90697673e-003 0. 1.93798449e-003 1.93798449e-003 1.93798449e-003
      0. 0. 0. 0. 0. 9.68992244e-004 9.68992244e-004 1.93798449e-003
      1.93798449e-003 2.90697673e-003 9.68992244e-004 0. 0. 0.
      9.68992244e-004 0. 9.68992244e-004 0. 0. 0. 2.90697673e-003
      9.68992244e-004 2.90697673e-003 0. 3.87596898e-003 9.68992244e-004
      0. 9.68992244e-004 0. 0. 0. 1.93798449e-003 2.90697673e-003 0.
      1.93798449e-003 9.68992244e-004 0. 9.68992244e-004 3.87596898e-003
      0. 9.68992244e-004 0. 9.68992244e-004 0. 9.68992244e-004
      9.68992244e-004 9.68992244e-004 9.68992244e-004 1.93798449e-003
      9.68992244e-004 9.68992244e-004 9.68992244e-004 9.68992244e-004 0.
      1.93798449e-003 1.93798449e-003 1.93798449e-003 9.68992244e-004 0.
      0. 0. 9.68992244e-004 9.68992244e-004 9.68992244e-004 0. 0. 0. 0.
      1.93798449e-003 0. 0. 2.90697673e-003 1.93798449e-003 0. 0.
      9.68992244e-004 2.90697673e-003 0. 9.68992244e-004 1.93798449e-003
      0. 9.68992244e-004 9.68992244e-004 9.68992244e-004 1.93798449e-003
      0. 0. 0. 2.90697673e-003 9.68992244e-004 2.90697673e-003 0.
      9.68992244e-004 9.68992244e-004 0. 2.90697673e-003 1.93798449e-003
      0. 9.68992244e-004 0. 1.93798449e-003 1.93798449e-003 0.
      2.90697673e-003 9.68992244e-004 5.81395347e-003 0. 9.68992244e-004
      9.68992244e-004 0. 2.90697673e-003 0. 0. 9.68992244e-004 0.
      1.93798449e-003 1.93798449e-003 0. 3.87596898e-003 9.68992244e-004
      3.87596898e-003 0. 0. 9.68992244e-004 0. 2.90697673e-003
      1.93798449e-003 1.93798449e-003 0. 0. 9.68992244e-004
      9.68992244e-004 0. 0. 9.68992244e-004 1.93798449e-003
      1.93798449e-003 0. 0. 9.68992244e-004 0. 1.93798449e-003 0. 0. 0.
      1.93798449e-003 0. 9.68992244e-004 9.68992244e-004 9.68992244e-004
      1.93798449e-003 0. 1.93798449e-003 9.68992244e-004 0. 0.
      9.68992244e-004 0. 0. 0. 0. 0. 1.93798449e-003 0. 0.
      9.68992244e-004 0. 0. 9.68992244e-004 0. 0. 0. 3.87596898e-003 0.
      0. 9.68992244e-004 9.68992244e-004 9.68992244e-004 0. 0.
      9.68992244e-004 9.68992244e-004 0. 1.93798449e-003 5.81395347e-003
      0. 1.93798449e-003 1.93798449e-003 0. 0. 0. 9.68992244e-004
      2.90697673e-003 1.93798449e-003 9.68992244e-004 1.93798449e-003 0.
      0. 0. 0. 1.93798449e-003 9.68992244e-004 1.93798449e-003 0.
      9.68992244e-004 9.68992244e-004 9.68992244e-004 1.93798449e-003
      9.68992244e-004 0. 0. 0. 9.68992244e-004 0. 0. 9.68992244e-004 0.
      1.93798449e-003 0. 0. 0. 1.93798449e-003 1.93798449e-003
      4.84496122e-003 1.93798449e-003 1.93798449e-003 1.93798449e-003
      9.68992244e-004 0. 9.68992244e-004 0. 1.93798449e-003 0. 0.
      1.93798449e-003 0. 9.68992244e-004 9.68992244e-004 2.90697673e-003
      0. 0. 1.93798449e-003 1.93798449e-003 0. 0. 9.68992244e-004 0. 0.
      9.68992244e-004 0. 0. 0. 1.93798449e-003 9.68992244e-004
      9.68992244e-004 0. 9.68992244e-004 0. 0. 1.93798449e-003
      1.93798449e-003 0. 1.93798449e-003 9.68992244e-004 9.68992244e-004
      9.68992244e-004 9.68992244e-004 9.68992244e-004 2.90697673e-003
      9.68992244e-004 9.68992244e-004 0. 1.93798449e-003 0.
      9.68992244e-004 9.68992244e-004 0. 1.93798449e-003 0.
      2.90697673e-003 0. 0. 9.68992244e-004 9.68992244e-004
      9.68992244e-004 0. 9.68992244e-004 0. 9.68992244e-004
      1.93798449e-003 1.93798449e-003 9.68992244e-004 0. 0. 0. 0.
      2.90697673e-003 0. 9.68992244e-004 9.68992244e-004 1.93798449e-003
      1.93798449e-003 1.93798449e-003 0. 2.90697673e-003 9.68992244e-004
      2.90697673e-003 9.68992244e-004 0. 9.68992244e-004 1.93798449e-003
      9.68992244e-004 9.68992244e-004 1.93798449e-003 0. 2.90697673e-003
      0. 0. 4.84496122e-003 1.93798449e-003 9.68992244e-004
      1.93798449e-003 9.68992244e-004 0. 1.93798449e-003 2.90697673e-003
      9.68992244e-004 0. 0. 9.68992244e-004 9.68992244e-004
      3.87596898e-003 1.93798449e-003 9.68992244e-004 9.68992244e-004 0.
      0. 1.93798449e-003 9.68992244e-004 9.68992244e-004 0.
      9.68992244e-004 0. 4.84496122e-003 0. 1.93798449e-003 0.
      1.93798449e-003 0. 1.93798449e-003 9.68992244e-004 0.
      9.68992244e-004 0. 3.87596898e-003 0. 9.68992244e-004
      9.68992244e-004 3.87596898e-003 1.93798449e-003 2.90697673e-003 0.
      1.93798449e-003 0. 9.68992244e-004 0. 0. 2.90697673e-003 0. 0.
      1.93798449e-003 0. 9.68992244e-004 0. 9.68992244e-004
      9.68992244e-004 9.68992244e-004 0. 0. 9.68992244e-004 0. 0. 0.
      9.68992244e-004 2.90697673e-003 1.93798449e-003 3.87596898e-003
      9.68992244e-004 1.93798449e-003 2.90697673e-003 9.68992244e-004 0.
      0. 0. 9.68992244e-004 9.68992244e-004 9.68992244e-004
      1.93798449e-003 1.93798449e-003 0. 0. 0. 1.93798449e-003
      9.68992244e-004 9.68992244e-004 0. 0. 0. 6.78294571e-003 0. 0. 0.
      0. 0. 1.93798449e-003 9.68992244e-004 0. 0. 1.93798449e-003 0.
      2.90697673e-003 1.93798449e-003 2.90697673e-003 1.93798449e-003 0.
      1.93798449e-003 0. 0. 9.68992244e-004 0. 0. 1.93798449e-003 0.
      9.68992244e-004 1.93798449e-003 0. 9.68992244e-004 1.93798449e-003
      9.68992244e-004 1.93798449e-003 0. 0. 9.68992244e-004
      9.68992244e-004 9.68992244e-004 1.93798449e-003 2.90697673e-003
      1.93798449e-003 1.93798449e-003 9.68992244e-004 9.68992244e-004 0.
      0. 0. 0. 9.68992244e-004 9.68992244e-004 9.68992244e-004
      9.68992244e-004 1.93798449e-003 0. 9.68992244e-004 1.93798449e-003
      0. 2.90697673e-003 0. 9.68992244e-004 0. 0. 0. 1.93798449e-003 0.
      1.93798449e-003 0. 9.68992244e-004 0. 0. 0. 1.93798449e-003
      9.68992244e-004 1.93798449e-003 1.93798449e-003 0. 0.
      1.93798449e-003 0. 0. 0. 0. 2.90697673e-003 0. 0. 0. 0. 0.
      9.68992244e-004 0. 0. 3.87596898e-003 0. 5.81395347e-003
      9.68992244e-004 1.93798449e-003 9.68992244e-004 0. 5.81395347e-003
      1.93798449e-003 1.93798449e-003 1.93798449e-003 0. 0. 0. 0. 0. 0.
      0. 1.93798449e-003 9.68992244e-004 4.84496122e-003 1.93798449e-003
      0. 9.68992244e-004 1.93798449e-003 9.68992244e-004 0.
      1.93798449e-003 9.68992244e-004 0. 0. 0. 2.90697673e-003 0.
      9.68992244e-004 0. 0. 9.68992244e-004 9.68992244e-004
      9.68992244e-004 0. 0. 0. 1.93798449e-003 9.68992244e-004
      1.93798449e-003 0. 0. 4.84496122e-003 9.68992244e-004 0. 0.
      9.68992244e-004 1.93798449e-003 4.84496122e-003 0. 9.68992244e-004
      0. 0. 0. 2.90697673e-003 9.68992244e-004 2.90697673e-003 0. 0.
      9.68992244e-004 1.93798449e-003 0. 0. 0. 0. 9.68992244e-004 0. 0.
      1.93798449e-003 2.90697673e-003 0. 0. 0. 0. 0. 9.68992244e-004
      1.93798449e-003 0. 9.68992244e-004 9.68992244e-004 9.68992244e-004
      1.93798449e-003 0. 1.93798449e-003 2.90697673e-003 9.68992244e-004
      1.93798449e-003 0. 9.68992244e-004 9.68992244e-004 2.90697673e-003
      0. 1.93798449e-003 9.68992244e-004 9.68992244e-004 9.68992244e-004
      0. 6.78294571e-003 0. 9.68992244e-004 0. 2.90697673e-003 0. 0.
      9.68992244e-004 1.93798449e-003 1.93798449e-003 9.68992244e-004
      1.93798449e-003 2.90697673e-003 9.68992244e-004 0. 9.68992244e-004
      0. 0. 0. 9.68992244e-004 9.68992244e-004 9.68992244e-004
      9.68992244e-004 9.68992244e-004 9.68992244e-004 1.93798449e-003 0.
      0. 1.93798449e-003 0. 2.90697673e-003 9.68992244e-004
      9.68992244e-004 9.68992244e-004 9.68992244e-004 9.68992244e-004
      9.68992244e-004 9.68992244e-004 0. 0. 1.93798449e-003 0. 0.
      9.68992244e-004 1.93798449e-003 2.90697673e-003 0. 0.
      9.68992244e-004 0. 9.68992244e-004 0. 0. 2.90697673e-003
      9.68992244e-004 9.68992244e-004 9.68992244e-004 1.93798449e-003
      6.78294571e-003 1.93798449e-003 0. 9.68992244e-004 0.
      9.68992244e-004 2.90697673e-003 1.93798449e-003 9.68992244e-004 0.
      0. 0. 0. 9.68992244e-004 0. 9.68992244e-004 9.68992244e-004 0.
      1.93798449e-003 0. 0. 0. 9.68992244e-004 9.68992244e-004
      3.87596898e-003 0. 7.75193796e-003 0. 9.68992244e-004
      2.90697673e-003 9.68992244e-004 1.93798449e-003 0. 0. 0. 0.
      1.93798449e-003 9.68992244e-004 9.68992244e-004 0. 9.68992244e-004
      0. 2.90697673e-003 0. 0. 4.84496122e-003 9.68992244e-004
      9.68992244e-004 0. 1.93798449e-003 0. 9.68992244e-004 0.
      3.87596898e-003 2.90697673e-003 0. 9.68992244e-004 0.
      9.68992244e-004 9.68992244e-004 0. 0. 0. 9.68992244e-004
      9.68992244e-004 1.93798449e-003 0. 0. 9.68992244e-004 0.
      9.68992244e-004 0. 9.68992244e-004 1.93798449e-003 1.93798449e-003
      9.68992244e-004 9.68992244e-004 0. 9.68992244e-004 0.
      1.93798449e-003 9.68992244e-004 0. 1.93798449e-003 2.90697673e-003
      9.68992244e-004 2.90697673e-003 2.90697673e-003 9.68992244e-004
      9.68992244e-004 9.68992244e-004 0. 1.93798449e-003 0. 0.
      9.68992244e-004 1.93798449e-003 9.68992244e-004 2.90697673e-003 0.
      9.68992244e-004 0. 1.93798449e-003 0. 0. 0. 0. 9.68992244e-004 0.
      1.93798449e-003 0. 9.68992244e-004 9.68992244e-004 0.
      9.68992244e-004 0. 9.68992244e-004 9.68992244e-004 9.68992244e-004
      0. 9.68992244e-004 0. 1.93798449e-003 0. 2.90697673e-003 0. 0.
      9.68992244e-004 0. 0. 9.68992244e-004 2.90697673e-003
      9.68992244e-004 0. 0. 9.68992244e-004 9.68992244e-004
      2.90697673e-003 9.68992244e-004 1.93798449e-003 1.93798449e-003
      9.68992244e-004 9.68992244e-004 9.68992244e-004 0. 9.68992244e-004
      1.93798449e-003 0. 0. 0. 0. 2.90697673e-003 0. 9.68992244e-004 0.
      0. 0. 0. 0. 1.93798449e-003 0. 9.68992244e-004 0. 9.68992244e-004
      0. 2.90697673e-003 0. 0. 2.90697673e-003 0. 1.93798449e-003
      9.68992244e-004 9.68992244e-004 1.93798449e-003 9.68992244e-004
      9.68992244e-004 9.68992244e-004 9.68992244e-004 9.68992244e-004
      9.68992244e-004 1.93798449e-003 0. 0. 1.93798449e-003
      9.68992244e-004 9.68992244e-004 9.68992244e-004 0. 0.
      9.68992244e-004 0. 1.93798449e-003 0. 0. 0. 9.68992244e-004 0. 0.
      9.68992244e-004 0. 0. 0. 3.87596898e-003 0. 3.87596898e-003
      9.68992244e-004 1.93798449e-003 0. 2.90697673e-003 0.
      2.90697673e-003 0. 0. 0. 0. 9.68992244e-004 1.93798449e-003</_>
    <_>
      1.03305781e-003 0. 2.06611562e-003 1.03305781e-003 0. 0.
      1.03305781e-003 0. 0. 3.09917331e-003 1.03305781e-003 0. 0. 0. 0.
      2.06611562e-003 0. 0. 1.03305781e-003 1.03305781e-003 0. 0.
      1.03305781e-003 1.03305781e-003 1.03305781e-003 0. 8.26446246e-003
      2.06611562e-003 1.03305781e-003 1.03305781e-003 1.03305781e-003
      3.09917331e-003 0. 0. 1.03305781e-003 2.06611562e-003
      1.03305781e-003 3.09917331e-003 0. 0. 1.03305781e-003
      2.06611562e-003 0. 0. 1.03305781e-003 0. 1.03305781e-003
      1.03305781e-003 0. 0. 1.03305781e-003 1.03305781e-003 0. 0.
      2.06611562e-003 3.09917331e-003 1.03305781e-003 1.03305781e-003
      3.09917331e-003 3.09917331e-003 0. 1.03305781e-003 0.
      2.06611562e-003 5.16528916e-003 1.03305781e-003 0. 0.
      1.03305781e-003 1.03305781e-003 2.06611562e-003 2.06611562e-003 0.
      0. 0. 0. 1.03305781e-003 1.03305781e-003 0. 1.03305781e-003
      1.03305781e-003 1.03305781e-003 1.03305781e-003 1.03305781e-003
      3.09917331e-003 0. 0. 3.09917331e-003 1.03305781e-003
      3.09917331e-003 0. 1.03305781e-003 2.06611562e-003 1.03305781e-003
      1.03305781e-003 0. 0. 0. 1.03305781e-003 0. 0. 0. 4.13223123e-003
      1.03305781e-003 2.06611562e-003 2.06611562e-003 1.03305781e-003
      1.03305781e-003 0. 0. 1.03305781e-003 1.03305781e-003
      1.03305781e-003 0. 1.03305781e-003 1.03305781e-003 0. 0.
      2.06611562e-003 3.09917331e-003 3.09917331e-003 1.03305781e-003
      1.03305781e-003 1.03305781e-003 3.09917331e-003 2.06611562e-003
      3.09917331e-003 1.03305781e-003 1.03305781e-003 0. 1.03305781e-003
      2.06611562e-003 1.03305781e-003 0. 0. 1.03305781e-003
      1.03305781e-003 0. 1.03305781e-003 1.03305781e-003 0.
      1.03305781e-003 1.03305781e-003 1.03305781e-003 1.03305781e-003
      2.06611562e-003 0. 0. 0. 1.03305781e-003 1.03305781e-003 0.
      1.03305781e-003 2.06611562e-003 3.09917331e-003 0. 1.03305781e-003
      0. 0. 4.13223123e-003 1.03305781e-003 0. 0. 0. 0. 1.03305781e-003
      1.03305781e-003 0. 1.03305781e-003 0. 0. 1.03305781e-003
      2.06611562e-003 1.03305781e-003 0. 4.13223123e-003 1.03305781e-003
      0. 0. 0. 0. 2.06611562e-003 0. 1.03305781e-003 0. 1.03305781e-003
      1.03305781e-003 0. 0. 0. 1.03305781e-003 1.03305781e-003
      2.06611562e-003 0. 1.03305781e-003 1.03305781e-003 0.
      1.03305781e-003 1.03305781e-003 2.06611562e-003 1.03305781e-003 0.
      2.06611562e-003 0. 1.03305781e-003 0. 0. 0. 0. 0. 0.
      1.03305781e-003 0. 1.03305781e-003 0. 1.03305781e-003 0.
      2.06611562e-003 0. 0. 1.03305781e-003 1.03305781e-003
      2.06611562e-003 0. 0. 1.03305781e-003 0. 1.03305781e-003
      1.03305781e-003 3.09917331e-003 0. 0. 1.03305781e-003 0. 0.
      2.06611562e-003 0. 1.03305781e-003 1.03305781e-003 0.
      3.09917331e-003 2.06611562e-003 1.03305781e-003 1.03305781e-003
      2.06611562e-003 0. 3.09917331e-003 1.03305781e-003 2.06611562e-003
      1.03305781e-003 2.06611562e-003 1.03305781e-003 1.03305781e-003 0.
      0. 1.03305781e-003 0. 0. 0. 3.09917331e-003 0. 2.06611562e-003
      1.03305781e-003 0. 1.03305781e-003 1.03305781e-003 0. 0.
      2.06611562e-003 1.03305781e-003 2.06611562e-003 1.03305781e-003
      1.03305781e-003 1.03305781e-003 1.03305781e-003 1.03305781e-003
      1.03305781e-003 1.03305781e-003 1.03305781e-003 1.03305781e-003 0.
      1.03305781e-003 4.13223123e-003 1.03305781e-003 0. 1.03305781e-003
      1.03305781e-003 0. 0. 1.03305781e-003 5.16528916e-003 0. 0.
      1.03305781e-003 0. 0. 2.06611562e-003 0. 0. 2.06611562e-003 0.
      1.03305781e-003 1.03305781e-003 1.03305781e-003 4.13223123e-003
      1.03305781e-003 0. 0. 2.06611562e-003 3.09917331e-003
      1.03305781e-003 1.03305781e-003 1.03305781e-003 0. 4.13223123e-003
      0. 1.03305781e-003 1.03305781e-003 2.06611562e-003 3.09917331e-003
      0. 1.03305781e-003 0. 1.03305781e-003 0. 0. 1.03305781e-003 0. 0.
      1.03305781e-003 0. 2.06611562e-003 0. 0. 0. 1.03305781e-003
      1.03305781e-003 0. 1.03305781e-003 0. 1.03305781e-003 0. 0. 0. 0.
      2.06611562e-003 3.09917331e-003 4.13223123e-003 0. 0.
      1.03305781e-003 1.03305781e-003 0. 0. 1.03305781e-003
      1.03305781e-003 2.06611562e-003 0. 0. 1.03305781e-003 0.
      4.13223123e-003 1.03305781e-003 3.09917331e-003 0. 1.03305781e-003
      1.03305781e-003 0. 1.03305781e-003 1.03305781e-003 0.
      4.13223123e-003 0. 2.06611562e-003 1.03305781e-003 0.
      1.03305781e-003 2.06611562e-003 1.03305781e-003 1.03305781e-003 0.
      1.03305781e-003 0. 0. 2.06611562e-003 1.03305781e-003
      1.03305781e-003 0. 3.09917331e-003 0. 1.03305781e-003
      1.03305781e-003 0. 4.13223123e-003 1.03305781e-003 0.
      1.03305781e-003 0. 0. 0. 2.06611562e-003 0. 0. 1.03305781e-003 0.
      0. 0. 0. 0. 0. 3.09917331e-003 1.03305781e-003 1.03305781e-003
      2.06611562e-003 1.03305781e-003 3.09917331e-003 0. 1.03305781e-003
      1.03305781e-003 0. 0. 2.06611562e-003 2.06611562e-003
      4.13223123e-003 0. 1.03305781e-003 0. 1.03305781e-003
      1.03305781e-003 0. 2.06611562e-003 1.03305781e-003 2.06611562e-003
      0. 2.06611562e-003 2.06611562e-003 0. 2.06611562e-003
      1.03305781e-003 0. 2.06611562e-003 1.03305781e-003 3.09917331e-003
      0. 2.06611562e-003 0. 3.09917331e-003 1.03305781e-003 0.
      1.03305781e-003 1.03305781e-003 1.03305781e-003 2.06611562e-003 0.
      0. 3.09917331e-003 2.06611562e-003 1.03305781e-003 2.06611562e-003
      1.03305781e-003 3.09917331e-003 0. 0. 0. 0. 2.06611562e-003 0.
      1.03305781e-003 0. 1.03305781e-003 0. 2.06611562e-003 0.
      3.09917331e-003 0. 0. 0. 0. 1.03305781e-003 0. 1.03305781e-003
      1.03305781e-003 4.13223123e-003 3.09917331e-003 0. 1.03305781e-003
      0. 0. 3.09917331e-003 1.03305781e-003 0. 0. 1.03305781e-003 0. 0.
      1.03305781e-003 2.06611562e-003 1.03305781e-003 0. 1.03305781e-003
      0. 0. 0. 5.16528916e-003 1.03305781e-003 2.06611562e-003
      2.06611562e-003 2.06611562e-003 0. 0. 0. 0. 3.09917331e-003
      5.16528916e-003 1.03305781e-003 0. 0. 2.06611562e-003 0.
      1.03305781e-003 0. 1.03305781e-003 2.06611562e-003 1.03305781e-003
      0. 0. 0. 0. 0. 0. 1.03305781e-003 0. 3.09917331e-003
      3.09917331e-003 0. 0. 1.03305781e-003 0. 2.06611562e-003 0. 0. 0.
      4.13223123e-003 0. 1.03305781e-003 2.06611562e-003 0.
      1.03305781e-003 0. 2.06611562e-003 0. 1.03305781e-003 0.
      1.03305781e-003 5.16528916e-003 1.03305781e-003 3.09917331e-003
      1.03305781e-003 0. 0. 0. 3.09917331e-003 0. 0. 0. 2.06611562e-003
      1.03305781e-003 2.06611562e-003 3.09917331e-003 0. 1.03305781e-003
      0. 0. 1.03305781e-003 0. 2.06611562e-003 0. 3.09917331e-003 0. 0.
      1.03305781e-003 0. 1.03305781e-003 1.03305781e-003 0.
      1.03305781e-003 1.03305781e-003 1.03305781e-003 1.03305781e-003 0.
      0. 0. 0. 1.03305781e-003 0. 1.03305781e-003 0. 1.03305781e-003
      1.03305781e-003 0. 1.03305781e-003 0. 1.03305781e-003 0. 0.
      4.13223123e-003 2.06611562e-003 2.06611562e-003 0. 0.
      2.06611562e-003 2.06611562e-003 3.09917331e-003 4.13223123e-003
      1.03305781e-003 0. 0. 0. 0. 0. 2.06611562e-003 5.16528916e-003
      2.06611562e-003 2.06611562e-003 4.13223123e-003 4.13223123e-003 0.
      1.03305781e-003 0. 0. 0. 0. 1.03305781e-003 6.19834661e-003
      2.06611562e-003 3.09917331e-003 1.03305781e-003 0. 0. 0. 0.
      3.09917331e-003 0. 0. 1.03305781e-003 0. 0. 1.03305781e-003 0.
      1.03305781e-003 2.06611562e-003 0. 0. 0. 0. 0. 0. 1.03305781e-003
      6.19834661e-003 2.06611562e-003 0. 2.06611562e-003 1.03305781e-003
      3.09917331e-003 0. 9.29751992e-003 1.03305781e-003 4.13223123e-003
      1.03305781e-003 0. 0. 1.03305781e-003 2.06611562e-003
      1.03305781e-003 1.03305781e-003 1.03305781e-003 2.06611562e-003 0.
      0. 0. 0. 0. 1.03305781e-003 1.03305781e-003 3.09917331e-003 0.
      2.06611562e-003 1.03305781e-003 2.06611562e-003 1.03305781e-003
      1.03305781e-003 1.03305781e-003 0. 0. 1.03305781e-003
      1.03305781e-003 0. 0. 0. 1.03305781e-003 2.06611562e-003 0. 0.
      2.06611562e-003 1.03305781e-003 0. 0. 1.03305781e-003
      1.03305781e-003 3.09917331e-003 0. 0. 2.06611562e-003
      1.03305781e-003 0. 0. 0. 0. 3.09917331e-003 0. 1.03305781e-003
      8.26446246e-003 1.03305781e-003 1.03305781e-003 1.03305781e-003
      2.06611562e-003 1.03305781e-003 0. 1.03305781e-003 2.06611562e-003
      0. 1.03305781e-003 1.03305781e-003 1.03305781e-003 0. 0.
      1.03305781e-003 1.03305781e-003 1.03305781e-003 0. 0. 0.
      1.03305781e-003 4.13223123e-003 0. 0. 1.03305781e-003
      1.03305781e-003 1.03305781e-003 0. 1.03305781e-003 1.03305781e-003
      1.03305781e-003 0. 0. 1.03305781e-003 1.03305781e-003
      1.03305781e-003 1.03305781e-003 1.03305781e-003 0. 5.16528916e-003
      2.06611562e-003 0. 2.06611562e-003 1.03305781e-003 6.19834661e-003
      0. 0. 1.03305781e-003 0. 0. 1.03305781e-003 1.03305781e-003
      2.06611562e-003 0. 1.03305781e-003 0. 5.16528916e-003 0. 0.
      3.09917331e-003 1.03305781e-003 2.06611562e-003 2.06611562e-003
      1.03305781e-003 1.03305781e-003 1.03305781e-003 2.06611562e-003 0.
      3.09917331e-003 3.09917331e-003 2.06611562e-003 3.09917331e-003
      1.03305781e-003 0. 1.03305781e-003 0. 0. 2.06611562e-003
      1.03305781e-003 0. 4.13223123e-003 2.06611562e-003 0.
      1.03305781e-003 0. 1.03305781e-003 1.03305781e-003 0.
      4.13223123e-003 0. 1.03305781e-003 1.03305781e-003 1.03305781e-003
      0. 1.03305781e-003 2.06611562e-003 1.03305781e-003 0. 0. 0. 0.
      3.09917331e-003 2.06611562e-003 0. 0. 2.06611562e-003 0. 0. 0.
      2.06611562e-003 1.03305781e-003 1.03305781e-003 0. 0. 0. 0. 0.
      2.06611562e-003 2.06611562e-003 1.03305781e-003 0. 0.
      1.03305781e-003 0. 1.03305781e-003 4.13223123e-003 1.03305781e-003
      0. 1.03305781e-003 0. 3.09917331e-003 1.03305781e-003 0.
      1.03305781e-003 0. 0. 0. 0. 0. 3.09917331e-003 1.03305781e-003 0.
      0. 0. 2.06611562e-003 6.19834661e-003 2.06611562e-003 0.
      1.03305781e-003 1.03305781e-003 0. 1.03305781e-003 1.03305781e-003
      0. 2.06611562e-003 0. 0. 2.06611562e-003 1.03305781e-003
      2.06611562e-003 1.03305781e-003 0. 0. 1.03305781e-003 0. 0. 0. 0.
      2.06611562e-003 1.03305781e-003 0. 1.03305781e-003 1.03305781e-003
      0. 0. 0. 0. 1.03305781e-003 0. 1.03305781e-003 1.03305781e-003
      1.03305781e-003 0. 0. 0. 0. 1.03305781e-003 1.03305781e-003 0.
      2.06611562e-003 6.19834661e-003 1.03305781e-003 0. 0. 0.
      2.06611562e-003 1.03305781e-003 0. 0. 3.09917331e-003
      1.03305781e-003 2.06611562e-003 2.06611562e-003 0. 0. 0.
      1.03305781e-003 2.06611562e-003 2.06611562e-003 1.03305781e-003 0.
      1.03305781e-003 2.06611562e-003 4.13223123e-003 0. 2.06611562e-003
      3.09917331e-003 1.03305781e-003 1.03305781e-003 2.06611562e-003
      6.19834661e-003 1.03305781e-003 0. 0. 0. 0. 1.03305781e-003
      4.13223123e-003 0. 1.03305781e-003 1.03305781e-003 0. 0. 0. 0.
      1.03305781e-003 0. 1.03305781e-003 0. 0. 0. 2.06611562e-003
      2.06611562e-003 1.03305781e-003 0. 1.03305781e-003 2.06611562e-003
      0. 2.06611562e-003 1.03305781e-003 1.03305781e-003 0. 0.
      1.03305781e-003 3.09917331e-003 0. 1.03305781e-003 0.
      1.03305781e-003 1.03305781e-003 0. 2.06611562e-003 1.03305781e-003
      1.03305781e-003 1.03305781e-003 0. 1.03305781e-003 2.06611562e-003
      0. 0. 0. 1.03305781e-003 1.03305781e-003 0. 3.09917331e-003
      4.13223123e-003 0. 2.06611562e-003</_>
    <_>
      6.29722897e-004 1.25944579e-003 2.51889159e-003 3.77833750e-003
      2.51889159e-003 6.29722897e-004 0. 6.29722897e-004 0. 0. 0.
      1.88916875e-003 0. 6.29722897e-004 0. 1.25944579e-003
      1.25944579e-003 6.29722897e-004 0. 0. 6.29722897e-004
      1.88916875e-003 0. 0. 6.29722897e-004 6.29722897e-004 0. 0.
      3.77833750e-003 0. 0. 6.29722897e-004 6.29722897e-004
      6.29722897e-004 1.25944579e-003 0. 6.29722897e-004 4.40806011e-003
      0. 2.51889159e-003 1.88916875e-003 6.29722897e-004 1.88916875e-003
      2.51889159e-003 6.29722897e-004 0. 6.29722897e-004 0.
      1.88916875e-003 1.25944579e-003 1.88916875e-003 1.88916875e-003
      6.29722897e-004 0. 6.29722897e-004 0. 3.77833750e-003
      6.29722897e-004 3.77833750e-003 0. 1.25944579e-003 1.88916875e-003
      6.29722897e-004 0. 3.77833750e-003 1.25944579e-003 6.29722897e-004
      6.29722897e-004 6.29722897e-004 1.25944579e-003 0. 6.29722897e-004
      1.25944579e-003 1.88916875e-003 1.88916875e-003 1.88916875e-003
      6.29722897e-004 1.25944579e-003 6.29722897e-004 6.29722897e-004
      6.29722897e-004 3.14861443e-003 1.25944579e-003 1.25944579e-003
      6.29722897e-004 0. 0. 1.88916875e-003 1.88916875e-003
      6.29722897e-004 1.25944579e-003 6.29722897e-004 3.77833750e-003
      1.25944579e-003 6.29722897e-004 1.88916875e-003 1.25944579e-003 0.
      6.29722897e-004 6.29722897e-004 6.29722897e-004 1.25944579e-003 0.
      1.25944579e-003 6.29722897e-004 0. 1.25944579e-003 0.
      1.25944579e-003 1.25944579e-003 1.88916875e-003 6.29722897e-004 0.
      6.29722897e-004 1.25944579e-003 2.51889159e-003 6.29722897e-004
      6.29722897e-004 6.29722897e-004 6.29722897e-004 0. 1.25944579e-003
      2.51889159e-003 1.25944579e-003 2.51889159e-003 1.88916875e-003 0.
      6.29722897e-004 6.29722897e-004 6.29722897e-004 6.29722897e-004
      1.25944579e-003 6.29722897e-004 1.25944579e-003 1.25944579e-003 0.
      1.25944579e-003 1.25944579e-003 6.29722897e-004 1.25944579e-003 0.
      1.25944579e-003 6.29722897e-004 6.29722897e-004 1.88916875e-003
      6.29722897e-004 2.51889159e-003 0. 0. 0. 1.88916875e-003
      6.29722897e-004 6.29722897e-004 0. 6.29722897e-004 6.29722897e-004
      0. 0. 1.25944579e-003 1.25944579e-003 1.25944579e-003 0.
      1.88916875e-003 6.29722897e-004 1.88916875e-003 0. 6.29722897e-004
      0. 3.14861443e-003 0. 2.51889159e-003 6.29722897e-004 0.
      1.25944579e-003 1.25944579e-003 1.88916875e-003 0. 0.
      6.29722897e-004 1.25944579e-003 1.88916875e-003 1.88916875e-003
      1.25944579e-003 1.25944579e-003 0. 1.25944579e-003 6.29722897e-004
      1.25944579e-003 2.51889159e-003 6.29722897e-004 0. 6.29722897e-004
      1.25944579e-003 0. 2.51889159e-003 6.29722897e-004 6.29722897e-004
      1.25944579e-003 0. 1.25944579e-003 6.29722897e-004 1.88916875e-003
      6.29722897e-004 6.29722897e-004 1.88916875e-003 1.88916875e-003 0.
      0. 6.29722897e-004 0. 0. 3.14861443e-003 1.25944579e-003
      3.14861443e-003 0. 0. 1.88916875e-003 1.25944579e-003
      6.29722897e-004 0. 0. 6.29722897e-004 0. 2.51889159e-003
      6.29722897e-004 0. 1.88916875e-003 0. 0. 1.25944579e-003 0.
      1.88916875e-003 0. 6.29722897e-004 6.29722897e-004 0. 0.
      1.25944579e-003 6.29722897e-004 3.77833750e-003 6.29722897e-004
      3.14861443e-003 1.25944579e-003 0. 0. 0. 0. 1.25944579e-003
      6.29722897e-004 2.51889159e-003 6.29722897e-004 1.25944579e-003 0.
      3.14861443e-003 6.29722897e-004 3.77833750e-003 6.29722897e-004 0.
      6.29722897e-004 6.29722897e-004 6.29722897e-004 0. 0.
      3.14861443e-003 1.25944579e-003 1.88916875e-003 6.29722897e-004
      1.88916875e-003 0. 1.88916875e-003 0. 6.29722897e-004
      6.29722897e-004 6.29722897e-004 6.29722897e-004 0. 0.
      6.29722897e-004 6.29722897e-004 1.25944579e-003 1.25944579e-003 0.
      0. 6.29722897e-004 6.29722886e-003 0. 1.88916875e-003
      6.29722897e-004 0. 0. 1.88916875e-003 0. 1.25944579e-003 0.
      6.29722897e-004 1.25944579e-003 0. 2.51889159e-003 0. 0.
      6.29722897e-004 0. 0. 6.29722897e-004 1.25944579e-003 0.
      1.88916875e-003 0. 2.51889159e-003 2.51889159e-003 0.
      3.77833750e-003 0. 1.25944579e-003 1.88916875e-003 0.
      3.14861443e-003 1.25944579e-003 3.77833750e-003 6.29722897e-004
      2.51889159e-003 1.25944579e-003 1.25944579e-003 6.29722897e-004 0.
      3.14861443e-003 2.51889159e-003 0. 6.29722897e-004 2.51889159e-003
      1.88916875e-003 4.40806011e-003 6.29722897e-004 2.51889159e-003
      1.25944579e-003 6.29722897e-004 1.88916875e-003 1.25944579e-003
      6.29722897e-004 6.29722897e-004 6.29722897e-004 1.88916875e-003 0.
      0. 6.29722897e-004 6.29722897e-004 0. 6.29722897e-004
      6.29722897e-004 6.29722897e-004 2.51889159e-003 6.29722897e-004
      6.29722897e-004 1.88916875e-003 6.29722897e-004 0. 1.25944579e-003
      1.25944579e-003 2.51889159e-003 6.29722897e-004 6.29722897e-004
      6.29722897e-004 6.29722897e-004 6.29722897e-004 6.29722897e-004
      6.29722897e-004 6.29722897e-004 0. 1.25944579e-003 1.88916875e-003
      0. 1.25944579e-003 1.25944579e-003 0. 1.25944579e-003 0.
      1.88916875e-003 0. 0. 0. 6.29722897e-004 1.88916875e-003
      6.29722897e-004 6.29722897e-004 0. 6.29722897e-004 3.14861443e-003
      1.25944579e-003 6.29722897e-004 0. 3.77833750e-003 1.25944579e-003
      6.29722897e-004 0. 0. 2.51889159e-003 2.51889159e-003
      6.29722897e-004 1.25944579e-003 1.25944579e-003 1.25944579e-003
      6.29722897e-004 0. 2.51889159e-003 6.29722897e-004 6.29722897e-004
      0. 0. 1.25944579e-003 1.25944579e-003 6.29722897e-004
      6.29722897e-004 1.88916875e-003 6.29722897e-004 6.29722897e-004 0.
      0. 1.25944579e-003 0. 0. 6.29722897e-004 0. 3.14861443e-003 0.
      1.25944579e-003 0. 6.29722897e-004 0. 2.51889159e-003
      6.29722897e-004 0. 3.14861443e-003 6.29722897e-004 0. 0.
      3.77833750e-003 6.29722897e-004 0. 6.29722897e-004 1.88916875e-003
      1.88916875e-003 6.29722897e-004 1.88916875e-003 0. 4.40806011e-003
      6.29722897e-004 1.25944579e-003 0. 0. 1.25944579e-003
      6.29722897e-004 0. 1.25944579e-003 0. 1.25944579e-003
      1.88916875e-003 6.29722897e-004 0. 0. 3.77833750e-003
      2.51889159e-003 0. 1.25944579e-003 0. 1.25944579e-003 0.
      1.25944579e-003 1.25944579e-003 6.29722897e-004 1.25944579e-003
      6.29722897e-004 1.25944579e-003 6.29722897e-004 6.29722897e-004 0.
      1.25944579e-003 1.88916875e-003 6.29722897e-004 6.29722897e-004
      6.29722897e-004 6.29722897e-004 0. 6.29722897e-004 0. 0. 0.
      6.29722897e-004 6.29722897e-004 3.77833750e-003 1.25944579e-003
      2.51889159e-003 6.29722897e-004 6.29722897e-004 0. 6.29722897e-004
      0. 2.51889159e-003 6.29722897e-004 6.29722897e-004 6.29722897e-004
      1.25944579e-003 2.51889159e-003 3.14861443e-003 1.25944579e-003
      1.25944579e-003 3.77833750e-003 0. 6.29722897e-004 1.25944579e-003
      1.88916875e-003 6.29722897e-004 6.29722897e-004 1.25944579e-003
      3.14861443e-003 1.25944579e-003 6.29722897e-004 0. 6.29722897e-004
      1.25944579e-003 1.88916875e-003 1.25944579e-003 1.25944579e-003 0.
      0. 1.25944579e-003 0. 1.25944579e-003 1.25944579e-003 0. 0. 0.
      1.25944579e-003 0. 0. 6.29722897e-004 0. 6.29722897e-004
      1.25944579e-003 3.14861443e-003 6.29722897e-004 0. 6.29722897e-004
      1.88916875e-003 3.14861443e-003 1.25944579e-003 1.25944579e-003 0.
      0. 6.29722897e-004 1.25944579e-003 0. 6.29722897e-004
      1.25944579e-003 6.29722897e-004 1.25944579e-003 1.88916875e-003
      6.29722897e-004 0. 0. 0. 1.88916875e-003 6.29722897e-004
      1.25944579e-003 3.77833750e-003 6.29722897e-004 6.29722897e-004 0.
      6.29722897e-004 6.29722897e-004 1.25944579e-003 6.29722897e-004
      1.25944579e-003 1.25944579e-003 0. 3.14861443e-003 6.29722897e-004
      0. 6.29722897e-004 0. 6.29722897e-004 1.25944579e-003
      3.14861443e-003 1.88916875e-003 0. 1.25944579e-003 2.51889159e-003
      1.88916875e-003 3.77833750e-003 0. 1.25944579e-003 6.29722897e-004
      6.29722897e-004 1.25944579e-003 6.29722897e-004 1.88916875e-003
      1.25944579e-003 3.77833750e-003 6.29722897e-004 1.25944579e-003
      1.88916875e-003 0. 6.29722897e-004 6.29722897e-004 1.25944579e-003
      3.77833750e-003 6.29722897e-004 5.03778318e-003 6.29722897e-004
      6.29722897e-004 1.25944579e-003 0. 0. 6.29722897e-004
      1.88916875e-003 6.29722897e-004 1.25944579e-003 1.25944579e-003
      6.29722897e-004 6.29722897e-004 0. 0. 6.29722897e-004
      6.29722897e-004 0. 2.51889159e-003 1.25944579e-003 1.25944579e-003
      1.25944579e-003 2.51889159e-003 1.25944579e-003 1.25944579e-003
      1.25944579e-003 6.29722897e-004 1.88916875e-003 1.88916875e-003
      5.66750625e-003 1.25944579e-003 6.29722897e-004 6.29722897e-004 0.
      1.25944579e-003 1.25944579e-003 0. 0. 0. 6.29722897e-004
      2.51889159e-003 1.88916875e-003 0. 1.25944579e-003 1.25944579e-003
      1.88916875e-003 0. 0. 1.88916875e-003 1.25944579e-003
      1.25944579e-003 6.29722897e-004 0. 1.25944579e-003 6.29722897e-004
      0. 2.51889159e-003 6.29722897e-004 0. 3.77833750e-003 0.
      6.29722897e-004 0. 0. 0. 6.29722897e-004 6.29722897e-004 0.
      6.29722897e-004 6.29722897e-004 1.25944579e-003 1.25944579e-003
      6.29722897e-004 1.25944579e-003 0. 6.29722897e-004 2.51889159e-003
      1.25944579e-003 1.88916875e-003 1.88916875e-003 6.29722897e-004
      1.25944579e-003 0. 6.29722897e-004 3.14861443e-003 6.29722897e-004
      6.29722897e-004 0. 0. 0. 0. 0. 0. 1.25944579e-003 3.77833750e-003
      6.29722897e-004 1.88916875e-003 0. 6.29722897e-004 6.29722897e-004
      1.25944579e-003 3.14861443e-003 0. 1.25944579e-003 6.29722897e-004
      2.51889159e-003 1.25944579e-003 6.29722897e-004 1.25944579e-003
      6.29722897e-004 0. 0. 1.88916875e-003 6.29722897e-004
      1.25944579e-003 1.88916875e-003 1.25944579e-003 0. 0.
      1.25944579e-003 0. 1.25944579e-003 6.29722897e-004 3.14861443e-003
      6.29722897e-004 0. 1.25944579e-003 1.88916875e-003 6.29722897e-004
      1.25944579e-003 1.25944579e-003 1.25944579e-003 1.25944579e-003 0.
      1.88916875e-003 6.29722897e-004 6.29722897e-004 4.40806011e-003
      1.25944579e-003 1.88916875e-003 0. 0. 2.51889159e-003
      1.25944579e-003 1.88916875e-003 6.29722897e-004 0. 0.
      6.29722897e-004 1.88916875e-003 1.88916875e-003 0. 6.29722897e-004
      0. 2.51889159e-003 1.25944579e-003 2.51889159e-003 0. 0. 0.
      4.40806011e-003 6.29722897e-004 6.29722897e-004 6.29722897e-004
      6.29722897e-004 1.88916875e-003 0. 0. 6.29722897e-004
      6.29722897e-004 0. 0. 1.25944579e-003 6.29722897e-004
      1.88916875e-003 0. 0. 1.25944579e-003 1.88916875e-003
      2.51889159e-003 1.25944579e-003 0. 6.29722897e-004 0.
      3.14861443e-003 0. 5.03778318e-003 0. 6.29722897e-004 0. 0.
      1.25944579e-003 0. 1.88916875e-003 0. 6.29722897e-004
      1.88916875e-003 0. 6.29722897e-004 6.29722897e-004 0.
      6.29722897e-004 0. 3.77833750e-003 0. 2.51889159e-003
      6.29722897e-004 6.29722897e-004 3.14861443e-003 0. 1.25944579e-003
      1.25944579e-003 6.29722897e-004 0. 1.25944579e-003 1.25944579e-003
      6.29722897e-004 6.29722897e-004 1.88916875e-003 0. 0.
      6.29722897e-004 0. 0. 0. 1.25944579e-003 0. 1.25944579e-003
      1.25944579e-003 6.29722897e-004 1.88916875e-003 6.29722897e-004 0.
      1.25944579e-003 1.25944579e-003 6.29722897e-004 1.88916875e-003
      1.25944579e-003 1.25944579e-003 0. 6.29722897e-004 1.25944579e-003
      1.88916875e-003 1.25944579e-003 0. 1.25944579e-003 1.88916875e-003
      0. 1.88916875e-003 1.25944579e-003 6.29722897e-004 1.25944579e-003
      6.29722897e-004 6.29722897e-004 1.25944579e-003 3.14861443e-003 0.
      3.14861443e-003 6.29722897e-004 6.29722897e-004 6.29722897e-004
      1.88916875e-003 6.29722897e-004 6.29722897e-004 1.88916875e-003
      6.29722897e-004 1.88916875e-003 0. 6.29722897e-004 1.25944579e-003
      0. 3.77833750e-003 1.25944579e-003 1.88916875e-003 6.29722897e-004
      1.07052894e-002 0. 3.14861443e-003 1.25944579e-003 1.25944579e-003
      1.25944579e-003 6.29722897e-004 6.29722897e-004 0. 0.
      6.29722897e-004 6.29722897e-004 6.29722897e-004 6.29722897e-004 0.
      2.51889159e-003 3.14861443e-003 2.51889159e-003 1.25944579e-003 0.
      0. 6.29722897e-004 0. 1.25944579e-003 6.29722897e-004
      1.25944579e-003 6.29722897e-004 0. 0. 1.88916875e-003 0.
      6.29722897e-004 6.29722897e-004 1.88916875e-003 1.25944579e-003
      1.88916875e-003 0. 0. 3.14861443e-003 1.25944579e-003
      6.29722897e-004 0. 1.88916875e-003 1.25944579e-003 1.88916875e-003
      0. 6.29722897e-004 6.29722897e-004 1.25944579e-003 1.88916875e-003
      0. 2.51889159e-003 1.25944579e-003 6.29722897e-004 1.25944579e-003
      1.88916875e-003 0. 0. 4.40806011e-003 6.29722897e-004
      6.29722897e-004 3.14861443e-003 1.25944579e-003 1.88916875e-003
      1.25944579e-003 0. 6.29722897e-004 6.29722897e-004 1.88916875e-003
      1.88916875e-003 0. 6.29722897e-004 6.29722897e-004 0.
      1.88916875e-003 1.88916875e-003 6.29722897e-004 0. 6.29722897e-004
      1.25944579e-003 0. 6.29722897e-004 1.25944579e-003 0. 0.
      1.88916875e-003 1.25944579e-003 1.88916875e-003 6.29722897e-004 0.
      1.25944579e-003 2.51889159e-003 0. 0. 1.88916875e-003
      6.29722897e-004 1.88916875e-003 0. 1.25944579e-003 6.29722897e-004
      1.88916875e-003 6.29722897e-004 1.88916875e-003 0. 0. 0. 0. 0. 0.
      1.88916875e-003 6.29722897e-004 6.29722897e-004 6.29722897e-004
      6.29722897e-004 1.25944579e-003 1.25944579e-003 0. 0.
      1.25944579e-003</_>
    <_>
      0. 3.32778692e-003 2.77315592e-003 1.66389346e-002 0.
      5.54631173e-004 5.54631173e-004 1.66389346e-003 1.66389346e-003
      5.54631173e-004 5.54631173e-004 2.21852469e-003 3.32778692e-003
      1.66389346e-003 2.77315592e-003 5.54631173e-004 0. 0.
      5.54631173e-004 1.10926235e-003 0. 5.54631173e-004 5.54631173e-004
      1.66389346e-003 0. 0. 0. 0. 5.54631173e-004 5.54631173e-004
      5.54631173e-004 5.54631173e-004 0. 0. 2.77315592e-003
      1.66389346e-003 5.54631173e-004 1.66389346e-003 0. 1.10926235e-003
      1.10926235e-003 0. 2.21852469e-003 2.21852469e-003 0.
      5.54631173e-004 5.54631173e-004 0. 1.66389346e-003 3.32778692e-003
      5.54631173e-004 0. 0. 1.10926235e-003 5.54631173e-004 0.
      5.54631173e-004 5.54631173e-004 2.77315592e-003 0. 2.77315592e-003
      1.10926235e-003 0. 0. 2.77315592e-003 5.54631173e-004
      2.77315592e-003 0. 0. 0. 2.21852469e-003 1.66389346e-003 0.
      1.66389346e-003 5.54631173e-004 5.54631173e-004 0. 0.
      1.66389346e-002 0. 0. 3.32778692e-003 1.10926235e-003
      1.66389346e-003 5.54631173e-004 0. 0. 0. 5.54631173e-004
      5.54631173e-004 1.66389346e-003 5.54631173e-004 2.77315592e-003
      1.10926235e-003 5.54631173e-004 1.66389346e-003 5.54631173e-004 0.
      0. 5.54631173e-004 0. 1.77481975e-002 0. 5.54631173e-004
      5.54631173e-004 0. 5.54631173e-004 0. 4.43704939e-003
      2.77315592e-003 0. 0. 0. 1.66389346e-003 1.10926235e-003
      1.66389346e-003 0. 5.54631173e-004 1.10926235e-003 1.10926235e-003
      1.10926235e-003 5.54631173e-004 5.54631173e-004 5.54631173e-004
      1.10926235e-003 5.54631173e-004 0. 5.54631173e-004 5.54631173e-004
      2.21852469e-003 7.76483631e-003 2.21852469e-003 5.54631173e-004 0.
      0. 0. 1.10926235e-003 1.10926235e-003 5.54631173e-004
      3.32778692e-003 0. 0. 1.10926235e-003 1.66389346e-003 0. 0.
      1.66389346e-003 1.10926235e-003 5.54631173e-004 0. 1.66389346e-003
      0. 5.54631173e-004 1.10926235e-003 1.66389346e-003 5.54631173e-004
      3.32778692e-003 1.10926235e-003 5.54631173e-004 5.54631173e-004
      5.54631173e-004 1.10926235e-003 5.54631173e-004 0. 2.21852469e-003
      0. 0. 5.54631173e-004 5.54631173e-004 0. 5.54631173e-004
      1.10926235e-003 0. 5.54631173e-004 0. 0. 5.54631173e-004
      4.99168038e-003 5.54631173e-004 5.54631173e-004 5.54631173e-004
      1.66389346e-003 2.21852469e-003 1.66389346e-003 0. 0.
      5.54631173e-004 5.54631173e-004 0. 1.44204106e-002 5.54631173e-004
      0. 0. 0. 5.54631173e-004 3.88241815e-003 5.54631173e-004
      2.21852469e-003 0. 1.10926235e-003 0. 5.54631173e-004 0.
      5.54631173e-004 0. 2.21852469e-003 0. 5.54631173e-004
      1.10926235e-003 5.54631173e-004 5.54631173e-004 7.21020531e-003
      5.54631173e-004 0. 1.66389346e-003 0. 2.21852469e-003
      5.54631173e-004 2.21852469e-003 1.10926235e-003 0. 0.
      5.54631173e-004 1.10926235e-003 0. 1.10926235e-003 0.
      1.10926235e-003 0. 1.10926235e-003 1.10926235e-003 0. 0.
      1.66389346e-003 2.21852469e-003 0. 1.10926235e-003 4.99168038e-003
      1.66389346e-003 3.88241815e-003 5.54631173e-004 5.54631173e-004 0.
      5.54631173e-004 1.10926235e-003 5.54631173e-004 2.77315592e-003 0.
      0. 1.66389346e-003 0. 2.21852469e-003 1.10926235e-003
      2.77315592e-003 5.54631173e-004 1.66389346e-003 0. 4.43704939e-003
      5.54631173e-004 0. 0. 5.54631173e-004 5.54631173e-004 0.
      5.54631173e-004 0. 1.10926235e-003 0. 0. 5.54631173e-004 0. 0.
      1.10926235e-003 0. 5.54631173e-004 1.10926235e-003 0.
      5.54631173e-004 3.88241815e-003 1.10926235e-003 0. 5.54631173e-004
      5.54631173e-004 0. 1.27565172e-002 0. 2.21852469e-003
      5.54631173e-004 5.54631173e-004 0. 5.54631173e-004 0.
      1.66389346e-003 0. 1.10926235e-003 5.54631173e-004 0.
      5.54631173e-004 0. 5.54631173e-004 0. 5.54631173e-004 0.
      5.54631173e-004 5.54631173e-004 5.54631173e-004 0. 5.54631173e-004
      1.66389346e-003 7.76483631e-003 1.10926235e-003 0. 5.54631173e-004
      1.66389346e-003 1.10926235e-003 5.54631173e-004 2.21852469e-003
      5.54631173e-004 2.77315592e-003 1.10926235e-003 1.10926235e-003
      5.54631173e-004 0. 0. 5.54631173e-004 1.10926235e-003
      3.32778692e-003 0. 0. 0. 0. 2.21852469e-003 4.99168038e-003
      5.54631173e-004 1.66389346e-003 5.54631173e-004 5.54631173e-004
      1.10926235e-003 0. 0. 5.54631173e-004 0. 0. 1.10926235e-003
      5.54631173e-004 0. 5.54631173e-004 1.10926235e-003 0. 0.
      3.32778692e-003 5.54631173e-004 1.10926235e-003 0. 1.10926235e-003
      5.54631173e-004 5.54631173e-004 0. 1.66389346e-003 5.54631173e-004
      1.10926235e-003 1.10926235e-003 1.10926235e-003 5.54631173e-004
      2.21852469e-003 5.54631173e-004 0. 5.54631173e-004 1.10926235e-003
      5.54631173e-004 0. 0. 1.10926235e-003 0. 9.98336077e-003 0.
      5.54631173e-004 5.54631173e-004 1.66389346e-003 5.54631173e-004 0.
      1.66389346e-003 0. 0. 0. 0. 0. 5.54631173e-004 5.54631173e-004
      5.54631173e-004 5.54631173e-004 0. 4.99168038e-003 0.
      5.54631173e-004 1.66389346e-003 1.10926235e-003 1.10926235e-003
      5.54631173e-004 0. 1.27565172e-002 5.54631173e-004 2.21852469e-003
      2.21852469e-003 5.54631173e-004 1.10926235e-003 5.54631173e-004
      1.10926235e-003 1.10926235e-003 1.10926235e-003 5.54631173e-004
      1.10926235e-003 0. 5.54631173e-004 0. 1.10926235e-003
      1.66389346e-003 0. 5.54631173e-004 0. 5.54631173e-004 0.
      1.10926235e-003 0. 5.54631173e-004 0. 1.66389346e-003
      1.10926235e-003 2.21852469e-003 5.54631173e-004 0. 0. 0.
      5.54631173e-004 0. 1.10926235e-003 1.10926235e-003 5.54631173e-004
      5.54631173e-004 2.21852469e-003 1.10926235e-003 0. 5.54631173e-004
      0. 2.21852469e-003 5.54631173e-004 1.10926235e-003 5.54631173e-004
      0. 0. 0. 0. 0. 0. 1.66389346e-003 3.88241815e-003 1.10926235e-003
      1.10926235e-003 0. 5.54631173e-004 1.10926235e-003 1.10926235e-003
      5.54631173e-004 5.54631173e-004 1.10926235e-003 0. 5.54631173e-004
      5.54631173e-004 0. 5.54631173e-004 5.54631173e-004 1.10926235e-003
      0. 0. 0. 5.54631173e-004 0. 0. 5.54631173e-004 0. 0.
      1.10926235e-003 1.10926235e-003 0. 5.54631173e-004 1.66389346e-003
      0. 0. 1.10926235e-003 0. 1.10926235e-003 5.54631173e-004
      2.21852469e-003 0. 5.54631173e-004 5.54631173e-004 1.10926235e-003
      1.10926235e-003 2.77315592e-003 0. 0. 1.10926235e-003
      1.66389346e-003 2.05213539e-002 1.10926235e-003 5.54631173e-004 0.
      0. 1.10926235e-003 2.77315592e-003 1.66389346e-003 3.32778692e-003
      2.77315592e-003 1.10926235e-003 1.10926235e-003 5.54631173e-004 0.
      1.10926235e-003 1.66389346e-003 3.88241815e-003 1.10926235e-003
      5.54631173e-004 1.66389346e-003 0. 0. 5.54631173e-004
      1.10926235e-003 2.21852469e-003 1.10926235e-003 0. 0.
      1.10926235e-003 0. 1.10926235e-003 1.10926235e-003 5.54631173e-004
      1.10926235e-003 0. 0. 1.66389346e-003 0. 5.54631173e-004
      5.54631173e-004 5.54631173e-004 0. 5.54631173e-004 0.
      1.10926235e-003 5.54631173e-004 5.54631173e-004 0. 3.88241815e-003
      1.66389346e-003 0. 2.21852469e-003 1.10926235e-003 1.10926235e-003
      0. 0. 0. 5.54631173e-004 1.10926235e-003 5.54631173e-004
      5.54631173e-004 5.54631173e-004 0. 5.54631173e-004 5.54631173e-004
      0. 0. 2.77315592e-003 1.10926235e-003 0. 0. 3.32778692e-003
      5.54631173e-004 0. 5.54631173e-004 5.54631173e-004 5.54631173e-004
      1.10926235e-003 5.54631173e-004 0. 2.21852469e-003 5.54631173e-004
      5.54631173e-004 1.10926235e-003 5.54631173e-004 0. 5.54631173e-004
      1.66389346e-003 0. 2.21852469e-003 0. 0. 0. 1.10926235e-003
      5.54631173e-004 5.54631173e-004 5.54631173e-004 0. 2.77315592e-003
      1.10926235e-003 0. 5.54631173e-004 0. 5.54631173e-004
      3.32778692e-003 5.54631173e-004 0. 5.54631173e-004 0. 0.
      2.21852469e-003 5.54631173e-004 1.66389346e-003 1.10926235e-003 0.
      0. 1.10926235e-003 0. 6.10094285e-003 0. 5.54631173e-004
      1.10926235e-003 0. 5.54631173e-004 5.54631173e-004 0.
      3.88241815e-003 0. 2.21852469e-003 0. 0. 2.21852469e-003
      1.66389346e-003 0. 1.10926235e-003 1.66389346e-003 1.10926235e-003
      0. 0. 0. 5.54631173e-004 1.10926235e-003 1.10926235e-003
      1.10926235e-003 0. 0. 2.21852469e-003 2.21852469e-003
      5.54631173e-004 5.54631173e-004 0. 0. 1.66389346e-003
      2.21852469e-003 0. 0. 5.54631173e-004 5.54631173e-004
      5.54631173e-004 0. 1.66389346e-003 5.54631173e-004 1.10926235e-003
      0. 0. 3.32778692e-003 5.54631173e-004 2.77315592e-003 0.
      5.54631173e-004 5.54631173e-004 5.54631173e-004 5.54631173e-004
      1.10926235e-003 3.88241815e-003 0. 5.54631173e-004 5.54631173e-004
      0. 1.16472542e-002 1.10926235e-003 3.88241815e-003 5.54631173e-004
      5.54631173e-004 0. 5.54631173e-004 0. 1.66389346e-003 0. 0. 0.
      5.54631173e-004 0. 5.54631173e-004 1.66389346e-003 0. 0. 0.
      5.54631173e-004 2.77315592e-003 0. 0. 5.54631173e-004
      3.32778692e-003 0. 5.54631173e-004 5.54631173e-004 1.10926235e-003
      1.66389346e-003 5.54631173e-004 0. 0. 0. 4.43704939e-003
      6.10094285e-003 0. 0. 2.21852469e-003 4.43704939e-003
      5.54631173e-004 0. 0. 1.10926235e-003 1.10926235e-003 0.
      1.10926235e-003 1.66389346e-003 0. 1.10926235e-003 5.54631173e-004
      0. 1.10926235e-003 5.54631173e-004 5.54631173e-004 1.66389346e-003
      0. 0. 4.43704939e-003 0. 1.10926235e-003 3.88241815e-003 0.
      1.10926235e-003 1.10926235e-003 2.77315592e-003 1.10926235e-003
      5.54631173e-004 5.54631173e-004 5.54631173e-004 0. 5.54631173e-004
      1.10926235e-003 2.21852469e-003 5.54631173e-004 5.54631173e-004
      5.54631173e-004 5.54631173e-004 5.54631173e-004 1.10926235e-003
