<?xml version="1.0"?>
<opencv_storage>
<my_svm type_id="opencv-ml-svm">
  <svm_type>C_SVC</svm_type>
  <kernel><type>RBF</type>
    <gamma>5.0625000000000009e-001</gamma></kernel>
  <C>3.1250000000000000e+002</C>
  <term_criteria><epsilon>1.1920928955078125e-007</epsilon>
    <iterations>10000</iterations></term_criteria>
  <var_all>1000</var_all>
  <var_count>1000</var_count>
  <class_count>2</class_count>
  <class_labels type_id="opencv-matrix">
    <rows>1</rows>
    <cols>2</cols>
    <dt>i</dt>
    <data>
      0 1</data></class_labels>
  <sv_total>188</sv_total>
  <support_vectors>
    <_>
      4.01146105e-003 5.73065889e-004 0. 5.73065889e-004 5.73065889e-004
      2.29226355e-003 0. 1.14613178e-003 5.73065889e-004 0. 0.
      1.14613178e-003 1.71919772e-003 0. 0. 5.73065889e-004
      5.73065889e-004 0. 5.73065889e-004 1.71919772e-003 0.
      1.71919772e-003 0. 0. 1.71919772e-003 5.73065889e-004
      2.29226355e-003 5.73065889e-004 0. 1.14613178e-003 1.71919772e-003
      5.73065889e-004 1.71919772e-003 0. 0. 5.73065889e-004
      5.73065889e-004 5.73065889e-004 5.73065889e-004 1.14613178e-003
      5.73065889e-004 2.86532938e-003 0. 0. 0. 5.73065889e-004
      1.14613178e-003 5.73065889e-004 0. 2.29226355e-003 1.71919772e-003
      7.44985649e-003 5.73065889e-004 1.71919772e-003 6.30372483e-003
      5.73065877e-003 2.86532938e-003 0. 1.14613178e-003 5.73065889e-004
      1.71919772e-003 0. 0. 0. 5.73065889e-004 1.71919772e-003
      1.71919772e-003 2.29226355e-003 1.14613178e-003 5.73065889e-004 0.
      0. 0. 1.14613178e-003 0. 1.14613178e-003 0. 5.73065889e-004 0. 0.
      1.14613178e-003 0. 4.01146105e-003 2.29226355e-003 1.71919772e-003
      0. 0. 0. 0. 0. 2.29226355e-003 1.71919772e-003 0. 0.
      5.73065889e-004 1.14613178e-003 2.29226355e-003 1.14613178e-003
      5.73065889e-004 5.73065889e-004 0. 5.73065889e-004 1.14613178e-003
      2.86532938e-003 4.01146105e-003 1.14613178e-003 0. 1.71919772e-003
      2.29226355e-003 1.14613178e-003 5.73065889e-004 1.14613178e-003
      2.86532938e-003 3.43839545e-003 5.73065889e-004 0. 2.86532938e-003
      1.71919772e-003 1.71919772e-003 0. 5.73065889e-004 5.73065889e-004
      1.14613178e-003 5.73065889e-004 5.73065889e-004 0. 5.73065889e-004
      0. 5.73065889e-004 2.29226355e-003 5.73065889e-004 1.14613178e-003
      0. 5.73065889e-004 0. 1.71919772e-003 2.86532938e-003
      1.71919772e-003 5.73065889e-004 1.14613178e-003 0. 1.14613178e-003
      2.29226355e-003 5.73065889e-004 0. 5.73065889e-004 2.86532938e-003
      1.14613178e-003 2.29226355e-003 1.14613178e-003 0. 1.14613178e-003
      1.14613178e-003 5.73065889e-004 1.71919772e-003 2.29226355e-003
      1.71919772e-003 1.71919772e-003 0. 1.71919772e-003 0.
      5.73065889e-004 5.73065889e-004 0. 5.73065889e-004 1.71919772e-003
      5.73065889e-004 5.73065889e-004 1.71919772e-003 2.29226355e-003
      1.14613178e-003 3.43839545e-003 0. 2.29226355e-003 0.
      5.73065889e-004 5.73065889e-004 2.29226355e-003 0. 5.73065889e-004
      1.14613178e-003 1.14613178e-003 1.14613178e-003 1.14613178e-003 0.
      5.73065889e-004 0. 2.29226355e-003 0. 0. 5.73065889e-004 0.
      5.73065889e-004 2.29226355e-003 0. 0. 2.86532938e-003
      5.73065889e-004 1.14613178e-003 1.14613178e-003 0. 0.
      1.71919772e-003 5.73065889e-004 1.71919772e-003 1.14613178e-003
      5.73065889e-004 0. 2.29226355e-003 1.14613178e-003 5.73065889e-004
      0. 0. 5.73065889e-004 2.86532938e-003 8.02292209e-003 0. 0. 0.
      2.29226355e-003 1.14613178e-003 0. 1.71919772e-003 5.73065889e-004
      0. 0. 1.14613178e-003 0. 1.71919772e-003 1.14613178e-003 0. 0.
      3.43839545e-003 0. 1.14613178e-003 0. 1.14613178e-003
      5.73065889e-004 1.71919772e-003 5.73065889e-004 4.58452711e-003
      5.73065889e-004 5.73065889e-004 0. 0. 2.86532938e-003
      5.73065889e-004 5.73065889e-004 0. 5.73065889e-004 3.43839545e-003
      1.71919772e-003 0. 5.73065889e-004 2.86532938e-003 0.
      1.71919772e-003 5.73065889e-004 5.73065889e-004 1.71919772e-003
      1.14613178e-003 0. 1.14613178e-003 5.73065889e-004 0.
      5.73065889e-004 2.29226355e-003 5.73065889e-004 1.14613178e-003 0.
      5.73065889e-004 5.73065889e-004 5.73065889e-004 5.73065889e-004
      1.14613178e-003 0. 1.71919772e-003 0. 0. 0. 0. 0. 0.
      5.73065889e-004 0. 2.29226355e-003 1.14613178e-003 1.71919772e-003
      0. 1.14613178e-003 0. 1.14613178e-003 5.73065889e-004
      5.73065889e-004 5.73065889e-004 2.86532938e-003 0. 5.73065889e-004
      5.73065889e-004 5.73065889e-004 1.14613178e-003 1.14613178e-003 0.
      1.14613178e-003 0. 0. 5.73065889e-004 1.71919772e-003 0.
      5.73065889e-004 5.73065889e-004 1.14613178e-003 1.71919772e-003
      5.73065889e-004 1.14613178e-003 1.14613178e-003 0. 0.
      1.14613178e-003 1.14613178e-003 5.73065889e-004 0. 4.01146105e-003
      5.73065889e-004 1.14613178e-003 1.14613178e-003 1.71919772e-003
      5.73065889e-004 5.73065889e-004 1.14613178e-003 2.29226355e-003
      5.73065889e-004 1.71919772e-003 0. 5.73065889e-004 1.14613178e-003
      1.14613178e-003 1.71919772e-003 1.14613178e-003 0. 4.58452711e-003
      1.14613178e-003 1.14613178e-003 3.43839545e-003 0. 0.
      1.14613178e-003 2.29226355e-003 0. 5.73065889e-004 0. 0.
      2.29226355e-003 0. 0. 1.71919772e-003 5.73065889e-004 0.
      5.73065889e-004 0. 5.73065889e-004 0. 1.71919772e-003 0.
      2.29226355e-003 1.71919772e-003 1.14613178e-003 0. 5.73065889e-004
      0. 1.14613178e-003 2.29226355e-003 5.73065889e-004 1.14613178e-003
      0. 2.29226355e-003 1.14613178e-003 1.71919772e-003 5.73065889e-004
      0. 2.86532938e-003 5.73065889e-004 5.73065889e-004 0.
      2.29226355e-003 1.71919772e-003 1.14613178e-003 1.14613178e-003 0.
      1.71919772e-003 1.71919772e-003 0. 3.43839545e-003 5.73065889e-004
      0. 0. 0. 0. 5.73065889e-004 5.73065889e-004 2.29226355e-003 0. 0.
      0. 5.73065889e-004 1.14613178e-003 1.14613178e-003 5.73065889e-004
      2.29226355e-003 1.14613178e-003 5.73065889e-004 0. 5.73065889e-004
      5.73065889e-004 2.29226355e-003 1.14613178e-003 0. 5.73065889e-004
      1.14613178e-003 5.73065889e-004 1.71919772e-003 2.86532938e-003 0.
      1.14613178e-003 2.29226355e-003 2.29226355e-003 1.71919772e-003 0.
      5.73065889e-004 1.14613178e-003 0. 5.73065889e-004 5.73065889e-004
      5.73065889e-004 5.73065889e-004 2.86532938e-003 0. 5.73065889e-004
      0. 1.71919772e-003 5.73065889e-004 5.73065889e-004 1.14613178e-003
      2.29226355e-003 5.73065889e-004 0. 1.14613178e-003 1.71919772e-003
      0. 1.71919772e-003 0. 1.71919772e-003 1.14613178e-003
      1.14613178e-003 0. 0. 0. 1.71919772e-003 5.73065889e-004 0.
      2.86532938e-003 5.73065889e-004 5.73065889e-004 6.87679090e-003
      1.14613178e-003 0. 3.43839545e-003 1.14613178e-003 4.01146105e-003
      0. 1.14613178e-003 5.73065889e-004 1.14613178e-003 1.14613178e-003
      0. 0. 1.14613178e-003 0. 5.73065889e-004 0. 5.15759317e-003
      5.73065889e-004 5.73065889e-004 0. 0. 0. 1.14613178e-003
      1.71919772e-003 1.71919772e-003 0. 5.15759317e-003 1.14613178e-003
      1.14613178e-003 0. 0. 3.43839545e-003 5.73065889e-004
      1.71919772e-003 0. 0. 5.73065889e-004 2.86532938e-003
      5.73065889e-004 1.14613178e-003 1.14613178e-003 1.14613178e-003
      5.73065889e-004 2.29226355e-003 5.73065889e-004 0. 1.14613178e-003
      0. 0. 1.14613178e-003 1.14613178e-003 1.71919772e-003
      5.73065889e-004 2.86532938e-003 1.71919772e-003 0. 5.73065889e-004
      0. 5.73065889e-004 5.73065889e-004 4.58452711e-003 2.29226355e-003
      0. 5.73065889e-004 1.71919772e-003 3.43839545e-003 0.
      1.71919772e-003 5.73065889e-004 0. 1.14613178e-003 1.14613178e-003
      0. 0. 5.73065889e-004 5.73065889e-004 1.14613178e-003
      1.14613178e-003 1.71919772e-003 1.71919772e-003 3.43839545e-003
      5.73065889e-004 1.14613178e-003 2.29226355e-003 5.73065889e-004
      5.73065889e-004 0. 0. 5.73065889e-004 2.86532938e-003 0. 0.
      5.73065889e-004 1.71919772e-003 0. 5.73065889e-004 5.73065889e-004
      2.29226355e-003 0. 5.73065889e-004 1.14613178e-003 0. 0.
      5.73065889e-004 5.73065889e-004 0. 2.29226355e-003 2.29226355e-003
      0. 0. 5.73065889e-004 5.73065889e-004 5.73065889e-004
      5.73065889e-004 1.14613178e-003 5.73065889e-004 5.73065889e-004
      1.14613178e-003 0. 0. 1.14613178e-003 0. 5.73065889e-004 0.
      5.73065889e-004 2.29226355e-003 4.01146105e-003 5.73065889e-004 0.
      1.14613178e-003 2.29226355e-003 2.29226355e-003 2.29226355e-003
      1.14613178e-003 0. 5.15759317e-003 0. 0. 1.14613178e-003
      1.14613178e-003 0. 5.73065889e-004 0. 1.14613178e-003 0. 0.
      2.86532938e-003 5.73065889e-004 1.71919772e-003 0. 5.73065889e-004
      0. 5.15759317e-003 1.14613178e-003 1.14613178e-003 1.14613178e-003
      5.73065889e-004 1.71919772e-003 5.73065889e-004 1.71919772e-003 0.
      1.71919772e-003 0. 5.73065889e-004 5.73065889e-004 0. 0.
      5.73065889e-004 1.71919772e-003 0. 5.73065889e-004 1.71919772e-003
      2.29226355e-003 5.73065889e-004 0. 1.71919772e-003 0.
      5.73065889e-004 1.14613178e-003 5.73065889e-004 1.71919772e-003
      1.71919772e-003 1.71919772e-003 0. 0. 1.14613178e-003
      1.71919772e-003 0. 1.14613178e-003 0. 1.71919772e-003
      2.29226355e-003 5.73065877e-003 5.73065889e-004 5.73065889e-004
      5.73065889e-004 5.73065889e-004 5.73065889e-004 0. 5.73065889e-004
      0. 5.73065889e-004 5.73065889e-004 0. 1.71919772e-003
      1.71919772e-003 1.14613178e-003 0. 5.73065889e-004 0.
      5.73065889e-004 1.14613178e-003 0. 1.71919772e-003 0.
      2.29226355e-003 0. 2.29226355e-003 1.71919772e-003 5.73065889e-004
      1.14613178e-003 0. 1.71919772e-003 2.86532938e-003 2.86532938e-003
      2.29226355e-003 1.71919772e-003 5.73065889e-004 5.73065889e-004
      1.14613178e-003 5.73065889e-004 1.71919772e-003 1.14613178e-003 0.
      1.71919772e-003 0. 1.71919772e-003 5.73065889e-004 1.14613178e-003
      0. 1.14613178e-003 5.15759317e-003 1.14613178e-003 5.73065889e-004
      0. 0. 0. 3.43839545e-003 5.73065889e-004 1.14613178e-003
      5.73065889e-004 2.86532938e-003 0. 1.71919772e-003 0.
      5.73065889e-004 5.73065889e-004 2.29226355e-003 1.14613178e-003
      1.14613178e-003 2.29226355e-003 0. 5.73065889e-004 1.14613178e-003
      5.73065889e-004 1.14613178e-003 3.43839545e-003 5.73065889e-004
      1.71919772e-003 5.73065889e-004 5.73065889e-004 5.73065889e-004 0.
      5.73065889e-004 0. 0. 5.73065889e-004 0. 5.73065889e-004
      5.73065889e-004 0. 0. 5.73065889e-004 5.73065889e-004
      5.73065889e-004 5.73065889e-004 0. 0. 5.73065889e-004 0.
      5.73065889e-004 0. 0. 1.14613178e-003 5.73065889e-004
      5.73065889e-004 1.14613178e-003 0. 5.73065889e-004 5.73065889e-004
      1.14613178e-003 1.71919772e-003 5.73065889e-004 1.71919772e-003
      2.29226355e-003 1.14613178e-003 0. 1.14613178e-003 1.14613178e-003
      0. 0. 5.73065889e-004 1.14613178e-003 1.14613178e-003 0. 0.
      5.73065889e-004 1.14613178e-003 5.73065889e-004 5.73065889e-004 0.
      1.71919772e-003 5.73065889e-004 0. 0. 1.71919772e-003
      1.71919772e-003 5.73065889e-004 5.73065889e-004 0. 1.14613178e-003
      5.73065889e-004 1.14613178e-003 5.73065889e-004 3.43839545e-003
      5.73065889e-004 1.14613178e-003 5.73065889e-004 1.14613178e-003
      2.29226355e-003 1.71919772e-003 5.73065889e-004 5.73065889e-004
      5.73065877e-003 0. 1.71919772e-003 5.73065889e-004 0.
      2.29226355e-003 0. 1.71919772e-003 2.86532938e-003 0.
      1.71919772e-003 5.73065889e-004 1.71919772e-003 4.01146105e-003 0.
      1.14613178e-003 0. 3.43839545e-003 1.71919772e-003 1.14613178e-003
      1.71919772e-003 1.14613178e-003 2.86532938e-003 5.73065889e-004
      1.71919772e-003 5.73065889e-004 2.29226355e-003 5.73065889e-004 0.
      0. 1.14613178e-003 0. 1.14613178e-003 0. 0. 0. 5.73065889e-004
      1.14613178e-003 1.71919772e-003 0. 5.73065889e-004 2.86532938e-003
      1.14613178e-003 1.71919772e-003 1.14613178e-003 5.73065889e-004 0.
      2.29226355e-003 2.86532938e-003 1.71919772e-003 0. 0. 0. 0. 0.
      1.14613178e-003 0. 5.73065889e-004 5.73065889e-004 5.73065889e-004
      0. 1.71919772e-003 5.73065889e-004 0. 0. 5.73065889e-004
      5.73065889e-004 5.73065889e-004 0. 5.73065889e-004 3.43839545e-003
      5.73065889e-004 5.73065889e-004 0. 5.73065889e-004 2.29226355e-003
      2.86532938e-003 5.73065889e-004 0. 1.14613178e-003 0. 0. 0.
      1.71919772e-003 0. 5.73065889e-004 5.73065889e-004 1.14613178e-003
      5.73065889e-004 4.01146105e-003 1.14613178e-003 1.03151863e-002
      5.73065889e-004 0. 5.73065889e-004 0. 5.73065889e-004
      3.43839545e-003 1.14613178e-003 2.29226355e-003 3.43839545e-003 0.
      0. 5.73065889e-004 1.71919772e-003 1.71919772e-003 1.71919772e-003
      5.73065889e-004 5.73065889e-004 1.14613178e-003 0. 1.71919772e-003
      1.14613178e-003 1.14613178e-003 0. 1.14613178e-003 1.14613178e-003
      1.14613178e-003 2.29226355e-003 4.01146105e-003 5.73065889e-004 0.
      1.14613178e-003 0. 5.73065889e-004 1.14613178e-003 5.73065889e-004
      4.01146105e-003 0. 5.73065889e-004 5.73065889e-004 0.
      5.73065889e-004 5.73065889e-004 1.14613178e-003 1.14613178e-003
      5.73065889e-004 1.71919772e-003 1.71919772e-003 0. 0.
      5.73065889e-004 0. 5.73065889e-004 1.14613178e-003 1.71919772e-003
      1.14613178e-003 0. 5.73065889e-004 1.71919772e-003 2.86532938e-003
      1.03151863e-002 2.86532938e-003 1.14613178e-003 1.14613178e-003 0.
      5.73065889e-004 1.14613178e-003 2.29226355e-003 5.73065889e-004
      2.86532938e-003 0. 1.14613178e-003 1.14613178e-003 1.71919772e-003
      0. 0. 0. 5.73065889e-004 0. 1.71919772e-003 1.14613178e-003 0.
      1.14613178e-003 1.14613178e-003 0. 1.71919772e-003 1.14613178e-003
      0. 0. 1.71919772e-003 2.86532938e-003 1.14613178e-003 0.
      1.71919772e-003 0. 1.14613178e-003 5.73065889e-004 2.29226355e-003
      5.73065889e-004 1.14613178e-003 5.15759317e-003 5.73065889e-004</_>
    <_>
      7.12377578e-003 0. 1.33570796e-003 4.45235986e-004 4.45235986e-004
      8.90471973e-004 1.78094395e-003 1.33570796e-003 8.90471973e-004 0.
      1.33570796e-003 8.90471973e-004 4.45235986e-004 1.33570796e-003
      8.90471973e-004 0. 4.45235986e-004 4.45235986e-004 8.90471973e-004
      0. 1.78094395e-003 1.78094395e-003 1.78094395e-003 4.45235986e-004
      3.11665190e-003 4.45235986e-004 4.45235986e-004 4.45235986e-004
      4.45235986e-004 8.90471973e-004 4.45235986e-004 1.33570796e-003
      8.90471973e-004 2.67141592e-003 4.45235986e-004 1.78094395e-003 0.
      8.90471973e-004 4.45235986e-004 1.33570796e-003 1.33570796e-003
      8.90471973e-004 2.67141592e-003 1.33570796e-003 0. 1.33570796e-003
      4.45235986e-004 0. 4.45235986e-004 8.90471973e-004 8.90471973e-004
      2.22617993e-003 8.90471973e-004 8.90471973e-004 5.78806782e-003
      6.23330381e-003 2.22617993e-003 2.67141592e-003 0. 8.90471973e-004
      4.45235986e-003 0. 8.90471973e-004 0. 8.90471973e-004
      8.90471973e-004 1.33570796e-003 2.67141592e-003 4.45235986e-004
      2.22617993e-003 1.33570796e-003 0. 4.45235986e-004 2.22617993e-003
      0. 1.78094395e-003 0. 0. 4.00712388e-003 1.33570796e-003
      3.56188789e-003 4.45235986e-004 1.33570796e-003 4.45235986e-004 0.
      1.33570796e-003 4.45235986e-004 0. 8.90471973e-004 2.22617993e-003
      0. 1.33570796e-003 4.45235986e-003 2.22617993e-003 1.33570796e-003
      1.78094395e-003 2.67141592e-003 1.78094395e-003 8.90471973e-004
      8.90471973e-004 1.33570796e-003 4.45235986e-004 1.33570796e-003
      1.33570796e-003 0. 0. 1.78094395e-003 4.45235986e-004
      4.45235986e-003 8.90471973e-004 8.90471973e-004 8.90471973e-004
      1.33570796e-003 8.90471973e-004 1.33570796e-003 4.45235986e-004
      4.45235986e-004 2.22617993e-003 2.67141592e-003 1.78094395e-003
      4.45235986e-004 1.78094395e-003 8.90471973e-004 1.33570796e-003
      4.45235986e-004 3.11665190e-003 1.78094395e-003 2.22617993e-003
      3.11665190e-003 0. 4.45235986e-004 0. 4.45235986e-004
      8.90471973e-004 8.90471973e-004 0. 4.45235986e-004 4.45235986e-004
      0. 8.90471973e-004 8.90471973e-004 1.33570796e-003 4.45235986e-004
      4.45235986e-004 8.90471973e-004 0. 4.45235986e-004 1.78094395e-003
      8.90471973e-004 0. 0. 2.67141592e-003 0. 4.45235986e-004 0.
      1.33570796e-003 4.45235986e-004 1.33570796e-003 0. 8.90471973e-004
      0. 8.90471973e-004 1.33570796e-003 2.22617993e-003 1.33570796e-003
      4.45235986e-004 1.78094395e-003 0. 4.89759585e-003 4.45235986e-004
      1.33570796e-003 4.45235986e-004 4.45235986e-004 4.45235986e-004
      8.90471973e-004 0. 4.45235986e-004 4.45235986e-004 8.90471973e-004
      1.78094395e-003 0. 0. 4.45235986e-004 8.90471973e-004 0.
      1.33570796e-003 0. 4.45235986e-004 4.45235986e-004 2.67141592e-003
      8.90471973e-004 8.90471973e-004 4.45235986e-004 4.45235986e-004
      2.67141592e-003 0. 1.33570796e-003 4.45235986e-004 2.22617993e-003
      2.22617993e-003 0. 0. 4.45235986e-004 1.78094395e-003 0.
      8.90471973e-004 4.45235986e-004 8.90471973e-004 8.90471973e-004
      4.45235986e-004 4.45235986e-004 4.45235986e-004 0. 8.90471973e-004
      0. 1.78094395e-003 1.78094395e-003 1.33570796e-003 8.90471973e-004
      2.67141592e-003 4.45235986e-004 0. 4.45235986e-004 3.11665190e-003
      1.78094395e-003 0. 8.90471973e-004 2.22617993e-003 1.78094395e-003
      8.90471973e-004 0. 8.90471973e-004 0. 1.78094395e-003
      4.45235986e-004 8.90471973e-004 1.33570796e-003 4.45235986e-004 0.
      0. 0. 8.90471973e-004 1.33570796e-003 0. 8.90471973e-004
      4.45235986e-004 2.22617993e-003 0. 0. 4.45235986e-004
      8.90471973e-004 8.90471973e-004 8.90471973e-004 1.78094395e-003
      4.45235986e-004 0. 4.45235986e-004 4.45235986e-004 4.45235986e-004
      4.45235986e-004 8.90471973e-004 4.45235986e-004 8.90471973e-004
      4.45235986e-004 1.33570796e-003 0. 8.90471973e-004 2.67141592e-003
      0. 4.45235986e-004 8.90471973e-004 4.45235986e-004 0.
      2.67141592e-003 4.45235986e-004 4.45235986e-004 0. 4.45235986e-004
      4.45235986e-004 8.90471973e-004 0. 0. 0. 8.90471973e-004
      8.90471973e-004 0. 4.45235986e-004 2.67141592e-003 8.90471973e-004
      4.45235986e-004 0. 8.90471973e-004 8.90471973e-004 0. 0.
      4.45235986e-004 0. 4.45235986e-004 0. 3.56188789e-003 0.
      4.45235986e-004 3.56188789e-003 0. 1.33570796e-003 0. 0.
      4.45235986e-004 1.33570796e-003 1.78094395e-003 8.90471973e-004
      4.45235986e-004 0. 4.45235986e-004 4.45235986e-004 0. 0. 0.
      8.90471973e-004 1.33570796e-003 8.90471973e-004 1.33570796e-003
      8.90471973e-004 2.22617993e-003 4.00712388e-003 8.90471973e-004
      8.90471973e-004 3.11665190e-003 8.90471973e-004 4.45235986e-004
      1.78094395e-003 0. 8.90471973e-004 0. 2.22617993e-003
      4.45235986e-004 0. 4.45235986e-004 4.45235986e-004 0.
      1.33570796e-003 1.78094395e-003 0. 1.33570796e-003 1.33570796e-003
      0. 2.22617993e-003 0. 0. 0. 1.78094395e-003 8.90471973e-004
      2.22617993e-003 8.90471973e-004 0. 1.33570796e-003 1.33570796e-003
      4.45235986e-004 0. 8.90471973e-004 8.90471973e-004 1.78094395e-003
      4.45235986e-004 4.45235986e-004 8.90471973e-004 1.33570796e-003
      4.45235986e-004 0. 2.22617993e-003 2.22617993e-003 4.45235986e-004
      1.33570796e-003 4.45235986e-004 0. 8.90471973e-004 8.90471973e-004
      1.33570796e-003 0. 0. 2.22617993e-003 0. 4.00712388e-003
      1.33570796e-003 1.78094395e-003 4.00712388e-003 4.45235986e-004 0.
      8.90471973e-004 0. 8.90471973e-004 8.90471973e-004 1.33570796e-003
      3.11665190e-003 1.33570796e-003 8.90471973e-004 8.90471973e-004 0.
      1.33570796e-003 4.45235986e-004 0. 8.90471973e-004 4.45235986e-004
      0. 0. 0. 0. 1.33570796e-003 1.33570796e-003 0. 4.45235986e-004
      4.45235986e-004 1.33570796e-003 4.45235986e-004 1.33570796e-003
      8.90471973e-004 4.45235986e-004 8.90471973e-004 0. 1.33570796e-003
      0. 0. 0. 8.90471973e-004 0. 1.33570796e-003 8.90471973e-004
      8.90471973e-004 8.90471973e-004 1.33570796e-003 2.22617993e-003 0.
      0. 1.33570796e-003 0. 0. 1.33570796e-003 0. 4.45235986e-004
      8.90471973e-004 4.45235986e-004 4.45235986e-004 4.45235986e-004
      4.45235986e-004 4.45235986e-004 1.33570796e-003 0. 1.33570796e-003
      1.33570796e-003 0. 4.45235986e-004 1.33570796e-003 1.33570796e-003
      4.45235986e-004 8.90471973e-004 0. 8.90471973e-004 4.45235986e-004
      1.33570796e-003 0. 2.67141592e-003 4.45235986e-004 4.45235986e-004
      4.45235986e-004 4.45235986e-003 4.45235986e-004 4.45235986e-004
      1.78094395e-003 1.33570796e-003 0. 8.90471973e-004 1.33570796e-003
      0. 1.78094395e-003 1.33570796e-003 4.45235986e-004 2.22617993e-003
      4.45235986e-004 0. 0. 8.90471973e-004 4.45235986e-004
      8.90471973e-004 0. 4.45235986e-004 8.90471973e-004 2.22617993e-003
      0. 4.45235986e-004 0. 4.00712388e-003 4.00712388e-003
      4.45235986e-004 8.90471973e-004 4.45235986e-004 4.45235986e-003
      8.90471973e-004 0. 4.45235986e-004 0. 0. 0. 8.90471973e-004
      8.90471973e-004 1.78094395e-003 4.45235986e-004 8.90471973e-004 0.
      4.45235986e-004 8.90471973e-004 0. 2.67141592e-003 2.67141592e-003
      1.33570796e-003 0. 1.33570796e-003 0. 4.45235986e-004
      3.11665190e-003 0. 1.33570796e-003 4.45235986e-004 8.90471973e-004
      8.90471973e-004 0. 0. 3.56188789e-003 0. 1.33570796e-003
      4.45235986e-004 0. 0. 0. 4.45235986e-004 0. 5.78806782e-003 0.
      8.90471973e-004 8.90471973e-004 4.45235986e-004 1.33570796e-003
      8.90471973e-004 0. 0. 0. 0. 0. 8.90471973e-004 0. 0. 0.
      8.90471973e-004 4.45235986e-004 1.33570796e-003 2.22617993e-003
      4.45235986e-004 0. 1.33570796e-003 1.33570796e-003 1.33570796e-003
      1.33570796e-003 8.90471973e-004 0. 8.90471973e-004 0.
      4.45235986e-004 1.33570796e-003 1.33570796e-003 0. 0.
      4.45235986e-004 0. 4.45235986e-004 4.45235986e-004 0. 0. 0. 0.
      4.45235986e-004 3.56188789e-003 0. 0. 8.90471973e-004
      4.45235986e-004 1.78094395e-003 0. 1.78094395e-003 3.11665190e-003
      1.78094395e-003 8.90471973e-004 0. 1.78094395e-003 1.78094395e-003
      8.90471973e-004 4.45235986e-004 2.67141592e-003 0. 1.78094395e-003
      8.90471973e-004 2.22617993e-003 1.78094395e-003 4.45235986e-004
      4.45235986e-004 1.33570796e-003 8.90471973e-004 1.33570796e-003
      4.45235986e-004 4.45235986e-004 0. 4.45235986e-004 0.
      4.45235986e-004 8.90471973e-004 0. 8.90471973e-004 4.45235986e-004
      4.89759585e-003 4.45235986e-004 4.45235986e-004 1.33570796e-003 0.
      4.45235986e-004 8.90471973e-004 1.33570796e-003 8.90471973e-004
      4.45235986e-004 1.78094395e-003 0. 1.78094395e-003 0. 0.
      1.33570796e-003 8.90471973e-004 4.45235986e-004 4.45235986e-004
      4.45235986e-004 1.33570796e-003 1.78094395e-003 8.90471973e-004
      2.22617993e-003 1.33570796e-003 8.90471973e-004 1.33570796e-003
      1.33570796e-003 1.78094395e-003 0. 1.78094395e-003 4.45235986e-004
      4.45235986e-004 1.33570796e-003 8.90471973e-004 4.45235986e-004
      8.90471973e-004 2.22617993e-003 8.90471973e-004 8.90471973e-004
      4.45235986e-003 8.90471973e-004 0. 4.45235986e-004 1.78094395e-003
      0. 0. 0. 8.90471973e-004 0. 8.90471973e-004 8.90471973e-004 0.
      1.33570796e-003 0. 8.90471973e-004 2.67141592e-003 0.
      5.34283184e-003 4.45235986e-004 2.67141592e-003 1.78094395e-003 0.
      1.33570796e-003 4.45235986e-004 4.45235986e-004 4.45235986e-004
      3.11665190e-003 8.90471973e-004 2.67141592e-003 8.90471973e-004
      3.56188789e-003 4.45235986e-004 8.90471973e-004 4.45235986e-004
      8.90471973e-004 1.78094395e-003 8.90471973e-004 1.33570796e-003 0.
      4.45235986e-004 0. 0. 0. 4.45235986e-004 8.90471973e-004
      4.45235986e-004 8.90471973e-004 4.45235986e-004 4.45235986e-004
      3.11665190e-003 8.90471973e-004 8.90471973e-004 4.45235986e-004
      4.45235986e-004 0. 7.12377578e-003 0. 0. 1.33570796e-003
      4.45235986e-004 4.45235986e-004 4.45235986e-004 4.45235986e-004
      4.45235986e-004 4.45235986e-004 0. 3.11665190e-003 0.
      8.90471973e-004 0. 8.90471973e-004 1.33570796e-003 8.90471973e-004
      8.90471973e-004 1.78094395e-003 4.45235986e-004 8.90471973e-004
      4.45235986e-004 0. 4.45235986e-004 1.78094395e-003 0. 0. 0.
      4.45235986e-004 8.90471973e-004 2.22617993e-003 1.33570796e-003
      8.90471973e-004 0. 8.90471973e-004 8.90471973e-004 8.90471973e-004
      1.33570796e-003 4.45235986e-004 1.33570796e-003 4.45235986e-004
      1.33570796e-003 0. 8.90471973e-004 4.45235986e-004 4.45235986e-004
      4.00712388e-003 1.78094395e-003 8.90471973e-004 0. 1.33570796e-003
      6.23330381e-003 2.22617993e-003 4.45235986e-004 3.56188789e-003
      8.90471973e-004 0. 0. 1.78094395e-003 4.45235986e-004
      1.78094395e-003 0. 4.45235986e-004 4.45235986e-004 0. 0.
      4.45235986e-004 0. 8.90471973e-004 8.90471973e-004 1.78094395e-003
      1.78094395e-003 8.90471973e-004 1.33570796e-003 2.67141592e-003
      3.11665190e-003 4.45235986e-004 8.01424775e-003 1.33570796e-003
      1.33570796e-003 8.90471973e-004 3.56188789e-003 1.33570796e-003
      4.45235986e-004 0. 4.45235986e-004 0. 8.90471973e-004
      7.12377578e-003 0. 8.90471973e-004 0. 1.33570796e-003
      8.90471973e-004 8.90471973e-004 8.90471973e-004 1.78094395e-003 0.
      3.56188789e-003 4.45235986e-004 0. 1.33570796e-003 0.
      1.33570796e-003 0. 1.78094395e-003 4.45235986e-004 1.78094395e-003
      2.22617993e-003 1.33570796e-003 4.45235986e-004 4.45235986e-004
      1.78094395e-003 3.11665190e-003 4.45235986e-004 1.33570796e-003 0.
      4.45235986e-004 8.90471973e-004 3.11665190e-003 1.33570796e-003
      1.78094395e-003 8.90471973e-004 2.67141592e-003 8.90471973e-004
      4.45235986e-004 0. 4.45235986e-004 1.78094395e-003 1.33570796e-003
      4.45235986e-004 1.78094395e-003 4.45235986e-004 8.90471973e-004
      1.33570796e-003 0. 0. 1.33570796e-003 1.33570796e-003
      8.90471973e-004 4.45235986e-004 0. 4.45235986e-004 0.
      1.33570796e-003 8.90471973e-004 0. 8.90471973e-004 2.67141592e-003
      4.45235986e-004 3.11665190e-003 1.33570796e-003 1.33570796e-003 0.
      8.90471973e-004 0. 0. 1.78094395e-003 1.33570796e-003 0.
      8.90471973e-004 1.33570796e-003 2.22617993e-003 2.22617993e-003
      1.33570796e-003 0. 2.67141592e-003 2.22617993e-003 4.45235986e-004
      1.78094395e-003 0. 1.33570796e-003 4.45235986e-004 1.78094395e-003
      2.22617993e-003 0. 4.45235986e-004 1.33570796e-003 8.90471973e-004
      3.56188789e-003 2.22617993e-003 4.45235986e-004 8.90471973e-004
      8.90471973e-004 4.45235986e-004 0. 0. 2.22617993e-003
      4.45235986e-004 1.78094395e-003 1.33570796e-003 4.45235986e-004
      1.78094395e-003 4.45235986e-004 5.34283184e-003 1.33570796e-003
      4.45235986e-004 0. 4.45235986e-004 0. 8.90471973e-004
      8.90471973e-004 4.45235986e-004 1.33570796e-003 8.90471973e-004
      4.45235986e-004 8.90471973e-004 4.45235986e-004 2.67141592e-003
      4.45235986e-004 1.33570796e-003 0. 3.11665190e-003 1.78094395e-003
      1.33570796e-003 0. 8.90471973e-004 1.33570796e-003 8.90471973e-004
      1.33570796e-003 0. 3.56188789e-003 1.02404281e-002 4.45235986e-004
      0. 1.33570796e-003 1.78094395e-003 4.45235986e-004 0.
      8.90471973e-004 2.22617993e-003 1.33570796e-003 0. 0. 0. 0.
      1.02404281e-002 4.45235986e-004 8.90471973e-004 8.90471973e-004
      1.78094395e-003 4.89759585e-003 8.90471973e-004 4.45235986e-004
      2.22617993e-003 4.45235986e-004 6.67853979e-003 3.56188789e-003 0.
      4.45235986e-004 4.45235986e-004 4.45235986e-004 4.45235986e-004
      3.56188789e-003 1.78094395e-003 8.90471973e-004 4.45235986e-004 0.
      0. 4.45235986e-004 1.33570796e-003 2.67141592e-003 1.33570796e-003
      3.56188789e-003 3.11665190e-003 8.90471973e-004 0. 0.
      4.45235986e-004 8.90471973e-004 4.45235986e-004 1.78094395e-003 0.
      0. 4.45235986e-004 0. 4.45235986e-004 8.90471973e-004
      4.45235986e-004 4.45235986e-004 2.67141592e-003 8.90471973e-004 0.
      4.45235986e-004 8.90471973e-004 0. 8.90471973e-004 2.22617993e-003</_>
    <_>
      0. 9.10746807e-004 9.10746807e-004 2.27686693e-003 9.10746807e-004
      4.55373386e-003 0. 1.82149361e-003 4.55373403e-004 0.
      4.55373403e-004 1.36612018e-003 1.36612018e-003 9.10746807e-004
      4.55373403e-004 9.10746807e-004 1.36612018e-003 4.55373403e-004
      1.82149361e-003 1.82149361e-003 1.36612018e-003 2.27686693e-003 0.
      4.55373403e-004 4.55373403e-004 4.55373403e-004 0. 1.82149361e-003
      4.55373403e-004 2.73224036e-003 1.36612018e-003 1.36612018e-003
      9.10746807e-004 4.55373403e-004 1.36612018e-003 0. 4.55373403e-004
      0. 9.10746807e-004 9.10746807e-004 4.55373403e-004 9.10746807e-004
      1.82149361e-003 1.82149361e-003 0. 2.27686693e-003 4.55373403e-004
      1.36612018e-003 9.10746807e-004 0. 0. 4.55373386e-003 0. 0.
      9.10746807e-004 4.55373403e-004 2.27686693e-003 9.10746807e-004
      2.73224036e-003 3.64298723e-003 0. 0. 9.10746807e-004 0.
      9.10746807e-004 5.00910729e-003 0. 9.10746807e-004 9.10746807e-004
      4.55373403e-004 2.27686693e-003 1.36612018e-003 9.10746807e-004
      4.55373403e-004 1.82149361e-003 9.10746807e-004 9.10746807e-004
      2.27686693e-003 9.10746807e-004 9.10746807e-004 4.55373403e-004
      1.36612018e-003 0. 4.55373403e-004 1.82149361e-003 0.
      1.36612018e-003 0. 0. 0. 0. 0. 4.55373403e-004 1.82149361e-003
      9.10746807e-004 0. 0. 9.10746807e-004 4.09836043e-003
      4.55373403e-004 1.36612018e-003 4.55373403e-004 0. 1.82149361e-003
      1.36612018e-003 1.36612018e-003 0. 1.36612018e-003 1.82149361e-003
      0. 9.10746807e-004 0. 1.36612018e-003 9.10746807e-004
      1.36612018e-003 0. 4.55373403e-004 0. 0. 1.36612018e-003
      1.36612018e-003 4.55373403e-004 9.10746807e-004 9.10746807e-004
      2.27686693e-003 1.36612018e-003 4.55373403e-004 0. 2.27686693e-003
      2.27686693e-003 2.27686693e-003 9.10746807e-004 9.10746807e-004 0.
      9.10746807e-004 2.27686693e-003 4.55373403e-004 0. 9.10746807e-004
      9.10746772e-003 4.55373403e-004 4.55373403e-004 0. 4.55373386e-003
      4.55373403e-004 1.36612018e-003 0. 4.55373403e-004 3.18761379e-003
      0. 0. 0. 1.82149361e-003 1.82149361e-003 1.82149361e-003
      9.10746807e-004 2.27686693e-003 0. 0. 2.27686693e-003
      9.10746807e-004 2.27686693e-003 0. 9.10746807e-004 1.82149361e-003
      9.10746807e-004 9.10746807e-004 1.36612018e-003 0. 4.55373403e-004
      2.73224036e-003 2.73224036e-003 4.55373403e-004 0. 1.36612018e-003
      9.10746807e-004 0. 1.82149361e-003 9.10746807e-004 9.10746807e-004
      9.10746807e-004 4.55373403e-004 9.10746807e-004 4.55373403e-004
      1.36612018e-003 9.10746807e-004 2.27686693e-003 1.82149361e-003
      3.18761379e-003 1.36612018e-003 2.27686693e-003 4.55373403e-004
      4.55373403e-004 9.10746807e-004 1.36612018e-003 4.55373403e-004
      4.55373403e-004 4.55373403e-004 9.10746807e-004 4.55373386e-003
      2.27686693e-003 0. 1.82149361e-003 9.10746807e-004 1.36612018e-003
      2.27686693e-003 0. 1.36612018e-003 4.55373403e-004 1.36612018e-003
      1.36612018e-003 1.82149361e-003 0. 1.82149361e-003 0.
      9.10746807e-004 4.55373403e-004 1.36612018e-003 4.55373403e-004
      4.55373403e-004 9.10746807e-004 9.10746807e-004 1.36612018e-003 0.
      0. 1.82149361e-003 9.10746807e-004 4.55373403e-004 0. 0.
      9.10746807e-004 0. 4.55373403e-004 0. 0. 0. 2.73224036e-003
      1.36612018e-003 1.82149361e-003 4.55373403e-004 4.55373403e-004
      4.55373403e-004 4.55373403e-004 9.10746807e-004 0. 0.
      3.18761379e-003 0. 4.55373403e-004 9.10746807e-004 1.36612018e-003
      0. 0. 4.55373403e-004 1.82149361e-003 0. 0. 3.18761379e-003
      4.55373403e-004 0. 0. 1.36612018e-003 1.82149361e-003
      2.27686693e-003 1.82149361e-003 9.10746807e-004 3.64298723e-003
      4.55373403e-004 4.55373403e-004 9.10746807e-004 4.55373403e-004
      4.55373403e-004 4.55373403e-004 6.83060102e-003 1.82149361e-003
      9.10746807e-004 1.82149361e-003 0. 0. 0. 9.10746807e-004 0.
      1.36612018e-003 4.55373403e-004 4.55373403e-004 9.10746807e-004
      9.10746807e-004 4.55373403e-004 0. 1.82149361e-003 0.
      4.55373403e-004 1.82149361e-003 1.82149361e-003 4.55373403e-004
      4.55373403e-004 4.55373403e-004 0. 0. 0. 0. 1.36612018e-003
      5.46448072e-003 0. 9.10746807e-004 1.82149361e-003 3.64298723e-003
      0. 0. 4.55373403e-004 2.27686693e-003 4.55373403e-004
      9.10746807e-004 4.55373403e-004 0. 1.36612018e-003 2.27686693e-003
      1.82149361e-003 9.10746807e-004 0. 9.10746807e-004 0.
      9.10746807e-004 0. 1.36612018e-003 4.55373403e-004 1.36612018e-003
      0. 0. 2.27686693e-003 1.82149361e-003 0. 1.36612018e-003
      4.55373403e-004 0. 9.10746807e-004 3.64298723e-003 0.
      4.55373403e-004 9.10746807e-004 4.55373403e-004 0. 9.10746807e-004
      1.82149361e-003 1.36612018e-003 4.55373403e-004 9.10746807e-004
      9.10746807e-004 0. 0. 0. 9.10746807e-004 9.10746807e-004
      4.55373403e-004 2.73224036e-003 0. 9.10746807e-004 4.55373403e-004
      1.36612018e-003 0. 9.10746807e-004 3.18761379e-003 2.27686693e-003
      1.82149361e-003 9.10746807e-004 0. 4.55373403e-004 0.
      9.10746807e-004 0. 9.10746807e-004 4.55373403e-004 1.82149361e-003
      9.10746807e-004 4.09836043e-003 4.55373403e-004 4.55373403e-004
      3.18761379e-003 4.55373403e-004 1.82149361e-003 1.18397083e-002
      4.55373403e-004 0. 0. 9.10746807e-004 4.55373403e-004
      3.64298723e-003 3.64298723e-003 0. 2.27686693e-003 0.
      9.10746807e-004 0. 1.82149361e-003 0. 0. 9.10746807e-004 0.
      9.10746807e-004 2.27686693e-003 9.10746807e-004 9.10746807e-004
      1.82149361e-003 3.18761379e-003 4.55373403e-004 0. 1.82149361e-003
      1.36612018e-003 4.55373403e-004 4.55373403e-004 1.36612018e-003 0.
      2.73224036e-003 4.55373403e-004 0. 4.55373403e-004 0.
      9.10746807e-004 4.55373403e-004 1.36612018e-003 1.36612018e-003 0.
      0. 0. 4.55373403e-004 9.10746807e-004 4.55373403e-004 0.
      9.10746807e-004 4.55373403e-004 1.36612018e-003 9.10746807e-004 0.
      0. 9.10746807e-004 0. 0. 3.64298723e-003 0. 4.55373403e-004
      4.55373403e-004 1.36612018e-003 4.55373403e-004 0. 1.82149361e-003
      0. 1.82149361e-003 0. 4.55373403e-004 9.10746807e-004 0.
      4.55373403e-004 9.10746807e-004 0. 9.10746807e-004 0.
      9.10746807e-004 1.36612018e-003 4.55373403e-004 4.55373403e-004
      9.10746807e-004 4.55373403e-004 1.36612018e-003 4.55373403e-004
      4.55373403e-004 1.82149361e-003 0. 4.55373403e-004 6.83060102e-003
      0. 2.27686693e-003 1.36612018e-003 9.10746807e-004 0.
      4.55373403e-004 9.10746807e-004 1.36612018e-003 4.55373403e-004 0.
      9.10746807e-004 3.18761379e-003 0. 3.18761379e-003 0.
      1.82149361e-003 9.10746807e-004 4.55373403e-004 4.55373403e-004
      4.55373403e-004 0. 1.82149361e-003 9.10746807e-004 0.
      4.55373403e-004 1.36612018e-003 9.10746807e-004 4.55373403e-004
      1.82149361e-003 2.73224036e-003 0. 4.55373403e-004 1.36612018e-003
      1.82149361e-003 3.64298723e-003 0. 1.36612018e-003 0.
      2.27686693e-003 9.10746807e-004 0. 9.10746807e-004 0. 0. 0.
      9.10746807e-004 4.55373403e-004 0. 9.10746807e-004 4.55373403e-004
      2.27686693e-003 6.83060102e-003 9.10746807e-004 9.10746807e-004 0.
      0. 2.27686693e-003 9.10746807e-004 4.09836043e-003 1.36612018e-003
      2.27686693e-003 0. 4.55373403e-004 1.82149361e-003 4.55373403e-004
      2.73224036e-003 0. 0. 1.82149361e-003 2.73224036e-003 0.
      4.55373403e-004 1.36612018e-003 9.10746807e-004 1.82149361e-003
      9.10746807e-004 1.36612018e-003 4.55373403e-004 1.82149361e-003
      3.18761379e-003 4.55373403e-004 0. 4.55373403e-004 1.36612018e-003
      5.00910729e-003 0. 9.10746807e-004 4.55373403e-004 9.10746807e-004
      1.36612018e-003 1.82149361e-003 2.27686693e-003 5.00910729e-003 0.
      1.82149361e-003 0. 0. 1.82149361e-003 1.82149361e-003 0. 0.
      4.09836043e-003 0. 1.36612018e-003 0. 1.36612018e-003
      9.10746807e-004 4.55373403e-004 9.10746807e-004 4.55373403e-004
      4.55373403e-004 3.18761379e-003 2.73224036e-003 1.36612018e-003
      1.36612018e-003 0. 9.10746807e-004 0. 4.55373403e-004
      4.55373403e-004 1.36612018e-003 3.64298723e-003 9.10746807e-004
      4.55373403e-004 4.55373403e-004 4.55373403e-004 0. 1.36612018e-003
      1.82149361e-003 4.55373403e-004 4.55373403e-004 0. 1.36612018e-003
      1.82149361e-003 1.36612018e-003 9.10746807e-004 4.55373403e-004 0.
      3.64298723e-003 0. 0. 0. 4.55373403e-004 1.36612018e-003 0.
      1.36612018e-003 9.10746807e-004 9.10746807e-004 4.55373403e-004
      1.36612018e-003 2.27686693e-003 1.36612018e-003 1.82149361e-003 0.
      0. 3.18761379e-003 2.73224036e-003 0. 0. 4.55373403e-004 0. 0.
      4.55373403e-004 0. 0. 0. 9.10746807e-004 0. 4.55373403e-004
      4.55373403e-004 4.55373403e-004 4.55373403e-004 4.55373403e-004
      9.10746807e-004 1.36612018e-003 9.10746807e-004 0. 2.73224036e-003
      9.10746807e-004 4.55373403e-004 3.64298723e-003 4.55373403e-004 0.
      4.55373403e-004 9.10746807e-004 4.55373403e-004 0. 4.55373403e-004
      0. 9.10746807e-004 4.55373403e-004 4.55373403e-004 5.46448072e-003
      1.82149361e-003 9.10746807e-004 0. 4.55373403e-004 2.27686693e-003
      4.55373403e-004 2.27686693e-003 0. 0. 0. 4.55373403e-004
      9.10746807e-004 0. 0. 4.55373403e-004 4.55373403e-004
      4.55373403e-004 2.27686693e-003 0. 1.36612018e-003 4.55373403e-004
      4.55373403e-004 2.73224036e-003 0. 0. 4.55373403e-004
      1.36612018e-003 4.55373403e-004 1.36612018e-003 1.82149361e-003
      2.27686693e-003 0. 4.55373403e-004 0. 9.10746807e-004
      9.10746807e-004 0. 4.55373403e-004 9.10746807e-004 4.55373403e-004
      0. 9.10746807e-004 1.36612018e-003 3.64298723e-003 0.
      9.10746807e-004 0. 1.82149361e-003 4.55373403e-004 4.55373403e-004
      0. 1.36612018e-003 0. 9.10746807e-004 1.82149361e-003
      1.82149361e-003 0. 0. 1.82149361e-003 0. 3.18761379e-003
      4.55373403e-004 2.27686693e-003 0. 9.10746807e-004 3.18761379e-003
      0. 4.55373403e-004 0. 9.10746807e-004 9.10746807e-004 0.
      1.36612018e-003 4.55373403e-004 4.55373403e-004 0. 2.27686693e-003
      0. 5.00910729e-003 0. 4.55373403e-004 1.36612018e-003 0.
      1.82149361e-003 1.36612018e-003 0. 0. 9.10746807e-004 0.
      1.82149361e-003 0. 2.27686693e-003 1.82149361e-003 1.82149361e-003
      1.82149361e-003 0. 0. 4.55373403e-004 1.82149361e-003 0. 0.
      9.10746807e-004 2.73224036e-003 0. 0. 0. 0. 1.82149361e-003
      4.55373403e-004 1.36612018e-003 2.27686693e-003 9.10746807e-004
      9.10746807e-004 1.36612018e-003 9.10746807e-004 0. 0. 0.
      4.55373403e-004 0. 1.36612018e-003 0. 0. 4.55373403e-004
      1.36612018e-003 1.82149361e-003 0. 4.55373403e-004 2.73224036e-003
      2.27686693e-003 0. 4.55373403e-004 3.18761379e-003 9.10746807e-004
      4.55373403e-004 9.10746807e-004 3.64298723e-003 9.10746807e-004
      1.82149361e-003 1.82149361e-003 4.09836043e-003 9.10746807e-004
      4.55373403e-004 4.55373403e-004 1.36612018e-003 5.00910729e-003
      9.10746807e-004 0. 3.64298723e-003 4.55373386e-003 4.55373403e-004
      4.55373403e-004 9.10746807e-004 9.10746807e-004 1.82149361e-003
      2.73224036e-003 4.55373403e-004 9.10746807e-004 1.82149361e-003
      9.10746807e-004 2.27686693e-003 0. 1.82149361e-003 4.55373403e-004
      4.55373403e-004 0. 1.82149361e-003 0. 0. 4.55373403e-004
      1.36612018e-003 1.54826958e-002 1.82149361e-003 0. 9.10746807e-004
      1.36612018e-003 0. 4.55373403e-004 4.55373403e-004 4.55373403e-004
      4.55373403e-004 0. 9.10746807e-004 1.36612018e-003 9.10746807e-004
      4.55373403e-004 9.10746807e-004 0. 0. 4.55373403e-004
      9.10746807e-004 2.27686693e-003 2.27686693e-003 4.55373403e-004
      4.55373403e-004 9.10746807e-004 0. 4.55373403e-004 4.55373403e-004
      1.82149361e-003 4.55373403e-004 1.36612018e-003 4.55373403e-004
      1.82149361e-003 3.18761379e-003 1.36612018e-003 5.46448072e-003
      9.10746807e-004 9.10746807e-004 4.55373403e-004 9.10746807e-004
      9.10746807e-004 0. 0. 1.36612018e-003 2.27686693e-003
      9.10746807e-004 4.55373403e-004 4.55373403e-004 9.10746807e-004
      2.73224036e-003 4.55373403e-004 4.09836043e-003 2.27686693e-003 0.
      0. 9.10746807e-004 4.55373403e-004 9.10746807e-004 4.55373403e-004
      4.55373403e-004 0. 4.55373403e-004 4.55373403e-004 9.10746807e-004
      4.55373403e-004 0. 4.55373403e-004 1.82149361e-003 0. 0. 0.
      9.10746807e-004 9.10746807e-004 2.73224036e-003 4.55373403e-004
      9.10746807e-004 1.82149361e-003 1.36612018e-003 1.82149361e-003
      1.36612018e-003 0. 4.55373403e-004 0. 0. 1.36612018e-003
      9.10746807e-004 9.10746807e-004 4.55373403e-004 4.55373403e-004
      1.36612018e-003 4.55373403e-004 4.55373403e-004 4.55373403e-004 0.
      0. 4.55373403e-004 4.55373403e-004 4.55373403e-004 1.82149361e-003
      4.55373403e-004 1.82149361e-003 9.10746807e-004 4.55373403e-004 0.
      1.82149361e-003 1.36612018e-003 2.27686693e-003 0. 2.27686693e-003
      2.27686693e-003 9.10746807e-004 4.55373403e-004 9.10746807e-004
      9.10746807e-004 0. 2.73224036e-003 3.18761379e-003 4.55373403e-004
      9.10746807e-004 1.36612018e-003 0. 4.55373403e-004 4.55373403e-004
      4.55373403e-004 9.10746807e-004 3.18761379e-003 9.10746807e-004
      2.27686693e-003 0. 0. 4.55373403e-004 0. 0. 4.55373403e-004
      9.10746807e-004 1.36612018e-003 4.55373403e-004 9.10746807e-004 0.
      1.36612018e-003 4.55373403e-004 0. 0. 9.10746807e-004
      4.55373403e-004 1.36612018e-003 9.10746807e-004 0. 4.55373403e-004
      0. 1.82149361e-003 4.55373403e-004 0. 1.36612018e-003
      1.82149361e-003 2.73224036e-003 4.55373403e-004 0. 9.10746807e-004
      1.36612018e-003 0. 9.10746807e-004 9.10746807e-004 9.10746807e-004
      0. 1.36612018e-003 4.55373403e-004</_>
    <_>
      2.34466582e-003 5.86166454e-004 1.75849930e-003 5.86166454e-004
      1.17233291e-003 1.75849930e-003 2.93083233e-003 2.34466582e-003
      5.86166454e-004 2.34466582e-003 5.86166454e-004 1.17233291e-003 0.
      0. 1.75849930e-003 1.75849930e-003 1.75849930e-003 1.17233291e-003
      0. 1.75849930e-003 2.34466582e-003 0. 0. 5.86166454e-004
      1.75849930e-003 1.75849930e-003 1.17233291e-003 1.17233291e-003 0.
      5.86166454e-004 2.34466582e-003 0. 1.17233291e-003 1.75849930e-003
      1.17233291e-003 0. 7.03399722e-003 0. 0. 1.17233291e-003
      1.75849930e-003 1.17233291e-003 1.17233291e-003 0. 0.
      1.75849930e-003 5.27549814e-003 0. 0. 0. 1.17233291e-003
      2.34466582e-003 5.86166454e-004 0. 2.34466582e-003 5.86166454e-004
      1.75849930e-003 0. 5.86166454e-004 5.86166454e-004 0.
      1.17233291e-003 0. 1.17233291e-003 5.86166454e-004 0. 0.
      5.86166454e-004 1.75849930e-003 5.86166454e-004 1.75849930e-003
      5.86166454e-004 5.86166454e-004 4.10316512e-003 4.10316512e-003
      2.34466582e-003 1.75849930e-003 1.75849930e-003 0. 1.17233291e-003
      1.17233291e-003 5.86166454e-004 2.93083233e-003 1.17233291e-003 0.
      0. 1.17233291e-003 2.34466582e-003 0. 1.17233291e-003
      1.17233291e-003 0. 1.17233291e-003 0. 5.86166454e-004
      5.86166454e-004 5.86166454e-004 0. 5.86166454e-004 1.17233291e-003
      1.17233291e-003 5.86166454e-004 1.75849930e-003 3.51699861e-003
      1.75849930e-003 0. 0. 5.86166454e-004 5.86166454e-004
      1.17233291e-003 5.86166454e-004 2.34466582e-003 1.17233291e-003
      3.51699861e-003 2.34466582e-003 0. 1.17233291e-003 5.86166454e-004
      1.17233291e-003 2.34466582e-003 5.86166454e-004 0. 1.75849930e-003
      1.17233291e-003 1.75849930e-003 5.86166454e-004 1.75849930e-003
      5.86166454e-004 5.86166454e-004 2.34466582e-003 5.86166454e-004
      5.86166454e-004 1.75849930e-003 5.86166454e-004 0. 5.86166454e-004
      1.17233291e-003 5.86166454e-004 1.75849930e-003 0. 0.
      1.17233291e-003 0. 2.34466582e-003 0. 0. 1.17233291e-003
      1.75849930e-003 5.86166454e-004 1.17233291e-003 0. 2.34466582e-003
      5.86166454e-004 0. 5.86166454e-004 0. 5.86166454e-004 0.
      1.75849930e-003 2.93083233e-003 5.86166454e-004 5.86166454e-004
      5.86166454e-004 1.17233291e-003 1.75849930e-003 3.51699861e-003
      5.86166454e-004 0. 0. 1.17233291e-003 1.75849930e-003
      2.34466582e-003 2.34466582e-003 5.86166454e-004 0. 1.17233291e-003
      1.17233291e-003 0. 1.17233291e-003 1.17233291e-003 5.86166454e-004
      2.34466582e-003 2.34466582e-003 2.34466582e-003 2.93083233e-003
      5.86166454e-004 5.86166454e-004 0. 1.17233291e-003 1.75849930e-003
      5.86166454e-004 1.75849930e-003 2.34466582e-003 1.17233291e-003
      5.86166454e-004 2.34466582e-003 0. 2.34466582e-003 0.
      1.75849930e-003 1.17233291e-003 0. 0. 5.86166454e-004
      5.86166454e-004 5.86166454e-004 5.86166454e-004 5.86166454e-004
      2.93083233e-003 1.75849930e-003 1.75849930e-003 1.17233291e-003
      1.17233291e-003 1.17233291e-003 1.17233291e-003 5.86166454e-004
      1.75849930e-003 5.86166454e-004 0. 0. 5.86166454e-004 0.
      1.75849930e-003 5.86166454e-004 5.86166454e-004 1.17233291e-003
      1.17233291e-003 2.93083233e-003 1.17233291e-003 5.86166454e-004 0.
      0. 0. 1.75849930e-003 0. 1.17233291e-003 5.86166454e-004
      1.75849930e-003 5.86166454e-004 1.17233291e-003 1.17233291e-003
      2.34466582e-003 5.86166454e-004 1.17233291e-003 5.86166454e-004
      3.51699861e-003 2.34466582e-003 0. 1.75849930e-003 0.
      1.75849930e-003 0. 0. 5.86166454e-004 7.03399722e-003
      1.75849930e-003 0. 2.93083233e-003 5.86166454e-004 5.86166454e-004
      1.17233291e-003 4.10316512e-003 2.34466582e-003 0. 5.86166454e-004
      1.17233291e-003 2.34466582e-003 0. 1.17233291e-003 5.86166454e-004
      5.86166454e-004 1.17233291e-003 1.17233291e-003 1.75849930e-003
      1.17233291e-003 2.34466582e-003 0. 0. 5.86166454e-004 0. 0.
      5.86166454e-004 1.75849930e-003 1.17233291e-003 5.86166454e-004
      1.17233291e-003 5.86166454e-004 1.17233291e-003 0. 5.86166454e-004
      1.17233291e-003 0. 0. 0. 0. 1.17233291e-003 5.86166454e-004
      5.86166454e-004 2.93083233e-003 0. 1.75849930e-003 5.86166454e-004
      0. 0. 1.17233291e-003 0. 1.17233291e-003 0. 0. 2.93083233e-003 0.
      1.75849930e-003 0. 1.17233291e-003 1.17233291e-003 1.75849930e-003
      0. 5.86166454e-004 5.86166454e-004 1.75849930e-003 5.86166454e-004
      1.17233291e-003 2.34466582e-003 1.17233291e-003 2.93083233e-003
      5.86166454e-004 0. 0. 0. 5.86166454e-004 0. 5.86166454e-004 0.
      1.17233291e-003 0. 5.86166454e-004 1.17233291e-003 5.86166454e-004
      0. 1.17233291e-003 1.75849930e-003 1.75849930e-003 0.
      5.86166454e-004 5.86166454e-004 0. 0. 1.17233291e-003
      1.17233291e-003 4.10316512e-003 0. 5.86166454e-004 1.17233291e-003
      1.17233291e-003 5.86166454e-004 1.17233291e-003 5.86166454e-004
      5.86166454e-004 5.86166454e-004 0. 1.17233291e-003 0. 0.
      5.86166454e-004 3.51699861e-003 0. 1.17233291e-003 1.17233291e-003
      5.86166454e-004 5.86166454e-004 0. 5.86166454e-004 1.17233291e-003
      5.86166454e-004 3.51699861e-003 4.10316512e-003 2.34466582e-003 0.
      1.17233291e-003 1.75849930e-003 5.27549814e-003 1.17233291e-003
      4.68933163e-003 3.51699861e-003 5.86166454e-004 1.75849930e-003
      1.75849930e-003 0. 0. 1.17233291e-003 0. 1.17233291e-003 0.
      1.75849930e-003 2.93083233e-003 1.17233291e-003 5.86166454e-004
      5.86166454e-004 0. 0. 4.10316512e-003 5.86166454e-004
      5.86166454e-004 1.75849930e-003 5.86166454e-004 5.86166454e-004 0.
      1.75849930e-003 0. 0. 1.75849930e-003 0. 1.17233291e-003
      1.75849930e-003 0. 5.86166454e-004 0. 5.86166454e-004
      5.86166454e-004 5.86166454e-004 1.17233291e-003 0. 5.86166454e-004
      5.86166454e-004 0. 1.17233291e-003 0. 0. 0. 0. 0. 0. 0. 0. 0. 0.
      5.86166454e-004 1.17233291e-003 3.51699861e-003 4.68933163e-003 0.
      5.86166454e-004 1.75849930e-003 0. 0. 0. 2.93083233e-003 0.
      2.34466582e-003 1.17233291e-003 1.75849930e-003 5.86166454e-004 0.
      1.17233291e-003 1.17233291e-003 0. 0. 0. 5.86166454e-004
      1.75849930e-003 5.86166454e-004 1.17233291e-003 5.86166454e-004
      4.68933163e-003 5.86166454e-004 2.93083233e-003 1.17233291e-003
      5.86166454e-004 4.10316512e-003 2.34466582e-003 0. 5.86166454e-004
      1.17233291e-003 0. 2.34466582e-003 5.86166454e-004 5.86166454e-004
      0. 2.93083233e-003 5.86166454e-004 0. 4.68933163e-003
      5.86166454e-004 1.75849930e-003 2.34466582e-003 1.17233291e-003
      1.75849930e-003 5.86166454e-004 0. 0. 1.75849930e-003 0.
      5.86166454e-004 0. 0. 5.86166454e-004 5.86166454e-004
      1.17233291e-003 1.75849930e-003 5.86166454e-004 0. 1.75849930e-003
      1.75849930e-003 1.17233291e-003 5.86166454e-004 1.17233291e-003
      5.86166454e-004 1.17233291e-003 0. 0. 2.93083233e-003
      1.75849930e-003 0. 5.86166454e-004 1.17233291e-003 1.17233291e-003
      2.34466582e-003 3.51699861e-003 1.75849930e-003 0. 5.86166454e-004
      2.34466582e-003 0. 0. 5.86166454e-004 2.34466582e-003
      1.75849930e-003 1.17233291e-003 5.86166454e-004 1.17233291e-003
      5.86166454e-004 5.86166454e-004 1.17233291e-003 5.86166454e-004 0.
      5.86166454e-004 5.86166454e-004 0. 1.17233291e-003 5.86166454e-004
      1.75849930e-003 5.86166454e-004 1.75849930e-003 5.86166454e-004
      5.86166454e-004 2.93083233e-003 0. 1.17233291e-003 0.
      1.17233291e-003 0. 0. 2.34466582e-003 2.34466582e-003 0. 0. 0.
      1.75849930e-003 5.86166454e-004 2.34466582e-003 5.86166454e-004
      3.51699861e-003 5.86166454e-004 5.86166454e-004 0. 1.17233291e-003
      1.17233291e-003 1.17233291e-003 1.17233291e-003 5.86166454e-004
      5.86166454e-004 5.86166454e-004 5.86166454e-004 0. 5.86166454e-004
      2.34466582e-003 1.75849930e-003 1.17233291e-003 3.51699861e-003
      1.17233291e-003 5.86166454e-004 0. 5.86166454e-004 0. 0.
      5.86166454e-004 0. 2.34466582e-003 0. 5.86166454e-004
      1.75849930e-003 0. 2.34466582e-003 1.75849930e-003 5.86166454e-004
      2.34466582e-003 1.17233291e-003 5.86166454e-004 1.17233291e-003 0.
      0. 1.17233291e-003 1.17233291e-003 1.75849930e-003 1.17233291e-003
      0. 0. 1.75849930e-003 0. 1.17233291e-003 5.86166454e-004
      5.86166454e-004 1.17233291e-003 0. 1.17233291e-003 0.
      3.51699861e-003 5.86166454e-004 1.17233291e-003 0. 1.75849930e-003
      0. 5.86166454e-004 0. 1.17233291e-003 4.10316512e-003 0.
      5.86166454e-004 5.86166454e-004 0. 0. 1.17233291e-003 0.
      5.86166454e-004 0. 2.93083233e-003 5.86166454e-004 0.
      2.34466582e-003 0. 0. 0. 0. 1.17233291e-003 5.86166454e-004
      1.75849930e-003 1.17233291e-003 1.75849930e-003 0. 1.17233291e-003
      1.17233291e-003 2.34466582e-003 0. 0. 1.17233291e-003
      5.86166454e-004 5.86166454e-004 1.17233291e-003 5.86166454e-004 0.
      5.86166454e-004 3.51699861e-003 1.75849930e-003 0. 2.34466582e-003
      1.17233291e-003 5.86166454e-004 1.75849930e-003 0. 0.
      1.75849930e-003 5.86166454e-004 2.34466582e-003 0. 0.
      5.86166454e-004 1.17233291e-003 1.17233291e-003 2.34466582e-003
      2.34466582e-003 1.75849930e-003 0. 5.86166454e-004 0.
      1.75849930e-003 0. 2.34466582e-003 1.75849930e-003 5.86166454e-004
      1.75849930e-003 5.86166454e-004 0. 1.17233291e-003 0.
      5.86166454e-004 1.75849930e-003 0. 5.86166454e-004 5.86166454e-004
      2.93083233e-003 2.93083233e-003 5.86166454e-004 1.17233291e-003
      5.86166454e-004 1.75849930e-003 2.93083233e-003 1.75849930e-003
      2.34466582e-003 0. 1.17233291e-003 5.86166454e-004 5.86166454e-004
      5.86166454e-004 0. 2.34466582e-003 0. 0. 1.75849930e-003 0.
      2.34466582e-003 1.17233291e-003 1.75849930e-003 5.86166454e-004
      1.17233291e-003 1.17233291e-003 1.75849930e-003 5.86166454e-004
      3.51699861e-003 1.75849930e-003 1.17233291e-003 1.17233291e-003 0.
      0. 0. 1.75849930e-003 0. 0. 5.86166454e-004 0. 1.75849930e-003
      4.68933163e-003 5.86166454e-004 2.93083233e-003 5.86166454e-004
      1.75849930e-003 0. 0. 1.75849930e-003 0. 2.93083233e-003 0.
      2.34466582e-003 1.17233291e-003 1.17233291e-003 2.34466582e-003
      3.51699861e-003 2.34466582e-003 0. 5.86166454e-004 0. 0.
      1.17233291e-003 5.86166454e-004 0. 5.86166454e-004 0.
      1.17233291e-003 5.86166454e-004 5.86166454e-004 1.17233291e-003
      5.86166454e-004 2.34466582e-003 5.86166454e-004 1.17233291e-003
      1.75849930e-003 1.75849930e-003 5.86166454e-004 5.86166454e-004 0.
      0. 0. 5.86166454e-004 5.86166454e-004 5.86166454e-004
      1.17233291e-003 0. 0. 5.86166454e-004 1.75849930e-003
      5.86166454e-004 2.34466582e-003 1.17233291e-003 1.75849930e-003
      1.75849930e-003 4.10316512e-003 5.86166454e-004 5.86166454e-004
      1.75849930e-003 1.75849930e-003 1.17233291e-003 0. 5.86166454e-004
      0. 1.17233291e-003 2.34466582e-003 5.86166454e-004 5.86166454e-004
      1.75849930e-003 1.17233291e-003 0. 0. 5.86166454e-004 0.
      1.17233291e-003 1.17233291e-003 5.86166454e-004 1.17233291e-003
      5.86166454e-004 1.17233291e-003 0. 5.86166454e-004 5.86166454e-004
      1.75849930e-003 2.34466582e-003 5.86166454e-004 5.86166454e-004
      2.34466582e-003 0. 1.17233291e-003 0. 5.86166454e-004
      1.17233291e-003 0. 0. 0. 1.17233291e-003 5.86166454e-004
      5.86166454e-004 0. 1.17233291e-003 0. 1.17233291e-003
      1.75849930e-003 5.86166454e-004 0. 1.17233291e-003 5.86166454e-004
      0. 5.86166454e-004 2.93083233e-003 1.17233291e-003 0.
      1.17233291e-003 1.75849930e-003 5.86166454e-004 1.17233291e-003 0.
      1.75849930e-003 0. 5.86166454e-004 0. 5.86166454e-004 0. 0.
      1.17233291e-003 0. 1.17233291e-003 1.17233291e-003 5.86166466e-003
      1.17233291e-003 0. 0. 1.17233291e-003 5.86166454e-004 0. 0.
      5.86166454e-004 5.86166454e-004 0. 1.17233291e-003 2.34466582e-003
      0. 1.17233291e-003 2.34466582e-003 5.86166454e-004 0.
      5.86166454e-004 0. 0. 0. 0. 1.17233291e-003 2.34466582e-003
      5.86166454e-004 5.86166454e-004 1.17233291e-003 0. 5.86166454e-004
      5.86166454e-004 0. 0. 1.17233291e-003 2.34466582e-003
      1.75849930e-003 5.86166466e-003 5.86166454e-004 5.86166454e-004
      1.17233291e-003 5.86166454e-004 2.34466582e-003 0. 5.86166454e-004
      5.86166454e-004 1.75849930e-003 0. 0. 1.75849930e-003
      1.17233291e-003 3.51699861e-003 0. 4.68933163e-003 2.34466582e-003
      0. 1.17233291e-003 0. 4.10316512e-003 5.86166454e-004 0. 0.
      1.17233291e-003 2.93083233e-003 5.86166454e-004 5.86166454e-004
      2.34466582e-003 5.86166466e-003 1.17233291e-003 0. 5.86166454e-004
      5.86166454e-004 0. 5.86166454e-004 0. 5.86166454e-004
      1.17233291e-003 1.17233291e-003 5.86166454e-004 0. 2.34466582e-003
      0. 5.86166454e-004 0. 5.86166454e-004 1.17233291e-003 0. 0.
      1.17233291e-003 1.17233291e-003 1.17233291e-003 2.93083233e-003
      1.17233291e-003 0. 0. 0. 0. 0. 1.17233291e-003 0. 1.17233291e-003
      0. 0. 1.75849930e-003 1.17233291e-003 5.86166454e-004
      1.75849930e-003 1.17233291e-003 1.75849930e-003 1.75849930e-003
      5.86166454e-004 1.17233291e-003 5.86166454e-004 5.86166454e-004
      2.34466582e-003 5.86166454e-004 0. 2.34466582e-003 0. 0.
      2.34466582e-003 1.75849930e-003 5.86166454e-004 0. 1.75849930e-003
      5.86166454e-004 5.86166454e-004 5.86166454e-004 5.86166454e-004 0.
      0. 2.34466582e-003 1.75849930e-003</_>
    <_>
      3.83141777e-003 1.64203614e-003 3.28407227e-003 1.64203614e-003 0.
      1.09469076e-003 5.47345378e-004 5.47345378e-004 5.47345378e-004
      3.83141777e-003 5.47345378e-004 1.64203614e-003 1.64203614e-003
      1.09469076e-003 1.09469076e-003 1.64203614e-003 1.64203614e-003
      2.73672678e-003 5.47345378e-004 2.18938151e-003 5.47345378e-004
      1.09469076e-003 5.47345378e-004 1.64203614e-003 1.09469076e-003 0.
      5.47345378e-004 1.64203614e-003 5.47345378e-004 0. 2.18938151e-003
      5.47345378e-004 0. 5.47345378e-004 5.47345378e-004 0. 0.
      5.47345378e-004 0. 5.47345378e-004 5.47345378e-004 1.09469076e-003
      5.47345378e-004 1.09469076e-003 0. 1.09469076e-003 0. 0. 0.
      1.64203614e-003 0. 3.28407227e-003 0. 1.09469076e-003
      2.73672678e-003 5.47345378e-004 4.92610829e-003 1.09469076e-003
      5.47345378e-004 5.47345378e-004 1.64203614e-003 5.47345378e-004
      5.47345378e-004 5.47345378e-004 5.47345378e-004 0. 1.64203614e-003
      2.73672678e-003 1.09469076e-003 1.64203614e-003 0. 1.09469076e-003
      1.09469076e-003 1.09469076e-003 0. 1.09469076e-003 1.09469076e-003
      2.18938151e-003 0. 5.47345378e-004 0. 5.47345378e-004 0. 0.
      1.09469076e-003 1.64203614e-003 0. 0. 5.47345378e-004
      1.09469076e-003 1.09469076e-003 1.64203614e-003 0. 5.47345378e-004
      5.47345378e-004 5.47345378e-004 1.64203614e-003 1.64203614e-003
      1.09469076e-003 5.47345378e-004 1.09469076e-003 5.47345378e-004 0.
      5.47345378e-004 2.73672678e-003 1.09469076e-003 5.47345378e-004
      5.47345378e-004 0. 5.47345378e-004 1.09469076e-003 1.09469076e-003
      5.47345378e-004 2.18938151e-003 5.47345378e-004 0. 1.09469076e-003
      5.47345378e-004 5.47345378e-004 1.64203614e-003 0. 0.
      5.47345378e-004 0. 0. 1.09469076e-003 1.64203614e-003
      5.47345378e-004 5.47345378e-004 1.09469076e-003 1.64203614e-003
      5.47345378e-004 0. 0. 5.47345378e-004 2.73672678e-003 0. 0.
      1.09469076e-003 1.09469076e-003 0. 0. 5.47345378e-004
      5.47345378e-004 0. 1.09469076e-003 5.47345378e-004 0.
      2.18938151e-003 1.09469076e-003 0. 5.47345378e-004 2.18938151e-003
      2.73672678e-003 2.18938151e-003 0. 4.37876303e-003 1.09469076e-003
      0. 2.18938151e-003 0. 1.64203614e-003 1.09469076e-003
      5.47345378e-004 4.37876303e-003 1.64203614e-003 1.64203614e-003
      1.64203614e-003 0. 0. 1.64203614e-003 2.73672678e-003 0.
      5.47345378e-004 1.64203614e-003 5.47345378e-004 5.47345378e-004
      1.64203614e-003 1.09469076e-003 1.09469076e-003 0. 2.73672678e-003
      0. 1.09469076e-003 1.09469076e-003 5.47345378e-004 1.09469076e-003
      1.09469076e-003 1.09469076e-003 1.64203614e-003 0. 5.47345378e-004
      1.09469076e-003 0. 1.09469076e-003 1.09469076e-003 1.64203614e-003
      1.09469076e-003 1.64203614e-003 4.37876303e-003 1.64203614e-003 0.
      5.47345378e-004 5.47345378e-004 2.73672678e-003 1.09469076e-003
      1.09469076e-003 0. 2.73672678e-003 5.47345378e-004 1.09469076e-003
      1.09469076e-003 1.09469076e-003 5.47345378e-004 0. 2.18938151e-003
      4.92610829e-003 1.09469076e-003 1.64203614e-003 0. 2.18938151e-003
      5.47345378e-004 5.47345378e-004 8.21018033e-003 5.47345378e-004 0.
      5.47345378e-004 2.18938151e-003 5.47345378e-004 1.09469076e-003
      2.73672678e-003 5.47345378e-004 1.09469076e-003 1.09469076e-003
      1.09469076e-003 5.47345378e-004 5.47345378e-004 1.09469076e-003
      5.47345378e-004 5.47345378e-004 1.09469076e-003 1.09469076e-003
      1.64203614e-003 5.47345378e-004 0. 4.37876303e-003 0. 0.
      1.09469076e-003 2.18938151e-003 0. 0. 2.18938151e-003
      5.47345355e-003 0. 2.73672678e-003 5.47345378e-004 1.09469076e-003
      2.18938151e-003 0. 4.92610829e-003 2.73672678e-003 4.37876303e-003
      0. 2.73672678e-003 1.64203614e-003 3.28407227e-003 0. 0.
      1.64203614e-003 1.09469076e-003 5.47345378e-004 0. 1.09469076e-003
      0. 5.47345378e-004 0. 5.47345378e-004 5.47345378e-004 0.
      2.18938151e-003 0. 5.47345378e-004 1.09469076e-003 0.
      5.47345378e-004 1.64203614e-003 1.64203614e-003 0. 1.64203614e-003
      1.09469076e-003 1.09469076e-003 0. 1.09469076e-003 1.64203614e-003
      1.64203614e-003 1.64203614e-003 1.64203614e-003 5.47345378e-004
      1.64203614e-003 2.73672678e-003 2.18938151e-003 5.47345378e-004 0.
      0. 0. 3.83141777e-003 0. 5.47345378e-004 0. 2.18938151e-003
      5.47345378e-004 1.64203614e-003 1.09469076e-003 2.18938151e-003
      5.47345378e-004 3.28407227e-003 1.64203614e-003 5.47345378e-004
      1.09469076e-003 5.47345378e-004 0. 1.09469076e-003 0. 0.
      5.47345378e-004 0. 5.47345378e-004 1.09469076e-003 1.09469076e-003
      5.47345378e-004 5.47345378e-004 1.64203614e-003 1.09469076e-003 0.
      1.09469076e-003 2.73672678e-003 3.28407227e-003 5.47345378e-004 0.
      1.09469076e-003 0. 1.09469076e-003 1.09469076e-003 0.
      1.09469076e-003 0. 0. 1.64203614e-003 5.47345378e-004
      5.47345378e-004 1.64203614e-003 0. 3.83141777e-003 5.47345378e-004
      5.47345378e-004 5.47345378e-004 1.64203614e-003 5.47345378e-004
      2.18938151e-003 1.09469076e-003 1.09469076e-003 1.64203614e-003
      5.47345378e-004 5.47345355e-003 0. 1.64203614e-003 0.
      5.47345378e-004 0. 5.47345378e-004 2.18938151e-003 2.18938151e-003
      1.09469076e-003 1.64203614e-003 0. 1.64203614e-003 1.09469076e-003
      0. 0. 0. 2.18938151e-003 2.18938151e-003 0. 1.64203614e-003 0.
      5.47345378e-004 1.09469076e-003 0. 2.18938151e-003 5.47345378e-004
      1.09469076e-003 5.47345378e-004 0. 1.09469076e-003 5.47345378e-004
      1.09469076e-003 0. 1.64203614e-003 0. 3.28407227e-003 0.
      1.09469076e-003 5.47345378e-004 1.09469076e-003 0. 0.
      2.18938151e-003 5.47345378e-004 5.47345378e-004 2.73672678e-003
      5.47345378e-004 5.47345378e-004 0. 1.09469076e-003 1.09469076e-003
      5.47345378e-004 1.09469076e-003 1.64203614e-003 2.18938151e-003
      2.18938151e-003 5.47345378e-004 0. 5.47345378e-004 5.47345378e-004
      5.47345378e-004 5.47345378e-004 0. 5.47345378e-004 2.18938151e-003
      1.09469076e-003 1.09469076e-003 5.47345378e-004 5.47345378e-004 0.
      2.73672678e-003 0. 0. 5.47345378e-004 5.47345378e-004
      5.47345378e-004 5.47345378e-004 1.09469076e-003 1.09469076e-003 0.
      1.09469076e-003 1.09469076e-003 2.18938151e-003 0. 1.64203614e-003
      1.64203614e-003 1.64203614e-003 5.47345378e-004 2.18938151e-003
      5.47345378e-004 1.09469076e-003 3.28407227e-003 5.47345378e-004
      5.47345378e-004 0. 1.09469076e-003 1.64203614e-003 1.64203614e-003
      1.09469076e-003 5.47345378e-004 1.64203614e-003 0. 5.47345378e-004
      0. 1.09469076e-003 1.09469076e-003 4.37876303e-003 0.
      1.64203614e-003 5.47345378e-004 5.47345378e-004 5.47345378e-004
      5.47345378e-004 2.73672678e-003 5.47345378e-004 1.09469076e-003
      1.64203614e-003 5.47345378e-004 0. 1.64203614e-003 5.47345378e-004
      5.47345378e-004 5.47345378e-004 0. 0. 1.09469076e-003
      1.64203614e-003 1.09469076e-003 5.47345378e-004 5.47345378e-004 0.
      2.18938151e-003 5.47345378e-004 5.47345378e-004 0. 5.47345378e-004
      2.73672678e-003 5.47345378e-004 1.09469076e-003 5.47345378e-004
      1.64203614e-003 0. 0. 1.09469076e-003 5.47345378e-004
      3.28407227e-003 2.18938151e-003 5.47345378e-004 1.09469076e-003
      5.47345378e-004 5.47345378e-004 2.18938151e-003 1.09469076e-003
      1.64203614e-003 1.09469076e-003 5.47345378e-004 5.47345378e-004 0.
      5.47345378e-004 1.09469076e-003 2.18938151e-003 2.18938151e-003
      5.47345378e-004 2.73672678e-003 1.64203614e-003 5.47345378e-004
      1.09469076e-003 5.47345378e-004 5.47345378e-004 5.47345378e-004 0.
      5.47345378e-004 3.83141777e-003 5.47345378e-004 2.73672678e-003
      5.47345378e-004 0. 1.09469076e-003 2.18938151e-003 0.
      1.64203614e-003 5.47345378e-004 1.64203614e-003 5.47345378e-004
      5.47345378e-004 0. 0. 1.09469076e-003 2.18938151e-003
      1.09469076e-003 0. 0. 2.73672678e-003 0. 1.09469076e-003
      1.09469076e-003 3.83141777e-003 1.64203614e-003 1.64203614e-003
      1.09469076e-003 0. 1.09469076e-003 5.47345378e-004 0. 0.
      1.64203614e-003 5.47345378e-004 5.47345378e-004 1.09469076e-003 0.
      0. 0. 2.18938151e-003 2.18938151e-003 5.47345378e-004
      1.64203614e-003 0. 1.64203614e-003 5.47345378e-004 1.09469076e-003
      0. 0. 1.64203614e-003 5.47345378e-004 1.09469076e-003
      5.47345378e-004 0. 0. 2.18938151e-003 5.47345378e-004
      5.47345378e-004 1.64203614e-003 1.09469076e-003 0. 2.18938151e-003
      5.47345378e-004 1.64203614e-003 5.47345378e-004 0. 0.
      2.73672678e-003 1.64203614e-003 5.47345378e-004 0. 0.
      1.09469076e-003 5.47345378e-004 0. 0. 5.47345378e-004
      5.47345378e-004 1.09469076e-003 2.18938151e-003 3.83141777e-003
      1.64203614e-003 1.09469076e-003 2.18938151e-003 5.47345378e-004
      2.18938151e-003 1.64203614e-003 1.64203614e-003 5.47345378e-004
      2.18938151e-003 1.09469076e-003 0. 0. 1.09469076e-003 0.
      5.47345378e-004 5.47345378e-004 2.73672678e-003 2.18938151e-003 0.
      0. 5.47345378e-004 1.09469076e-003 1.09469076e-003 5.47345378e-004
      2.18938151e-003 0. 2.18938151e-003 5.47345378e-004 0. 0.
      5.47345378e-004 2.18938151e-003 5.47345378e-004 2.18938151e-003 0.
      1.09469076e-003 5.47345378e-004 5.47345378e-004 5.47345378e-004
      5.47345378e-004 0. 5.47345378e-004 1.09469076e-003 5.47345378e-004
      0. 0. 1.64203614e-003 0. 1.09469076e-003 1.64203614e-003 0.
      1.64203614e-003 1.09469076e-003 5.47345378e-004 2.73672678e-003
      5.47345378e-004 5.47345378e-004 2.18938151e-003 1.64203614e-003
      1.09469076e-003 3.83141777e-003 0. 0. 5.47345378e-004 0.
      1.09469076e-003 0. 2.18938151e-003 1.09469076e-003 1.09469076e-003
      1.64203614e-003 1.09469076e-003 0. 1.09469076e-003 5.47345378e-004
      0. 0. 0. 5.47345378e-004 1.64203614e-003 1.09469076e-003
      5.47345378e-004 1.64203614e-003 0. 0. 2.18938151e-003
      1.09469076e-003 1.09469076e-003 0. 5.47345378e-004 2.18938151e-003
      5.47345378e-004 2.73672678e-003 5.47345378e-004 1.09469076e-003
      1.09469076e-003 5.47345378e-004 5.47345378e-004 5.47345378e-004
      5.47345378e-004 1.64203614e-003 2.18938151e-003 1.09469076e-003
      1.09469076e-003 1.09469076e-003 4.37876303e-003 5.47345378e-004
      2.18938151e-003 1.09469076e-003 0. 1.64203614e-003 5.47345378e-004
      5.47345378e-004 2.73672678e-003 5.47345378e-004 5.47345378e-004 0.
      2.18938151e-003 5.47345378e-004 1.64203614e-003 2.73672678e-003
      2.18938151e-003 2.73672678e-003 0. 5.47345378e-004 1.09469076e-003
      2.73672678e-003 0. 0. 0. 1.09469076e-003 2.73672678e-003
      3.28407227e-003 1.64203614e-003 1.09469076e-003 1.09469076e-003
      2.18938151e-003 3.28407227e-003 5.47345378e-004 2.18938151e-003
      1.64203614e-003 1.09469076e-003 5.47345378e-004 1.09469076e-003 0.
      5.47345378e-004 1.09469076e-003 2.18938151e-003 5.47345378e-004 0.
      2.18938151e-003 1.09469076e-003 1.09469076e-003 5.47345378e-004
      1.64203614e-003 1.64203614e-003 5.47345378e-004 0. 1.09469076e-003
      0. 5.47345378e-004 0. 0. 1.64203614e-003 0. 0. 2.73672678e-003
      1.09469076e-003 2.73672678e-003 1.09469076e-003 1.09469076e-003
      5.47345378e-004 5.47345378e-004 0. 1.09469076e-003 1.09469076e-003
      2.18938151e-003 1.09469076e-003 1.09469076e-003 1.64203614e-003
      5.47345378e-004 1.09469076e-003 1.09469076e-003 3.83141777e-003 0.
      5.47345378e-004 2.73672678e-003 5.47345378e-004 1.09469076e-003
      5.47345378e-004 2.73672678e-003 1.09469076e-003 2.73672678e-003
      1.64203614e-003 0. 5.47345378e-004 2.18938151e-003 1.09469076e-003
      1.09469076e-003 0. 5.47345378e-004 2.73672678e-003 0.
      5.47345378e-004 5.47345378e-004 0. 1.09469076e-003 5.47345378e-004
      0. 5.47345378e-004 0. 1.09469076e-003 0. 0. 0. 1.64203614e-003 0.
      5.47345378e-004 1.09469076e-003 5.47345378e-004 1.09469076e-003 0.
      0. 0. 1.09469076e-003 2.18938151e-003 1.09469076e-003
      1.09469076e-003 1.64203614e-003 5.47345378e-004 0. 5.47345378e-004
      5.47345378e-004 0. 1.09469076e-003 3.28407227e-003 5.47345378e-004
      5.47345378e-004 5.47345378e-004 2.73672678e-003 1.09469076e-003
      5.47345378e-004 0. 0. 2.73672678e-003 5.47345378e-004
      2.18938151e-003 1.64203614e-003 0. 5.47345378e-004 1.64203614e-003
      5.47345378e-004 0. 5.47345378e-004 0. 1.09469076e-003 0.
      1.64203614e-003 0. 0. 1.09469076e-003 0. 0. 1.64203614e-003
      5.47345378e-004 1.64203614e-003 1.09469076e-003 5.47345378e-004 0.
      1.09469076e-003 1.09469076e-003 1.09469076e-003 0. 1.09469076e-003
      0. 5.47345378e-004 5.47345378e-004 2.18938151e-003 0. 0.
      1.09469076e-003 5.47345378e-004 1.09469076e-003 5.47345378e-004
      5.47345378e-004 1.64203614e-003 1.09469076e-003 1.09469076e-003
      5.47345378e-004 5.47345378e-004 1.64203614e-003 5.47345378e-004
      1.09469076e-003 5.47345378e-004 0. 5.47345378e-004 1.64203614e-003
      0. 1.64203614e-003 2.18938151e-003 1.09469076e-003 5.47345378e-004
      4.37876303e-003 5.47345378e-004 0. 1.09469076e-003 1.09469076e-003
      0. 0. 1.64203614e-003 1.09469076e-003 5.47345378e-004 0.
      5.47345378e-004 0. 0. 5.47345378e-004 0. 1.09469076e-003
      1.64203614e-003 1.09469076e-003 2.18938151e-003 5.47345378e-004
      2.18938151e-003 2.18938151e-003 0. 0. 1.09469076e-003 0.
      5.47345378e-004 0. 5.47345378e-004 5.47345378e-004 5.47345378e-004
      5.47345378e-004 1.09469076e-003 5.47345378e-004 1.64203614e-003
      5.47345378e-004 8.21018033e-003 1.64203614e-003 1.64203614e-003 0.
      1.09469076e-003 1.64203614e-003 0. 2.18938151e-003 1.09469076e-003
      1.09469076e-003 0. 5.47345378e-004 5.47345378e-004 1.64203614e-003
      5.47345378e-004 0. 0. 5.47345378e-004 0. 2.18938151e-003
      1.64203614e-003 5.47345378e-004 5.47345378e-004 5.47345378e-004
      1.64203614e-003 2.18938151e-003 1.09469076e-003 0. 1.64203614e-003
      5.47345378e-004 1.09469076e-003 5.47345378e-004 1.09469076e-003
      1.64203614e-003 5.47345378e-004 2.18938151e-003 1.09469076e-003 0.
      5.47345378e-004 0. 1.64203614e-003 5.47345378e-004</_>
    <_>
      1.80126086e-003 6.00420288e-004 6.00420288e-004 2.40168115e-003
      1.80126086e-003 6.00420288e-004 1.50105078e-003 3.30231152e-003
      3.00210144e-004 6.00420288e-004 3.00210144e-004 6.00420288e-004
      9.00630432e-004 9.00630432e-004 6.00420288e-004 6.00420288e-004
      3.90273193e-003 9.00630432e-004 3.00210144e-004 0. 2.70189135e-003
      9.00630432e-004 9.00630432e-004 6.00420288e-004 6.00420288e-004 0.
      1.50105078e-003 1.20084058e-003 6.00420288e-004 9.00630432e-004
      9.00630432e-004 1.20084058e-003 9.00630432e-004 3.00210144e-004 0.
      3.00210144e-004 3.00210144e-004 3.00210144e-004 3.00210144e-004
      2.40168115e-003 0. 3.00210144e-004 1.20084058e-003 1.50105078e-003
      0. 6.00420288e-004 1.20084058e-003 2.40168115e-003 3.00210144e-004
      3.00210144e-004 1.20084058e-003 9.00630432e-004 0. 9.00630432e-004
      3.00210144e-004 4.50315233e-003 3.90273193e-003 1.20084058e-003
      3.60252173e-003 2.70189135e-003 3.00210144e-004 0. 1.80126086e-003
      6.00420288e-004 5.70399268e-003 6.00420288e-004 1.50105078e-003
      9.00630432e-004 1.20084058e-003 6.00420288e-004 2.40168115e-003 0.
      0. 3.00210144e-004 0. 9.00630432e-004 9.00630432e-004
      6.00420288e-004 3.00210144e-004 1.20084058e-003 6.00420288e-004
      9.00630432e-004 9.00630432e-004 0. 2.40168115e-003 3.00210144e-004
      6.00420288e-004 6.00420288e-004 3.00210144e-004 6.00420288e-004
      3.00210144e-004 6.00420288e-004 3.00210144e-004 3.00210144e-004
      1.20084058e-003 0. 2.10147095e-003 3.60252173e-003 2.10147095e-003
      6.00420288e-004 6.00420288e-004 6.00420288e-004 6.00420288e-004
      6.00420288e-004 2.10147095e-003 2.10147095e-003 3.00210144e-004
      3.00210144e-004 1.20084058e-003 6.00420288e-004 3.00210144e-004 0.
      6.00420288e-004 6.00420288e-004 1.20084058e-003 3.00210144e-004
      2.40168115e-003 3.00210144e-004 6.00420288e-004 1.50105078e-003 0.
      1.20084058e-003 6.00420288e-004 1.80126086e-003 3.00210144e-004
      9.00630432e-004 9.00630432e-004 6.00420311e-003 1.20084058e-003
      1.50105078e-003 0. 1.80126086e-003 9.00630432e-004 0.
      1.20084058e-003 9.00630432e-004 6.00420288e-004 6.00420288e-004
      1.50105078e-003 1.50105078e-003 3.00210144e-004 3.00210144e-004
      9.00630432e-004 3.00210144e-004 2.70189135e-003 2.40168115e-003
      1.20084058e-003 9.00630432e-004 4.20294190e-003 1.80126086e-003
      3.00210144e-004 1.20084058e-003 2.10147095e-003 3.00210144e-004
      2.70189135e-003 9.00630432e-004 2.10147095e-003 6.00420288e-004
      6.00420288e-004 9.00630432e-004 1.50105078e-003 6.00420288e-004 0.
      9.00630432e-004 1.80126086e-003 1.20084058e-003 1.20084058e-003 0.
      3.00210144e-004 1.80126086e-003 1.80126086e-003 2.10147095e-003
      1.20084058e-003 6.00420288e-004 3.00210144e-004 1.20084058e-003
      9.00630432e-004 1.20084058e-003 0. 3.30231152e-003 0.
      9.00630432e-004 1.20084058e-003 1.50105078e-003 1.80126086e-003
      3.00210144e-004 6.00420288e-004 0. 1.80126086e-003 9.00630432e-004
      1.50105078e-003 6.00420288e-004 3.00210144e-004 0. 1.80126086e-003
      3.00210144e-004 9.00630432e-004 3.00210144e-004 6.00420288e-004
      2.70189135e-003 3.00210144e-004 0. 6.00420288e-004 1.80126086e-003
      3.00210144e-004 9.00630432e-004 6.00420288e-004 1.80126086e-003
      3.00210144e-004 2.10147095e-003 1.80126086e-003 6.00420288e-004
      6.00420288e-004 2.40168115e-003 1.20084058e-003 1.20084058e-003 0.
      6.00420288e-004 3.00210144e-004 0. 6.00420288e-004 3.00210144e-004
      9.00630432e-004 1.20084058e-003 3.00210144e-004 1.80126086e-003
      2.70189135e-003 9.00630432e-004 6.00420288e-004 1.20084058e-003
      9.00630432e-004 0. 3.00210144e-004 6.00420288e-004 3.00210144e-004
      6.00420288e-004 2.70189135e-003 6.00420288e-004 9.00630432e-004
      1.20084058e-003 9.00630432e-004 0. 3.00210156e-003 3.00210144e-004
      0. 1.20084058e-003 6.00420288e-004 6.00420288e-004 0.
      2.40168115e-003 3.00210144e-004 1.50105078e-003 3.00210144e-004
      1.20084058e-003 3.00210144e-004 6.00420288e-004 6.00420288e-004
      3.00210144e-004 0. 1.20084058e-003 1.50105078e-003 0.
      3.90273193e-003 3.00210144e-004 9.00630432e-004 1.80126086e-003
      1.20084058e-003 9.00630432e-004 1.50105078e-003 3.90273193e-003
      1.50105078e-003 3.00210144e-004 2.70189135e-003 9.00630432e-004
      6.00420288e-004 3.00210144e-004 6.00420288e-004 0. 0.
      3.00210144e-004 0. 3.00210144e-004 0. 6.00420288e-004 0.
      6.00420288e-004 3.00210144e-004 1.20084058e-003 0. 9.00630432e-004
      0. 1.20084058e-003 9.00630432e-004 3.00210144e-004 9.00630432e-004
      9.00630432e-004 9.00630432e-004 6.00420288e-004 9.00630432e-004
      1.50105078e-003 2.40168115e-003 1.20084058e-003 2.10147095e-003 0.
      4.80336230e-003 3.00210144e-004 9.00630432e-004 3.00210156e-003
      1.20084058e-003 1.20084058e-003 1.20084058e-003 6.00420288e-004
      1.80126086e-003 1.20084058e-003 6.00420288e-004 3.00210144e-004
      1.80126086e-003 1.80126086e-003 0. 0. 9.00630432e-004
      1.80126086e-003 9.00630432e-004 3.00210144e-004 2.10147095e-003
      1.80126086e-003 0. 6.00420288e-004 3.00210144e-004 2.40168115e-003
      3.00210144e-004 0. 6.00420288e-004 1.20084058e-003 0.
      1.80126086e-003 6.00420288e-004 1.50105078e-003 3.00210144e-004
      1.50105078e-003 1.50105078e-003 3.00210144e-004 0. 0.
      6.00420288e-004 2.40168115e-003 6.00420288e-004 1.20084058e-003
      6.00420288e-004 6.00420288e-004 2.10147095e-003 1.20084058e-003
      9.00630432e-004 4.50315233e-003 1.50105078e-003 9.00630432e-004
      1.20084058e-003 1.20084058e-003 9.00630432e-004 3.00210144e-004
      1.50105078e-003 3.00210144e-004 1.50105078e-003 2.70189135e-003
      1.80126086e-003 3.00210144e-004 6.00420288e-004 3.00210144e-004
      2.40168115e-003 0. 6.00420288e-004 1.20084058e-003 1.50105078e-003
      2.10147095e-003 6.00420288e-004 9.00630432e-004 6.00420288e-004
      6.00420288e-004 9.00630432e-004 3.00210144e-004 2.70189135e-003
      2.40168115e-003 1.50105078e-003 3.60252173e-003 9.00630432e-004 0.
      3.00210144e-004 1.20084058e-003 0. 1.20084058e-003 6.00420288e-004
      3.00210144e-004 3.00210144e-004 6.00420288e-004 6.00420288e-004
      3.00210144e-004 1.50105078e-003 0. 9.00630432e-004 2.40168115e-003
      1.20084058e-003 3.00210144e-004 1.50105078e-003 9.00630432e-004
      9.00630432e-004 6.00420288e-004 9.00630432e-004 3.00210144e-004
      3.00210144e-004 1.20084058e-003 6.00420288e-004 0. 9.00630432e-004
      6.00420288e-004 6.00420288e-004 3.00210144e-004 3.00210144e-004
      9.00630432e-004 1.20084058e-003 1.20084058e-003 3.00210144e-004
      3.00210144e-004 6.00420288e-004 0. 6.00420288e-004 6.00420288e-004
      9.00630432e-004 3.00210144e-004 9.00630432e-004 3.00210144e-004
      6.00420288e-004 0. 0. 0. 3.00210144e-004 2.40168115e-003 0.
      1.20084058e-003 9.00630432e-004 6.00420288e-004 0. 9.00630432e-004
      2.10147095e-003 4.20294190e-003 6.00420288e-004 3.00210144e-004
      9.00630432e-004 1.50105078e-003 9.00630432e-004 3.00210144e-004
      6.00420288e-004 1.20084058e-003 3.00210144e-004 3.00210144e-004
      3.00210144e-004 0. 9.00630432e-004 3.00210144e-004 1.50105078e-003
      1.20084058e-003 9.00630432e-004 2.10147095e-003 1.20084058e-003
      1.80126086e-003 1.20084058e-003 1.20084058e-003 9.00630432e-004
      6.00420288e-004 6.00420288e-004 2.70189135e-003 9.00630432e-004
      1.50105078e-003 0. 6.00420288e-004 6.00420288e-004 2.10147095e-003
      1.80126086e-003 1.20084058e-003 1.20084058e-003 0. 9.00630432e-004
      6.00420288e-004 3.00210144e-004 0. 2.70189135e-003 3.00210156e-003
      9.00630432e-004 9.00630432e-004 3.00210144e-004 1.80126086e-003
      9.00630432e-004 3.00210144e-004 1.20084058e-003 0. 6.00420288e-004
      1.50105078e-003 9.00630432e-004 6.00420288e-004 3.00210144e-004 0.
      0. 9.00630432e-004 5.10357227e-003 0. 3.00210144e-004
      9.00630432e-004 0. 1.80126086e-003 9.00630432e-004 0.
      1.20084058e-003 0. 3.00210144e-004 6.00420288e-004 1.20084058e-003
      3.00210144e-004 2.10147095e-003 3.00210144e-004 6.00420288e-004
      1.50105078e-003 2.40168115e-003 0. 1.80126086e-003 1.20084058e-003
      1.20084058e-003 6.00420288e-004 2.70189135e-003 2.10147095e-003
      3.00210144e-004 1.50105078e-003 0. 0. 9.00630432e-004
      1.80126086e-003 1.50105078e-003 0. 3.00210144e-004 0.
      2.40168115e-003 0. 6.00420288e-004 2.10147095e-003 9.00630432e-004
      1.50105078e-003 9.00630432e-004 9.00630432e-004 2.10147095e-003 0.
      3.00210144e-004 9.00630432e-004 0. 3.00210144e-004 1.20084058e-003
      3.30231152e-003 0. 9.00630432e-004 0. 9.00630432e-004
      1.20084058e-003 6.00420288e-004 1.50105078e-003 1.80126086e-003
      3.00210144e-004 3.00210144e-004 6.00420288e-004 6.00420288e-004
      3.00210144e-004 1.20084058e-003 1.80126086e-003 1.20084058e-003
      1.20084058e-003 1.50105078e-003 9.00630432e-004 0. 1.50105078e-003
      1.20084058e-003 1.20084058e-003 1.80126086e-003 1.50105078e-003
      3.00210144e-004 1.50105078e-003 6.00420288e-004 1.80126086e-003
      9.00630432e-004 2.40168115e-003 6.00420288e-004 0. 1.50105078e-003
      9.00630432e-004 2.40168115e-003 2.10147095e-003 0. 6.00420288e-004
      0. 6.00420288e-004 6.00420288e-004 2.40168115e-003 3.00210144e-004
      9.00630432e-004 6.00420288e-004 3.00210144e-004 9.00630432e-004
      2.10147095e-003 4.20294190e-003 1.80126086e-003 3.00210144e-004
      6.00420288e-004 0. 3.00210144e-004 3.00210144e-004 0.
      9.00630432e-004 6.00420288e-004 9.00630432e-004 9.00630432e-004
      3.00210156e-003 1.20084058e-003 1.80126086e-003 2.10147095e-003
      1.20084058e-003 0. 1.20084058e-003 6.00420288e-004 1.80126086e-003
      9.00630432e-004 2.40168115e-003 1.20084058e-003 0. 1.80126086e-003
      0. 0. 3.00210144e-004 6.00420288e-004 0. 3.00210156e-003
      9.00630432e-004 2.10147095e-003 6.00420288e-004 3.00210144e-004
      3.00210144e-004 1.50105078e-003 1.20084058e-003 0. 2.10147095e-003
      6.00420288e-004 6.00420288e-004 1.50105078e-003 6.00420288e-004 0.
      6.00420288e-004 9.00630432e-004 2.70189135e-003 0. 1.20084058e-003
      1.50105078e-003 1.50105078e-003 9.00630432e-004 1.80126086e-003
      3.00210144e-004 1.20084058e-003 6.00420288e-004 0. 0.
      3.00210144e-004 0. 9.00630432e-004 2.70189135e-003 2.70189135e-003
      1.20084058e-003 0. 6.00420288e-004 6.00420288e-004 1.20084058e-003
      0. 3.00210144e-004 3.00210144e-004 0. 6.00420288e-004
      9.00630432e-004 3.60252173e-003 1.80126086e-003 2.10147095e-003
      6.00420288e-004 1.20084058e-003 3.00210144e-004 5.70399268e-003
      3.00210144e-004 4.50315233e-003 6.00420288e-004 3.00210144e-004
      3.00210144e-004 9.00630432e-004 1.20084058e-003 1.80126086e-003
      9.00630432e-004 1.50105078e-003 0. 6.00420288e-004 6.00420288e-004
      3.00210144e-004 0. 9.00630432e-004 0. 9.00630432e-004
      6.00420288e-004 2.10147095e-003 6.00420288e-004 3.00210144e-004 0.
      1.20084058e-003 1.80126086e-003 2.40168115e-003 6.00420288e-004
      3.00210144e-004 6.00420288e-004 3.00210144e-004 6.00420288e-004
      1.50105078e-003 2.40168115e-003 1.80126086e-003 1.50105078e-003
      9.00630432e-004 9.00630432e-004 9.00630432e-004 6.00420288e-004
      3.00210144e-004 6.00420288e-004 3.60252173e-003 9.00630432e-004
      2.40168115e-003 9.00630432e-004 6.00420288e-004 9.00630432e-004
      6.00420288e-004 1.20084058e-003 0. 3.60252173e-003 0.
      3.30231152e-003 6.00420288e-004 9.00630432e-004 9.00630432e-004 0.
      1.80126086e-003 3.00210144e-004 9.00630432e-004 1.20084058e-003
      3.00210144e-004 6.00420288e-004 6.00420288e-004 6.00420288e-004
      7.50525342e-003 0. 3.00210144e-004 5.10357227e-003 2.70189135e-003
      3.00210144e-004 9.00630432e-004 1.50105078e-003 3.00210144e-004
      1.80126086e-003 3.00210144e-004 3.00210144e-004 2.40168115e-003
      3.00210144e-004 1.20084058e-003 1.80126086e-003 3.00210144e-004
      1.20084058e-003 9.00630432e-004 6.00420288e-004 1.80126086e-003
      1.80126086e-003 0. 3.00210144e-004 9.00630432e-004 1.50105078e-003
      1.50105078e-003 3.60252173e-003 0. 3.00210144e-004 6.00420288e-004
      0. 3.00210144e-004 6.00420288e-004 0. 3.00210144e-004
      1.50105078e-003 1.20084058e-003 1.50105078e-003 1.50105078e-003
      2.10147095e-003 0. 1.50105078e-003 1.20084058e-003 6.00420288e-004
      1.50105078e-003 0. 2.10147095e-003 1.80126086e-003 6.00420288e-004
      3.00210144e-004 1.80126086e-003 0. 1.50105078e-003 9.00630432e-004
      0. 3.00210156e-003 2.70189135e-003 2.10147095e-003 3.00210144e-004
      6.00420288e-004 3.00210144e-004 6.00420288e-004 6.00420288e-004
      1.50105078e-003 2.70189135e-003 1.50105078e-003 6.00420288e-004
      2.70189135e-003 6.00420288e-004 1.20084058e-003 6.00420288e-004 0.
      9.00630432e-004 9.00630432e-004 1.20084058e-003 9.00630432e-004
      1.50105078e-003 0. 1.80126086e-003 1.50105078e-003 3.00210144e-004
      0. 3.00210156e-003 5.10357227e-003 0. 1.80126086e-003 0.
      2.70189135e-003 6.00420288e-004 9.00630432e-004 0. 6.00420288e-004
      3.90273193e-003 1.50105078e-003 3.00210144e-004 6.00420288e-004 0.
      9.00630432e-004 3.00210144e-004 6.00420288e-004 0. 1.50105078e-003
      3.00210144e-004 3.00210144e-004 0. 1.50105078e-003 6.00420288e-004
      3.00210144e-004 5.70399268e-003 9.00630432e-004 0. 3.00210144e-004
      1.20084058e-003 9.00630432e-004 3.00210156e-003 0. 6.00420288e-004
      3.00210144e-004 3.00210144e-004 0. 1.20084058e-003 0. 0. 0.
      1.80126086e-003 2.10147095e-003 1.50105078e-003 1.20084058e-003
      9.00630432e-004 1.20084058e-003 1.50105078e-003 6.00420288e-004 0.
      3.00210144e-004 3.00210144e-004 0. 1.20084058e-003 3.00210144e-004
      1.20084058e-003 9.00630432e-004 0. 3.00210144e-004 0.
      9.00630432e-004 1.20084058e-003 1.80126086e-003 1.20084058e-003
      3.00210144e-004 6.00420288e-004 0. 3.30231152e-003 0.
      3.30231152e-003 9.00630432e-004 4.20294190e-003 0. 3.00210144e-004
      0. 2.10147095e-003 1.50105078e-003 3.00210144e-004 6.00420288e-004
      2.70189135e-003 9.00630432e-004 0. 9.00630432e-004 0.
      3.00210144e-004 1.50105078e-003 2.10147095e-003 9.00630432e-004
      6.00420288e-004 3.00210144e-004 3.00210144e-004 9.00630432e-004 0.
      9.00630432e-004 1.20084058e-003 3.00210144e-004 6.00420288e-004
      6.00420288e-004 1.80126086e-003 3.00210144e-004 0. 6.00420288e-004
      3.00210144e-004 9.00630432e-004 2.10147095e-003 2.40168115e-003
      6.00420288e-004 3.00210144e-004 4.80336230e-003 9.00630432e-004
      1.20084058e-003 9.00630432e-004 3.00210144e-004 2.10147095e-003
      2.10147095e-003 1.50105078e-003 0. 6.00420288e-004 1.20084058e-003
      1.20084058e-003 1.20084058e-003 3.00210144e-004 2.40168115e-003
      3.90273193e-003 1.80126086e-003 9.00630432e-004 6.00420288e-004
      6.00420288e-004 1.20084058e-003 0. 3.00210144e-004 6.00420288e-004
      1.20084058e-003 9.00630432e-004 9.00630432e-004 3.00210144e-004 0.
      6.00420288e-004 6.00420288e-004 0. 9.00630432e-004 1.20084058e-003
      6.00420288e-004 9.00630432e-004 3.00210144e-004 3.00210144e-004 0.
      3.00210156e-003 0. 1.20084058e-003 0. 9.00630432e-004 0.
      1.80126086e-003 1.20084058e-003 0. 0. 1.20084058e-003
      6.00420288e-004 6.00420288e-004 1.20084058e-003 1.50105078e-003
      9.00630432e-004 3.00210144e-004 3.00210144e-004</_>
    <_>
      3.73134343e-003 0. 7.46268663e-004 0. 7.46268663e-004 0.
      4.47761174e-003 7.46268663e-004 1.49253733e-003 0. 1.49253733e-003
      1.49253733e-003 7.46268663e-004 7.46268663e-004 1.49253733e-003 0.
      5.97014930e-003 7.46268663e-004 0. 0. 3.73134343e-003 0.
      2.23880587e-003 1.49253733e-003 5.22388052e-003 7.46268663e-004 0.
      0. 7.46268663e-004 0. 1.49253733e-003 7.46268663e-004 0.
      1.49253733e-003 0. 3.73134343e-003 7.46268663e-004 1.49253733e-003
      0. 1.49253733e-003 2.23880587e-003 7.46268663e-004 7.46268663e-004
      0. 7.46268663e-004 7.46268663e-004 0. 0. 7.46268663e-004 0.
      3.73134343e-003 0. 2.98507465e-003 5.22388052e-003 4.47761174e-003
      7.46268663e-004 0. 0. 0. 0. 3.73134343e-003 7.46268663e-004 0.
      8.95522349e-003 7.46268663e-004 2.98507465e-003 0. 7.46268663e-004
      0. 0. 7.46268663e-004 7.46268663e-004 7.46268663e-004 0. 0.
      7.46268663e-004 7.46268663e-004 0. 0. 0. 7.46268663e-004 0. 0. 0.
      0. 7.46268663e-004 7.46268663e-004 3.73134343e-003 0. 0.
      7.46268663e-004 0. 0. 7.46268663e-004 0. 2.23880587e-003
      1.49253733e-003 0. 0. 7.46268663e-004 0. 2.23880587e-003 0.
      2.23880587e-003 7.46268663e-004 0. 0. 7.46268663e-004
      2.23880587e-003 0. 0. 0. 0. 0. 0. 3.73134343e-003 0. 0. 0. 0.
      7.46268663e-004 4.47761174e-003 0. 0. 0. 7.46268663e-004
      1.49253733e-003 7.46268663e-004 0. 0. 0. 7.46268663e-004 0.
      1.49253733e-003 0. 0. 0. 4.47761174e-003 7.46268663e-004
      1.49253733e-003 0. 2.98507465e-003 0. 2.23880587e-003
      7.46268663e-004 0. 7.46268663e-004 1.49253733e-003 7.46268663e-004
      0. 1.49253733e-003 6.71641808e-003 0. 1.49253733e-003 0. 0. 0.
      8.20895564e-003 0. 2.23880587e-003 0. 0. 5.22388052e-003
      1.49253733e-003 0. 6.71641808e-003 0. 0. 0. 0. 4.47761174e-003 0.
      0. 1.49253733e-003 1.49253733e-003 1.49253733e-003 3.73134343e-003
      0. 0. 7.46268663e-004 0. 0. 0. 1.49253733e-003 7.46268663e-004
      1.49253733e-003 0. 0. 7.46268663e-004 5.97014930e-003 0. 0.
      1.49253733e-003 0. 0. 0. 0. 7.46268663e-004 0. 0. 2.98507465e-003
      7.46268663e-004 0. 0. 1.49253733e-003 1.49253733e-003 0.
      7.46268663e-004 1.49253733e-003 7.46268663e-004 0. 1.49253733e-003
      7.46268663e-004 7.46268663e-004 0. 2.98507465e-003 7.46268663e-004
      7.46268663e-004 7.46268663e-004 2.98507465e-003 0. 7.46268663e-004
      7.46268663e-004 7.46268686e-003 2.23880587e-003 0. 0.
      2.98507465e-003 2.23880587e-003 0. 0. 7.46268663e-004 0.
      1.49253733e-003 0. 2.23880587e-003 0. 0. 7.46268663e-004 0.
      1.49253733e-003 0. 2.23880587e-003 0. 0. 1.49253733e-003 0. 0.
      1.49253733e-003 3.73134343e-003 0. 0. 0. 3.73134343e-003
      7.46268663e-004 0. 1.49253733e-003 7.46268663e-004 6.71641808e-003
      0. 0. 7.46268663e-004 2.98507465e-003 2.23880587e-003 0. 0. 0.
      1.49253733e-003 0. 0. 7.46268663e-004 1.49253733e-003 0. 0. 0. 0.
      0. 2.98507465e-003 7.46268663e-004 0. 1.49253733e-003
      7.46268663e-004 7.46268663e-004 1.49253733e-003 2.23880587e-003
      7.46268663e-004 2.23880587e-003 3.73134343e-003 7.46268663e-004 0.
      2.23880587e-003 0. 7.46268663e-004 0. 7.46268663e-004
      7.46268663e-004 0. 4.47761174e-003 8.20895564e-003 7.46268663e-004
      7.46268663e-004 0. 1.49253733e-003 7.46268663e-004 5.22388052e-003
      7.46268663e-004 7.46268663e-004 2.23880587e-003 4.47761174e-003
      2.23880587e-003 0. 0. 0. 0. 1.49253733e-003 7.46268663e-004 0. 0.
      1.49253733e-003 7.46268663e-004 0. 6.71641808e-003 1.49253733e-003
      2.23880587e-003 2.23880587e-003 1.49253733e-003 0. 7.46268663e-004
      0. 7.46268663e-004 0. 1.49253733e-003 0. 0. 0. 7.46268663e-004 0.
      1.49253733e-003 7.46268663e-004 0. 2.23880587e-003 7.46268663e-004
      7.46268663e-004 1.49253733e-003 0. 0. 1.49253733e-003 0.
      1.49253733e-003 0. 0. 7.46268663e-004 0. 2.98507465e-003 0.
      7.46268663e-004 0. 0. 0. 0. 7.46268663e-004 7.46268663e-004 0. 0.
      1.49253733e-003 1.49253733e-003 1.49253733e-003 7.46268663e-004
      7.46268663e-004 0. 0. 0. 0. 7.46268663e-004 2.23880587e-003
      7.46268663e-004 7.46268663e-004 2.23880587e-003 0. 7.46268663e-004
      7.46268663e-004 0. 2.98507465e-003 0. 0. 0. 0. 7.46268663e-004 0.
      1.49253733e-003 7.46268663e-004 0. 7.46268663e-004 2.23880587e-003
      2.23880587e-003 7.46268663e-004 7.46268663e-004 1.49253733e-003 0.
      0. 2.23880587e-003 2.98507465e-003 0. 1.49253733e-003 0. 0. 0. 0.
      2.23880587e-003 7.46268663e-004 7.46268663e-004 7.46268663e-004 0.
      0. 0. 2.98507465e-003 7.46268663e-004 7.46268663e-004 0.
      7.46268663e-004 2.98507465e-003 2.23880587e-003 2.98507465e-003
      1.49253733e-003 2.23880587e-003 7.46268663e-004 7.46268663e-004
      2.98507465e-003 7.46268663e-004 2.98507465e-003 1.49253733e-003
      1.49253733e-003 2.23880587e-003 3.73134343e-003 7.46268663e-004 0.
      0. 0. 1.49253733e-003 0. 0. 7.46268663e-004 0. 3.73134343e-003
      1.49253733e-003 7.46268663e-004 7.46268663e-004 1.49253733e-003
      7.46268663e-004 1.49253733e-003 0. 5.22388052e-003 0.
      1.49253733e-003 0. 3.73134343e-003 2.98507465e-003 7.46268663e-004
      0. 7.46268663e-004 2.23880587e-003 0. 0. 3.73134343e-003 0. 0.
      5.97014930e-003 1.49253733e-003 0. 0. 7.46268663e-004 0.
      3.73134343e-003 0. 1.49253733e-003 0. 0. 0. 0. 0. 0.
      5.22388052e-003 7.46268663e-004 0. 0. 0. 3.73134343e-003
      7.46268663e-004 0. 4.47761174e-003 5.22388052e-003 0. 0. 0.
      7.46268663e-004 7.46268663e-004 0. 0. 1.49253733e-003
      7.46268663e-004 0. 1.49253733e-003 0. 7.46268663e-004 0.
      7.46268663e-004 7.46268663e-004 0. 0. 0. 2.23880587e-003 0.
      5.22388052e-003 0. 1.49253733e-003 0. 1.49253733e-003
      1.49253733e-003 0. 0. 7.46268663e-004 0. 0. 7.46268663e-004
      8.95522349e-003 0. 0. 1.49253733e-003 7.46268663e-004 0.
      7.46268663e-004 0. 1.49253733e-003 0. 0. 7.46268663e-004 0. 0.
      7.46268663e-004 7.46268663e-004 0. 0. 2.23880587e-003 0. 0.
      7.46268663e-004 0. 0. 7.46268663e-004 3.73134343e-003
      2.23880587e-003 0. 7.46268663e-004 1.49253733e-003 2.23880587e-003
      0. 1.49253733e-003 1.49253733e-003 1.49253733e-003 3.73134343e-003
      0. 0. 0. 0. 7.46268663e-004 0. 0. 0. 0. 0. 0. 0. 7.46268663e-004
      0. 7.46268663e-004 7.46268663e-004 2.23880587e-003 0. 0.
      1.49253733e-003 7.46268663e-004 0. 0. 0. 3.73134343e-003 0.
      5.22388052e-003 7.46268663e-004 7.46268663e-004 0. 7.46268663e-004
      0. 0. 7.46268663e-004 1.49253733e-003 0. 4.47761174e-003
      7.46268663e-004 4.47761174e-003 0. 2.23880587e-003 0.
      7.46268663e-004 0. 0. 0. 2.98507465e-003 0. 7.46268663e-004
      1.49253733e-003 0. 7.46268663e-004 2.23880587e-003 0. 0.
      2.23880587e-003 0. 0. 2.98507465e-003 0. 0. 0. 7.46268663e-004 0.
      0. 0. 0. 7.46268663e-004 7.46268663e-004 0. 7.46268663e-004 0. 0.
      7.46268663e-004 0. 2.98507465e-003 0. 7.46268663e-004
      1.49253733e-003 3.73134343e-003 1.49253733e-003 7.46268663e-004 0.
      2.98507465e-003 0. 7.46268663e-004 0. 0. 7.46268663e-004 0.
      7.46268663e-004 0. 0. 0. 0. 2.98507465e-003 0. 0. 7.46268663e-004
      0. 0. 0. 0. 0. 1.49253733e-003 0. 0. 2.23880587e-003
      7.46268663e-004 7.46268663e-004 0. 7.46268663e-004 7.46268663e-004
      1.49253733e-003 7.46268663e-004 0. 1.49253733e-003 0.
      7.46268663e-004 5.97014930e-003 0. 0. 0. 0. 0. 2.98507465e-003 0.
      7.46268663e-004 7.46268663e-004 0. 7.46268663e-004 0.
      2.23880587e-003 0. 0. 0. 7.46268663e-004 1.49253733e-003
      1.49253733e-003 0. 0. 0. 1.49253733e-003 1.49253733e-003
      7.46268663e-004 0. 7.46268663e-004 1.49253733e-003 0. 0. 0.
      3.73134343e-003 7.46268663e-004 7.46268663e-004 1.49253733e-003 0.
      0. 7.46268663e-004 0. 1.49253733e-003 0. 0. 7.46268663e-004 0. 0.
      7.46268663e-004 0. 7.46268663e-004 0. 0. 2.98507465e-003 0. 0. 0.
      1.49253733e-003 0. 2.98507465e-003 0. 7.46268663e-004 0.
      2.23880587e-003 0. 7.46268663e-004 1.49253733e-003 1.19402986e-002
      2.98507465e-003 0. 0. 0. 1.49253733e-003 0. 0. 7.46268663e-004
      7.46268663e-004 0. 0. 7.46268663e-004 7.46268663e-004
      7.46268686e-003 7.46268663e-004 0. 2.98507465e-003 0.
      2.23880587e-003 7.46268663e-004 0. 2.98507465e-003 0.
      1.49253733e-003 0. 0. 7.46268663e-004 0. 7.46268663e-004
      1.49253733e-003 0. 0. 2.23880587e-003 1.49253733e-003
      7.46268663e-004 7.46268663e-004 7.46268663e-004 7.46268663e-004 0.
      2.23880587e-003 0. 0. 2.98507465e-003 7.46268663e-004
      2.23880587e-003 0. 0. 2.23880587e-003 7.46268686e-003
      1.49253733e-003 7.46268663e-004 0. 0. 0. 7.46268663e-004
      2.98507465e-003 1.49253733e-003 0. 7.46268663e-004 2.23880587e-003
      7.46268663e-004 7.46268663e-004 0. 0. 2.23880587e-003
      7.46268663e-004 0. 1.49253733e-003 0. 7.46268663e-004
      7.46268663e-004 7.46268663e-004 7.46268663e-004 0. 2.23880587e-003
      0. 0. 0. 2.23880587e-003 0. 0. 1.49253733e-003 5.22388052e-003 0.
      3.73134343e-003 0. 7.46268663e-004 0. 7.46268663e-004 0.
      2.23880587e-003 0. 7.46268663e-004 7.46268663e-004 0. 0.
      7.46268663e-004 7.46268663e-004 0. 0. 2.98507465e-003 0. 0.
      7.46268663e-004 2.23880587e-003 2.98507465e-003 0. 7.46268663e-004
      0. 0. 0. 0. 0. 2.98507465e-003 2.23880587e-003 0. 0. 0. 0.
      7.46268663e-004 0. 2.23880587e-003 0. 7.46268663e-004
      2.23880587e-003 1.49253733e-003 0. 1.49253733e-003 7.46268663e-004
      1.49253733e-003 7.46268663e-004 0. 0. 0. 2.23880587e-003 0.
      7.46268663e-004 0. 7.46268663e-004 7.46268663e-004 7.46268663e-004
      7.46268663e-004 2.23880587e-003 7.46268663e-004 2.98507465e-003 0.
      1.49253733e-003 0. 1.49253733e-003 7.46268663e-004 0. 0. 0.
      3.73134343e-003 1.11940298e-002 0. 3.73134343e-003 7.46268663e-004
      0. 2.98507465e-003 1.49253733e-003 2.23880587e-003 7.46268663e-004
      7.46268663e-004 0. 0. 7.46268663e-004 1.49253733e-003
      1.49253733e-003 2.98507465e-003 3.73134343e-003 2.23880587e-003
      7.46268663e-004 2.23880587e-003 7.46268663e-004 2.98507465e-003
      7.46268663e-004 0. 0. 1.49253733e-003 2.98507465e-003
      8.95522349e-003 1.49253733e-003 1.49253733e-003 0. 0.
      2.23880587e-003 7.46268663e-004 2.23880587e-003 1.04477610e-002
      2.23880587e-003 0. 7.46268663e-004 0. 1.49253733e-003 0. 0.
      1.49253733e-003 7.46268663e-004 0. 0. 7.46268663e-004 0.
      7.46268663e-004 0. 1.49253733e-003 7.46268663e-004 2.23880587e-003
      8.95522349e-003 7.46268663e-004 1.49253733e-003 7.46268663e-004
      7.46268663e-004 2.23880587e-003 4.47761174e-003 2.23880587e-003 0.
      1.49253733e-003 0. 0. 7.46268663e-004 0. 7.46268663e-004
      7.46268663e-004 0. 0. 2.23880587e-003 0. 0. 0. 0. 2.23880587e-003
      7.46268663e-004 0. 0. 0. 7.46268663e-004 4.47761174e-003 0.
      7.46268663e-004 7.46268663e-004 2.98507465e-003 2.98507465e-003 0.
      2.23880587e-003 1.49253733e-003 0. 0. 0. 0. 7.46268663e-004 0.
      2.98507465e-003 1.49253733e-003 2.23880587e-003</_>
    <_>
      1.00150227e-003 2.00300454e-003 5.00751135e-004 5.00751135e-004
      1.50225335e-003 0. 1.00150227e-003 3.00450670e-003 1.00150227e-003
      3.50525789e-003 0. 1.00150227e-003 2.00300454e-003 1.00150227e-003
      2.50375574e-003 5.00751135e-004 1.00150227e-003 0. 2.00300454e-003
      0. 1.50225335e-003 5.00751135e-004 5.00751135e-004 1.00150227e-003
      0. 1.50225335e-003 2.00300454e-003 1.00150227e-003 1.00150227e-003
      5.00751135e-004 0. 0. 5.00751135e-004 0. 1.00150227e-003
      2.50375574e-003 1.00150227e-003 5.00751135e-004 2.00300454e-003
      1.50225335e-003 0. 5.00751135e-004 3.00450670e-003 1.00150227e-003
      5.00751135e-004 1.00150227e-003 1.50225335e-003 1.50225335e-003 0.
      5.00751135e-004 2.00300454e-003 5.00751135e-004 0. 2.00300454e-003
      2.50375574e-003 1.00150227e-003 5.00751135e-004 2.00300454e-003
      5.00751135e-004 1.50225335e-003 1.00150227e-003 1.00150227e-003
      1.00150227e-003 0. 3.00450670e-003 2.00300454e-003 0. 0.
      1.50225335e-003 1.50225335e-003 1.00150227e-003 0. 1.00150227e-003
      1.00150227e-003 5.00751135e-004 5.00751135e-004 0. 3.00450670e-003
      0. 5.00751135e-004 0. 0. 1.00150227e-003 2.50375574e-003
      1.50225335e-003 0. 0. 0. 5.00751135e-004 5.00751135e-004
      1.00150227e-003 3.50525789e-003 0. 5.00751135e-004 1.50225335e-003
      0. 2.00300454e-003 5.00751135e-004 1.50225335e-003 5.00751135e-004
      5.00751135e-004 5.00751135e-004 1.50225335e-003 2.00300454e-003 0.
      1.00150227e-003 0. 0. 1.00150227e-003 5.00751135e-004
      1.00150227e-003 5.00751135e-004 5.00751135e-004 0. 0. 0.
      2.50375574e-003 1.00150227e-003 0. 0. 1.50225335e-003
      1.50225335e-003 5.00751135e-004 5.00751135e-004 5.00751135e-004
      2.50375574e-003 1.50225335e-003 1.50225335e-003 1.50225335e-003 0.
      5.00751135e-004 2.50375574e-003 1.00150227e-003 0. 1.50225335e-003
      1.00150227e-003 0. 1.50225335e-003 5.00751135e-004 3.50525789e-003
      5.00751135e-004 0. 5.00751135e-004 5.00751135e-004 5.00751135e-004
      1.50225335e-003 2.50375574e-003 5.00751135e-004 1.50225335e-003
      5.00751135e-004 0. 0. 2.50375574e-003 5.00751135e-004
      2.50375574e-003 0. 2.00300454e-003 1.00150227e-003 1.50225335e-003
      2.50375574e-003 5.00751135e-004 1.00150227e-003 0. 5.00751135e-004
      2.50375574e-003 1.00150227e-003 1.50225335e-003 1.00150227e-003 0.
      0. 1.50225335e-003 0. 1.50225335e-003 2.50375574e-003
      1.00150227e-003 2.00300454e-003 2.50375574e-003 1.50225335e-003
      1.50225335e-003 2.50375574e-003 0. 5.00751135e-004 3.00450670e-003
      2.00300454e-003 5.00751135e-004 0. 5.00751135e-004 5.00751135e-004
      1.00150227e-003 0. 2.00300454e-003 5.00751135e-004 1.00150227e-003
      1.50225335e-003 0. 1.50225335e-003 1.50225335e-003 5.00751135e-004
      0. 1.00150227e-003 1.00150227e-003 0. 0. 2.00300454e-003 0.
      5.00751135e-004 5.00751135e-004 1.00150227e-003 3.50525789e-003
      3.00450670e-003 1.50225335e-003 5.00751135e-004 3.00450670e-003
      1.50225335e-003 5.00751135e-004 1.00150227e-003 5.00751135e-004
      5.00751135e-004 5.00751135e-004 0. 1.50225335e-003 2.50375574e-003
      2.50375574e-003 5.00751135e-004 0. 2.00300454e-003 5.00751135e-004
      0. 1.00150227e-003 2.00300454e-003 1.00150227e-003 0.
      1.00150227e-003 5.00751135e-004 5.00751135e-004 0. 2.00300454e-003
      1.50225335e-003 1.50225335e-003 2.50375574e-003 0. 5.00751135e-004
      5.00751135e-004 5.00751135e-004 0. 1.50225335e-003 5.00751135e-004
      5.00751135e-004 1.00150227e-003 2.00300454e-003 1.00150227e-003
      1.00150227e-003 0. 5.00751147e-003 1.00150227e-003 2.50375574e-003
      5.00751135e-004 1.00150227e-003 1.00150227e-003 4.50676028e-003
      5.00751135e-004 1.00150227e-003 1.00150227e-003 5.00751135e-004
      2.00300454e-003 1.00150227e-003 1.00150227e-003 0. 1.50225335e-003
      1.50225335e-003 1.50225335e-003 1.00150227e-003 0. 5.00751135e-004
      1.50225335e-003 1.50225335e-003 1.00150227e-003 2.00300454e-003
      1.50225335e-003 5.00751135e-004 0. 0. 1.00150227e-003
      1.50225335e-003 5.00751135e-004 1.00150227e-003 3.50525789e-003
      5.00751135e-004 1.50225335e-003 3.00450670e-003 1.50225335e-003
      1.00150227e-003 5.00751135e-004 3.50525789e-003 1.00150227e-003
      1.00150227e-003 1.00150227e-003 0. 1.00150227e-003 0. 0.
      1.50225335e-003 1.50225335e-003 0. 1.50225335e-003 1.00150227e-003
      5.00751135e-004 1.00150227e-003 5.00751135e-004 2.50375574e-003
